8 128
0 -0.279082 0.070968 -0.227025 0.036361 -0.005136 0.114013 0.029993 -0.247215 0.032035 -0.207050 0.205375 0.105117 -0.469493 -0.271198 0.037425 0.292353 0.094860 -0.170750 0.434499 0.024231 0.330554 0.046925 0.048453 -0.086966 0.073741 -0.419871 0.130797 0.124246 -0.025361 0.133049 -0.289286 -0.413434 -0.201740 -0.106833 -0.036223 0.092447 0.146177 0.059954 -0.233579 -0.214859 -0.361373 0.196970 -0.175192 0.294671 0.304316 0.056932 -0.106511 -0.072564 0.241424 -0.094007 0.322931 -0.409957 -0.149118 -0.111976 0.046345 -0.058158 0.157637 0.435993 -0.221967 -0.451068 -0.317733 0.121122 0.237394 0.029391 0.163462 -0.552958 0.011371 0.078658 -0.018203 -0.020817 0.160474 -0.093389 -0.110178 -0.138460 -0.145309 0.369977 -0.013142 -0.042319 0.197524 -0.558428 -0.016474 0.113051 0.163856 0.250093 0.131575 -0.151752 0.006209 -0.138077 -0.036768 0.431301 0.022992 -0.236746 0.198990 0.373955 0.159250 -0.024571 -0.033387 -0.245208 -0.045211 0.205934 0.092392 -0.295619 -0.049532 -0.162628 0.072645 0.063844 0.112325 -0.094629 0.065327 -0.229368 -0.004404 -0.017908 -0.221961 0.030641 0.156381 0.299852 0.186597 0.040618 -0.342204 0.197527 -0.073114 0.113745 -0.276793 0.037417 -0.238987 0.169701 0.145704 0.075839
1 0.042199 -0.307183 0.183050 0.099466 -0.107075 -0.119730 -0.353571 -0.009694 0.284532 0.094783 0.147466 -0.093559 -0.071974 0.278395 -0.010626 -0.029009 -0.233191 0.032611 -0.191266 -0.177114 -0.091695 0.286957 -0.004469 -0.077718 -0.292235 0.090565 -0.014799 -0.144885 0.150237 -0.452109 0.259976 0.286678 -0.025888 -0.440336 0.242844 0.030389 -0.010487 0.036419 -0.332323 0.116856 -0.171635 0.007829 0.140930 -0.128778 -0.088633 -0.397959 -0.059863 -0.022407 -0.345085 0.237591 -0.121281 -0.394791 0.157080 -0.059167 0.039973 -0.280428 -0.088182 0.479269 -0.044288 -0.150653 0.295493 0.239603 0.098489 -0.247753 0.020985 -0.052106 0.126637 0.042430 0.138183 -0.112018 0.058682 -0.001260 -0.040985 -0.069209 0.171757 -0.006473 0.501087 0.107254 0.164724 0.464597 0.083289 0.303051 -0.107922 -0.113999 0.185103 0.080004 -0.371536 -0.135323 -0.380707 0.273199 -0.260206 0.080803 0.050985 0.044690 0.047162 0.135543 -0.221392 0.169814 -0.161628 -0.100038 -0.164826 0.201928 0.207342 -0.202343 0.054217 -0.115913 -0.060193 0.145622 -0.109253 0.158373 0.248354 -0.076069 -0.013312 -0.475862 0.202896 0.373180 -0.521100 0.151685 0.041947 -0.115632 0.171667 0.124625 -0.064997 0.112779 0.256651 -0.109362 0.235916 0.135824
2 0.238522 -0.091244 0.002648 0.141333 0.131042 -0.236182 0.108368 -0.189112 -0.073715 0.057730 0.088355 0.240381 0.107569 0.092260 0.009134 0.040809 -0.103161 -0.008736 -0.302096 -0.025616 0.204988 -0.143381 -0.152302 0.164057 0.275637 -0.018956 -0.078182 0.027628 -0.183660 -0.303132 0.016640 -0.284231 -0.096270 -0.048335 -0.074789 -0.062726 0.257813 0.286724 -0.229019 -0.002173 0.144626 -0.050189 0.344058 -0.240726 -0.049184 0.199820 -0.045141 0.070700 0.081470 0.206887 -0.047259 -0.150553 0.009726 0.142267 -0.037202 -0.006833 0.143508 -0.143688 0.020144 -0.069594 0.556210 -0.298218 -0.079788 0.022428 -0.069676 0.291134 0.034224 -0.063415 -0.001428 -0.379712 -0.009965 -0.057939 0.035535 0.008782 -0.155348 -0.188286 -0.405372 0.226987 0.132789 0.007986 0.012621 0.100261 0.078334 0.066275 -0.066925 0.137328 0.470440 -0.207663 -0.256044 0.098689 -0.099241 0.100296 -0.019782 -0.130593 0.089223 -0.405295 0.083335 -0.810284 0.012071 0.432914 -0.163154 0.324249 0.255265 -0.062198 -0.044585 0.066387 0.021559 -0.124940 0.452578 -0.085092 0.162836 0.120390 -0.173519 0.030742 -0.165925 0.228519 0.026220 -0.179560 0.740515 -0.453127 -0.184456 0.129879 0.036720 0.237259 -0.237806 0.114200 0.030324 0.307551
3 -0.055938 -0.002354 0.080610 -0.236530 -0.193521 0.162293 0.017951 -0.031226 -0.113252 0.087351 0.018295 0.415070 -0.117419 -0.329818 -0.129089 -0.218835 0.058255 0.143278 0.201691 -0.213201 -0.028892 0.028084 0.014450 -0.035532 0.002255 -0.197443 0.167196 0.222333 -0.147179 0.065922 -0.162661 0.223566 -0.221944 0.175875 -0.088630 -0.119470 -0.272172 -0.137121 -0.054136 0.184090 0.046185 0.125399 -0.217621 0.092674 0.145051 0.035193 -0.460285 0.019480 0.375240 -0.065182 0.045907 -0.144358 0.133185 0.343766 -0.013566 0.113003 0.335980 0.202423 -0.209405 -0.452373 -0.372223 -0.000710 0.310844 -0.224020 0.193732 -0.334812 -0.039998 -0.072365 -0.038058 0.284607 0.050280 -0.244760 0.236761 -0.320215 -0.102983 0.289893 0.082539 -0.154801 0.113812 -0.352104 -0.367935 0.304251 0.288178 -0.051464 -0.043021 0.212073 -0.181377 -0.345120 0.050092 -0.112370 0.233188 -0.046227 0.290934 0.163366 -0.029141 -0.230539 0.114449 -0.118072 0.328988 0.072765 0.404119 -0.185126 0.579938 0.057628 -0.102828 0.035941 -0.053717 0.223206 0.077423 0.163165 -0.271924 0.159729 -0.007490 -0.078568 0.083750 -0.217715 -0.077177 0.036556 0.244822 -0.066087 0.159958 0.075152 -0.219466 -0.429213 0.055534 0.297639 0.243044 0.022536
4 0.277660 0.324360 -0.159604 -0.126708 0.109999 -0.111700 -0.266511 -0.280348 0.067876 -0.311879 0.295166 -0.324198 -0.190164 0.076264 -0.103652 0.009767 -0.134198 -0.144610 0.150433 0.001992 0.088350 -0.210851 0.014602 -0.154160 0.210516 0.072814 0.259927 -0.097476 -0.065856 -0.205375 0.049480 -0.124852 -0.317570 -0.240059 -0.053560 -0.137704 0.455681 -0.020984 0.263027 -0.101909 0.066623 0.017022 0.364670 -0.286658 0.148730 -0.126866 0.187295 0.015254 0.011267 0.038399 0.029358 0.099520 0.345431 0.036049 0.064602 0.119980 0.110270 0.025072 -0.008225 0.252623 0.299536 0.248163 0.290553 -0.074639 -0.264877 0.161565 -0.023413 0.091817 0.218789 -0.051194 0.275701 0.066812 -0.044100 0.007023 0.109159 -0.345171 -0.157209 -0.104917 0.025857 0.082330 -0.297182 0.019099 0.063282 0.349873 0.234795 0.189625 -0.063430 0.025255 -0.175984 -0.148372 -0.225897 0.075530 -0.175067 -0.081144 -0.063807 -0.025546 0.551469 -0.344379 0.322717 0.035824 -0.154359 -0.122178 -0.003031 -0.194061 -0.109024 0.331617 -0.014208 -0.165220 -0.461234 0.220397 -0.331673 0.262799 0.032079 -0.270179 -0.196252 -0.402333 -0.163035 -0.269057 0.179574 -0.161468 -0.258902 0.153981 0.321670 -0.028383 -0.208789 -0.061828 -0.131376 0.208272
5 0.219848 0.269742 -0.021601 -0.215642 0.043486 0.047380 0.165011 -0.097684 -0.042582 0.080562 0.109397 -0.205113 -0.178848 -0.142212 -0.185605 0.214802 -0.271804 0.291905 0.183071 -0.175187 0.074923 -0.234682 -0.234149 -0.137437 -0.068804 -0.000540 0.118467 0.171282 -0.073932 0.018159 -0.050523 -0.060382 0.250970 -0.035349 0.065258 0.096656 0.432647 0.093165 -0.082209 0.005573 -0.177503 -0.224677 -0.201467 0.082517 0.045931 0.360417 0.024610 -0.017378 -0.267877 0.341151 0.234028 0.397708 0.156919 -0.116839 0.091271 0.023793 0.057475 0.075275 -0.098958 0.068000 -0.087766 0.106254 -0.083349 -0.355210 -0.124010 0.029297 0.088487 -0.125370 0.397224 0.206041 0.381390 -0.088344 -0.045075 -0.138475 0.067412 -0.061990 0.235147 0.301768 0.238206 -0.142809 -0.027450 -0.119037 0.166120 -0.306037 0.364010 0.344343 0.339222 -0.030419 -0.008060 -0.042752 -0.109936 -0.263893 0.041387 -0.122737 -0.278299 -0.121983 0.318855 -0.072897 0.001750 0.033555 0.071581 0.043915 -0.193927 0.199328 -0.320357 0.219235 -0.179787 0.068128 -0.008482 -0.097138 0.094138 -0.051629 0.166328 -0.052806 -0.042971 -0.213300 0.190101 0.402698 0.175819 -0.324911 -0.160434 0.037844 0.240374 -0.267618 0.393743 -0.033612 -0.169922 0.020609
6 -0.100078 0.056913 -0.339018 -0.534393 0.182336 -0.064626 -0.150643 -0.212779 -0.255770 0.098480 -0.048426 -0.306928 -0.019344 -0.050861 0.226496 -0.292622 0.241808 0.123622 0.035931 0.157020 0.163797 0.463502 -0.135416 0.393294 -0.340456 -0.248769 -0.064862 -0.000579 -0.316994 0.241746 0.137096 0.261690 -0.111848 -0.127669 -0.236099 -0.181265 -0.010260 -0.027973 -0.364294 -0.136923 -0.021487 0.130850 -0.089356 0.273484 -0.153228 0.252971 -0.466663 0.191706 -0.454539 -0.083270 0.139742 0.150414 0.161431 -0.175894 -0.018614 -0.145145 -0.259331 0.212792 -0.340741 0.084947 -0.191695 -0.227289 0.337172 0.015101 0.211903 -0.015535 0.022531 0.108025 -0.163324 0.059134 -0.068891 0.185598 0.376120 0.361955 -0.097851 -0.033688 0.304867 0.258754 -0.084387 -0.549818 0.116523 0.132411 -0.095561 0.084740 0.010700 0.060680 -0.031939 -0.212680 0.134633 -0.261984 0.063965 0.031722 -0.190087 -0.255638 -0.029334 0.316259 -0.081757 0.212108 -0.057739 0.231810 0.327526 -0.022718 0.216120 0.198934 -0.175848 0.396242 -0.006979 0.102663 0.359904 -0.225349 -0.293586 0.292065 -0.295769 0.253363 0.276334 -0.154467 0.100620 -0.209546 0.086120 0.136418 0.130097 -0.072446 -0.228707 -0.371925 -0.531676 -0.112254 -0.117892 0.073408
7 -0.116642 0.043930 -0.018286 0.253108 0.391445 -0.331963 -0.378636 0.314606 0.347325 0.360052 -0.005317 0.133091 -0.376157 0.137032 -0.158931 -0.356819 -0.020706 0.109433 0.026180 0.278637 0.008999 -0.030906 -0.112599 -0.225929 -0.173666 0.243679 -0.227719 -0.070079 0.133762 0.115178 0.008624 -0.325266 0.328561 0.009411 0.197453 0.282540 -0.240087 0.069465 0.106171 0.016075 0.175796 0.037834 0.294004 0.507346 0.013802 -0.404877 0.084133 0.415308 -0.105388 0.006926 0.143817 -0.228482 -0.341406 0.191282 -0.331679 -0.242302 -0.082979 0.135485 0.073479 0.253817 0.325073 -0.229321 0.285866 0.108933 0.115774 -0.278993 -0.059829 -0.337422 0.052782 0.164926 0.139096 -0.268260 0.062900 -0.332715 0.034286 -0.126229 -0.033366 -0.253012 0.164552 0.233580 -0.087016 0.482207 0.104824 0.122163 0.085640 -0.039127 0.174490 0.128434 -0.358332 -0.036658 -0.047653 0.165143 -0.055214 0.083148 -0.178670 0.247258 0.137458 0.295937 -0.048771 -0.114890 -0.163351 0.087762 -0.360783 0.039717 -0.143107 0.182385 0.507493 0.000998 0.128610 0.114280 0.130471 0.314255 0.076248 -0.073704 0.318333 0.069035 -0.022336 0.265792 -0.053465 0.079333 0.329508 0.223293 -0.269955 0.274561 -0.093821 -0.154347 0.058725 -0.002432
