80 128
0 -0.004612 -0.069118 0.018732 -0.056731 -0.069278 0.059047 -0.005393 0.027028 0.166467 0.036411 -0.110470 0.040425 0.037315 0.051388 -0.113447 0.017767 0.036089 0.006866 -0.063934 -0.006580 -0.034043 0.031552 -0.019514 -0.071505 -0.008009 -0.056293 0.017862 0.052565 0.022591 0.083292 0.004290 -0.086363 0.077755 0.017700 -0.045225 0.002541 0.068244 -0.038889 -0.141061 0.083250 0.073316 -0.071459 -0.150773 0.000372 -0.037904 0.082881 0.061064 0.031981 0.120276 -0.014978 0.019826 -0.048908 -0.050176 0.006123 0.016595 -0.007960 -0.044321 0.015164 0.040779 -0.053424 -0.044794 0.006865 -0.054049 -0.142745 -0.053213 -0.027218 -0.026273 0.019654 0.001705 -0.027111 -0.036829 0.006684 -0.010432 -0.048171 -0.002851 -0.004820 0.101983 -0.076824 -0.072018 0.053781 -0.051946 -0.012997 0.025187 -0.060772 0.029739 0.007134 -0.018729 0.022673 0.041315 0.082211 0.076202 0.016996 -0.088305 0.022585 0.033396 0.033199 -0.056840 0.036621 -0.059808 0.064054 0.030831 -0.097547 0.014597 0.027981 0.034039 -0.031835 0.003632 -0.034128 0.011848 -0.092925 -0.082389 0.118327 0.028011 -0.126817 -0.103229 0.016597 0.010729 -0.045951 0.072890 0.005387 -0.038344 -0.050027 0.031224 0.026350 0.073864 0.045690 -0.006098 0.005660
1 -0.056207 -0.074158 -0.008864 -0.109193 -0.054033 0.088270 0.120689 0.008720 -0.035231 0.026945 -0.011064 0.110530 -0.019831 0.010925 -0.098307 0.005635 0.026184 -0.026354 -0.069322 -0.068915 0.027845 -0.015650 -0.056971 -0.151860 0.046202 0.041609 0.032566 0.013230 -0.017828 -0.006892 -0.115098 -0.042823 0.053269 0.087783 0.018809 -0.010083 0.013497 -0.024083 -0.040801 -0.029816 0.065978 -0.004032 -0.022907 -0.039747 -0.079513 0.024572 0.092639 -0.016068 -0.018722 0.029423 0.072340 0.086763 -0.059293 0.019478 0.037891 0.047433 0.079272 0.039820 -0.015481 -0.019052 -0.129540 -0.049460 -0.009934 -0.043696 0.006389 -0.025076 0.064822 0.066837 0.031006 -0.021958 0.031323 -0.148232 0.036417 -0.033836 0.013323 -0.079478 0.030968 -0.020966 -0.074802 -0.033795 -0.030362 -0.096960 -0.082543 -0.109461 0.006925 0.034249 0.033842 0.068125 0.060746 0.092160 -0.002921 -0.061923 -0.152208 0.077566 -0.062931 0.050519 0.010159 0.015625 -0.127107 0.035608 0.012058 -0.032821 -0.025473 0.000359 0.045476 -0.045469 0.056317 0.025838 0.029677 -0.056869 0.010982 0.104369 0.068382 -0.052688 -0.023639 0.016115 -0.049370 -0.001053 -0.000767 -0.040431 -0.033413 -0.039206 0.049546 0.020672 0.072458 0.034660 -0.000645 0.015067
2 -0.063576 -0.035912 -0.068198 -0.067475 -0.093029 0.170178 0.090833 -0.037338 0.065958 0.059341 0.065907 0.016685 0.061340 0.075576 -0.043362 0.014457 0.027137 0.036761 -0.192164 -0.030585 -0.062139 -0.046124 -0.029908 -0.018630 -0.015944 0.009780 0.033372 0.016575 -0.000650 -0.038313 0.017539 -0.090902 -0.017105 0.042298 0.001375 -0.045185 0.053216 0.077018 -0.032134 0.063288 0.034997 -0.047964 -0.098185 -0.010919 0.016563 0.005209 0.010439 -0.017364 -0.019901 0.061347 0.003151 0.061827 0.044616 0.084336 -0.005607 -0.013820 0.023837 0.031054 -0.009457 -0.030656 -0.067404 -0.037560 0.011099 -0.022515 0.033910 -0.026592 -0.038569 0.007746 -0.062502 0.081485 0.008109 0.045437 0.006713 0.043935 0.015943 -0.057170 0.045551 -0.079783 -0.159790 0.080814 0.004967 -0.086297 -0.008474 -0.078715 0.038416 0.027051 0.101013 0.023372 -0.006043 0.095274 0.087304 -0.038857 -0.061848 0.197045 -0.042187 0.095577 -0.027755 0.021588 -0.032678 -0.010583 -0.016474 -0.009539 0.031820 0.049573 0.045650 -0.019384 0.013342 -0.005470 -0.011934 -0.079556 -0.013813 -0.010316 0.080434 -0.020336 -0.067890 -0.000007 -0.040361 -0.046972 0.029241 -0.068705 -0.083493 0.058653 -0.017300 -0.090682 0.055138 -0.000578 -0.045580 -0.018234
3 0.091242 0.128703 -0.060874 0.065015 -0.130158 0.039991 0.055549 0.070307 -0.035481 0.029095 0.039379 0.030215 -0.055289 -0.033626 -0.021374 -0.025869 -0.016613 -0.001950 0.026199 -0.031293 0.084484 0.073638 0.014738 -0.060476 -0.014719 -0.061219 0.032177 0.044191 0.076575 -0.054048 0.039282 -0.103508 -0.024354 -0.042111 0.040212 0.030155 0.110027 0.132861 -0.004421 0.049694 0.060359 -0.086610 -0.012140 -0.059100 -0.091013 0.060833 0.078634 0.089826 -0.013303 0.042523 0.053218 0.076857 -0.099674 0.049742 0.004936 0.072733 -0.077289 0.000550 0.005341 0.049892 0.000694 0.007076 0.001279 -0.074696 -0.018861 -0.035916 0.075306 -0.045087 0.121785 0.064934 -0.007054 -0.018889 -0.063785 -0.035520 -0.110213 -0.064163 -0.002826 -0.037194 -0.023336 0.057977 0.010091 -0.064888 -0.032285 -0.022819 -0.063560 0.025331 0.012719 0.056771 -0.002199 -0.054022 -0.045404 0.010670 0.041285 -0.016573 -0.057679 0.017390 0.001530 0.068096 -0.105298 -0.087248 0.014023 0.066229 -0.019166 0.007442 0.022772 -0.030379 -0.038007 0.057242 -0.020776 0.058474 0.059349 -0.039847 0.096065 0.079977 -0.104199 -0.053944 0.057351 -0.028549 0.030986 0.057936 -0.053271 0.019481 0.056093 -0.016595 0.022028 0.115088 -0.002569 0.013669
4 -0.065305 -0.112937 0.065562 -0.023107 -0.025310 0.073027 0.056403 0.000298 -0.023883 0.129032 0.058211 0.029788 0.074709 0.012333 -0.058906 -0.005903 0.011285 -0.049679 -0.038640 -0.056204 -0.021251 0.015457 -0.054741 -0.021148 0.033209 0.014675 -0.035978 -0.020041 -0.078582 0.037865 -0.004357 0.028950 0.017215 0.105904 0.017059 0.025326 0.036910 0.024347 -0.094257 0.111937 0.043572 -0.067524 -0.034511 -0.065594 -0.022875 0.105810 0.029918 -0.014464 0.079315 0.087657 0.048669 0.011852 -0.040245 0.008873 0.004995 0.046417 0.047499 0.001862 -0.001974 0.090291 -0.094029 0.003679 -0.031824 0.059657 0.076353 0.008505 0.029980 -0.038293 0.065857 0.067100 0.014107 0.000657 0.025535 0.018287 0.064945 -0.010366 0.111410 -0.131032 -0.027552 0.011140 0.067793 -0.149807 -0.052976 -0.004073 -0.021842 0.010175 -0.046877 -0.035173 0.011710 0.045834 0.027780 -0.090497 -0.058270 0.125706 -0.080815 0.031234 -0.063826 -0.033197 -0.046178 0.030516 0.072536 -0.003878 0.042909 -0.009344 0.093280 0.027997 0.013650 0.001813 -0.006886 -0.080451 -0.025710 0.034178 0.077038 -0.048392 -0.028333 -0.039055 -0.063162 -0.043770 -0.053057 -0.036996 -0.062659 0.030389 0.027797 -0.029401 0.094113 0.032245 0.015105 0.001984
5 0.008485 0.090638 0.053772 0.044047 -0.056301 0.045741 -0.010266 -0.017721 -0.037648 -0.039026 0.035460 0.071907 -0.048561 -0.011802 -0.033759 -0.094353 -0.028176 0.020057 -0.091674 -0.028894 0.016421 0.021987 0.005428 -0.096822 0.037188 -0.096366 -0.044537 -0.004213 0.001580 -0.003086 0.106300 -0.066762 -0.058644 -0.058015 0.002038 -0.072010 0.067015 0.009969 0.125375 -0.014452 0.005604 0.029485 -0.021853 0.019937 0.074722 0.059533 -0.065513 -0.008587 0.016321 0.020781 -0.015156 0.012612 0.034483 -0.030300 -0.012564 0.003127 0.098763 0.017322 0.051231 0.040868 -0.088018 0.015028 -0.001938 -0.011740 0.050602 -0.047208 0.014626 0.029454 0.065820 0.013089 -0.017576 -0.073827 -0.069395 -0.085620 -0.112369 -0.035738 0.036126 0.094364 0.040097 0.005433 0.046831 -0.091520 0.081348 -0.065947 0.009455 0.014989 -0.008003 -0.048472 -0.112950 -0.045142 0.035288 -0.091862 0.057455 0.049236 -0.074220 -0.056116 0.015498 0.082263 -0.139973 -0.119210 -0.040566 0.000160 -0.022373 0.042463 0.107543 -0.018974 -0.082269 0.151942 -0.048938 -0.022961 0.000848 -0.003973 0.029597 0.027618 -0.165828 0.027256 0.048382 0.001548 -0.010508 0.012551 0.022038 -0.006644 -0.006584 -0.015409 0.100735 0.086663 0.034650 -0.076266
6 -0.031367 -0.101456 0.003630 -0.093424 -0.042452 0.074708 0.072113 -0.041701 -0.022590 0.023723 -0.128703 -0.007775 0.087922 -0.001339 -0.095956 -0.110261 -0.099952 -0.021991 0.001633 -0.062482 -0.032543 0.007208 -0.024810 -0.061919 -0.010715 -0.021522 0.002963 0.038743 -0.144312 -0.003697 0.031637 -0.100351 0.042747 0.140593 -0.000023 0.010169 0.059940 -0.038313 -0.006383 0.021944 0.155421 -0.030340 -0.067525 -0.009605 -0.063937 0.048588 0.042749 0.036159 0.107764 0.048005 0.022947 -0.009798 0.052714 -0.003322 0.009086 0.017548 0.049143 0.021765 -0.063596 0.050782 -0.010325 -0.044713 -0.085649 -0.072927 0.059705 -0.044234 0.054539 0.089249 0.036688 0.032650 -0.013161 -0.000305 -0.029440 0.052561 0.059152 0.000295 0.118992 -0.033602 -0.011200 0.006279 -0.000631 -0.070272 -0.060926 -0.120970 -0.066056 -0.044172 -0.060708 0.071280 0.006151 0.013986 -0.006747 -0.108435 -0.008865 0.050562 -0.067530 0.101524 0.042342 -0.053011 -0.080988 0.093126 -0.062889 0.062769 -0.041365 0.001415 0.054075 -0.023189 -0.019345 -0.002893 0.022306 -0.052642 0.027069 -0.000965 0.082245 -0.033051 -0.010363 0.010957 -0.001713 0.014981 0.039309 0.006159 -0.039068 -0.006786 0.015937 -0.011354 -0.004209 0.009656 -0.013455 0.063671
7 -0.137907 -0.081969 -0.089437 0.025748 0.022745 0.119913 -0.024394 -0.021283 -0.071863 0.061590 -0.063823 0.037813 -0.018671 0.056277 -0.100310 -0.016469 0.125172 0.014452 -0.109312 -0.022832 -0.005189 -0.075055 0.032313 -0.098072 0.047407 0.056829 -0.015610 0.112769 0.005059 0.054990 -0.014659 -0.104280 0.079932 0.001143 0.011523 0.067042 0.037615 0.038892 -0.039717 0.119434 0.034200 0.070763 -0.075854 -0.086102 -0.105239 0.029911 0.086741 -0.014793 0.047432 0.076639 0.050409 -0.016895 -0.050603 0.061354 0.040143 0.065003 0.089259 -0.037968 -0.056529 0.004206 -0.051304 -0.000550 -0.033398 -0.006642 0.052992 0.026455 0.095688 0.055053 0.014985 0.074128 0.079322 0.024337 0.040981 -0.107026 -0.022425 0.046035 0.160564 -0.071159 -0.033786 -0.018738 -0.066518 -0.065614 -0.054489 -0.064210 0.016685 -0.049422 0.012847 0.049755 0.038392 0.077845 -0.044486 -0.112234 0.049442 0.124072 -0.104732 0.003040 -0.031815 0.011081 -0.071892 0.082466 -0.023525 -0.040869 -0.096307 -0.050408 0.056659 0.016829 0.006387 -0.057986 0.011499 -0.045304 -0.001978 -0.026633 0.023217 -0.077358 -0.019618 0.055573 0.022797 -0.104723 0.037944 -0.075983 -0.026464 0.027316 -0.005510 0.048926 0.003814 0.011139 -0.017577 -0.050005
8 -0.032033 -0.045904 0.014373 -0.059165 -0.063487 0.014333 0.052644 -0.042215 0.032373 -0.039745 0.022687 0.062354 0.108668 0.017138 -0.049696 0.004846 0.044635 -0.001826 -0.043822 -0.064288 0.103871 -0.049909 -0.108671 0.002876 -0.010533 -0.015527 -0.019975 0.020918 0.056073 -0.085389 -0.019235 -0.064474 0.033800 0.083674 -0.065221 0.053547 0.057325 0.024233 -0.100945 0.082314 0.070942 -0.043924 -0.081591 0.011851 -0.021685 0.045558 0.018960 0.014248 0.026377 -0.040312 0.015161 0.107387 -0.005647 -0.017322 -0.053573 0.009858 0.030933 -0.040718 -0.054573 -0.001590 -0.118667 0.042323 -0.025045 -0.033737 -0.041605 -0.102808 -0.065890 0.037970 0.046270 0.018744 0.038540 -0.053095 0.010232 0.014962 0.019394 -0.021992 0.068058 -0.049339 -0.049241 -0.042567 0.031157 -0.077746 -0.000114 -0.108365 -0.005583 0.021704 -0.010939 -0.053367 0.038551 0.055308 0.045506 -0.030415 -0.216983 -0.005876 -0.092409 0.060508 -0.050743 -0.009092 -0.112316 0.037763 -0.033193 -0.068832 -0.047632 0.096773 0.103808 0.021417 -0.037124 0.017638 -0.034792 -0.057270 -0.011295 0.019394 0.026134 0.039183 -0.046034 -0.011061 -0.047220 0.025722 0.026378 -0.034433 -0.013518 -0.007886 0.029535 -0.024292 0.052205 0.141258 0.016468 0.000243
9 -0.069809 -0.008463 -0.064222 0.052452 0.004507 -0.034021 0.063478 0.024616 -0.023553 0.066005 -0.088130 0.027470 0.085919 0.062958 -0.093418 -0.030646 -0.004181 -0.049257 -0.089970 -0.052271 -0.010186 0.036499 -0.020218 -0.064326 -0.037312 0.006990 0.007884 0.050799 -0.007184 0.021110 0.038917 -0.142013 0.012767 0.113736 0.002984 0.037347 -0.021546 -0.015750 -0.083463 0.045384 0.073827 -0.005251 -0.061436 -0.026944 -0.026219 0.026812 0.001541 0.000696 0.076547 0.017145 -0.003043 0.036433 -0.077886 -0.019038 -0.058740 -0.046547 0.038076 -0.036604 -0.039181 0.038056 -0.002630 0.064752 -0.044059 -0.061362 0.033665 0.019325 -0.070766 0.105961 0.071954 0.089475 -0.047424 -0.123237 0.003142 -0.064797 -0.002488 0.044028 0.111168 -0.061903 -0.070111 -0.004218 0.005423 -0.102493 -0.048879 -0.057993 0.034974 -0.039709 0.006159 0.079985 -0.075143 0.076398 0.095457 -0.003044 -0.063649 0.091827 -0.065375 -0.007695 -0.039075 0.061559 -0.028476 0.051973 0.006589 -0.070759 -0.001411 -0.018680 0.021285 -0.011901 -0.052388 -0.049726 -0.020919 -0.068251 0.031390 0.001404 0.031663 -0.016904 -0.056545 0.028178 -0.040397 -0.085861 -0.038739 -0.095428 -0.060795 -0.012105 0.047777 -0.003751 -0.021830 0.048702 0.038471 -0.061500
10 -0.052509 0.114735 -0.038186 -0.006708 -0.151740 0.029917 -0.022038 -0.023997 0.004520 -0.000404 -0.023940 0.071817 0.034678 -0.078987 -0.027770 0.032016 -0.011885 -0.076856 0.023573 0.064534 0.051013 -0.051359 0.071933 -0.071542 0.022684 -0.125976 0.045866 0.085512 0.094227 -0.008086 0.042359 -0.076542 -0.056466 -0.079577 0.029473 0.015989 0.019972 0.015550 0.031934 0.040688 0.040752 -0.079040 0.028703 -0.065085 0.041568 0.007742 -0.023900 0.022512 0.044783 -0.007644 0.004903 0.033927 0.029203 -0.014338 -0.011519 0.044321 -0.032407 0.119677 0.040687 0.001943 0.023202 -0.010976 -0.035778 -0.010839 0.036305 -0.018681 0.021147 -0.108695 0.040126 -0.024259 -0.106605 -0.097709 -0.061677 -0.027438 0.001221 0.041185 0.010787 -0.052539 -0.021314 -0.052789 0.050090 -0.047098 0.015462 -0.015982 -0.115539 0.021266 -0.010796 0.054363 -0.017678 -0.048471 0.019950 -0.049714 -0.021676 -0.007937 -0.023852 0.034355 -0.041431 0.028016 -0.107010 -0.111969 -0.022590 -0.116801 -0.036150 0.043723 0.028773 -0.065483 -0.070824 0.079226 0.018086 -0.018273 0.000926 -0.040100 0.010278 0.014796 -0.063113 0.029711 0.017454 -0.017211 -0.065548 0.083007 -0.003723 -0.087103 0.072742 -0.013258 0.060074 0.024334 0.043345 -0.037560
11 -0.089086 -0.077959 -0.147457 0.012098 -0.068670 -0.007124 0.054793 -0.061754 0.020542 0.058455 0.028676 0.137807 0.035526 0.034468 -0.098161 0.023991 -0.025828 -0.001290 -0.012170 0.009700 -0.128560 -0.144355 0.001357 -0.029979 -0.041386 -0.073652 -0.006187 0.105850 -0.025307 0.009154 0.004600 -0.030443 -0.048529 0.141268 -0.024494 -0.021659 0.124117 -0.038938 0.004523 -0.000634 0.114383 -0.049847 -0.102215 -0.104825 -0.058800 -0.002020 0.162931 0.044842 -0.021267 0.040886 0.030552 -0.038385 -0.033063 -0.014754 0.072265 -0.001799 0.007583 0.056312 -0.060493 0.034712 0.037721 -0.045468 0.026244 -0.082567 -0.047593 -0.028219 -0.058342 -0.007654 0.034111 -0.001240 -0.011765 0.059628 -0.055716 -0.036029 0.070923 0.063894 0.015480 -0.031471 -0.014278 -0.007143 -0.011432 -0.120164 -0.062449 -0.093792 0.046621 0.014970 -0.001662 0.064824 0.074579 0.087087 0.112753 -0.083970 -0.039720 0.024993 -0.062559 -0.002950 -0.009657 -0.075781 0.003488 0.090392 0.042496 -0.012228 -0.019401 -0.030762 -0.004679 -0.001063 -0.046316 -0.007970 0.021140 -0.031876 -0.064737 0.101081 0.010405 0.022147 -0.117858 -0.018978 0.014111 0.003173 0.040342 0.078997 -0.034332 0.007982 0.076962 -0.017502 0.142785 0.044475 0.015725 0.014905
12 -0.088941 -0.127836 -0.041223 -0.083229 -0.032475 -0.035933 0.052138 -0.051276 -0.037110 -0.020246 -0.137249 0.021237 0.052758 -0.045412 -0.042482 0.033964 0.013382 -0.071455 -0.019037 0.036459 -0.048863 -0.023250 0.012188 -0.034326 -0.023452 -0.003908 -0.026633 -0.043254 0.004355 -0.032083 -0.035822 -0.071870 0.011410 0.057098 -0.060042 -0.028097 0.101229 -0.034466 -0.006200 0.015852 0.100117 -0.105520 -0.056639 0.020468 -0.077506 0.023290 0.017784 0.062471 -0.013258 0.063426 0.036306 0.017537 -0.001697 -0.006468 -0.033956 0.075757 -0.014678 -0.045552 -0.091252 0.053298 -0.070780 0.026072 -0.024898 -0.118863 0.104195 0.002675 -0.000806 0.028968 0.068035 0.099314 -0.010763 0.007985 0.110637 0.057602 0.006214 0.004518 0.078793 -0.008047 -0.140211 -0.064817 0.023774 -0.040625 -0.092739 -0.160043 -0.026708 -0.065711 -0.073919 0.043009 -0.040921 0.088333 0.085636 0.047753 -0.065013 0.048552 -0.026914 0.041271 0.063097 -0.001621 -0.092326 0.013465 -0.012258 -0.060205 0.001271 -0.009528 0.004477 -0.006857 -0.033107 -0.130767 -0.097116 -0.042913 -0.003293 0.005276 0.118837 -0.025443 -0.020993 -0.032357 -0.061503 -0.026573 0.044859 -0.121560 -0.007541 -0.011417 -0.016467 -0.040019 0.064318 0.071048 0.013304 -0.065589
13 -0.036483 0.079978 0.050658 0.014042 -0.111932 0.031372 -0.115739 -0.024652 0.011470 0.055146 0.012656 0.089965 0.019558 0.005430 -0.057101 -0.026575 0.029552 0.018188 0.016354 0.058307 -0.024491 0.025354 0.042131 -0.037121 0.017747 -0.065496 0.005976 -0.058894 -0.023417 0.000441 0.085446 -0.057910 0.097224 -0.063086 -0.031010 -0.008878 0.056180 0.011460 -0.021375 -0.014976 0.034057 -0.083918 -0.033024 0.029242 0.051730 0.011689 -0.134913 -0.007417 0.002913 -0.003843 -0.061378 0.060606 -0.072692 0.049269 -0.028701 0.083130 0.029005 0.056201 0.050827 0.089715 -0.045395 -0.040394 0.055262 0.042880 0.036411 -0.004771 0.011707 -0.103376 0.062103 0.168535 -0.044593 0.072228 0.006208 -0.063177 -0.117913 -0.011775 0.014844 -0.067285 -0.060669 0.069184 -0.034674 -0.011765 0.068521 0.016680 0.010188 0.006757 -0.037134 -0.014928 -0.070938 0.017971 -0.047906 -0.038784 0.001883 0.066614 -0.019725 -0.023361 0.007375 0.008077 -0.109019 -0.061780 -0.087168 -0.050138 -0.021702 -0.061549 0.025852 -0.075587 -0.036853 0.089645 0.016305 0.030576 0.101813 0.010697 0.038266 0.036404 -0.078808 -0.040632 -0.054430 -0.071942 -0.031453 0.017018 -0.056382 0.014605 0.105106 -0.038622 0.104993 0.065544 0.109538 -0.040854
14 -0.117241 -0.085331 -0.090529 0.018235 -0.057427 0.069136 0.110631 0.003025 -0.044194 0.050495 -0.122492 -0.011625 0.066216 0.076879 -0.091744 0.018066 -0.011427 -0.007784 -0.015701 0.014641 -0.000607 -0.022990 -0.085931 0.026490 -0.004739 0.043906 -0.074211 0.019693 -0.003304 0.084893 0.066470 -0.093453 -0.020214 0.031355 -0.005718 -0.032663 0.126321 -0.016171 -0.015098 0.056883 0.040743 -0.021505 -0.067703 -0.042299 0.042664 0.048504 0.029202 -0.048341 0.046346 -0.059535 0.021299 -0.012105 -0.004713 -0.007859 0.018623 0.030971 -0.017032 -0.011600 -0.027367 -0.016660 -0.010848 -0.032812 -0.071840 -0.098320 0.073204 -0.019847 0.063337 0.011000 -0.014886 0.020190 0.036206 -0.069748 -0.008591 -0.122012 -0.011180 0.017522 0.126273 -0.010980 -0.125138 0.046984 0.059113 -0.104669 -0.058762 -0.071537 0.008831 0.016618 -0.083382 0.092619 0.002576 0.044497 -0.000072 0.035455 -0.096875 0.092808 -0.041606 0.018877 -0.104636 -0.027136 -0.080362 -0.005095 0.017809 0.048868 -0.136477 0.000638 0.034048 -0.049359 -0.043076 0.028092 0.070009 -0.049341 -0.014290 0.020147 0.011226 0.005593 -0.023500 0.089687 -0.052391 -0.007661 0.048412 -0.001817 -0.037333 -0.072068 0.030550 0.100502 0.036513 0.014317 -0.035135 -0.005030
15 0.051824 0.085987 0.099707 0.085716 0.003957 -0.002215 0.016526 -0.060590 0.026017 0.056030 -0.060782 0.115517 -0.063139 -0.014659 -0.079091 -0.065279 -0.023421 -0.097406 -0.057632 -0.018944 0.034499 -0.082537 -0.052322 -0.008205 0.014255 -0.126874 -0.022995 0.016408 0.077781 -0.010811 0.040486 -0.034624 -0.042349 -0.045961 0.046141 -0.026041 -0.030643 0.070736 0.010104 0.023698 0.027358 -0.047419 -0.001409 -0.008602 0.005401 0.025223 0.006509 -0.061572 0.013303 0.003520 0.068112 -0.023435 0.083320 0.011075 0.070065 0.030666 0.046087 0.047894 -0.016367 0.032095 -0.073493 0.021014 0.011679 0.011060 -0.012849 -0.012151 0.117971 -0.052478 0.119317 -0.012419 -0.062705 0.084460 -0.021779 -0.017032 0.002919 0.033296 -0.038568 -0.041129 -0.015502 0.039349 0.071918 -0.040421 0.065870 0.016620 -0.080142 0.017094 -0.094478 -0.132472 0.000679 0.006946 0.061354 -0.091068 0.029160 -0.005303 -0.036010 -0.041187 -0.023575 0.128655 -0.075233 0.009623 -0.025076 -0.011280 0.064869 -0.064564 0.004355 -0.069046 -0.021765 0.098929 0.036208 -0.036882 0.006541 -0.106500 0.063525 0.045852 -0.120539 -0.083199 0.081119 -0.067798 0.030009 0.040164 -0.010167 0.033443 0.013761 0.035539 0.046549 0.076441 0.010956 -0.106093
16 0.010349 0.093811 0.018910 0.082838 -0.033161 0.037669 -0.033288 -0.026548 0.021004 0.037474 -0.006930 0.083283 0.006478 0.042371 -0.113637 -0.057040 -0.079374 -0.030498 0.034596 0.041976 0.023480 -0.098071 -0.040683 -0.117933 0.072682 0.000193 -0.102466 -0.053689 0.111025 0.010800 0.014016 -0.063569 0.001990 -0.066889 0.010233 0.043513 0.009557 0.069732 -0.029811 0.062766 -0.012910 -0.123651 0.003598 0.026519 0.081433 -0.054148 -0.097329 0.030879 0.006420 -0.032891 0.031036 0.073303 -0.035017 0.037650 -0.004883 0.016605 -0.016568 0.103816 -0.056863 0.069607 -0.087798 -0.078116 0.001056 0.004770 0.072456 -0.056803 0.008248 -0.033416 0.074506 0.004092 -0.124404 -0.022385 -0.001716 -0.045166 -0.018188 0.004214 -0.020085 0.112324 -0.083180 0.026114 0.012998 -0.023527 0.060526 0.006528 -0.086375 -0.020266 -0.003380 0.009418 0.005418 -0.069188 -0.065368 0.011572 0.005496 0.061095 -0.022383 -0.056216 -0.009917 0.177529 -0.118073 -0.051292 0.075418 0.021105 -0.008388 0.027317 -0.002328 -0.026111 -0.044547 0.093475 0.027903 -0.028170 0.046574 -0.043830 -0.007264 -0.018852 -0.143999 0.050839 0.045343 -0.050154 -0.098148 -0.029310 0.000482 -0.021326 0.030961 -0.088469 -0.005945 -0.018118 -0.044208 -0.090567
17 0.007437 0.122291 -0.014774 0.013465 -0.046196 0.023983 -0.024194 -0.068775 -0.009292 0.058084 -0.049430 0.093915 -0.064909 -0.039964 0.019651 -0.028148 -0.099176 0.000386 0.039157 0.055537 0.016455 0.053548 0.028691 -0.022003 0.020936 -0.123128 -0.059902 -0.080895 0.101182 0.004522 0.114817 -0.009974 -0.028700 -0.060566 0.013600 0.032831 -0.021477 0.046289 0.079616 0.041629 0.060615 -0.083515 -0.010741 -0.046284 -0.011734 0.047001 -0.012258 0.050673 0.069782 0.029890 0.012549 -0.060759 -0.009374 0.011310 -0.048193 0.025659 0.023110 0.061651 -0.010339 0.014223 -0.120025 -0.063862 -0.032722 0.084570 0.032771 -0.002855 0.016430 -0.064062 0.138751 0.020919 -0.026025 -0.054252 -0.011573 0.040880 -0.045541 -0.056051 -0.037874 0.036419 -0.116740 -0.037869 0.062613 -0.058201 0.052947 0.038229 -0.050906 -0.017518 0.042147 0.015782 -0.026759 -0.009014 0.010289 0.026382 0.006979 -0.012285 -0.026574 -0.055553 -0.075766 0.196813 -0.031085 -0.075784 0.024142 0.056514 0.027636 0.031806 0.011401 -0.022765 -0.086010 0.006117 -0.056729 0.014520 0.054408 -0.020676 0.025964 0.046906 -0.051657 -0.037380 0.021489 -0.025613 -0.043414 -0.015923 -0.005579 -0.031411 0.084836 -0.020019 0.020529 0.062751 0.072926 -0.098733
18 0.020201 0.136203 0.083363 0.120154 -0.032413 0.042793 -0.031278 0.022192 0.038543 -0.011832 0.010051 0.086582 0.016704 -0.051364 -0.035549 -0.041801 -0.114896 -0.056560 -0.017599 -0.012303 0.088777 -0.018989 0.029827 -0.087849 0.004187 0.026153 0.024977 -0.021954 0.149427 0.001803 0.083533 -0.059695 -0.030561 0.007044 -0.003987 -0.032504 0.064193 -0.021924 0.013795 0.070183 0.071195 -0.065377 -0.010917 -0.110616 0.102798 0.017670 -0.052757 0.036604 -0.011856 -0.050367 -0.023771 -0.001247 -0.005694 -0.019125 -0.005213 -0.003348 0.073956 -0.004254 -0.034839 0.016628 -0.156237 -0.019724 0.019640 0.007644 0.124181 -0.002898 0.047514 -0.084887 0.064382 0.119129 -0.086122 -0.036084 0.004472 0.020060 -0.101831 -0.007244 0.038945 -0.066022 -0.074877 -0.008393 0.074950 -0.022856 -0.065330 -0.026111 -0.062744 0.004852 -0.006551 0.007218 -0.001851 0.100275 -0.055762 -0.027521 0.055517 -0.018529 0.022667 -0.087673 -0.052014 0.098491 -0.092069 -0.000634 0.007714 0.027348 -0.040461 -0.032641 -0.016437 -0.009622 -0.022520 0.131400 -0.057301 0.080807 0.056155 -0.033717 -0.009957 0.045996 -0.046862 -0.038229 -0.045966 -0.045902 -0.030939 -0.083050 0.012217 -0.098451 0.010097 -0.005579 0.062784 0.054192 0.006069 -0.063378
19 0.040235 0.045775 0.009675 -0.009303 -0.023253 0.022318 -0.025533 -0.040572 0.015160 0.011858 -0.033592 0.069112 -0.048687 0.022718 -0.093926 0.004590 -0.066757 -0.031463 0.102983 0.093715 0.012513 -0.018793 0.085130 -0.016097 0.049726 -0.052964 -0.073567 -0.070489 -0.009063 0.015257 0.047475 -0.074716 -0.007779 0.006387 -0.009948 -0.114390 0.096455 -0.005928 0.068797 0.021124 0.152278 -0.042177 0.072691 -0.048355 -0.011154 -0.015067 0.004686 0.001591 0.025562 0.024582 0.038814 0.005196 -0.051948 0.077562 0.011979 0.029207 -0.064671 0.021008 -0.018235 0.057040 -0.053825 -0.065140 0.004178 0.122094 0.037253 -0.128002 0.037584 0.013199 0.050417 0.021822 -0.055761 -0.047317 0.034654 -0.043656 -0.125569 0.049137 0.019167 -0.038096 -0.073964 -0.005984 0.060966 -0.019497 0.106510 0.049748 -0.053396 0.010126 -0.092846 0.007015 -0.026694 -0.082505 0.026754 -0.018816 0.045220 0.000795 0.003501 -0.040772 -0.014077 0.113744 -0.054226 -0.079797 -0.007657 -0.054834 -0.066619 0.045799 -0.021682 -0.155125 -0.043782 0.065310 -0.083137 0.034904 0.003763 0.016299 0.020674 0.001953 -0.064287 0.035289 0.060422 -0.107942 -0.009210 0.000255 0.000325 -0.001738 0.093031 -0.015769 0.013640 0.067070 -0.026887 -0.043575
20 0.013853 0.168966 0.054867 0.028456 -0.060073 0.041400 -0.000942 -0.026777 0.007113 0.006817 -0.036655 0.088896 0.008312 -0.052260 -0.048148 -0.076975 -0.134516 -0.048100 -0.010749 0.066236 -0.019341 0.042599 -0.030811 -0.003421 0.007768 -0.085085 -0.061908 -0.039814 -0.062551 -0.061496 0.048850 -0.070924 -0.061236 0.025246 -0.012934 -0.060023 0.096308 0.094017 0.067063 -0.042014 0.036752 -0.021890 -0.015487 -0.035215 0.037338 0.109808 0.044163 -0.009916 -0.016217 -0.051647 0.113653 0.015938 0.071686 0.031493 0.007737 0.032866 0.004993 0.075845 -0.081325 0.064568 0.034546 -0.042611 -0.058673 -0.018146 0.044702 -0.085172 0.112594 -0.012344 0.011705 -0.034338 -0.080845 0.064533 0.014765 -0.035061 0.000283 0.012120 0.043375 0.053026 -0.087650 -0.002794 -0.005775 -0.041660 0.035994 -0.003258 -0.097075 0.000244 -0.088043 0.049654 0.017584 -0.028982 -0.095396 -0.016797 0.001050 0.004075 0.024066 -0.122442 -0.046041 0.030789 0.000703 0.037916 0.028424 0.030420 -0.021555 0.046154 0.012564 -0.110290 -0.034825 0.037663 0.018657 -0.010829 0.116632 -0.046857 0.087819 0.017363 -0.096093 -0.027708 0.068567 -0.032152 -0.028510 -0.010902 0.009302 -0.073696 0.099570 0.049468 0.030839 0.034002 0.059695 -0.097586
21 -0.098942 -0.084654 -0.036673 0.014298 -0.045978 0.056637 0.090017 -0.034828 0.044151 0.072694 -0.081558 -0.016732 -0.007556 0.104130 -0.033468 0.042083 0.015138 -0.067362 -0.019103 -0.050095 -0.018876 -0.064009 -0.033588 -0.147502 -0.037650 0.016972 -0.024574 0.005760 0.094893 0.092258 0.074347 -0.058780 0.060707 -0.008076 -0.004104 0.045666 0.077797 0.129517 -0.105307 0.030190 0.090513 -0.054039 -0.102315 -0.039578 -0.039967 0.054882 0.039752 0.033072 -0.002553 0.034273 0.087728 -0.000220 -0.079216 0.036228 -0.014026 0.010203 0.034787 -0.026510 -0.013375 -0.006926 -0.086733 -0.023177 -0.046523 -0.047534 0.084427 0.028490 -0.050244 0.051303 0.053034 0.011648 0.067280 0.002328 0.071547 -0.060007 -0.000384 0.024816 0.011779 0.018405 -0.059811 -0.065561 0.056794 -0.123504 0.000127 0.005516 0.039123 -0.048953 -0.094533 -0.020738 0.065249 0.076705 0.060489 0.018417 -0.052639 -0.010650 -0.035800 0.018379 0.019365 0.050213 -0.065864 0.009619 -0.051713 -0.001236 -0.032376 0.008215 0.019439 0.027960 -0.136327 -0.117459 -0.071584 -0.047406 -0.042272 -0.060105 0.028264 -0.016919 -0.087779 -0.030797 -0.005626 -0.071557 0.050351 -0.053392 -0.022328 -0.079746 0.049152 -0.074675 -0.030257 0.112499 -0.028278 0.013510
22 -0.084889 -0.046612 -0.029146 -0.029548 -0.085946 0.007038 0.097367 0.041167 -0.033701 -0.029318 -0.031094 0.037600 0.035468 0.025815 -0.053458 -0.016545 -0.032464 0.027148 -0.024011 -0.027528 0.003133 -0.006577 0.004390 0.015446 0.021021 -0.023060 -0.019310 0.027634 0.005028 -0.018991 0.039982 -0.091870 0.083711 0.056150 -0.047918 0.042204 0.106447 -0.012162 0.024236 0.024677 0.109293 -0.060840 -0.069710 -0.079764 0.027325 0.039788 0.064080 0.031150 0.042164 0.042284 -0.066906 0.109948 -0.005135 -0.004879 0.043251 -0.047522 0.083126 0.006008 -0.012596 -0.007757 -0.058077 -0.044930 0.019278 -0.033766 -0.000719 0.016285 -0.037735 0.089386 0.027275 0.028911 0.049726 -0.029879 -0.006646 -0.040553 -0.013595 -0.030308 0.054781 -0.027282 -0.072271 -0.066589 0.019903 -0.082572 -0.049013 -0.077000 0.090203 -0.058286 -0.048809 -0.031230 -0.007779 0.085776 0.049702 -0.007601 -0.053778 0.041252 -0.138528 0.046206 -0.066527 0.024155 -0.026479 0.014569 0.042060 -0.012300 -0.062700 -0.015665 0.007526 0.009485 -0.071307 -0.022208 -0.022551 -0.067336 0.068674 -0.019025 0.001485 0.023734 -0.094861 0.030825 -0.005199 -0.028995 -0.025004 -0.045494 -0.118462 -0.085879 0.005431 0.002929 -0.039255 0.002846 -0.120016 -0.038287
23 -0.054974 -0.066477 0.036193 -0.136458 0.011024 0.061955 0.096678 -0.030570 0.017509 0.024689 -0.093355 0.019167 -0.010397 -0.001726 -0.025078 0.031497 0.030055 -0.053171 -0.082800 -0.100954 -0.024346 -0.027919 -0.059122 0.022207 0.012635 0.053892 -0.009268 0.118753 0.022666 0.029623 0.063439 -0.059478 0.085823 0.005694 -0.015084 0.079583 0.054215 -0.067762 -0.064232 0.013147 0.119498 -0.070676 -0.076057 -0.033060 -0.106158 0.044542 0.022838 0.050514 0.134630 0.048017 0.043851 0.036351 -0.013994 0.087353 -0.013655 0.003902 -0.094964 -0.030150 -0.003337 0.021640 -0.129057 -0.054234 0.015614 -0.131656 -0.014119 0.002502 -0.006211 -0.010510 0.074134 0.085617 0.035878 -0.040060 -0.017300 -0.065447 0.013766 -0.005011 -0.005262 -0.038374 -0.028152 0.004367 0.063546 -0.089870 -0.039784 -0.083143 0.050161 0.057255 0.017104 0.035859 -0.030660 0.022699 0.072711 -0.001261 -0.040202 0.065887 0.002615 -0.017673 0.026832 -0.030507 -0.059397 -0.012380 -0.083793 0.032473 -0.001277 -0.023470 -0.065695 0.024360 -0.007922 0.056042 -0.025172 -0.069383 0.000829 0.003231 0.053154 -0.051849 -0.045819 -0.015964 -0.048356 -0.002901 0.118067 -0.056450 -0.062891 0.005399 0.019466 -0.003330 0.069544 0.103112 0.027018 -0.014596
24 0.016889 0.069207 0.011715 -0.000362 -0.026741 0.010328 -0.044039 -0.024503 -0.039665 0.031935 -0.078013 0.099776 -0.005186 -0.010487 0.005560 -0.118839 -0.131618 -0.079631 -0.036362 0.003784 -0.017018 -0.100463 -0.026501 -0.002712 0.186620 -0.087848 0.005033 -0.019189 0.017017 -0.009074 0.049721 -0.091698 -0.052880 0.043578 -0.000934 -0.013063 -0.026232 0.113287 0.030769 -0.008406 0.010753 -0.051549 -0.020155 0.016551 -0.095164 0.084631 -0.018845 0.103225 0.047943 -0.047137 -0.016988 0.111421 -0.043048 -0.065140 -0.031625 -0.089172 0.054869 0.094816 -0.051150 0.095865 0.026073 -0.053403 0.025409 0.045307 -0.084697 -0.049193 0.053796 -0.123173 0.090180 0.068309 -0.003634 -0.096729 -0.094244 -0.031033 -0.168110 -0.018691 -0.072611 0.019403 -0.099282 -0.005782 0.061530 -0.035402 0.007835 -0.032141 -0.065646 -0.035452 0.004695 -0.015792 0.012411 -0.030526 -0.056649 -0.037631 0.002142 -0.006766 -0.098571 -0.043156 0.066613 -0.000775 0.019776 -0.106021 0.005460 -0.020251 0.009684 -0.012509 -0.002713 -0.043455 -0.020741 0.048282 -0.000214 -0.041355 0.021931 -0.054157 0.058960 0.032211 -0.039359 0.004974 0.014843 -0.040268 -0.022951 -0.079443 -0.066449 0.015032 0.103623 0.033222 0.098597 0.018126 -0.004967 -0.087440
25 -0.069857 -0.077402 0.002363 -0.092223 -0.078418 0.131155 0.141011 0.017059 -0.034524 0.019502 -0.104685 0.012444 -0.092433 0.004141 -0.130940 -0.056476 0.040124 -0.004632 -0.009746 -0.068147 0.008117 -0.060614 -0.088084 0.014848 0.005528 -0.023876 0.003102 0.032483 -0.006786 -0.024250 0.101823 -0.099378 0.044918 0.026565 0.045738 0.019086 0.002351 0.054932 -0.023413 0.028302 0.031160 -0.145538 -0.108054 -0.056337 0.075764 0.089637 0.037186 -0.036411 -0.001755 0.050367 -0.044210 0.017153 -0.060582 -0.017848 -0.065028 -0.013726 -0.026654 -0.009481 -0.102362 0.010698 -0.010432 -0.006764 -0.048842 -0.005053 0.046512 -0.044220 -0.009172 0.078240 0.072111 0.016285 0.023401 -0.120476 -0.031839 -0.001697 0.040809 -0.041827 0.110570 0.018454 -0.039357 0.037887 0.097672 -0.051680 -0.077918 -0.093594 0.016021 -0.058138 0.005236 0.052408 0.054732 -0.006214 0.092262 -0.080578 -0.024112 0.035725 -0.085345 0.051372 0.002707 0.035523 0.162741 0.025853 -0.047012 0.006161 0.098051 -0.031797 -0.006030 0.005343 0.001348 -0.055575 -0.060161 -0.003883 -0.067781 0.085751 0.042716 -0.094668 -0.034679 0.045344 -0.015634 -0.056706 -0.032313 -0.085188 -0.056079 -0.039072 0.078707 -0.090821 0.027045 0.038686 0.026987 -0.022375
26 0.097160 0.154273 -0.051036 0.083079 -0.009013 0.051368 -0.050047 -0.037874 0.007199 -0.026622 -0.022965 0.113578 -0.037767 -0.018720 -0.063541 -0.037437 -0.018317 -0.060094 -0.062490 -0.055570 0.042805 0.000615 0.076892 -0.042560 0.003189 -0.005764 -0.087556 -0.040070 0.090109 0.000223 0.102550 -0.119237 0.085248 -0.027369 0.007625 0.008237 0.151912 0.024245 0.049288 0.054369 0.023303 -0.052358 -0.007903 -0.017885 -0.035869 0.006734 -0.045054 -0.005138 0.033826 -0.023969 0.036301 0.063486 -0.044950 -0.045498 -0.062104 -0.009906 0.124200 0.076732 -0.004064 0.070110 -0.003162 -0.002841 0.006300 -0.035428 0.020263 -0.031711 0.075005 -0.061728 0.008707 -0.029799 -0.068825 -0.053637 -0.037422 -0.044758 -0.059589 -0.002793 -0.001685 -0.014572 -0.042448 -0.075855 0.078086 0.045823 0.084856 0.046420 -0.006922 0.099881 0.086971 -0.024291 0.049554 0.022962 0.024142 0.025768 -0.051258 0.001375 -0.088142 0.008185 0.038964 0.011434 -0.112738 -0.082519 -0.008595 -0.001526 -0.081716 -0.001340 -0.005702 -0.020984 -0.038086 -0.025362 -0.040957 0.068170 0.084327 -0.002126 -0.052619 0.004546 -0.085844 0.072255 0.020087 -0.018563 -0.027100 0.027654 0.061631 0.008922 0.067090 0.032745 0.154495 0.113063 -0.013509 -0.158028
27 -0.078581 -0.003802 -0.013404 -0.034616 -0.068854 0.068898 0.016140 -0.022759 0.051332 -0.015532 -0.036874 0.013619 -0.022734 0.010363 -0.146332 -0.041241 0.057589 -0.015600 -0.027236 -0.072920 -0.052340 -0.022884 -0.046944 -0.081097 0.024025 0.016331 0.089855 0.012211 0.063811 -0.024111 0.009631 -0.118910 -0.006899 0.021985 0.073987 -0.049812 0.030147 -0.059648 -0.077522 -0.075086 0.042873 -0.093371 -0.085358 -0.083412 -0.003936 0.095140 0.056175 -0.020727 0.035137 0.088626 0.032983 -0.011088 -0.085593 -0.092082 -0.023741 0.011110 0.095890 -0.005378 0.026890 -0.043477 -0.034635 -0.013482 0.099408 -0.002475 0.035407 0.058849 0.034488 0.105367 -0.005731 0.110417 0.011660 -0.008853 -0.052512 -0.048384 0.029221 -0.075370 0.040443 -0.028631 -0.143202 -0.065335 0.038673 -0.057888 -0.059251 -0.129728 0.076941 0.007515 -0.017991 0.052358 -0.084474 0.155865 -0.003450 -0.142500 -0.089200 0.002328 -0.039762 0.032286 0.038509 0.014813 -0.008217 -0.071846 -0.028160 -0.045612 -0.103635 0.065436 0.007202 0.013001 -0.029565 -0.013595 -0.023590 -0.021066 -0.015568 0.103744 0.075968 0.003795 -0.034536 -0.039459 0.009761 -0.087124 -0.058841 -0.011513 -0.094721 -0.000717 -0.030280 0.041292 0.079315 0.066245 -0.097294 0.037413
28 -0.099334 -0.120093 -0.004242 -0.066706 -0.084991 0.100269 0.082517 0.026175 0.012186 0.016238 0.005760 0.109994 0.046175 0.052754 -0.073815 -0.068007 -0.003971 0.073969 -0.096288 -0.008869 0.029021 -0.011553 -0.014758 -0.026917 -0.046823 -0.011559 0.045729 0.050933 -0.108191 -0.074866 0.069577 -0.021265 -0.032706 0.061172 -0.039035 -0.006816 0.123224 -0.024656 0.006793 -0.063179 0.063837 -0.062885 -0.045727 0.062533 -0.140914 0.084111 0.086512 0.081127 0.016915 -0.024197 -0.004384 -0.101620 -0.042896 0.064779 -0.033909 -0.042266 0.025466 -0.015375 -0.072905 0.063664 -0.049841 -0.020881 -0.030633 -0.053685 -0.035960 -0.002849 0.016495 -0.005841 0.028687 0.024051 -0.000398 -0.026296 0.024590 -0.034437 0.021369 0.052078 0.080687 -0.096797 -0.044214 0.112952 0.078667 -0.119766 0.028587 -0.023376 0.119701 -0.020960 -0.029252 -0.005714 0.032205 0.021427 0.026372 -0.042099 -0.051889 0.090986 -0.071500 0.042955 -0.008498 0.080014 -0.040451 0.084740 0.093857 -0.041905 -0.025348 0.022283 0.133980 -0.000590 -0.015857 -0.050191 -0.029035 -0.085012 0.010260 0.052481 0.018073 -0.064329 0.020346 0.033975 -0.018516 -0.071095 0.107040 -0.054879 0.071700 -0.015055 0.099835 0.095997 0.058312 0.051350 0.000600 -0.053457
29 0.007159 -0.092073 0.051519 -0.004324 -0.071386 0.079047 0.147803 0.006764 0.034007 0.070392 -0.043699 0.035800 -0.007810 0.028181 -0.102493 -0.059770 0.004605 -0.037977 -0.030212 -0.010402 -0.090012 -0.043028 -0.035636 -0.077098 -0.047371 0.091101 0.039657 0.047679 0.054555 -0.096130 0.031628 -0.017664 0.000406 0.091281 0.037904 0.027550 0.044032 -0.049160 -0.035387 0.044114 0.077931 -0.098923 -0.035852 -0.070945 -0.009152 0.082365 0.062413 -0.030479 0.118022 0.042796 0.006850 0.023422 -0.030206 0.009826 0.005635 0.049394 0.013665 -0.055945 -0.064606 0.081146 -0.059025 -0.069757 0.004208 -0.063442 0.049174 0.039124 -0.028444 -0.013333 -0.043055 -0.059519 -0.004116 0.000157 0.029954 -0.020030 -0.059505 -0.103604 0.002774 -0.000575 -0.032307 -0.033569 0.030061 -0.148614 -0.092305 -0.086989 0.071519 -0.002058 -0.034078 0.049492 0.014815 0.064566 0.026332 -0.031628 -0.088317 0.001877 -0.037051 0.025537 0.028206 -0.043316 -0.045069 0.008835 0.069345 -0.082713 -0.008730 -0.072548 -0.014964 -0.025208 -0.084750 0.038978 -0.004959 -0.015008 -0.007481 0.021548 0.139239 -0.056802 0.025459 0.037932 -0.014144 0.019453 -0.076806 -0.001777 -0.113704 -0.028923 0.020217 0.043488 0.003738 0.089146 -0.076248 0.020591
30 -0.026318 0.083499 -0.103855 0.086531 -0.008791 0.044892 0.008119 -0.065717 -0.021714 -0.055720 -0.074884 0.130946 0.030468 -0.062125 -0.064366 -0.054878 -0.077354 -0.058754 0.056586 -0.027124 0.065302 -0.017786 0.101845 0.026265 -0.038304 -0.079941 0.019379 -0.037433 0.047819 0.065601 0.035936 0.013001 -0.022059 0.037010 -0.008235 0.016515 0.064527 0.019851 0.089414 0.115448 0.047305 -0.040171 0.026107 -0.046974 -0.038383 0.108236 -0.025792 0.049451 -0.059014 -0.090731 0.045554 0.026387 -0.004289 -0.006427 0.038367 0.015437 0.023966 -0.012364 0.001938 0.140290 -0.056192 -0.055661 -0.000661 0.084918 0.040150 -0.115279 -0.005313 -0.093208 0.075137 -0.041233 -0.023734 0.027509 -0.008103 0.025988 -0.136691 -0.001568 -0.060022 -0.164370 -0.002151 -0.029205 0.009496 -0.001247 0.042530 0.106633 0.002975 0.041342 -0.005645 0.069802 0.086221 -0.046582 0.029854 -0.021406 -0.038297 0.068175 -0.121925 0.060172 0.029645 0.054041 -0.085910 -0.031824 -0.019506 -0.093728 0.021582 -0.049567 0.017870 -0.095510 -0.020430 0.043374 -0.130260 0.059880 0.040329 -0.038137 0.094771 0.018712 0.011478 -0.016898 0.014268 -0.082900 -0.030063 -0.014024 -0.028095 -0.014407 0.167189 0.002419 0.082208 0.051797 0.062261 -0.076361
31 -0.068745 -0.013378 -0.043612 -0.066385 -0.016316 -0.030603 0.036946 0.012695 0.002715 0.088275 -0.003524 0.070784 0.179479 0.051285 -0.096288 -0.035340 0.042903 0.015431 0.009131 -0.025523 -0.041450 -0.039651 -0.061875 -0.118729 0.006320 0.018631 0.016548 0.021260 -0.035682 0.069569 -0.021449 -0.173495 0.022444 0.007903 -0.004006 -0.055873 -0.014522 0.018155 -0.067270 -0.058338 0.063616 -0.049672 -0.055783 -0.081496 -0.003126 0.054254 0.088180 -0.125700 0.038696 0.008598 0.010678 -0.059759 -0.031766 0.042610 0.011853 0.002969 0.048814 0.044653 0.020645 0.065804 -0.033542 0.042171 -0.089051 -0.039597 0.072447 -0.065466 -0.015552 -0.010846 0.031917 0.099637 0.030912 0.024933 0.070165 -0.129129 -0.029275 0.032817 0.085250 -0.015059 -0.135099 0.026113 0.112577 -0.062865 -0.007739 -0.059293 -0.031506 0.035610 -0.131068 0.005968 0.125650 0.018646 0.001057 -0.028291 -0.178495 0.017154 -0.001233 -0.027227 0.031423 0.017811 0.001728 0.062569 -0.056787 -0.022803 -0.011911 0.016956 -0.066321 0.006551 0.010343 -0.017088 -0.024216 0.017080 0.004031 0.098478 0.071633 -0.104372 -0.009214 0.052937 -0.075345 0.001742 -0.073409 -0.099788 0.028275 -0.026282 0.082897 -0.067151 0.040670 0.064042 0.059295 0.030366
32 -0.047329 0.168566 -0.007188 -0.070274 -0.155852 0.072262 -0.028421 -0.041177 -0.073882 0.046494 0.008626 0.072394 -0.049456 -0.090262 0.015401 -0.046841 -0.116780 -0.031638 -0.058136 0.056236 0.032343 -0.025023 0.002733 0.005819 0.001012 -0.066744 -0.013677 -0.026153 -0.016826 -0.007663 0.051433 -0.063447 -0.067537 0.003502 -0.032137 -0.009677 0.122163 0.096544 -0.012662 0.003948 0.117526 -0.079136 -0.006773 -0.003714 -0.020300 -0.000824 -0.089139 -0.104054 -0.063880 0.017248 0.057480 0.040976 0.128961 -0.011505 0.051464 -0.022374 -0.001059 0.099923 -0.043042 -0.024857 -0.044811 -0.012754 -0.026672 0.027342 -0.014675 -0.107763 0.022837 -0.068296 0.054236 -0.011351 -0.017065 0.005393 -0.017378 0.005576 -0.045146 0.014034 -0.062002 -0.069649 -0.046995 -0.031063 0.027442 -0.035164 0.075707 0.089661 -0.035318 -0.004615 0.038163 0.021854 -0.058431 0.022511 -0.011626 -0.017359 0.020517 0.012681 -0.092262 -0.064895 -0.027118 -0.011836 -0.071639 -0.029442 -0.042216 0.026735 -0.055687 -0.010696 0.013161 -0.095223 -0.116513 0.038217 -0.085681 0.087421 0.092052 -0.024805 0.043947 -0.025596 -0.023867 0.004239 -0.048448 0.017405 0.008176 0.055971 -0.070272 -0.076233 0.009190 -0.027436 0.048576 0.032132 0.065212 -0.097060
33 0.098175 0.173413 0.014444 0.067459 -0.062909 0.072182 0.015979 -0.035677 0.001437 0.000970 -0.013377 -0.011312 -0.030886 -0.045691 -0.042685 0.003134 -0.091413 -0.052862 0.009873 0.016832 -0.010827 0.023616 -0.006175 0.068954 0.095944 -0.060261 0.045315 -0.011922 0.034284 0.067605 0.131419 -0.029279 -0.028988 -0.077777 0.090576 0.009290 0.078764 0.097555 0.095201 0.110254 0.072133 -0.093467 0.035891 -0.025627 -0.042305 0.007251 -0.028723 -0.035765 -0.002130 0.026219 -0.021041 -0.017434 -0.022008 0.013514 0.042221 0.052579 -0.011864 0.040882 -0.005316 -0.013457 -0.012134 -0.066778 -0.007410 -0.025025 0.085998 -0.016120 -0.034982 -0.011656 0.088977 0.053258 -0.114371 0.002659 -0.119093 -0.063920 -0.134914 0.055845 -0.018855 0.079362 -0.128925 -0.013772 -0.030989 0.007443 -0.003564 -0.007438 -0.025086 0.048535 -0.055414 -0.010312 0.006034 0.051966 -0.030897 -0.040898 -0.009250 -0.028402 0.054414 0.012465 -0.098187 0.056272 0.031145 -0.094215 -0.070708 -0.077662 0.064113 0.027826 0.005713 -0.074136 -0.046383 0.168230 -0.070477 0.008042 0.044248 -0.051889 0.052909 0.039159 -0.125671 -0.089724 0.064002 -0.097739 0.047356 -0.017146 -0.030154 -0.047606 0.001439 -0.008748 0.038181 0.034261 0.033440 -0.052280
34 -0.077632 -0.052360 -0.019084 -0.091063 0.004622 0.139296 0.058973 -0.002252 0.041515 0.022191 -0.049170 0.067541 -0.009447 0.064974 -0.105106 0.032999 0.002364 0.038966 -0.026498 -0.089049 -0.038519 -0.106185 0.042846 -0.064872 -0.015719 0.015290 0.053722 0.095259 0.003299 0.021913 0.019375 -0.054594 0.038037 0.078524 0.003335 0.048434 0.050617 -0.083422 -0.058233 0.040641 0.141205 -0.063851 -0.061766 0.081008 -0.076427 0.051605 0.059769 -0.054709 0.006616 -0.006906 -0.024515 -0.007059 -0.017107 -0.003942 0.017245 -0.088844 0.010440 0.014824 -0.071578 0.025068 -0.062171 0.019097 -0.108219 -0.017167 -0.032158 -0.026425 -0.046134 -0.034582 -0.012521 0.044928 -0.044772 0.072858 -0.022279 -0.060925 0.001336 -0.049405 0.066506 0.028793 -0.047878 -0.030224 0.075397 -0.057670 0.015686 0.005825 0.051284 -0.071577 0.025553 -0.010927 0.005312 0.080952 0.106593 -0.023892 -0.009547 0.042323 -0.106073 0.054898 0.007888 0.042451 -0.005306 0.113646 -0.069495 -0.030030 -0.035078 0.005805 0.041851 -0.120380 -0.049183 -0.047442 0.052507 -0.072332 -0.006294 0.025255 0.129063 -0.043402 0.021106 0.027138 -0.061830 -0.035615 0.002121 0.020318 -0.083048 -0.047000 0.014532 -0.047626 0.037339 0.033111 -0.025696 0.014648
35 -0.019076 -0.073628 -0.071554 -0.046986 -0.100511 0.119649 -0.083125 -0.004380 0.001774 0.027846 0.003772 0.116841 -0.078534 -0.014937 -0.086196 -0.024223 -0.008800 -0.039611 -0.036047 -0.024471 -0.028420 -0.075520 -0.091461 -0.078760 -0.036139 0.049665 0.013320 0.079485 -0.019206 -0.040054 0.007192 -0.040256 0.090164 0.014800 -0.052878 0.045425 0.045667 0.012842 0.038267 -0.018844 0.082544 -0.078656 -0.070792 -0.046327 -0.015834 0.141539 0.159276 -0.048703 0.067321 -0.022337 0.072389 -0.018085 -0.092587 0.056610 -0.073652 0.002046 0.059548 0.004479 0.010368 -0.015876 -0.055315 -0.027696 -0.015792 -0.078342 0.007725 0.003286 0.010702 0.073562 0.008179 0.010228 0.020121 0.042972 -0.001007 0.036813 0.039982 0.034326 0.035819 0.025736 -0.132973 -0.024154 0.068984 -0.098333 -0.039074 -0.096789 -0.008933 -0.022402 -0.014461 -0.048609 0.060042 0.113911 0.079406 0.018012 -0.112541 0.033237 -0.037210 -0.020119 0.021507 0.016239 0.016830 0.004256 0.049124 -0.034571 0.008969 -0.020907 0.050323 -0.028413 -0.119483 -0.054472 -0.002556 -0.050021 -0.001847 -0.027125 0.091387 -0.024777 -0.065245 0.029162 -0.046952 -0.035611 0.002524 -0.080087 -0.039217 -0.026363 -0.001064 -0.074030 0.067815 0.024965 0.027039 -0.011578
36 0.053539 0.057904 0.000709 0.034825 -0.088603 -0.022229 0.028661 -0.016271 0.017150 -0.066248 -0.016802 0.000671 -0.055166 -0.104206 -0.003149 -0.045125 0.030688 -0.074967 -0.057793 0.008631 -0.038189 -0.035470 0.050595 -0.060231 0.029137 -0.033509 0.054104 -0.031841 0.085275 0.068381 0.176569 -0.013313 0.045994 -0.047310 0.027014 0.038581 0.068475 0.089146 0.029478 0.022176 0.073370 -0.068332 -0.002870 0.021105 0.021770 0.045494 -0.084685 0.073075 0.069673 -0.017539 0.024328 -0.016174 -0.025164 0.062480 -0.055749 -0.004477 0.058676 0.071459 -0.033716 0.097379 -0.129328 -0.011863 0.056833 -0.021112 0.037869 -0.021907 0.113943 -0.043639 0.150412 0.007549 -0.068535 0.009033 -0.019840 0.009557 -0.118438 -0.028613 0.007364 -0.035916 -0.048707 -0.016580 -0.040410 -0.010643 0.016127 -0.013760 -0.002189 0.109762 -0.033512 -0.028956 -0.021630 -0.008063 -0.047423 -0.093594 -0.094415 0.051679 -0.039655 -0.062421 -0.112822 -0.050211 -0.086251 -0.003098 0.019858 -0.020100 0.026699 0.026735 -0.030725 -0.091128 -0.105537 0.057007 -0.045013 0.043083 0.046175 0.022689 0.074536 0.026972 -0.076721 0.001657 0.040274 -0.034232 -0.098394 -0.040528 -0.031290 0.020871 0.000818 -0.069900 0.040660 0.018125 0.000362 -0.066950
37 0.098920 0.081886 0.022280 0.094807 -0.066590 0.033859 0.042978 -0.001115 -0.064533 -0.045682 0.053167 0.099217 0.013102 -0.068871 -0.011837 -0.051413 -0.032424 -0.056088 0.056278 0.029167 0.022166 -0.108495 0.025344 0.009626 0.111492 -0.059094 0.017947 -0.058090 0.007894 0.034477 0.052007 -0.110606 0.042737 -0.086003 0.023000 0.036376 0.011193 0.034647 0.034448 0.029337 0.090354 -0.021515 -0.028790 -0.011002 -0.018247 0.040866 0.008086 0.054635 -0.063509 0.033493 0.039578 0.013287 -0.044437 0.032842 -0.044706 0.051993 0.087189 0.037480 0.004953 0.009110 -0.040223 -0.127427 0.014361 0.095557 0.131780 -0.049976 0.007456 -0.081305 -0.025259 0.096662 -0.023340 0.019212 -0.009697 -0.026791 -0.097044 0.073078 -0.062000 -0.043908 -0.041503 -0.030778 0.122415 0.057745 -0.014852 0.002113 0.032857 0.017289 -0.028031 -0.039317 0.044622 0.040922 -0.063290 -0.001429 -0.024342 0.015768 0.000948 0.025605 -0.027300 0.018742 -0.051129 -0.042214 -0.047792 -0.038651 -0.057111 0.004446 0.010010 -0.172909 0.032800 0.072072 -0.104072 0.058568 0.044544 -0.017283 0.159331 0.057277 -0.023733 -0.023009 0.027503 -0.068321 -0.086734 -0.034147 0.029421 0.032224 0.145873 -0.099401 0.081089 0.027995 -0.026796 -0.060518
38 -0.100592 -0.070282 -0.058721 -0.019175 -0.019191 0.077204 0.017814 -0.012453 0.066639 0.091919 -0.029750 -0.042455 0.051983 0.117917 -0.162432 0.029079 0.006449 0.050425 -0.045093 0.025418 0.080812 -0.066119 -0.030761 -0.013665 0.005245 -0.017831 0.038234 0.093742 0.001188 0.047268 -0.021073 -0.076470 -0.111584 0.064138 -0.025253 -0.034246 0.033861 0.009406 -0.081065 -0.022072 0.061423 -0.013579 -0.020789 -0.038910 0.019587 -0.030906 0.066170 -0.024957 0.018193 0.003321 -0.002403 0.058558 -0.068267 -0.021383 -0.007481 0.017744 0.016843 0.041557 0.088026 -0.005876 -0.114931 0.044211 -0.070817 -0.014701 -0.095243 -0.047883 -0.084263 0.075324 0.040515 0.010901 0.029774 -0.037990 0.000336 -0.004077 0.078716 -0.035295 -0.000167 -0.057701 -0.111494 0.081143 0.024269 -0.055649 -0.042093 0.002720 0.001658 0.084725 0.006288 0.041100 0.068320 0.028674 0.035172 -0.108716 -0.155316 0.020893 -0.029736 0.088214 -0.085033 0.091020 -0.052160 0.051078 0.057232 0.040190 0.050345 0.096428 0.085626 -0.044165 -0.086396 -0.032231 -0.097209 -0.113229 0.041674 0.010427 0.077648 -0.017026 -0.018873 0.031396 -0.009399 -0.040887 0.062908 -0.070587 -0.043404 -0.015488 0.017093 0.072055 0.031159 0.034074 -0.055057 -0.038389
39 -0.083435 -0.018899 -0.004055 0.008289 -0.079603 0.054458 0.132431 0.023277 0.027369 0.045829 -0.094604 0.096098 0.035386 0.111259 -0.108546 -0.009275 -0.047316 0.012314 -0.045151 -0.007058 0.001550 -0.093100 -0.012273 -0.087305 -0.010973 0.000660 -0.081378 0.084727 -0.058405 0.091114 0.024948 -0.015795 0.039628 0.039167 -0.061054 0.039889 0.085741 0.022055 -0.050466 0.056291 -0.009187 -0.053826 -0.079243 0.034034 0.024271 0.029367 0.042018 -0.011212 0.014244 -0.059353 0.088701 -0.035608 0.021721 -0.028629 -0.042116 0.046787 -0.111711 0.031130 -0.020024 0.102289 -0.126770 -0.028480 -0.101387 -0.084387 0.108665 0.035478 -0.001394 0.090744 0.039473 0.043790 0.029888 0.079606 0.048699 0.032456 0.048059 -0.061266 -0.011153 -0.064027 -0.026168 0.004403 0.024884 -0.108325 -0.044557 -0.062045 0.042003 -0.032778 -0.006394 -0.080292 -0.015331 0.089824 0.015309 -0.010354 -0.086088 0.048038 -0.055564 0.064203 -0.018775 -0.057028 -0.062730 0.086670 -0.008204 -0.066176 -0.067075 -0.042096 0.028236 -0.057163 -0.099233 -0.024608 -0.012200 -0.072282 -0.056413 0.051076 0.090548 -0.032496 -0.018233 0.034161 -0.067494 -0.008964 0.010899 -0.120264 -0.029314 -0.010219 0.046835 0.035013 -0.034919 0.089197 -0.079609 -0.009124
40 -0.093233 -0.066228 -0.000731 0.009241 -0.053209 0.040541 0.048968 0.026557 -0.076799 0.043251 -0.012607 -0.017217 -0.003763 0.052321 0.008302 -0.012431 0.083141 -0.033272 0.041055 -0.022691 -0.028278 -0.106904 -0.067044 0.018436 0.041421 0.015006 -0.040946 0.041439 0.010809 0.021436 0.066773 -0.056809 -0.019686 0.093317 -0.040998 -0.002812 0.087482 -0.079631 -0.075314 0.043520 0.057394 0.017198 -0.066454 0.028595 -0.018694 0.078214 -0.035249 -0.124955 0.002250 0.045791 -0.036772 -0.076760 -0.055173 -0.014270 -0.013763 -0.070609 -0.036824 0.032496 -0.017865 0.050352 -0.152935 -0.043559 0.000251 0.057244 0.073232 0.022309 -0.010735 -0.029115 -0.053123 0.066983 0.012681 -0.031731 -0.030277 -0.043706 -0.062054 -0.014960 0.045763 -0.057236 -0.053225 -0.031872 0.093356 -0.092911 0.014647 -0.045039 0.059987 -0.007797 -0.058264 -0.012130 0.084551 0.126760 -0.002248 -0.109185 -0.053816 0.064645 -0.040961 0.040104 -0.038055 0.058586 -0.001854 0.052602 -0.067139 -0.013721 -0.039623 -0.025090 0.029500 0.024470 -0.055878 -0.025489 -0.049974 -0.085608 0.051711 0.011045 0.112065 -0.073342 -0.055356 -0.030137 -0.055182 -0.028835 0.108533 -0.082441 -0.009903 -0.010514 -0.043519 0.090400 0.075736 0.059813 -0.048121 0.005387
41 -0.137572 -0.112800 -0.013236 -0.093531 -0.073912 0.016526 0.104546 0.050172 -0.001559 0.004973 -0.033026 0.034176 0.080724 0.129991 -0.117398 0.022839 -0.014475 -0.027146 -0.067052 -0.036408 -0.007101 0.050022 0.009016 -0.007923 0.060572 0.002736 0.112005 0.009637 -0.033767 -0.004877 -0.015315 -0.145604 -0.055592 -0.011049 -0.036741 -0.064134 0.014996 0.050026 0.002050 0.063147 0.041639 -0.054088 -0.108466 -0.093273 -0.072093 0.083268 0.077526 -0.039819 0.073523 0.033453 0.041760 -0.020381 -0.009644 -0.004976 0.021921 -0.055135 -0.020170 -0.016692 0.059445 0.025155 0.019731 0.034793 -0.035326 -0.022835 -0.017594 -0.117466 0.003662 0.143933 0.094620 0.078738 0.013868 -0.043737 0.055489 -0.104927 -0.085225 0.086700 0.116732 0.014020 -0.029518 -0.029497 -0.000644 -0.083393 -0.123905 -0.080210 -0.052703 -0.034077 -0.071621 0.018003 0.018275 0.092967 0.040674 0.018392 -0.115930 0.033006 -0.082328 0.043224 -0.011414 -0.073801 -0.007936 -0.027793 -0.095739 0.016882 0.030259 -0.019477 0.048349 -0.028861 -0.015121 -0.013907 -0.055077 -0.042836 -0.026716 -0.003433 0.085174 -0.008825 -0.042401 -0.022733 -0.056424 -0.047689 0.023759 -0.017220 0.001855 0.003776 0.061736 0.021925 0.005136 0.013874 -0.050387 -0.024739
42 0.044982 0.151696 0.060708 0.020232 -0.071994 0.072298 0.010078 0.096386 -0.032174 0.004267 0.019275 0.023898 -0.065089 0.064976 -0.050489 -0.087086 -0.046697 -0.009802 0.023762 0.028778 -0.064546 0.033365 -0.016147 0.025609 0.008393 -0.084660 0.054858 -0.091183 0.063051 0.049371 0.043038 -0.105919 -0.056143 -0.024207 -0.018423 0.045325 -0.060478 0.071986 0.040328 0.016135 0.053195 -0.097161 0.024437 -0.016288 -0.032836 -0.013461 -0.030520 -0.013180 0.007065 -0.020919 0.078309 -0.002358 -0.032030 0.064280 0.030832 0.024247 0.010399 0.126388 0.000172 0.011983 -0.028141 -0.048269 -0.064839 0.085066 0.034319 0.009982 0.044862 -0.101416 0.089784 0.081635 -0.080108 -0.056792 -0.143997 0.050495 -0.048065 -0.047410 0.026359 -0.014705 -0.143648 0.009304 0.101632 -0.046224 0.018169 0.055389 -0.062067 -0.022221 -0.049237 0.001961 -0.116029 -0.113785 -0.050880 -0.015181 -0.035757 0.048015 -0.086570 0.007773 -0.053870 0.042315 -0.069365 0.000483 -0.039104 -0.009121 -0.029802 0.064194 0.001812 -0.126456 -0.035594 0.082748 0.018501 0.038392 0.075913 -0.000205 0.021606 0.013052 -0.096975 -0.128655 0.022519 -0.016891 -0.011530 -0.021206 -0.006946 0.008144 0.064620 -0.016265 0.037525 0.025128 -0.030475 -0.052368
43 -0.130593 -0.032346 0.031665 -0.082424 -0.098034 0.058020 0.141754 0.028355 0.020050 0.000720 -0.081536 0.000121 -0.016122 0.002846 -0.066599 -0.009092 -0.015364 0.010151 0.022042 -0.040170 -0.012702 -0.039560 -0.078502 -0.084970 0.035147 -0.109587 -0.065477 0.049009 -0.025690 -0.023937 -0.051959 -0.082875 -0.048493 0.144059 0.039744 0.048850 -0.005300 0.057160 -0.075751 0.060679 0.093409 -0.005194 -0.142589 -0.046785 -0.044291 -0.011223 0.032833 -0.034868 0.042863 0.016321 0.018440 -0.025513 -0.095029 0.003691 -0.018849 0.041651 -0.033672 -0.004625 -0.011488 -0.066377 -0.040652 -0.020469 -0.016842 -0.032358 0.038721 -0.034586 0.041894 0.053533 0.035139 -0.044234 0.057933 -0.045346 -0.071664 -0.017134 0.135845 -0.040996 0.081737 -0.022961 -0.038633 -0.021542 0.053876 -0.133603 -0.053537 -0.112098 0.012727 -0.031965 -0.078864 0.042915 0.070161 0.056427 0.034941 -0.108002 -0.085452 0.100529 -0.087206 0.029016 -0.092880 0.015717 -0.000440 0.059157 -0.024940 0.090417 0.004288 0.008607 0.080025 -0.026863 -0.025708 -0.007809 -0.076761 0.006523 -0.014184 -0.020924 0.019044 -0.021088 -0.058171 -0.010640 -0.022009 -0.081629 0.020469 -0.067464 -0.037369 -0.032439 -0.020360 0.037563 0.078704 0.042003 -0.061521 -0.013228
44 -0.088048 -0.031533 -0.017393 -0.020369 -0.098237 -0.024860 0.017192 0.019378 0.077353 0.007842 -0.049167 0.032796 0.037426 -0.004289 -0.129646 0.019835 0.045160 -0.042017 -0.151030 -0.055487 -0.025154 -0.012048 -0.111433 -0.045040 -0.010463 -0.044741 -0.007785 0.088196 -0.026055 0.053631 0.038583 -0.071254 -0.072372 0.070288 0.073535 0.057516 -0.013511 -0.014417 -0.069252 0.036351 0.024680 -0.137783 -0.169756 -0.103066 -0.021365 -0.006765 0.088163 -0.075258 -0.006503 0.014585 0.081601 -0.059710 -0.115340 -0.022941 0.076128 0.025548 0.117220 0.001199 0.092612 -0.007703 -0.013860 -0.032777 -0.009463 -0.055904 0.005579 -0.013755 0.002757 0.029897 0.062924 0.061540 0.037825 -0.027284 0.006263 -0.087730 0.054527 -0.033405 0.028322 0.037349 -0.034117 -0.064841 0.040352 -0.027773 -0.087924 -0.034692 0.078969 0.041870 -0.054099 -0.046452 0.061246 0.057608 0.114181 -0.020804 -0.094428 0.004029 -0.013084 -0.007764 0.057865 0.072211 -0.033698 0.071621 0.001140 0.008695 0.002327 0.037178 0.093409 0.004574 0.029886 0.034520 -0.026948 -0.034747 -0.041538 0.078874 0.006081 -0.076478 -0.119346 -0.023323 -0.027845 -0.132811 0.018510 -0.080547 -0.016557 -0.122755 0.053142 -0.009884 0.028066 0.022368 0.003004 -0.044338
45 -0.015555 0.100994 -0.030929 0.039537 -0.059772 0.063158 -0.084815 0.033888 -0.001345 -0.067547 -0.064063 0.130721 0.023190 0.051813 -0.024875 -0.055913 -0.164789 -0.082736 0.054442 0.081727 0.034507 0.012014 0.052201 -0.071398 0.054735 -0.195572 -0.012467 0.027107 0.080590 0.039393 0.099507 -0.076127 0.056608 0.030565 -0.044611 -0.008491 -0.015434 0.084097 -0.012912 -0.033051 0.090187 0.006991 0.111907 -0.010719 0.056563 0.013700 0.002422 0.005481 0.041456 -0.062515 -0.048823 0.052767 -0.094502 0.085216 -0.014108 -0.006940 0.040624 0.055027 0.026355 0.040300 -0.049894 0.025329 -0.073639 0.020454 0.041928 -0.053597 -0.002523 -0.125887 0.094931 0.089978 -0.062431 -0.060198 0.028985 0.033442 -0.126584 -0.016977 -0.039977 -0.039115 -0.099942 0.019736 -0.073693 0.021013 0.069017 -0.024513 -0.017036 -0.025483 0.027626 0.031268 -0.079376 -0.017471 -0.067062 -0.091935 0.007471 -0.054839 -0.104651 -0.063462 -0.086410 0.013169 -0.068319 -0.076956 0.031228 0.026517 0.084894 0.028781 -0.022766 -0.030858 -0.009166 0.004786 -0.063839 0.013488 0.036815 -0.004669 -0.023101 0.032997 -0.100264 0.005464 0.047220 -0.025186 -0.026802 -0.000089 -0.035543 -0.004829 0.094549 -0.095139 -0.016407 0.029641 0.066446 -0.040464
46 -0.027450 -0.005590 0.062259 -0.127329 -0.136641 0.110650 0.032191 0.026487 -0.004097 0.054154 -0.088333 0.020952 0.060718 0.083899 -0.083553 0.080407 -0.056347 0.065802 -0.118828 0.078820 -0.007710 -0.039106 -0.040550 -0.079707 -0.044387 -0.029131 -0.024204 0.048841 -0.026571 0.077145 -0.002365 -0.099279 0.048977 0.129256 -0.008696 -0.007474 0.067022 0.002044 -0.056717 0.076546 0.156712 -0.058011 -0.146103 -0.027573 -0.046560 0.085493 0.065871 -0.047642 0.065720 -0.016965 0.009638 -0.013041 -0.040164 -0.013820 0.020665 0.085982 -0.003850 0.033269 -0.054820 0.035614 -0.105123 -0.030389 -0.032148 -0.095905 0.090604 -0.029319 0.038449 -0.011571 0.071657 0.027560 0.056959 -0.005021 0.059375 -0.012981 -0.083354 -0.018660 0.063246 0.026622 -0.084043 -0.032434 -0.061099 -0.027604 0.004466 0.054073 0.082846 -0.192395 -0.015337 -0.011276 -0.016506 0.104968 0.081920 0.034857 -0.080711 0.048189 0.017041 0.042471 -0.040718 -0.066471 0.018184 0.041418 -0.067157 0.004191 0.027247 0.002415 0.023796 -0.043544 0.007041 -0.002322 0.015883 -0.014698 -0.089074 0.004254 0.043668 -0.001704 -0.042868 0.054987 -0.022486 0.000314 0.012051 -0.080640 -0.071242 -0.082965 0.035878 -0.066632 0.060241 0.045888 0.068972 0.013745
47 0.037548 0.117041 0.026833 0.039980 -0.050722 0.061934 0.046947 -0.038479 -0.013933 -0.035510 -0.116705 0.041971 -0.059517 -0.064862 -0.023554 -0.110488 -0.125910 -0.038502 0.012903 -0.002410 0.017904 -0.051899 -0.017316 -0.064355 -0.021771 -0.075153 -0.075137 -0.032096 0.083875 -0.030260 0.080208 -0.009608 -0.044853 0.047332 0.011483 0.075079 0.059822 0.073824 0.058024 -0.020013 0.106185 0.008287 0.114880 0.020880 0.080538 0.048929 0.032453 -0.012751 0.061847 -0.089238 0.028667 -0.114845 -0.043016 -0.025591 -0.032958 -0.095669 0.059630 0.050100 -0.006413 0.064791 -0.084225 0.072726 -0.107274 -0.010136 0.033778 -0.036391 0.028645 -0.040834 -0.005596 0.100659 0.061800 0.072923 -0.107922 0.045084 -0.053800 -0.050247 0.020131 0.047014 -0.042780 -0.026891 0.082835 -0.050606 0.022049 0.045183 -0.114102 0.066485 0.009041 -0.084494 -0.005868 0.055022 0.013109 -0.073775 0.013039 -0.108215 -0.113075 0.017897 -0.023714 0.074777 -0.065778 -0.048461 -0.025389 0.017405 0.036465 0.033351 -0.051182 -0.083727 -0.038218 0.067526 -0.035119 0.034675 0.008803 -0.011720 0.018224 0.044115 -0.097318 0.083719 0.064267 -0.037924 0.026139 0.025135 0.015615 -0.048122 0.021409 0.010968 0.114205 -0.013942 -0.018665 -0.108971
48 -0.048120 0.070031 0.057345 0.018290 0.023593 0.046473 -0.023700 -0.137737 -0.033426 0.036900 -0.022695 0.049054 -0.052265 -0.027296 -0.060011 -0.118089 -0.120017 0.000739 -0.014158 0.014857 0.065525 0.023720 0.057664 -0.016502 -0.041219 -0.038069 -0.011157 0.006231 0.067392 0.025533 0.067963 -0.145165 -0.005760 -0.010272 -0.015173 -0.044991 0.055174 0.053251 0.012250 0.040720 0.011015 -0.033280 0.043728 -0.078428 -0.044320 0.009861 -0.115187 -0.010170 0.053285 -0.055954 0.026376 0.058370 0.036157 0.014840 -0.046991 0.063948 0.028174 0.044783 0.032976 0.060302 -0.144423 -0.055245 -0.028962 -0.003129 0.022856 -0.015491 0.054068 -0.043892 0.088882 0.071139 0.008091 0.022138 -0.024413 -0.054629 -0.009214 -0.042138 -0.024663 0.035301 -0.086642 0.044524 -0.043271 -0.062529 -0.016426 0.013503 -0.117056 -0.050946 -0.031057 0.012170 0.023313 -0.044604 0.005090 -0.025032 -0.011029 -0.019156 -0.031438 0.032111 -0.023524 0.104791 -0.080838 -0.065309 0.020305 0.019288 -0.082005 -0.044075 0.005222 -0.045170 -0.042556 0.056371 0.071491 0.078228 0.050504 -0.058262 0.007903 0.013750 -0.180245 0.046371 0.068215 -0.113450 0.022359 -0.012585 -0.076724 0.006499 -0.003780 -0.047557 0.027493 0.145417 0.035503 -0.039958
49 -0.064571 -0.101661 -0.030981 -0.093901 -0.077781 0.101130 -0.003661 -0.033076 0.089821 0.074156 -0.072004 0.124995 0.044318 0.077551 -0.057397 0.075857 -0.044928 -0.012218 -0.003758 -0.015887 -0.062974 -0.086136 -0.047468 0.050186 -0.029464 0.014266 0.062203 0.074371 -0.094527 0.054693 -0.097378 -0.033898 -0.045671 0.060913 -0.039760 0.038083 0.040312 -0.010129 0.013787 0.022076 0.075394 -0.065242 -0.077639 -0.002507 0.006556 0.095194 0.040184 -0.064289 0.016821 0.040595 -0.046420 -0.035534 0.051038 -0.044249 0.029993 0.049728 0.048060 -0.048659 0.011422 0.040417 -0.109955 -0.040102 -0.087579 -0.028588 0.028545 -0.057512 0.001056 0.031552 -0.092210 0.044865 0.036654 0.081623 -0.029559 0.035086 -0.035185 -0.102107 0.097302 -0.079081 -0.074275 0.080117 0.073617 -0.059095 -0.072962 0.000937 0.031962 0.040138 -0.051827 0.012578 0.119860 0.088663 -0.005568 0.009472 -0.094747 0.040774 -0.036638 0.089688 -0.042045 0.023775 -0.016512 -0.017993 -0.004191 0.041617 -0.002815 -0.059564 0.058852 -0.003289 -0.089688 -0.021339 -0.085176 0.027796 0.047485 -0.016047 0.104790 0.017418 -0.014514 -0.046539 -0.020051 -0.034904 0.027296 -0.109605 -0.097215 0.051613 0.035733 0.003036 0.079116 0.060659 -0.007715 -0.081805
50 0.046730 0.076700 -0.062997 -0.002140 -0.049858 -0.057881 -0.012822 -0.047766 0.033399 0.024829 -0.024234 0.017747 -0.088460 -0.054908 -0.091291 -0.069470 0.019473 -0.092304 -0.072506 -0.034183 -0.009266 0.018677 0.020600 0.049731 0.047504 -0.058226 -0.006700 -0.109260 0.075090 0.011332 0.077503 -0.124928 -0.080778 -0.061619 0.057548 0.030826 0.014233 0.049988 -0.046267 0.035582 0.014394 -0.139281 0.024007 -0.051098 -0.048283 -0.019270 -0.109590 -0.015529 0.000727 0.054922 -0.038244 0.086122 0.104039 -0.041730 -0.031121 -0.003507 -0.031117 0.113289 0.013132 0.062394 -0.036934 -0.075583 -0.004228 -0.001938 -0.038079 -0.024449 0.009991 -0.044324 0.052726 -0.055617 -0.091560 -0.005078 -0.030172 0.048633 -0.023990 -0.033915 -0.111871 0.008156 -0.093488 0.073814 0.007505 -0.057995 -0.056117 0.028347 -0.036573 0.085889 -0.011811 0.020167 -0.034072 -0.042259 -0.015109 -0.081564 -0.058437 -0.016039 -0.078287 0.005994 -0.049390 0.059791 -0.083162 -0.185045 -0.066292 -0.037424 -0.040800 0.002827 0.021946 -0.079522 -0.040120 0.074315 0.027086 0.070132 0.020352 0.017548 0.009358 -0.046174 -0.044444 -0.004828 0.048582 -0.083495 -0.007220 0.014629 -0.043237 0.010620 0.040097 0.015589 0.105296 0.064093 0.034636 -0.120991
51 -0.116622 -0.096322 0.023542 -0.080440 0.026921 0.043684 0.055716 0.030279 -0.087875 0.024249 -0.013762 0.044485 0.083465 0.081470 -0.060993 0.003979 -0.013582 -0.052506 -0.048957 -0.046323 -0.030147 0.083060 0.043428 0.040737 0.048254 -0.010886 0.016503 0.022107 0.064384 -0.024601 0.039861 -0.048713 0.013129 0.141400 -0.014986 -0.038560 0.103557 0.021130 -0.086230 0.090508 0.034652 -0.120027 -0.045206 -0.045917 -0.022496 -0.023150 0.021377 -0.030671 0.068483 0.028844 -0.036951 0.010709 -0.025988 -0.045817 0.045728 0.031432 0.012950 0.035141 0.048461 -0.018622 -0.053316 0.055739 -0.029573 -0.024132 0.025746 0.000897 -0.042997 0.063294 0.036166 0.008146 -0.032237 -0.043517 -0.021973 -0.007919 -0.025186 0.000804 0.123614 -0.076755 -0.058552 -0.002361 0.013134 -0.003730 -0.045185 -0.126201 0.083812 -0.087691 -0.011961 0.009539 0.027117 0.023354 0.116780 -0.034187 -0.150929 0.045350 -0.045889 -0.039256 -0.009540 0.043018 -0.039889 0.044873 0.040453 -0.017514 -0.010997 0.037433 0.040414 -0.049724 -0.017800 -0.040298 0.000611 -0.036737 0.009897 0.000047 0.084686 -0.037924 -0.008812 0.025565 -0.020889 -0.078255 0.084513 -0.051608 0.006601 -0.062920 0.031716 0.022111 0.098001 0.023660 0.041168 -0.015100
52 0.009331 0.147451 -0.050048 -0.042519 -0.052545 0.054950 -0.054303 -0.004466 -0.086448 -0.054638 -0.021560 0.145779 0.028753 -0.012280 -0.012317 -0.066951 -0.039571 -0.047504 0.015416 0.014831 0.018852 -0.032877 0.058106 -0.017266 -0.050913 -0.045526 0.055726 -0.096719 0.090794 0.041915 0.041824 -0.010083 -0.003092 -0.016929 -0.011787 0.071749 0.011321 0.034814 0.038207 -0.004537 0.079618 -0.071967 0.037970 0.029332 0.053071 0.068474 -0.077919 -0.051583 0.033220 -0.070809 0.094209 -0.009292 0.004846 0.002141 -0.039662 0.076556 0.024807 0.043836 -0.016954 0.023558 -0.090021 0.040241 0.072650 0.002473 0.022608 -0.055659 0.095741 -0.041283 0.062004 0.010625 -0.063872 0.033280 0.082040 0.062348 -0.165989 -0.002404 0.033227 0.036148 -0.061936 0.019289 -0.041039 0.007902 0.068829 -0.012875 -0.133519 -0.029545 -0.014380 0.005784 -0.007610 -0.040423 0.047346 -0.119420 -0.029319 0.084448 -0.084964 0.008125 -0.071664 0.134204 -0.070134 -0.040263 -0.012805 -0.080300 -0.048862 -0.078489 0.025831 -0.080084 -0.005219 0.094714 -0.077851 0.059338 0.028211 -0.071404 0.038250 -0.038382 -0.044316 -0.049544 -0.019211 -0.076756 0.002174 0.086744 0.051239 0.011317 0.036698 -0.013367 0.085688 0.000637 0.063644 -0.078705
53 -0.053281 -0.044990 -0.006460 0.014009 -0.044349 0.087883 0.049009 -0.005189 -0.040621 0.060660 -0.071429 0.105778 -0.013523 0.085347 -0.050026 0.031199 0.052596 0.016610 0.039326 0.025901 -0.034706 -0.057127 -0.144896 -0.027137 0.038970 0.026848 -0.006676 -0.014912 0.083728 0.003749 0.011167 -0.028943 -0.029038 0.023863 0.021579 0.070102 0.026348 -0.039899 0.035659 0.040314 0.114118 -0.077967 -0.092455 0.032934 -0.029965 0.022924 0.061269 0.019999 0.013612 -0.027205 -0.028471 0.008617 -0.096656 -0.070545 -0.064036 0.080272 0.028684 -0.069437 -0.079360 0.075764 -0.031033 0.098638 -0.033521 -0.016305 0.086055 0.021866 -0.017011 0.061876 0.055365 0.035021 0.041311 -0.059825 -0.065894 -0.045956 -0.066801 0.025539 0.021003 -0.028377 -0.064131 0.091876 -0.008532 -0.050656 -0.053641 -0.058775 0.063153 0.003407 -0.021348 -0.000085 0.001971 0.053266 0.082037 -0.083639 -0.137100 -0.006083 0.008294 0.048977 0.016268 -0.013794 0.025433 0.050078 0.072453 -0.043158 0.045497 0.045766 0.033392 -0.012783 -0.071691 -0.037770 -0.017018 0.028870 -0.030028 0.005994 0.118538 0.011021 -0.106169 -0.003487 -0.038180 -0.034728 0.058461 -0.021938 -0.044961 0.015949 0.001741 0.006347 0.052666 0.018687 0.064085 -0.093541
54 0.045712 0.122439 -0.009167 0.085121 -0.098315 0.030398 -0.003129 0.029355 -0.011161 -0.013636 0.029650 0.071240 -0.051468 -0.052897 -0.030780 -0.050276 -0.085541 -0.040527 -0.012853 -0.015002 0.013998 -0.041164 -0.000518 -0.003005 0.096766 -0.041343 -0.026473 -0.087522 0.005875 0.028742 0.005356 -0.030266 -0.058307 0.019790 0.039205 -0.051457 0.056436 -0.014713 0.072388 -0.022845 0.095562 -0.032572 -0.047732 -0.025839 -0.048456 0.039363 0.004080 -0.008488 0.023390 0.009622 -0.011085 0.039938 0.018556 -0.046630 -0.063325 -0.045827 0.017829 0.108472 0.046897 0.085257 -0.059897 0.101537 0.058929 0.001959 -0.032461 -0.059991 0.055833 -0.002690 0.082587 -0.042033 -0.039161 0.009758 -0.012296 -0.015833 -0.158289 0.080169 -0.028632 -0.048949 -0.066537 -0.005152 -0.046013 -0.063545 -0.014953 0.069161 -0.039986 0.010866 -0.061464 -0.057369 -0.074103 -0.029126 0.026480 0.045205 -0.068876 -0.057910 -0.099690 0.016734 0.006289 -0.037185 -0.113052 -0.082483 -0.006159 -0.040130 0.002208 0.014760 0.065997 -0.079147 -0.081838 -0.020183 -0.019334 -0.005103 0.114671 0.010610 0.023884 -0.030518 -0.069108 0.039783 0.000610 0.023102 -0.011636 0.012251 -0.022964 -0.029127 0.061548 -0.065701 0.054701 0.025084 -0.076835 -0.136965
55 -0.020848 0.146634 -0.032378 0.094207 -0.048200 0.042101 0.076652 -0.062513 -0.033879 -0.057570 0.006342 0.062694 -0.014610 0.017614 -0.050872 0.005678 -0.001820 -0.046447 -0.035228 -0.007056 -0.022193 -0.055063 0.024241 -0.003928 0.103493 -0.040005 -0.016088 -0.030266 0.065897 0.025695 0.081860 -0.065239 0.011156 -0.054021 0.038508 0.006522 0.034610 0.046766 0.069914 0.038599 0.053517 -0.046578 -0.005600 -0.057568 0.087609 0.085742 -0.052739 0.015798 -0.058580 -0.000881 0.022045 0.002911 -0.090463 0.004426 0.037140 -0.043013 0.030062 0.047546 0.012628 0.078333 -0.124097 -0.051592 -0.023624 0.022464 -0.016676 -0.033410 0.000650 -0.062060 0.050416 -0.055742 -0.141251 -0.017891 0.004142 0.001324 -0.003940 -0.032322 -0.022985 0.007086 -0.043217 -0.041778 -0.087193 -0.005934 0.072748 0.018312 -0.023774 -0.025668 -0.009841 -0.044683 -0.048414 0.008261 -0.005915 0.026314 0.042087 -0.018657 -0.110350 0.048246 0.002796 0.015490 -0.078431 -0.130248 -0.039366 0.043029 0.000117 -0.018682 0.073248 0.050300 -0.013223 0.124683 -0.049696 0.011855 0.053813 0.061610 0.122207 0.023025 -0.019710 -0.044800 0.031109 -0.030092 -0.024521 -0.017398 0.037453 0.067264 0.078006 0.010498 0.034588 0.122624 0.022266 -0.119649
56 0.076448 0.090329 0.059693 0.110459 -0.049019 0.087229 -0.069649 0.029893 -0.087576 -0.039872 0.011667 0.052923 0.011440 0.027387 -0.036933 -0.133825 -0.085722 -0.011652 0.036229 0.031453 0.018486 -0.033102 0.104571 0.006681 -0.071082 -0.017796 0.116341 -0.024455 0.031951 -0.003927 0.084928 -0.069783 -0.014399 0.032427 -0.094509 0.055749 0.075828 0.034592 0.009324 0.011610 0.028213 -0.138888 0.025426 -0.027526 -0.003446 0.110167 -0.059550 -0.059520 0.019114 -0.089990 0.068583 0.090287 -0.030716 -0.033027 0.060290 -0.090859 0.091749 0.097683 -0.001789 -0.008091 -0.108658 -0.079643 -0.054013 0.003159 0.049179 -0.024677 -0.028303 -0.000493 0.015570 0.010161 -0.022804 -0.025897 -0.045311 -0.013813 -0.118657 0.024162 -0.098699 -0.075856 0.022556 -0.065257 0.034520 0.000163 0.109943 -0.030468 0.000176 0.047212 -0.025070 -0.035331 -0.032171 -0.006121 0.061894 -0.088327 -0.065264 -0.040772 -0.111721 -0.003875 -0.129119 0.004335 0.029262 -0.095865 -0.053207 0.067344 -0.026491 0.095856 -0.065300 -0.061729 -0.007315 0.115874 -0.013326 -0.010816 0.019195 0.000751 0.077766 -0.081307 -0.136517 -0.061632 0.101543 -0.062402 -0.051754 0.040091 -0.024721 -0.112469 0.096613 -0.089720 0.075981 0.046106 -0.000218 -0.004598
57 -0.158324 -0.019792 0.069046 -0.039348 -0.055442 0.079191 0.086142 -0.010022 0.103104 0.128740 -0.059453 0.099080 -0.032636 0.060910 -0.090795 -0.042809 0.031333 -0.022477 -0.003222 -0.079640 -0.021026 -0.105393 -0.064021 -0.041576 0.017055 -0.015981 -0.059288 0.073747 -0.014021 0.000810 -0.091356 -0.008461 -0.044426 0.030978 0.075290 0.027455 0.030047 -0.002949 -0.003192 0.091442 0.054860 -0.053797 -0.034571 -0.033232 0.025455 0.078703 0.104506 0.042368 0.055806 -0.014071 0.020780 0.059967 0.000898 -0.023007 -0.010723 0.054218 0.043201 -0.004984 -0.044119 0.055563 -0.081931 -0.045072 0.007000 -0.048394 0.020814 0.046818 -0.043438 0.056945 0.100409 -0.009986 0.065428 -0.028187 0.022783 -0.070836 0.009056 -0.010979 0.038744 0.011640 -0.034542 -0.076015 -0.027282 -0.067722 -0.018794 -0.109442 0.043187 -0.080957 -0.106263 -0.004139 -0.032265 -0.010575 0.008568 -0.092149 -0.083448 0.051727 -0.070441 0.054772 0.102016 -0.022097 0.032696 -0.018631 -0.031738 -0.069567 -0.045717 -0.003084 0.093176 -0.029465 -0.039011 0.015896 0.033034 -0.054024 -0.010597 0.064184 0.135657 -0.080839 -0.010184 0.066039 0.011832 0.094987 -0.001535 0.014820 0.019711 0.001124 0.079828 0.027497 0.026473 0.132336 0.011736 0.052139
58 0.056927 0.112983 0.033200 -0.000475 -0.000498 0.072195 0.019768 0.027544 0.008908 0.019253 -0.054961 0.112661 -0.032888 0.007950 -0.076507 -0.069803 0.030431 -0.154411 0.026413 -0.042272 -0.031451 0.016245 0.013804 -0.012649 0.022641 -0.089207 -0.017942 -0.019764 0.036133 0.031922 0.056226 -0.076301 0.047377 -0.037472 -0.045472 -0.006317 0.047095 0.033234 -0.002294 -0.013713 0.037352 -0.072890 0.042331 -0.048638 0.041709 0.026789 -0.042281 0.016262 0.054389 0.084059 0.024791 0.144278 0.051624 -0.010423 0.026847 -0.004739 0.006302 0.072284 0.039034 0.138775 -0.029505 0.049089 -0.077432 0.023709 -0.068311 -0.086232 0.038918 -0.084125 0.036328 0.044389 -0.016692 -0.004494 0.027024 -0.056857 -0.025849 -0.026131 0.016613 0.032319 -0.058665 -0.069361 0.024423 -0.024115 0.044876 -0.001703 -0.088098 0.051345 0.009958 0.020414 -0.054185 -0.086169 0.022366 -0.008641 0.033581 -0.027630 -0.080278 -0.033019 -0.007785 0.055295 -0.158788 -0.047428 -0.031243 -0.017335 0.044161 0.003551 0.006723 -0.026470 0.023430 0.078926 0.001788 0.051880 0.056697 -0.079873 0.017083 -0.019539 -0.091245 -0.020892 0.008047 -0.037855 0.035055 -0.044472 0.012906 -0.044556 0.076646 -0.008061 0.045424 -0.002940 -0.030066 -0.048190
59 -0.011454 -0.004790 -0.025245 -0.033340 0.022342 0.127403 0.019116 -0.001890 0.040675 0.053850 -0.065708 0.085929 0.032964 0.104383 -0.072974 -0.043367 0.019884 -0.039384 -0.094522 0.000055 0.114192 -0.013817 -0.053979 -0.012165 0.048957 -0.055746 -0.062130 0.056864 0.081700 -0.048547 0.010625 -0.043162 0.025216 0.086868 -0.070211 -0.017917 0.014013 -0.078795 -0.073548 0.060680 0.079557 -0.056624 -0.035973 0.000125 0.026528 0.023986 0.022683 -0.073572 -0.009099 0.016088 0.019489 0.022372 0.003703 -0.028224 0.008779 -0.013283 0.085786 -0.081142 0.028102 -0.073455 -0.059387 -0.071992 0.028502 -0.043401 0.068318 -0.082928 0.007958 -0.016466 0.061181 0.018505 0.045802 -0.010680 0.040024 -0.009635 0.020734 -0.032244 0.088505 0.046021 -0.092903 0.006022 0.016972 -0.055490 -0.007061 -0.044750 0.110991 0.002551 -0.004523 -0.000016 0.094956 0.111031 0.060987 -0.010453 -0.110108 0.034027 -0.115849 0.025664 -0.009133 0.146298 -0.011246 0.104308 0.062603 -0.020000 -0.021757 -0.048616 0.042824 -0.039159 -0.035774 -0.011002 0.069802 -0.122849 -0.014265 0.063490 0.148890 -0.068112 -0.071926 0.079331 -0.090300 -0.042822 0.064753 -0.061842 -0.083297 -0.016981 -0.050938 -0.068161 0.034888 -0.014010 -0.052150 -0.045354
60 -0.069099 -0.096305 0.030181 -0.058220 -0.030184 0.096363 -0.049513 0.071549 0.074195 0.051955 -0.104414 0.108982 -0.028095 0.146520 -0.138473 0.028885 -0.066600 -0.029148 0.024860 0.042505 0.021004 -0.086245 -0.011271 0.017904 0.078850 0.003038 0.082058 0.055096 0.046828 -0.014349 -0.002820 -0.040553 0.008659 0.071411 0.017394 -0.028577 0.019969 -0.007240 -0.027838 0.106620 0.089930 -0.007968 -0.099732 -0.012080 -0.046725 0.111144 0.035178 -0.019589 0.018316 -0.047830 -0.043617 -0.023352 0.064902 0.006514 0.002827 -0.019371 0.088316 0.017046 -0.043874 -0.006837 -0.097165 -0.055687 -0.048166 0.030957 0.029081 -0.018187 0.057360 0.019008 0.059278 0.036185 0.010475 -0.041128 0.025462 0.003813 0.057091 0.063186 0.056673 -0.130658 -0.103526 -0.003753 -0.079162 -0.114089 -0.001947 -0.020020 0.042348 -0.001725 -0.001243 0.067977 -0.008944 0.037486 0.028010 -0.088019 -0.008156 0.077817 -0.000901 0.037735 0.021356 0.030057 0.045827 -0.046999 -0.040819 0.071160 0.075981 -0.027747 0.070771 0.044018 -0.040670 -0.042323 0.016303 -0.068007 -0.018446 0.015656 0.040033 -0.012508 -0.062599 0.083166 -0.161979 -0.035487 0.006350 -0.067386 -0.021789 0.062613 0.099749 0.074598 0.076122 0.050550 -0.047009 0.112656
61 0.039862 0.087925 0.004836 0.019202 -0.098431 0.021511 -0.071344 -0.099209 -0.004760 0.041075 0.066017 0.067927 -0.033952 -0.046503 -0.092275 0.014007 0.024234 -0.056986 -0.000597 0.063338 -0.038501 -0.030842 -0.013243 -0.065006 0.053331 -0.064981 0.006252 0.093201 -0.004497 -0.004434 0.046858 -0.024475 -0.091556 -0.007701 0.039469 -0.007870 0.105423 0.075998 -0.000467 0.041695 0.021929 -0.058386 -0.004851 -0.025202 0.092257 0.024148 -0.059780 -0.035449 0.030425 -0.013530 0.068425 -0.041403 0.076355 0.008812 -0.064272 -0.021350 0.037120 0.045035 0.071141 0.019297 -0.012926 -0.091265 -0.057561 0.067133 0.004925 -0.025066 0.046200 -0.065492 0.051995 0.032957 -0.153001 -0.039479 -0.022083 -0.065465 0.018443 0.057748 -0.015524 -0.051056 0.040749 0.119565 0.002185 -0.037283 0.009160 0.041138 -0.058270 -0.002473 -0.048255 -0.026341 -0.034878 -0.018915 -0.031900 -0.014547 -0.017632 -0.007037 -0.018754 0.009146 -0.020351 0.060356 -0.123379 -0.011809 -0.031548 0.015630 -0.024760 -0.057165 0.053128 -0.133302 -0.133780 0.002900 -0.009714 0.061248 0.044215 -0.022248 0.082519 0.013452 -0.100382 0.017275 -0.005762 -0.055947 -0.013997 0.014583 -0.001910 0.052022 0.092069 0.019225 0.129303 0.088745 0.018327 -0.036441
62 0.005674 -0.103017 -0.024496 -0.020749 -0.071485 0.136606 0.004451 0.045374 -0.021852 0.072796 -0.046953 0.092628 0.054544 0.065399 -0.097280 0.043373 -0.000014 -0.016215 -0.041984 0.067651 -0.057450 -0.010133 -0.035260 -0.052471 -0.019144 0.083529 0.068395 0.001983 0.038947 -0.024462 -0.015683 -0.095325 -0.031738 0.070593 0.034195 0.078342 0.071141 -0.030192 -0.030765 0.015380 0.088102 -0.024830 -0.097352 -0.059095 -0.012660 -0.008153 -0.036973 -0.030470 -0.026010 -0.025031 0.062322 -0.074449 -0.091032 0.042841 0.020703 0.065586 0.068245 -0.039682 -0.093813 -0.015301 -0.105042 0.070518 0.076065 0.066278 0.067477 0.030324 -0.060271 0.028709 0.051414 0.060215 -0.025913 -0.049664 -0.006552 -0.061964 0.071612 -0.009744 0.155151 -0.034901 -0.116602 0.093103 -0.023945 -0.098110 -0.034744 0.038249 -0.044240 -0.039535 -0.056017 -0.002532 -0.010486 0.076454 0.051011 -0.083516 0.007785 0.029378 -0.012429 0.032127 0.075021 0.073828 -0.020642 0.084261 0.032655 -0.005672 -0.044620 -0.005827 0.039980 -0.021860 -0.033452 -0.033372 -0.048514 -0.008186 0.030421 0.028674 -0.004403 -0.020353 -0.050501 -0.021151 -0.040960 -0.006441 0.058679 -0.010357 0.007420 0.030086 0.034312 0.051298 0.135932 0.004878 0.033762 -0.025517
63 -0.203228 -0.080219 -0.028699 -0.110097 -0.126791 0.062288 0.037574 0.021707 0.017845 -0.000150 -0.081465 0.039768 0.000308 -0.003911 -0.076062 0.031283 0.042028 0.040778 -0.001501 -0.033786 0.019154 -0.063287 -0.073281 -0.073286 -0.031198 0.060660 -0.049045 0.011654 0.042681 -0.002650 -0.003445 -0.039800 -0.007382 -0.016675 0.016910 0.037967 0.094747 0.057693 -0.075355 -0.003486 0.014401 -0.045189 -0.080878 -0.052235 0.014955 -0.026172 -0.026056 -0.058142 -0.015746 0.080074 0.104683 -0.063756 -0.112605 -0.035055 0.035920 -0.054685 0.010348 0.056688 -0.067692 0.040034 -0.077318 -0.071096 -0.025340 -0.029591 0.025875 -0.035319 0.049391 0.087719 0.016559 0.100914 0.049913 -0.057264 0.023769 -0.045938 -0.029189 -0.092180 0.131175 -0.121131 -0.050711 -0.053750 0.073330 0.020023 -0.036068 0.013300 0.015635 0.012991 -0.095287 0.013897 0.080611 0.114482 0.133667 -0.047230 -0.060760 0.087901 -0.027580 -0.020773 0.039226 0.020569 -0.028265 0.016668 -0.054170 -0.008818 -0.000007 -0.030564 0.009938 -0.012295 -0.074046 -0.004441 0.068532 0.022257 -0.001404 0.021767 0.117472 -0.004270 -0.000115 0.017483 0.002216 -0.018499 0.031102 -0.087286 -0.074971 -0.076713 0.036675 0.079719 -0.075163 -0.052104 -0.058014 -0.001612
64 -0.022889 -0.070170 0.096406 -0.072131 -0.076439 0.148106 0.004259 -0.016951 0.057185 -0.014881 -0.049523 0.020392 0.012418 0.096485 -0.082717 0.028038 -0.002691 -0.045245 -0.132782 -0.119436 -0.009499 -0.037561 -0.076999 -0.014926 0.063859 -0.039281 -0.006238 -0.008462 0.092387 0.028018 0.055484 -0.044802 -0.040723 0.074385 -0.013420 0.056004 0.119026 0.023618 -0.068807 0.043990 0.087406 -0.070756 0.062922 0.000148 0.044005 0.062004 0.020109 -0.020662 0.045104 0.061817 0.009705 0.007342 -0.098226 0.012855 -0.007814 -0.077430 -0.025599 -0.009963 -0.024379 0.014203 -0.010601 -0.040276 -0.005068 -0.065198 -0.026234 0.000840 -0.063102 0.040267 0.013575 -0.043748 0.008010 0.007582 -0.009254 -0.017924 -0.039650 -0.034424 0.108456 -0.055148 -0.085224 0.010688 0.083886 -0.012611 -0.048921 -0.002328 0.026255 -0.013237 -0.079735 0.013881 0.073174 0.113944 0.148661 -0.015370 -0.085758 0.011997 -0.041287 0.040630 -0.040344 -0.014308 -0.007142 0.007219 -0.034807 0.051064 0.064310 -0.093256 0.027445 -0.079996 -0.025519 -0.027350 -0.039227 -0.060690 0.009554 -0.016708 0.034467 0.018277 -0.024824 0.001765 -0.023577 -0.047934 0.098713 -0.034229 -0.073280 -0.055115 0.011242 0.025583 0.000557 0.111589 0.031006 0.022589
65 0.069641 0.178760 0.022154 0.027624 -0.080746 0.020378 -0.048257 -0.024013 0.034035 -0.038983 -0.037816 0.091109 -0.034784 0.053524 -0.012260 -0.089027 -0.064583 -0.075073 -0.057152 0.053188 0.051306 -0.145528 0.136741 -0.037452 0.013990 -0.037693 0.071917 0.019293 0.036059 -0.008604 0.101973 -0.121765 -0.017092 -0.058346 -0.051991 -0.002392 0.024716 0.087259 0.076852 0.040064 0.084412 -0.027068 -0.013925 -0.021320 0.040520 0.063070 0.029907 -0.006531 -0.019904 -0.021486 0.036470 -0.017339 -0.028884 -0.011428 -0.087565 0.024163 0.028663 0.036729 0.023569 0.007894 -0.116406 -0.164963 0.023526 -0.004328 -0.013578 -0.107030 0.040749 0.008749 -0.058516 0.090410 -0.072856 0.054931 -0.053427 -0.000948 -0.047929 -0.012650 0.029132 -0.048677 -0.077399 0.005992 -0.041520 -0.032414 0.058410 0.034670 -0.049162 -0.002067 -0.018175 0.046254 -0.060158 -0.018029 -0.020898 0.026139 -0.023846 0.048547 -0.021830 0.011107 -0.107433 -0.023883 -0.096744 -0.032221 -0.039267 -0.020528 0.002782 0.033003 0.028927 -0.080324 -0.041486 0.108021 -0.052158 -0.010096 0.042747 0.058629 0.017106 0.036801 -0.120949 -0.044352 0.048521 -0.020387 -0.013684 0.033657 0.011664 0.063416 0.034635 -0.057526 0.034802 0.043408 0.048762 -0.044461
66 -0.055719 0.081497 0.002695 0.021142 -0.061738 -0.012396 -0.003913 -0.033344 -0.007061 0.023039 0.030119 0.127911 0.040132 -0.100982 -0.045986 -0.037765 -0.046888 -0.054396 -0.004519 -0.054378 0.032479 -0.041979 0.000781 0.011555 -0.002252 -0.009801 -0.002454 -0.114018 0.044607 0.005975 0.074453 -0.113004 -0.039665 -0.094041 -0.072067 0.002945 0.101102 0.015016 0.085590 -0.007456 0.100325 -0.055793 0.097368 -0.020682 0.049764 0.101219 -0.055428 0.027463 0.109694 -0.006544 0.034034 0.065289 0.039558 -0.025346 -0.059479 0.063497 0.058110 0.062962 0.010998 0.002720 -0.125727 -0.041903 -0.020487 0.062731 0.016786 -0.002292 -0.076977 -0.158289 0.047283 0.067604 -0.009661 -0.010583 0.020010 -0.038985 -0.067432 0.036231 0.040479 0.020461 -0.062104 0.001186 -0.083563 -0.016737 0.027001 -0.001311 0.014530 -0.002582 -0.059882 0.021665 0.004293 -0.055259 -0.105086 0.015450 0.041117 0.039748 0.009743 0.019173 -0.016376 0.061727 -0.028485 -0.032819 -0.115235 -0.008982 -0.005127 0.037368 0.031946 -0.030980 -0.027582 0.071750 -0.020469 -0.069055 0.113843 -0.041082 0.095226 -0.054635 -0.036887 -0.046201 -0.024183 -0.053771 0.084263 -0.024410 0.086564 -0.008784 0.001800 0.036176 -0.003243 0.030246 0.022974 -0.133359
67 0.062655 0.113710 0.077916 -0.003264 -0.096420 -0.066361 -0.025097 0.035523 -0.069701 0.002067 -0.021306 0.068577 -0.004469 -0.045165 0.047263 -0.067877 -0.077915 -0.076650 -0.039298 0.017901 0.017450 -0.093875 0.078310 -0.048394 0.094916 -0.077526 -0.058474 -0.065783 0.010873 -0.023588 0.042195 -0.152043 -0.000464 -0.000705 -0.068499 0.038581 0.054120 0.035868 0.018289 0.033197 -0.038036 -0.040421 -0.061862 -0.036839 0.005829 0.073333 -0.066500 -0.028639 0.035822 -0.014952 0.022346 0.079848 0.076825 -0.035247 -0.088507 -0.033396 0.069462 0.139347 -0.064325 0.013987 -0.035391 -0.105498 0.012508 0.068029 0.024459 -0.082964 0.047515 -0.103173 0.078996 -0.077080 0.001341 -0.021866 0.014534 -0.035987 -0.016749 0.094099 0.014614 -0.013418 -0.053174 -0.002782 0.057835 0.015572 0.052532 -0.005162 -0.125032 -0.009281 -0.012883 -0.006644 0.055079 0.046664 -0.055081 -0.005426 0.025974 0.061324 0.004350 -0.029373 -0.026503 0.112430 -0.045341 -0.067992 0.006913 0.025912 0.014860 -0.011997 0.014272 -0.050993 -0.073559 0.147137 -0.037047 -0.064882 0.032725 -0.031211 0.037930 0.014505 -0.072883 0.071070 0.069455 0.004876 0.017098 -0.036117 0.002603 -0.039588 0.044507 0.064619 0.048607 0.018108 0.031831 -0.079253
68 -0.079302 -0.121214 0.031545 0.003038 -0.007459 0.122936 0.008031 -0.084363 -0.048691 -0.039437 -0.072756 0.020139 0.043661 0.036960 -0.091907 -0.044730 0.033193 -0.011592 -0.065933 -0.029502 -0.046977 0.048092 -0.045433 -0.076297 0.008978 0.017474 -0.001647 0.095952 0.008979 -0.026261 0.031762 -0.050246 0.091527 0.025334 -0.027836 0.037937 0.072897 0.012755 0.015182 -0.019437 0.020423 -0.089216 -0.098800 0.016786 -0.010067 -0.035808 0.053336 0.018329 0.059855 0.015055 0.056954 0.131396 -0.029800 0.060553 0.046517 -0.006830 0.046700 0.062394 -0.014179 0.051504 0.001039 -0.075788 -0.039008 -0.053673 0.036751 0.000868 -0.037823 0.022358 -0.067979 0.030224 0.002072 0.059213 -0.016475 0.026260 -0.075878 0.035872 0.081328 0.034375 -0.065944 -0.051842 -0.069525 -0.101088 -0.033052 -0.138763 0.061342 0.042597 -0.073386 0.009818 -0.016214 0.039590 0.036510 -0.062347 -0.076747 0.116329 -0.062897 0.152745 0.054032 -0.018010 -0.102540 0.035916 -0.013440 0.007619 0.027858 0.071803 0.098348 -0.031613 -0.026347 0.011450 -0.052841 -0.056404 -0.016809 0.011098 0.100019 0.007493 -0.087814 0.074653 -0.056717 0.013479 0.005326 -0.040641 -0.108737 -0.029909 0.043965 0.023069 0.012048 0.079077 -0.020764 -0.045169
69 0.028973 0.087182 0.082619 0.026433 -0.115998 0.049336 0.008000 -0.028334 -0.021556 -0.031073 0.012433 0.036699 0.003671 -0.015779 -0.088011 -0.049614 -0.057902 -0.043931 -0.053440 0.065889 0.075074 0.008754 0.072264 0.003989 0.037907 -0.076718 -0.111386 0.021974 0.129027 -0.003337 0.160302 -0.050671 -0.103999 -0.005804 0.035604 -0.022701 0.115209 0.071282 0.028186 0.001531 0.056077 -0.114687 0.014096 0.009248 0.072510 0.070628 -0.050284 0.020548 -0.026412 -0.008193 0.048179 -0.027365 -0.100684 0.081784 -0.012533 0.019734 0.036265 0.111221 -0.012588 -0.025719 0.002343 -0.061811 -0.023260 0.072679 -0.003391 0.022352 0.039255 -0.052980 0.076823 0.034376 -0.091855 -0.076079 -0.030954 0.046658 -0.109252 -0.007214 0.078385 -0.026234 0.007843 -0.032753 0.000508 -0.107345 0.119901 -0.040259 -0.052303 -0.026579 -0.063532 -0.017185 0.011003 0.048070 -0.055613 -0.047253 -0.005619 0.044128 0.028311 -0.035814 -0.008517 0.110207 -0.046453 0.000270 -0.040272 -0.059637 0.065558 0.014794 -0.040282 -0.001996 -0.012785 0.090058 -0.024964 0.019172 0.083772 0.019209 -0.024131 0.045743 -0.037220 -0.006413 -0.007742 -0.029463 -0.033931 0.011984 -0.010997 -0.008282 0.130220 0.007926 -0.000727 0.046783 0.015473 -0.084170
70 0.091090 0.173157 0.026615 -0.020252 -0.150280 0.085677 0.067627 -0.022162 0.065552 0.000511 0.017028 0.083738 -0.041897 0.006647 0.024479 0.021384 -0.017430 -0.056776 -0.037453 0.051981 -0.015426 -0.044957 0.032711 -0.074827 0.033257 -0.076212 -0.001046 0.035416 0.044524 0.017960 0.097385 0.011502 -0.020917 0.045879 0.039254 0.038247 -0.034675 0.095997 -0.005104 -0.014923 0.186471 -0.006206 0.005729 -0.017735 -0.035141 0.061886 -0.028040 -0.118774 -0.011906 0.039898 -0.051474 0.005976 0.013057 0.045251 -0.036413 0.076341 0.016628 0.047243 0.025106 0.084826 -0.000480 -0.005316 -0.020705 0.079814 -0.014906 -0.068746 0.079870 -0.065438 0.083441 0.064792 -0.010463 -0.097220 -0.034746 -0.046145 0.008181 0.001502 0.008268 0.065039 -0.032921 -0.017864 0.008443 -0.037215 0.076498 0.030127 -0.065298 0.057258 -0.008574 0.038651 0.109082 -0.018920 -0.068041 -0.016142 -0.014019 -0.026606 -0.033724 0.020704 -0.023297 -0.020147 -0.147267 -0.108523 -0.031756 -0.051319 -0.048271 -0.050858 0.018327 -0.012917 -0.020717 0.123139 0.060127 0.017720 0.093036 0.026648 0.021928 0.028335 -0.071535 -0.075884 0.016145 -0.033588 0.054015 0.070414 -0.053352 0.038546 0.095178 -0.071771 -0.034544 0.021387 0.018552 -0.031201
71 -0.129039 -0.003782 -0.014919 0.014644 -0.049187 0.074028 0.128526 -0.029821 0.031774 0.116657 0.003913 0.091828 0.093768 0.074696 -0.085032 0.069474 0.023966 -0.045789 -0.081822 -0.033488 0.039204 -0.080328 -0.026770 0.076779 -0.066332 0.035035 0.021186 0.072912 -0.035535 0.048237 0.135293 -0.048000 -0.000201 0.073979 0.074486 0.031842 0.049102 -0.054511 0.017216 0.084002 0.059353 -0.061902 -0.025435 -0.028484 -0.047944 0.056647 0.085162 -0.023946 -0.061104 0.006031 -0.013858 -0.017389 -0.019710 -0.024334 -0.005030 -0.005890 0.043279 -0.025356 -0.088181 0.050295 -0.115185 0.071006 0.050537 -0.095270 0.095273 -0.011484 0.067809 0.035695 0.100798 0.008456 -0.015762 -0.095293 0.050545 0.047835 0.086788 0.039593 0.003904 -0.046295 -0.067324 -0.034922 0.028203 -0.021888 -0.113880 -0.141198 0.000405 0.025761 0.000447 0.042347 -0.003123 0.035852 -0.001764 -0.072970 -0.062216 0.068781 -0.092369 0.038698 0.033458 -0.062883 -0.084156 -0.015506 -0.010723 0.042588 0.018250 0.017075 -0.008121 0.094396 0.009498 0.057767 0.089790 -0.069991 0.052532 0.038426 0.039858 0.001354 -0.028708 0.086416 -0.142136 0.035146 0.060699 -0.010919 0.057352 -0.006668 0.044218 -0.056456 0.132236 0.024706 -0.051864 0.032954
72 -0.163390 -0.004622 -0.013559 0.046461 0.030108 0.145113 0.028685 -0.042250 0.035109 0.029374 -0.037808 0.076760 0.043596 0.105754 -0.110344 -0.012832 0.022834 -0.068968 -0.018065 -0.106005 0.011045 -0.050831 -0.100670 -0.074809 0.045904 0.031938 0.034228 0.098682 0.020582 0.014256 -0.005129 -0.107558 -0.040076 -0.026194 0.008760 0.036860 0.013940 0.035918 -0.068219 0.030348 0.042689 -0.085501 -0.047101 -0.007719 -0.096631 0.153326 -0.011516 -0.080222 0.040683 0.030424 0.035019 -0.030743 -0.005495 -0.011777 0.028372 0.102145 0.045474 -0.041052 -0.064205 0.025005 -0.044582 0.021302 0.039578 0.028846 0.029764 0.008797 0.013125 0.002408 -0.001287 0.042612 0.046885 0.023272 0.023868 -0.040793 -0.009678 0.060679 0.095818 0.008796 -0.106028 0.093706 0.012730 -0.170525 -0.010312 -0.008120 0.016185 0.018558 -0.036780 -0.007617 0.020708 0.045669 0.056493 -0.024761 -0.109602 0.089094 0.054545 -0.027742 0.029494 -0.005551 -0.067945 0.001756 -0.002515 0.054250 -0.052982 0.007264 -0.044915 0.011421 -0.002074 0.025947 0.041085 -0.074649 0.024751 0.009675 0.120835 -0.001488 -0.049250 0.084653 -0.066169 -0.039559 0.055138 -0.122987 -0.051240 -0.002372 -0.044910 0.012799 0.035628 -0.050567 -0.019590 0.050646
73 0.077709 0.051823 -0.035905 0.035506 -0.048414 0.085778 0.053977 -0.020189 0.089571 0.030518 -0.024021 0.000769 -0.037703 -0.009490 -0.058154 -0.055400 -0.127748 -0.092188 0.006345 0.016303 0.041591 0.032618 0.019408 -0.072435 0.026974 0.001472 -0.036983 -0.093368 0.030746 -0.002540 0.037274 -0.006946 -0.055205 -0.039608 -0.018715 0.132100 0.070878 0.060479 0.055993 0.020296 0.139435 -0.037882 0.079688 -0.128315 0.025254 0.103441 0.037000 0.057269 0.043618 -0.032136 0.069570 0.048484 0.016287 0.023895 0.010645 -0.014617 0.054561 -0.028984 -0.002354 0.044381 -0.031768 -0.055218 -0.022969 -0.073461 -0.047843 -0.040819 0.007856 -0.000801 0.090251 -0.011777 -0.068536 0.020161 0.033769 0.008690 -0.030888 0.005165 -0.033479 -0.052356 -0.073878 0.013295 0.011459 -0.080060 0.043006 0.075942 -0.044007 0.089747 -0.059473 0.030016 -0.040377 -0.002408 -0.018496 -0.019809 -0.017586 -0.059994 -0.036220 -0.038529 -0.057437 0.067546 -0.046365 -0.114332 -0.019844 0.091581 -0.000696 -0.013068 0.055233 -0.073570 -0.022244 0.136836 -0.109080 -0.027755 -0.001540 -0.052361 0.003685 0.087460 -0.066598 -0.070091 -0.025563 0.031792 -0.045626 0.008634 -0.020717 0.033970 0.042952 -0.035763 0.024455 0.068336 -0.032082 -0.041570
74 0.002764 0.137559 0.058086 0.052959 0.039463 0.101236 0.041169 -0.056641 -0.037991 -0.074466 -0.035778 0.080898 0.034997 -0.094494 0.036639 -0.037183 -0.070784 -0.083419 -0.060734 -0.087845 -0.024308 0.009397 -0.017471 -0.002876 -0.015389 -0.007162 -0.110359 -0.051185 0.052266 0.012808 0.043859 -0.044351 -0.012209 -0.066960 0.049298 -0.001319 0.061479 0.052672 0.137640 -0.039552 0.108504 0.010330 -0.009344 -0.108423 0.054299 0.143506 -0.075515 0.102171 0.027241 -0.015933 0.038638 0.054562 0.017024 -0.016908 -0.031473 -0.007898 0.034068 0.103093 0.016213 0.080404 -0.057047 -0.009639 -0.006138 0.038408 0.051626 -0.071605 0.039074 -0.032545 0.060805 0.106797 -0.085104 -0.022986 -0.025237 -0.024927 -0.102858 -0.020492 -0.000614 -0.032213 -0.084262 0.039399 -0.029050 -0.133373 -0.014999 -0.001231 -0.092380 0.028988 -0.078414 0.001769 0.017224 -0.071994 -0.028262 -0.023363 -0.023777 0.035397 -0.103054 0.045871 0.001365 0.012558 -0.026563 0.031855 -0.024914 -0.008758 -0.024295 -0.035085 0.023248 -0.069479 -0.016350 0.028760 -0.037242 0.023019 0.160977 0.013407 0.010306 0.009197 -0.076361 0.027852 -0.039185 0.017005 0.006551 0.059787 0.056471 0.013974 0.077377 -0.069005 0.054228 0.038161 0.006962 -0.101798
75 -0.014559 0.090438 0.050662 0.046714 -0.010923 0.024734 0.035871 -0.118554 -0.006995 -0.090855 -0.113841 0.170939 -0.011389 -0.102015 -0.009733 -0.071864 -0.073452 -0.028210 -0.051183 0.024353 0.016659 -0.100202 0.056311 -0.037865 0.023256 -0.036606 0.001817 -0.058601 0.006738 -0.030181 0.128728 -0.025630 -0.006559 0.038637 0.004908 -0.017604 -0.015837 0.063894 0.126339 0.039039 0.133155 -0.022782 0.038497 -0.019096 -0.033489 0.084048 0.012007 0.018935 0.058407 -0.036325 0.033051 -0.085292 0.026733 -0.021154 -0.019174 0.040425 0.086970 0.025626 -0.003523 -0.047238 -0.054423 0.071362 -0.097720 0.118583 0.043524 0.032932 0.036245 -0.031980 0.093417 0.038940 -0.033721 -0.016254 -0.041647 0.053453 -0.106683 -0.038784 -0.044024 -0.186726 -0.033356 -0.031481 -0.046672 -0.056249 -0.005370 -0.021152 -0.036698 0.024651 -0.003947 0.065305 -0.025190 0.035437 -0.009750 0.014980 0.044953 0.000682 -0.054582 0.036835 -0.074551 0.146486 -0.081590 -0.054302 -0.028125 0.016681 0.013771 0.010995 0.065761 -0.057820 -0.053604 0.064745 0.001374 0.010800 0.067250 0.070212 0.060941 0.017647 -0.000911 -0.022301 -0.037977 -0.039288 -0.073558 -0.038858 0.020652 0.040251 0.087255 0.019416 0.021552 0.036786 -0.018593 -0.106558
76 -0.009611 0.154426 0.010684 -0.011030 -0.055168 0.058810 -0.056711 -0.041119 0.004617 -0.031291 -0.036093 0.031503 0.036593 -0.076353 -0.000070 0.026886 -0.089936 -0.099115 0.004568 0.081237 0.039123 0.007831 0.061905 0.020780 0.029565 -0.102557 -0.018086 -0.013032 0.045329 0.033253 0.090881 -0.038981 0.045559 0.022834 -0.009230 -0.066410 0.024172 0.056783 -0.065377 -0.018477 0.038422 -0.049215 0.030827 0.107166 0.033997 0.083424 -0.070243 0.012149 -0.029106 -0.040388 -0.017170 0.105616 0.004032 -0.088976 0.014168 0.040944 0.003679 0.062267 0.097140 0.055561 -0.116225 -0.056709 0.015936 0.082399 0.011568 -0.118976 0.049925 -0.065355 0.035045 0.056876 -0.068225 -0.019965 0.050756 -0.040150 -0.025690 0.073095 -0.014123 -0.063415 -0.032718 -0.031079 -0.007281 -0.007544 -0.098864 0.035481 -0.028586 -0.035734 -0.004787 0.040654 -0.032091 -0.009479 -0.001705 -0.008083 0.041438 0.123008 -0.026527 0.015521 -0.147305 0.062910 -0.115124 -0.120257 0.010564 0.043929 -0.002931 -0.005523 0.082661 0.011033 -0.055215 0.093339 -0.031662 0.039807 0.051531 0.012791 0.050641 0.087353 -0.075515 0.018492 0.054252 -0.052925 -0.016311 -0.041107 -0.047632 -0.046289 0.041338 -0.098592 0.046220 0.059317 0.059456 -0.102255
77 0.001565 0.078378 0.036808 -0.036921 -0.132779 0.032353 -0.031061 0.005784 0.010658 -0.017217 -0.037709 0.076853 0.018700 0.015680 -0.019912 -0.039105 -0.071192 -0.022990 0.000073 -0.018653 0.048760 -0.089234 0.018105 -0.128278 0.101512 -0.063083 0.017902 0.005206 0.045222 0.046002 0.052026 -0.055241 0.014914 -0.079959 -0.049366 -0.055287 0.075962 0.028610 -0.002435 0.105569 0.118615 -0.008970 -0.009625 -0.038261 0.001831 0.004675 -0.035709 -0.016466 -0.005425 -0.012822 0.047629 -0.008837 0.017381 -0.000776 -0.040114 -0.037127 -0.036634 0.060074 0.012637 0.098613 -0.067885 0.000959 -0.020486 0.055541 -0.002849 -0.083550 0.052088 -0.060847 0.063348 0.002032 -0.024330 0.106159 -0.031923 -0.015284 -0.018587 0.024046 0.015922 0.058415 -0.067273 -0.022521 0.087909 -0.108380 0.137684 -0.011803 -0.042073 0.085354 -0.009199 0.015786 -0.022015 0.005611 -0.012652 -0.026960 0.022174 0.059927 -0.063105 -0.035755 -0.028533 0.000278 -0.076332 -0.169344 -0.066965 0.047633 0.041449 -0.063518 -0.056315 -0.080029 -0.019138 0.081704 -0.000957 0.082402 -0.070995 0.039804 0.044445 0.003222 -0.022411 -0.001128 0.009629 -0.049393 -0.037392 0.012763 -0.069817 0.055401 -0.065725 -0.010250 -0.012468 0.089252 0.022195 -0.093267
78 0.024827 0.168302 -0.053005 0.032471 -0.060464 -0.031645 -0.037534 -0.011269 -0.091035 -0.016186 0.053156 0.064035 0.008508 -0.000083 0.062622 -0.085125 0.031966 -0.023438 -0.006029 0.032249 -0.054905 -0.033831 0.030518 0.002139 -0.021793 -0.122455 -0.023950 -0.054098 0.005398 0.061315 0.104207 -0.008509 0.026032 -0.148212 0.025245 0.050367 0.091700 0.023165 0.015988 -0.007948 0.102255 -0.059044 0.027942 0.010893 -0.008129 0.133530 0.023501 0.053329 0.033381 0.006204 0.129700 -0.000447 0.012553 -0.002624 -0.034600 0.075024 0.105153 0.094064 -0.020425 0.006993 -0.079410 0.033722 -0.082946 0.025456 0.013001 -0.047082 0.082543 -0.023292 0.033800 -0.056367 -0.103140 -0.031545 -0.031297 -0.032652 -0.093996 -0.035826 0.032251 -0.087348 -0.023439 -0.030840 -0.000394 -0.085724 0.050403 -0.037960 -0.078872 0.021261 -0.091533 -0.097419 -0.016222 0.009289 -0.035228 -0.037018 0.052428 -0.014060 0.033133 -0.005053 -0.106918 0.009645 -0.083848 -0.046690 -0.154079 0.050689 0.029665 0.056939 0.055688 -0.057309 0.053839 0.081024 0.035207 0.072205 0.081707 0.014891 0.040732 0.125905 -0.078921 -0.112243 0.084008 -0.027916 0.013164 -0.025380 0.001993 -0.100342 0.062474 0.096726 0.056151 0.079120 0.073616 -0.076987
79 0.101482 0.014771 0.005260 -0.009630 -0.133137 0.062282 0.008664 0.067642 -0.015422 -0.047926 -0.011483 0.105260 -0.153584 -0.001975 -0.022179 -0.076804 -0.091445 -0.099166 -0.053280 0.074280 -0.001324 -0.065241 0.014469 -0.001371 0.013689 -0.027552 0.083278 -0.023074 0.032209 0.020723 0.097656 -0.030296 0.043835 -0.059356 -0.006708 0.001175 0.053070 0.029953 -0.013133 0.005497 0.093187 -0.102006 -0.054595 -0.013293 -0.039900 0.043017 -0.048900 0.006897 0.020698 -0.053203 -0.025784 0.005551 0.026793 -0.006071 -0.016016 -0.009407 -0.084650 0.048201 0.010586 0.053407 -0.038667 0.041322 -0.052821 0.065177 0.094101 0.033026 0.016491 -0.130839 0.071614 0.067512 0.003182 0.046726 0.055139 0.001283 -0.086122 -0.026953 -0.032294 0.045896 -0.072962 0.067521 0.039087 -0.065945 0.013536 0.030302 -0.085734 0.026915 -0.072001 -0.063143 0.014328 0.056595 -0.064225 -0.006331 -0.039200 -0.033957 0.024803 -0.069662 -0.112727 0.038115 -0.057166 -0.060294 -0.008807 -0.014220 -0.013341 0.008774 0.036558 -0.064631 -0.000249 0.069317 -0.069761 -0.030292 -0.022415 -0.023554 0.003559 -0.046034 -0.116346 -0.085387 -0.014402 -0.042248 0.039824 -0.021256 -0.001256 -0.040440 -0.042838 -0.028171 -0.016876 0.070684 -0.037887 -0.126833
