3312 128
390 0.244451 -0.104621 -0.177713 0.060647 0.147617 -0.249964 0.158638 -0.026465 -0.077850 0.114338 -0.120816 -0.393190 -0.166448 0.121279 0.082682 0.225985 0.003655 0.100529 0.136258 0.019703 -0.191856 0.162063 0.300641 0.247905 -0.082324 0.013203 0.476664 -0.261266 -0.157417 0.461105 0.040582 0.130399 0.340237 -0.149555 0.079921 -0.035032 0.041591 0.085621 -0.412080 0.051350 -0.015932 -0.046632 0.237744 0.260552 0.799276 0.155847 -0.054859 0.005684 0.089122 0.040605 0.072726 -0.462946 -0.153953 -0.167735 0.131894 -0.310134 0.175312 0.140436 -0.190081 -0.008472 -0.141475 -0.111780 0.085531 0.034855 0.216197 -0.017413 0.171019 -0.118362 -0.035586 0.104994 0.271633 -0.096673 0.131156 -0.384638 0.152747 -0.128673 -0.120138 -0.027145 0.231167 0.215656 0.107144 -0.314583 -0.308888 0.061789 -0.210173 -0.101000 0.270384 0.145325 0.042437 0.161843 0.136927 0.109282 0.018791 -0.122265 -0.697711 -0.276948 0.002966 -0.196592 -0.268074 0.091961 0.049251 0.280195 0.428760 -0.343380 0.022413 -0.283663 -0.045339 -0.498338 0.460950 0.284444 0.345817 -0.317420 -0.043230 0.093833 0.100855 -0.037214 0.038869 -0.121657 0.135002 -0.450467 0.101397 -0.189412 -0.133322 0.052233 0.043364 0.049167 0.322130 -0.037029
847 0.056199 -0.047569 0.244210 0.142613 -0.177283 -0.176152 0.084979 0.128024 0.329240 0.015301 0.613029 0.101041 0.026656 0.079254 0.379056 -0.148185 -0.426364 -0.332248 -0.224385 -0.017428 0.256560 -0.080017 0.034438 -0.204168 0.099793 -0.278502 0.560200 -0.095874 -0.394157 -0.328638 0.296050 -0.544028 0.136499 -0.239956 0.149981 -0.156857 -0.043176 0.006428 0.175265 -0.168434 0.310028 0.260406 0.350640 0.292526 -0.031496 0.026859 -0.336322 0.161143 0.023394 0.377032 0.000825 -0.072408 0.282382 -0.306858 0.206621 -0.156841 -0.142237 -0.106889 -0.000897 -0.078152 -0.336548 0.065580 -0.571832 0.004403 0.300357 0.021600 0.488881 -0.221880 -0.029099 0.527695 0.266386 0.306044 0.004776 -0.132696 0.483637 0.133208 -0.175709 0.137693 0.094986 0.304877 0.200630 -0.063700 0.121081 0.094718 0.009261 -0.420419 0.119062 -0.081518 -0.277692 0.258047 -0.241142 -0.235723 0.512517 -0.011722 -0.158139 0.287091 0.346456 -0.016902 0.081597 -0.208814 0.035771 0.311535 -0.414408 0.315818 0.126732 -0.108563 0.195325 -0.134083 -0.350387 -0.041628 0.287163 -0.351385 0.111127 0.401271 0.086468 -0.496050 -0.315259 -0.455275 0.682685 -0.012626 0.065339 -0.120765 0.183571 0.330684 -0.250191 0.248018 -0.278300 0.363101
1918 -0.179427 -0.043094 -0.099502 0.439292 -0.521058 -0.108517 0.003237 0.426872 -0.193348 0.340341 -0.594649 -0.127161 -0.293697 -0.472508 0.550591 -0.323593 0.599756 -0.028132 -0.013261 -0.003340 -0.003141 0.287538 -0.261201 0.355836 0.420364 0.844602 0.564949 -0.014464 0.353336 0.075137 0.551843 -0.240328 -0.104435 0.460841 -0.163341 0.419640 0.196037 0.667293 -0.659394 0.263575 0.470216 -0.024505 0.326999 -0.125129 -0.056544 0.602645 0.325098 0.418830 -0.291790 0.009317 0.395336 -0.011932 -0.049308 0.442763 0.693161 -0.126209 0.013308 -0.885927 -0.367780 -0.972149 -0.962039 0.363138 0.009124 -0.726238 0.141307 -0.297461 0.119636 0.158466 -0.388919 -0.327263 0.075127 0.150359 -0.047534 0.533651 0.814512 0.886534 0.120250 0.385887 -0.337625 0.186343 -0.317699 -0.044472 0.265200 -0.517080 -0.020124 0.022996 0.108304 0.496995 0.321704 -0.671398 0.067373 -0.465778 0.168169 0.007910 -0.345841 0.104272 -0.310003 0.505185 -0.327044 -0.022279 -0.248159 0.211264 0.112714 0.369285 0.057417 0.198618 0.552764 -0.411411 0.313906 0.170338 -0.078210 -0.060414 0.354870 0.182827 0.250746 -0.339782 -0.439298 0.166405 0.523810 -0.216563 -0.169216 -0.614625 -0.351220 0.199489 -0.249310 0.075365 0.546152 -0.334129
643 -0.186238 0.542130 0.336508 0.225183 0.142453 0.151999 -0.339587 -0.502244 -0.039405 0.444875 0.554938 -0.573467 0.091473 0.264823 0.250447 -0.276067 0.077302 -0.465936 0.039101 0.064933 0.156658 0.030318 -0.041500 -0.327779 0.264602 -0.565782 0.427873 0.237767 0.215530 0.214813 -0.133207 -0.511909 -0.064095 0.132834 0.092247 0.112263 -0.333318 -0.087804 -0.213016 0.014637 0.313518 0.056739 0.474932 -0.353366 -0.344988 0.053120 0.260497 -0.029448 -0.194831 0.009821 0.262103 -0.179625 0.505710 0.001016 0.023340 0.252907 -0.547021 0.139173 -0.346894 0.111166 0.056520 -0.103950 -0.457447 0.156575 0.324769 -0.101443 0.299803 -0.109550 0.178616 0.370211 0.191331 0.351117 0.230560 -0.365095 0.237398 0.091024 0.188076 0.343454 0.137874 0.317323 -0.014469 -0.754978 -0.025640 0.112506 0.566254 -0.033053 0.178707 0.085196 -0.081129 -0.082337 0.079611 -0.507456 0.254390 -0.349784 -0.874142 0.203411 -0.193507 0.340848 0.364802 0.060456 0.095066 0.077053 -0.437204 0.816295 0.111167 -0.625015 0.049777 -0.004609 0.281521 -0.167560 0.486197 -0.331481 0.020121 0.081023 0.189979 0.030019 -0.079769 0.140219 0.182805 0.231667 -0.124223 -0.230791 -0.307882 0.219828 0.104747 0.256009 -0.183664 0.088612
471 0.314215 -0.031590 -0.182589 0.131988 0.320489 -0.203283 0.056386 0.540497 -0.058414 0.349400 -0.350541 0.127339 -0.202294 -0.024428 0.385270 0.124194 0.122154 0.211179 0.171348 0.310393 0.095008 -0.118397 0.444100 0.038787 -0.384787 0.084094 0.514182 0.336138 -0.128281 0.369123 -0.281369 0.280027 -0.105314 -0.347750 0.082222 -0.011282 -0.603628 0.287109 0.079747 -0.040287 -0.210472 -0.256297 0.156643 0.343343 0.560756 0.027933 0.165482 -0.191128 -0.093247 -0.415762 -0.045647 0.023964 0.015182 -0.365916 0.403939 -0.071459 -0.049431 0.214287 0.226985 -0.312724 0.089095 -0.231020 0.053456 -0.266037 -0.187451 -0.381059 -0.000790 -0.049306 -0.451390 -0.187718 0.445526 0.243496 -0.015033 -0.332132 0.243881 -0.299706 0.195188 -0.189023 0.045889 0.319434 -0.306506 -0.016497 -0.279349 0.349204 0.155276 -0.086455 -0.057027 0.548128 0.028084 -0.065216 0.126288 -0.244940 0.256811 -0.384330 -0.380303 0.045921 0.373476 0.115829 -0.244318 -0.016206 -0.129377 0.369332 -0.321645 -0.175735 -0.087927 -0.332245 0.033597 0.080199 0.386693 -0.246022 -0.058308 -0.211428 -0.132914 -0.090347 -0.102219 -0.208062 -0.026035 0.261522 0.414714 -0.315956 -0.213464 -0.532182 -0.094705 0.188878 -0.022737 0.275421 0.294625 -0.428193
661 -0.274338 0.373668 0.428462 0.370169 0.217635 0.276766 -0.215647 -0.234188 -0.362049 -0.151984 0.805162 -0.287295 -0.189616 -0.157395 0.332011 0.200047 0.020286 -0.555614 0.079522 0.155226 0.137554 -0.355865 0.037685 -0.256849 -0.071621 -0.876818 -0.304496 -0.224827 -0.006290 0.118158 0.394808 -0.585419 -0.027553 0.745850 0.154633 0.229874 0.260282 0.410678 -0.020616 -0.127506 0.316314 -0.093757 0.625691 -0.280350 -0.051292 -0.138119 -0.158428 0.367390 -0.034241 -0.674076 0.099800 -0.078029 0.281203 -0.209598 -0.231126 0.232805 -0.323239 0.283966 -0.124508 0.097785 -0.572582 -0.287538 -0.420668 -0.103514 0.470629 0.067155 0.527146 -0.033811 0.115272 0.079539 0.350680 0.049454 0.347141 -0.589237 0.697386 0.166528 -0.217561 0.228437 -0.476199 0.300416 0.365472 -0.335144 -0.240063 0.007568 -0.132699 0.082412 0.498503 0.259308 -0.073587 0.075303 0.345692 -0.904002 -0.151731 -0.233809 -0.161704 0.423293 0.021145 0.114803 0.199587 0.239849 0.123315 0.319694 -0.418077 0.220623 0.644075 -0.465364 -0.314017 0.174400 0.004183 0.043487 0.822725 0.047906 -0.501289 0.044772 -0.174846 0.161101 -0.511296 -0.438322 0.619328 -0.164660 0.077925 -0.456853 -0.144446 0.219909 -0.079089 0.160950 0.434195 0.492879
439 -0.084516 -0.064762 -0.320563 0.078839 0.187428 0.272727 0.106626 -0.184324 0.005141 0.026667 -0.315347 -0.311798 0.044119 0.059751 0.177596 0.349243 0.011071 0.158690 0.088844 0.298650 -0.082270 0.468865 0.432351 0.272384 -0.063164 -0.077256 0.540910 -0.286066 -0.195499 0.176059 0.093227 0.250575 0.141378 0.017006 0.073681 0.182330 -0.215679 0.379568 -0.281308 0.268373 0.109736 -0.303377 0.313131 -0.035260 0.778478 0.163973 0.214839 0.111123 -0.013196 0.011318 0.112173 -0.619940 -0.143460 -0.456192 0.397794 -0.080092 0.204539 0.053931 0.120614 -0.133807 -0.062043 0.070022 -0.099830 -0.073563 0.244563 -0.101648 0.078103 -0.318985 -0.035948 0.206520 0.259185 -0.075363 0.010741 -0.448763 0.235245 -0.498797 0.086741 -0.100344 -0.019749 0.361240 -0.020113 -0.448862 0.188491 0.023327 -0.273433 -0.629281 0.485644 0.356812 0.203545 0.416442 -0.164945 0.376824 0.300421 -0.493270 -0.363829 -0.158285 -0.051842 -0.024864 -0.183619 -0.310050 0.126068 0.585245 0.322134 -0.307693 0.329798 -0.342359 -0.093118 -0.004421 0.509659 0.112299 0.433206 -0.269817 -0.300040 -0.062494 0.071908 0.072521 -0.043764 -0.248501 -0.085429 -0.516164 -0.218264 0.086889 0.273869 0.173048 -0.094973 0.013305 -0.042254 0.073065
364 0.208569 -0.245474 -0.248084 0.265205 0.028571 0.051783 0.326870 -0.188205 0.235025 0.109433 -0.233109 -0.373122 0.135364 0.266188 0.166123 0.241150 0.131365 0.156449 0.032250 -0.034029 -0.275447 0.109989 0.390056 0.336666 -0.076631 0.006065 0.527026 -0.186074 -0.163303 -0.123861 0.102469 0.239231 0.392056 0.198363 0.314441 0.188011 -0.217485 0.030852 -0.311687 0.310305 0.042646 -0.456314 0.138836 0.198434 0.864442 0.051658 0.132406 -0.019469 0.140931 -0.081396 0.078229 -0.341355 0.222946 -0.237075 0.420557 -0.310168 0.471477 0.184213 0.061250 -0.135435 -0.180735 -0.031322 -0.072503 0.271550 0.176886 -0.127310 -0.004876 -0.369351 -0.083290 0.130612 0.076812 -0.024403 0.285420 -0.370947 0.521550 -0.324148 0.185392 -0.067529 0.074096 0.191866 0.171209 -0.387357 -0.254376 0.067814 -0.167223 -0.444792 0.378721 0.253471 -0.174097 -0.052622 -0.070570 0.366280 0.143402 -0.359253 -0.533151 -0.131003 0.179879 0.074501 -0.275234 -0.213247 -0.104565 0.224363 0.145876 -0.348005 0.394942 -0.222187 -0.212213 -0.104722 0.390225 -0.049920 0.533154 0.055674 -0.168456 0.156795 0.275058 0.394545 -0.184882 0.006596 -0.196007 -0.414429 -0.389627 0.179904 0.174186 0.083663 -0.117059 -0.150542 0.235918 0.108301
1406 -0.251163 -0.172423 -0.486644 -0.117653 0.102638 0.504178 -0.296197 0.432965 0.477286 -0.104539 -0.069535 0.249020 -0.003196 -0.189950 -0.441801 -0.216263 0.184860 0.382041 0.025005 0.072871 -0.453510 -1.017564 0.348532 -0.173554 0.178557 0.342221 0.187115 0.437401 -0.045256 0.207220 0.367742 0.013686 0.213300 -0.163277 0.229885 0.098020 0.706933 0.224691 0.344637 0.122735 0.637146 0.357641 -0.158054 0.416563 0.476425 0.045343 0.152420 0.485986 -0.119020 0.148626 0.486838 -0.520319 0.292804 -0.170867 -0.272736 0.179443 -0.147593 -0.435856 0.121904 -0.195109 -0.038268 -0.489204 -0.003715 -0.504667 0.651048 0.343759 -0.387824 -0.525064 -0.389431 -0.150444 0.507897 -0.265932 0.017907 0.047658 -0.606724 0.130420 0.078559 1.107252 -0.107256 0.328918 0.453846 -0.430776 -0.722873 -0.259224 -0.511672 0.107163 0.878568 0.304088 0.092735 0.223017 -0.605510 -0.438504 0.197134 -0.127789 -0.499028 -0.106351 -0.192994 -0.175141 -1.017584 -0.299347 0.024528 -0.184450 -0.611915 0.214781 0.105392 -0.256799 0.284610 0.013183 0.303235 -0.469799 0.428879 -0.545757 0.838119 -0.388487 -0.572008 0.158303 -0.523633 0.310641 0.183442 -0.149723 -0.695785 -0.296930 0.001100 0.089331 -0.750545 -0.270219 0.366936 0.221445
291 0.157440 -0.192420 0.130986 0.195573 -0.117079 -0.231024 0.261501 -0.134616 -0.099857 0.307247 -0.242662 -0.340478 0.006574 0.418868 0.007660 0.118801 0.206227 0.336327 0.093764 0.013820 -0.158686 -0.061930 0.782233 0.489963 -0.205244 -0.308074 0.415834 -0.018168 -0.161280 0.029665 0.197078 0.023656 0.021896 -0.214672 0.106740 -0.036914 -0.222984 0.173787 -0.439221 0.010777 -0.491553 0.061053 0.223505 0.349251 0.574496 -0.074558 -0.270353 0.255389 -0.274740 0.233941 -0.105703 -0.444401 0.132054 0.179830 -0.015290 -0.290802 0.047754 0.105131 -0.132753 -0.249561 -0.181308 0.062345 0.014081 -0.210495 0.059685 -0.232461 0.179309 0.123407 -0.028233 -0.056832 0.006548 -0.373942 -0.079348 -0.076801 0.510041 -0.227999 -0.056534 0.252880 0.089362 0.467750 0.185392 -0.532658 0.139701 0.349602 -0.342082 -0.257002 0.125690 0.140125 0.167340 0.504620 -0.078669 0.400237 0.216492 -0.493430 -0.689097 0.114366 0.168799 0.000249 -0.225658 -0.043677 -0.087802 -0.217420 0.397512 -0.411187 -0.073367 -0.084695 -0.288534 -0.228517 0.621675 -0.528406 0.216630 -0.078219 0.032900 0.173393 -0.196478 0.267360 0.053381 -0.186538 -0.037541 -0.261571 -0.310545 -0.064318 0.202728 0.260285 -0.595855 -0.050944 0.284203 0.014713
488 -0.207419 -0.106314 -0.021525 0.558068 -0.382364 -0.028341 0.591127 -0.090647 0.061216 0.584460 -0.210936 -0.311245 0.248849 0.732462 0.345448 -0.076613 -0.152429 0.562691 0.071785 0.254694 -0.061554 -0.792453 -0.277288 -0.358177 0.409719 -0.238667 0.661278 0.309243 -0.684663 0.313271 -0.359066 -0.567389 0.128343 0.533193 0.106561 0.063665 0.396423 0.350225 -0.207296 0.754647 -0.122870 0.014516 0.729639 -0.288552 -0.241731 -0.172314 -0.108135 0.292837 0.151655 -0.034572 -0.644472 -0.333209 0.901590 0.637174 -0.104134 0.187264 -0.847532 -0.284780 -0.186930 -0.510354 0.113020 -0.386193 -0.518989 -0.315819 0.311425 -0.352197 0.066803 -0.082512 -0.172027 0.289884 -0.003969 0.336376 0.132078 -0.542291 0.144654 -0.089266 -0.127674 0.853071 0.087328 0.315053 -0.395674 -0.305799 -0.360224 0.016972 0.259042 0.045425 -0.102869 0.205942 -0.120537 -0.746968 -0.069488 -0.526924 0.650211 -0.235226 -0.974280 0.562478 -0.357812 0.003144 -0.058216 0.269263 -0.291373 0.903021 -0.316857 0.142220 -0.282778 -0.307126 -0.455189 -0.076618 -0.419665 -0.118134 0.592838 0.207009 -0.112313 0.024413 0.141997 -0.242589 -0.266291 0.254129 0.800821 0.268782 -0.066567 -0.116243 -0.191849 -0.191809 0.326783 0.291070 -0.567596 0.290523
905 -0.083247 -0.048017 -0.101800 0.086782 0.158188 -0.188523 -0.351195 -0.157089 -0.115930 0.407750 -0.072771 -0.175317 0.109723 -0.016792 -0.258472 0.229819 0.025780 0.223355 0.015732 -0.009592 -0.065428 0.115320 0.585431 0.197052 -0.040485 0.279403 0.627996 0.128394 0.204843 0.438852 -0.055186 -0.057911 -0.209429 -0.037027 0.096893 0.053141 -0.389902 0.471578 0.263292 0.179484 0.061587 -0.093126 0.058223 0.002337 0.018209 -0.347654 -0.180849 0.032099 -0.213488 -0.130132 -0.133689 0.054826 0.463528 -0.378973 0.491828 -0.561658 0.354564 0.364513 -0.016934 -0.072825 0.333746 -0.022837 0.073990 -0.240126 0.350266 -0.619242 -0.181005 0.268407 0.034360 0.227772 0.086681 -0.500621 0.034148 0.288044 0.749469 -0.143428 0.042253 0.226264 0.316432 0.436831 -0.011257 -0.153343 -0.473891 -0.053397 0.050510 0.182687 0.104264 0.103559 0.161301 0.197594 0.036945 0.336764 0.076211 -0.229199 -0.159951 -0.212071 -0.098939 0.140450 -0.473265 0.314277 -0.071940 0.199457 -0.321881 -0.219982 0.274404 0.031861 -0.024123 -0.219564 0.155586 -0.268291 0.577551 -0.150939 -0.098768 0.501298 -0.431908 0.043295 -0.133026 0.156604 0.639345 -0.657298 -0.029231 -0.300631 0.215140 -0.127854 -0.393612 -0.097187 -0.215323 -0.108765
2049 -0.656617 0.007031 -0.111539 0.059575 -0.542517 -0.245178 0.123204 0.234119 -0.145310 0.191747 -0.247674 -0.103356 -0.882120 -0.315641 -0.124447 -0.186083 -0.279006 -0.128105 -0.398352 -0.660996 0.035856 0.001956 0.013325 0.127673 0.150842 0.345798 0.349167 -0.140680 0.415684 -0.095172 0.415806 0.004427 -0.293745 0.435662 -0.458104 -0.008740 0.136078 0.325445 0.354134 0.194707 0.590029 0.011131 0.217715 -0.166767 0.200790 0.535426 0.324637 0.244142 -0.163715 -0.378117 0.051560 -0.148264 0.310084 0.785292 0.836890 -0.361168 -0.388036 -0.106060 -0.105319 -0.820379 -0.221481 0.168865 -0.521150 -0.134490 -0.418588 0.044455 0.590939 -0.100059 -0.613551 -0.547291 -0.024614 0.404974 -0.035838 0.605347 0.459014 0.405438 -0.894708 0.716541 -0.291924 -0.095018 -0.156278 -0.297134 -0.348533 -0.869384 0.684734 -0.255712 0.552029 0.325427 0.640537 -0.409554 0.191555 0.208266 0.383188 -0.046627 0.024098 -0.281726 -0.069326 -0.252649 0.013666 0.331711 0.090478 -0.019892 -0.203954 0.018579 -0.223526 -0.048974 0.097507 -0.185948 0.421222 -0.065283 0.132143 -0.094250 0.468758 -0.540623 0.539779 0.114681 -0.428172 -0.394458 0.625362 -0.465258 -0.564079 -0.027767 0.176777 0.058726 -0.095461 0.188306 0.280596 0.162609
699 -0.160637 -0.216403 -0.206003 -0.119120 -0.074879 -0.091292 0.220687 -0.043615 -0.079847 0.227599 -0.432398 -0.344878 -0.104277 -0.125643 -0.103995 0.160441 0.160258 -0.088101 0.287180 0.136757 -0.220525 0.094390 0.478543 0.384535 -0.144467 -0.035289 0.661449 -0.189691 -0.459477 0.257591 0.114938 0.208454 0.119473 -0.218853 0.473198 0.262689 -0.224712 0.082741 -0.249035 0.206588 0.091506 -0.108693 0.358215 0.087000 0.517406 -0.292023 -0.017104 0.205480 0.123606 -0.304840 0.107970 -0.557171 -0.150107 0.069846 0.258654 -0.218243 -0.019963 -0.176267 -0.094935 -0.294794 -0.139759 -0.343238 -0.052581 -0.021414 0.038289 -0.487120 -0.099139 -0.067500 -0.290535 0.462045 0.215638 0.080046 0.263262 -0.419775 0.245915 0.090231 -0.230429 -0.079046 0.139436 0.152306 0.115322 -0.659902 -0.078702 0.212274 0.084560 -0.217315 0.012157 0.359931 -0.054423 0.019439 0.367308 0.127204 0.250997 -0.081242 -0.232064 -0.227140 -0.052400 0.181216 -0.296339 0.254104 0.543321 0.239023 0.824824 -0.031700 0.146178 -0.279915 -0.038632 -0.411662 0.173263 0.260753 0.200317 -0.253138 -0.105379 0.428195 -0.185320 -0.077647 -0.007992 0.132938 -0.111450 -0.288506 -0.344527 0.098635 0.237168 0.448886 -0.058554 0.126276 0.158138 -0.148553
1236 0.374570 -0.065033 -0.407614 -0.666513 -0.026338 0.571547 -0.594602 -0.384722 0.211600 0.335576 -0.134470 -0.174535 -0.186265 -0.351469 0.265137 0.089855 0.480175 -0.140468 0.320496 0.359617 -0.278423 -0.267984 0.302930 0.116316 -0.546568 -0.057252 0.605230 0.177747 -0.642589 0.765167 -0.202938 -0.465132 -0.348988 -0.200053 0.311657 0.238745 0.812962 -0.075387 -0.304700 0.589548 0.224557 0.436421 -0.138146 0.562541 0.182504 -0.150073 -0.061119 -0.315985 -0.532995 0.146812 0.058992 0.372752 0.010622 0.050159 -0.126955 -0.069474 0.081564 -0.011341 -0.216960 0.010858 0.001559 0.130687 -0.564815 -0.302458 -0.145928 -0.244624 -0.020918 0.336206 -0.298903 -0.214460 -0.287882 0.098966 0.353623 0.069632 0.293650 0.027511 0.176338 0.367787 0.226135 0.171514 -0.032020 0.168084 -0.027193 0.146498 -0.310936 -0.025549 0.399756 0.013371 0.615983 0.242763 -0.114431 0.014014 0.681253 0.507125 -0.648352 -0.305573 0.238129 -0.521279 0.099507 -0.310667 0.356370 -0.112845 0.412668 0.239907 0.332258 0.102061 -0.362324 0.074556 -0.166592 0.295430 0.736446 -0.419228 0.052575 -0.462573 0.254017 -0.147965 0.387799 -0.052056 0.682479 -0.285755 -0.103849 -0.334270 -0.003442 0.254528 -0.121567 0.329805 0.275075 0.050894
697 0.077172 -0.343659 -0.084033 -0.043239 -0.161311 -0.024812 0.184240 -0.263176 -0.424545 0.312808 -0.224861 -0.141768 -0.287945 -0.020222 -0.225128 -0.079550 0.093895 0.383512 0.627297 0.316588 0.059487 -0.109662 0.224854 0.144130 -0.248625 0.180202 0.667793 -0.091479 -0.281344 0.052333 -0.057691 0.223771 -0.116022 -0.086893 0.180887 0.164564 -0.357421 0.126548 -0.132386 -0.093523 0.123068 -0.194016 0.311547 0.161690 0.466953 -0.016794 0.038086 0.074653 -0.510544 -0.140515 0.195040 -0.482643 0.439063 0.100648 0.198892 -0.347244 0.075547 0.276593 -0.023453 0.138179 -0.169301 -0.197630 0.199559 -0.060685 0.260509 -0.525254 -0.003341 -0.232959 -0.280974 0.209320 0.135484 -0.146271 -0.017849 -0.097032 0.327336 -0.250316 0.098090 -0.027944 -0.169624 0.236358 0.143314 -0.059486 -0.145689 0.083395 0.183111 -0.008396 0.280389 0.266263 -0.144305 0.202901 0.284143 0.031588 0.378795 -0.308024 0.000824 -0.116752 0.050428 0.100098 -0.297007 -0.211277 0.202630 0.444587 0.296415 -0.194676 0.190229 -0.294344 -0.113633 -0.339501 0.630340 0.157454 0.282811 -0.083391 -0.153827 0.658817 -0.159313 -0.012528 -0.228668 -0.154240 -0.245393 -0.556971 0.009171 -0.000482 0.049532 0.147648 -0.315252 -0.167535 0.052217 -0.210522
822 -0.154757 -0.512136 -0.203142 -0.156423 0.054940 -0.213016 -0.213562 0.111918 -0.326393 0.234797 0.354907 0.328563 -0.067814 -0.343272 0.411423 0.126613 -0.038028 0.636801 0.426278 0.080467 0.097775 0.440264 -0.020598 -0.142933 0.153044 -0.564474 0.284057 -0.277883 -0.249533 -0.498814 -0.014311 -0.126921 0.078421 0.017850 0.098408 -0.028908 0.042308 0.064650 -0.044029 0.105127 0.180592 0.426141 0.424548 0.201201 0.385545 -0.015836 -0.453618 0.259943 0.063293 -0.084286 0.352854 -0.056719 0.546232 -0.165324 0.089224 0.060264 -0.595587 -0.076356 0.525708 -0.570648 -0.329448 -0.000396 0.511174 -0.025443 0.207615 0.416399 0.792896 0.202845 -0.574630 -0.452247 -0.136177 0.029253 0.254656 0.292651 0.314656 0.311193 -0.423941 0.321442 0.090951 0.709158 0.002681 -0.132287 -0.601716 -0.420607 0.104052 -0.537491 0.086940 -0.136310 -0.190019 0.247311 -0.315265 -0.621925 0.664752 -0.545690 -0.307168 0.411080 0.141841 0.187940 -0.066906 -0.227127 -0.095699 -0.542919 -0.551364 0.465390 0.193278 -0.539362 0.510766 -0.106299 -0.687117 0.203477 0.668533 -0.193593 0.106771 0.181265 -0.294774 -0.395143 0.424331 -0.775180 0.049128 -0.000553 -0.016570 0.296763 -0.440062 0.211120 -0.213034 0.292527 -0.495402 -0.003535
1101 -0.584857 -0.137099 0.056170 0.098012 0.036221 0.762258 0.040534 0.125823 0.245130 0.652479 0.430822 -0.068432 -1.159173 -0.462533 0.440302 -0.808546 -0.608570 -0.577722 0.035371 0.128527 -0.124019 -0.196978 0.918512 -0.421993 0.509860 0.358592 0.630642 0.098155 -0.653854 0.750883 0.408876 -0.447763 -0.597863 0.523276 0.085533 -0.372004 -0.009852 -0.823351 0.537075 0.104966 -0.116939 0.347062 0.437867 -0.701684 0.739558 0.067598 0.222096 0.330432 0.040474 0.584608 0.659929 -0.415700 0.130081 0.292619 0.931453 -0.093373 -0.177875 0.910298 -0.628659 -0.730179 -0.545877 0.600811 -0.064857 -0.007974 0.251966 -0.248609 0.007211 0.034320 0.130584 -0.710732 0.264714 -0.021667 0.435994 -0.108425 0.893854 0.398082 -0.294509 0.448426 0.058201 0.178729 -0.020190 -0.323674 -0.558174 0.511413 -1.433008 0.035903 -0.005091 0.104070 1.006496 0.229758 0.021001 -0.218341 0.282444 0.081638 -0.361638 0.672094 0.678295 -0.454507 -0.610693 0.069742 0.041022 -0.118850 -0.231933 -0.033006 0.163119 0.296349 0.298932 -0.650433 0.224248 0.215985 0.294801 0.733107 0.135263 -0.594045 -0.788374 -0.419432 0.222075 0.618486 0.203296 -0.881962 -0.103651 -0.212166 1.014271 0.763913 -0.078059 -0.246251 -0.951451 -0.226406
2955 0.018099 -0.365360 -0.370166 -0.291701 -0.475932 0.293896 0.784402 -0.088164 -0.106649 0.097032 0.036598 -0.298426 -0.747892 0.268150 0.402338 -0.158399 0.220030 0.314483 0.198385 0.102865 -0.495150 -1.081174 0.505509 -0.055803 0.771816 -0.528156 0.398535 -0.303578 -0.441294 0.529212 0.085444 0.265635 -0.518657 -0.801330 0.153491 -0.117492 0.172086 0.036656 -0.059916 0.587428 -0.927935 0.216168 0.361532 0.197497 0.659466 -0.054319 0.535260 -0.527932 0.289895 0.888317 1.002246 -0.663728 -0.015534 -0.889750 0.756630 0.582273 0.155867 0.833793 0.505579 -1.446284 -0.435748 0.548675 -0.258821 0.148696 1.650599 0.265791 0.030854 -0.607454 -0.777102 -0.812193 0.881972 -0.550279 0.137971 0.487653 0.856158 0.650926 1.035482 -0.334575 -0.038068 0.595442 -0.571771 0.094851 -0.022258 0.193734 0.786393 -0.569376 0.127163 -0.245313 0.439467 -0.208201 0.334197 -0.242362 -0.038991 0.496940 0.100201 0.243059 0.294648 -0.687549 0.551537 0.189853 0.304859 -0.330543 -0.805722 0.948951 0.094466 0.308798 0.023942 0.249183 0.212012 0.271251 0.027385 -0.498044 0.472464 0.359676 -0.956042 -0.665711 -0.275417 -0.360627 0.573263 0.293216 -0.083255 0.134279 -0.207735 0.522280 -0.083472 -0.555471 0.607210 0.018374
732 -0.130082 -0.169397 -0.237204 -0.332140 0.345389 -0.236336 -0.263712 0.238326 -0.012541 0.088066 -0.201835 -0.111844 -0.128643 -0.140484 -0.242331 0.447008 0.424492 0.245473 0.072911 0.085299 -0.110550 -0.421625 0.393148 0.199745 0.087484 0.087526 0.322337 -0.072898 -0.053585 0.324639 0.173027 -0.145184 0.000357 -0.162975 0.323482 0.281645 -0.447717 -0.010038 0.663025 -0.044439 0.076847 -0.071346 0.186064 -0.091457 0.031037 -0.050711 0.094625 -0.145992 0.035797 -0.294965 0.260176 -0.003565 0.285326 -0.339926 0.184912 -0.039429 -0.256097 0.210054 0.107259 -0.336175 -0.146227 0.182052 -0.004892 -0.251985 0.074196 -0.123061 0.046336 0.058416 -0.296384 0.027496 0.424769 -0.475213 0.134991 -0.189123 0.328798 -0.261832 0.555575 0.264321 0.260094 0.217285 -0.491390 -0.402630 -0.182992 0.048753 0.130671 0.198401 0.034240 0.154439 0.141810 -0.319957 0.468669 -0.082123 0.165270 -0.330227 0.088239 -0.230458 -0.151929 -0.026623 -0.576008 0.121008 -0.341045 0.332297 0.004928 -0.273301 -0.397970 0.319715 -0.086174 -0.126577 0.296621 -0.245958 0.476669 -0.401002 -0.174745 0.114145 -0.173218 -0.380817 0.100419 -0.034790 0.475361 -0.399528 -0.191911 -0.578390 0.581477 -0.303892 -0.621373 -0.021915 0.233124 -0.251480
659 -0.391936 0.755091 0.026851 0.191220 -0.025419 -0.400793 0.326146 -0.018013 -0.010806 0.133804 0.494090 0.982884 -0.123328 -0.202561 0.226638 -0.093384 -0.274891 -0.417028 -0.046109 0.156820 -0.053250 -0.047664 -0.606438 0.169836 0.266684 -0.081537 0.676537 -0.088635 -0.589734 -0.056424 0.152517 -0.311874 -0.115522 -0.085225 0.027743 -0.024278 0.088248 0.002288 0.321295 0.074994 0.191199 0.119329 -0.154052 -0.292226 0.390322 -0.513083 0.046527 0.149706 0.130549 0.014678 0.222264 0.190975 0.151844 -0.288818 0.258764 0.213297 -0.007044 -0.070077 0.020246 -0.039109 -0.767288 -0.138142 -0.431391 -0.233868 0.126949 0.037276 0.639487 -0.375516 -0.328509 -0.056955 0.009990 0.009904 0.583095 -0.375524 -0.065102 0.170806 -0.017614 0.083256 0.201404 0.840647 0.056088 -0.557779 0.104798 -0.236086 0.126474 -0.371966 0.181652 -0.123958 0.003503 0.218827 -0.397609 -0.810746 0.118191 -0.511624 0.093681 0.255886 0.297024 0.025638 0.107301 0.226063 -0.171416 -0.026100 -0.277025 0.360832 0.137135 -0.039535 -0.408257 0.055249 -0.345068 0.129551 0.762505 0.176106 -0.198828 0.629918 -0.209423 -0.182926 -0.155875 -0.776153 -0.084859 0.147740 0.177644 -0.305413 -0.042783 0.350840 -0.121712 -0.361715 0.211639 0.267617
986 -0.272222 0.773843 0.312491 0.223741 -0.463792 -0.452990 -0.020938 0.150301 0.333252 -0.007689 0.363690 0.705242 -0.080480 0.184712 0.313592 -0.136635 -0.362453 -0.724862 -0.155344 0.248124 -0.425698 -0.090780 -0.571199 0.170939 0.195558 -0.421969 0.840995 0.134552 -0.405453 0.019031 0.072450 0.227661 0.084426 -0.178691 -0.002848 0.190523 0.009799 -0.066335 0.125079 0.156745 -0.140613 0.550027 0.096809 -0.038727 0.573081 -0.140939 -0.373793 0.085730 0.172026 0.120911 0.265440 0.119457 0.284205 -0.723603 0.398274 0.120807 0.443851 -0.099367 -0.165588 -0.361950 -0.568989 -0.117731 -0.226128 -0.269211 -0.269809 0.071805 0.359247 -0.346206 -0.423423 0.103929 -0.496882 0.059862 0.227203 0.172144 -0.307717 -0.094358 0.148796 0.325351 0.092614 0.411817 -0.289316 -0.511708 -0.107061 -0.283246 0.226949 -0.622069 0.205728 -0.310096 -0.206507 -0.007152 0.036680 -0.868615 0.473552 -0.315481 0.189983 -0.089613 0.114007 -0.049098 0.176286 0.600064 -0.344941 0.049664 -0.063260 0.210601 0.199108 -0.560259 -0.126123 -0.121286 -0.254997 0.018614 0.959996 0.371583 0.163140 -0.008026 -0.530156 -0.253875 -0.238223 -0.471688 0.342318 -0.220663 0.290013 0.054056 -0.193642 0.573577 -0.295830 -0.078998 0.019482 0.394479
868 0.183228 -0.053923 0.042053 -0.341222 -0.470586 0.114565 -0.429058 -0.084670 -0.689498 0.380486 0.133193 -0.252045 0.161363 -0.247676 0.469271 0.129846 -0.057316 -0.067983 -0.152165 0.648196 -0.309701 -0.461960 0.443919 -0.044481 0.737393 -0.314676 0.950523 1.171251 -0.228617 0.396308 -0.372486 -0.650361 0.206989 -0.334114 -0.251634 0.079679 0.120946 0.286874 -0.766315 -0.025285 0.089415 0.063695 -0.049770 0.469333 -0.102595 0.024810 -0.451083 -0.283402 0.023260 -0.514274 0.763403 0.288158 0.188604 0.080746 1.054246 -0.242583 -0.401401 -0.951404 -0.017533 -0.345425 0.094200 -0.314325 0.660234 0.092751 0.303235 0.485952 -0.473483 -0.858051 0.459087 0.065218 -0.041409 -0.478269 -0.162602 0.227767 0.642913 -0.221583 -0.521779 -0.277390 -0.012412 0.314417 -0.164953 0.053773 -0.509289 0.013037 -0.279567 -0.024651 0.036911 -0.426981 0.176055 0.189339 -0.694031 -0.411194 0.368844 0.044310 -0.754714 0.391965 0.000493 0.126126 0.081479 -0.229786 0.668507 0.156515 0.250279 0.391722 0.007804 0.391318 -0.374633 0.342553 -0.073727 -0.216948 0.875832 0.084415 -0.654417 0.141044 0.098422 -0.065518 -0.453651 0.042881 -0.249882 0.303744 -0.518394 0.525571 0.069021 0.169162 -0.238826 0.335861 0.199266 0.304283
814 -0.073223 0.019950 0.278228 0.085817 -0.399413 -0.234140 -0.264615 -0.349751 0.192661 0.410715 0.474689 0.260727 -0.208440 0.327423 0.496877 -0.180499 0.146204 -0.701091 0.027054 -0.101618 0.182952 -0.143106 0.017316 -0.350071 0.160123 -0.581869 0.363955 0.242202 0.395017 0.180605 -0.041120 -0.604255 -0.109630 0.167842 0.043397 -0.332692 -0.449219 -0.345950 -0.028274 0.143959 0.446105 0.313282 0.323045 -0.199688 -0.178290 0.213653 0.044760 0.006413 -0.153283 0.130283 0.492493 0.053344 0.281564 -0.380851 0.150078 -0.069040 -0.111052 -0.123101 -0.276941 -0.158433 -0.304788 -0.214764 -0.313946 -0.209437 0.294313 -0.100471 0.422420 -0.163246 0.408927 0.225768 0.042123 0.230159 0.221956 -0.521265 0.123047 -0.045892 -0.213736 0.432720 -0.142257 0.015816 -0.448813 -0.375251 -0.197959 0.174569 0.229178 -0.283808 -0.236878 -0.446431 -0.421165 0.089135 0.033800 -0.237008 0.669542 -0.077259 -0.785561 0.241776 -0.045742 0.242047 0.164008 0.007507 0.023335 0.503004 -0.551361 0.715867 0.086442 -0.608135 -0.099946 -0.150450 0.564376 0.010115 0.198460 -0.565657 -0.313911 0.596113 0.317403 -0.481719 0.036849 -0.411631 0.383939 0.334291 -0.169738 -0.077444 0.099357 0.094510 -0.273902 0.485146 -0.324328 0.241305
631 -0.211268 0.580941 0.121506 0.027831 -0.263291 -0.287763 0.338864 0.109107 0.142605 -0.067645 0.075434 0.510594 0.095833 0.158775 -0.010026 -0.124128 -0.284732 -0.418952 -0.029011 -0.174401 -0.165109 0.605752 -0.622441 0.016590 0.224964 -0.294690 0.942047 0.203672 -0.402795 -0.350767 0.318335 -0.011367 -0.254854 -0.409020 -0.020551 0.166408 -0.380127 -0.204826 0.193882 0.021385 0.096390 0.560844 0.361425 -0.205231 0.452883 -0.608809 -0.024831 -0.002041 0.129420 -0.009309 0.301381 0.221426 0.301176 -0.063396 0.204212 0.196710 0.132904 -0.236722 -0.249311 -0.016426 -0.696890 -0.156586 -0.386659 -0.398682 -0.071443 0.138735 0.440886 -0.705218 -0.425792 0.058711 0.110063 -0.042863 0.459389 -0.272415 -0.085564 0.093984 -0.072672 -0.085756 0.067562 0.424385 0.068746 -0.206417 0.046259 -0.376610 0.029157 -0.080389 0.352475 -0.420765 -0.337126 0.192428 -0.428561 -0.985617 0.190909 -0.346094 -0.213942 -0.237593 0.084513 -0.140840 0.069168 0.330287 -0.098541 -0.302330 -0.392450 0.250140 0.145772 -0.071721 -0.434216 0.174494 -0.176100 0.081572 1.010356 -0.119344 -0.035537 0.365525 -0.128925 -0.272899 0.046010 -0.463127 0.103040 -0.260839 0.407247 0.094560 0.063160 0.475434 -0.128341 0.113638 -0.084821 0.124294
753 -0.686537 0.511943 0.050447 -0.018054 -0.446864 0.122222 -0.133511 0.353901 -0.146121 0.165311 -0.233414 0.260012 -0.451812 -0.202152 0.030922 -0.406532 -0.805471 -0.379730 0.109928 -0.152404 -0.229119 -0.540605 -0.074916 0.513665 -0.164872 0.074205 0.376689 -0.217895 0.246911 -0.511143 0.262050 -0.274293 0.066171 0.281101 -0.175557 -0.186462 -0.451368 -0.037258 -0.202894 0.147252 0.295263 0.410915 0.645238 0.441120 0.835395 -0.097677 -0.277969 0.055417 -0.133539 0.366187 0.291509 -0.073652 0.120319 0.033469 0.421510 -0.305899 -0.192332 -0.124994 -0.127658 0.128707 0.636293 0.407248 -0.198921 0.085796 0.333507 0.408289 1.018316 -0.301965 -0.180574 -0.223148 -0.091270 0.829603 0.820510 -0.086632 0.318186 0.121151 0.075398 0.636419 -0.106982 0.115777 -0.016354 -0.813742 0.327546 -0.784579 0.419803 -0.279586 -0.029318 0.126706 -0.112010 -0.305804 0.186736 0.056048 0.273080 -0.006956 -0.535129 0.162151 0.365280 -0.532102 0.386455 0.188860 0.065837 -0.268938 0.020302 0.098721 0.135925 0.366792 0.190618 -0.111019 -0.061504 -0.281874 0.062887 0.235076 0.175549 -0.491723 -0.612609 -0.893604 -0.463570 -0.195951 0.056662 -0.539994 -0.062153 -0.174926 -0.392311 0.104263 -0.278745 -0.232253 -0.358907 0.314207
263 0.010021 0.173765 -0.209287 0.358966 0.180783 -0.314649 -0.102973 -0.097986 -0.178631 0.765424 -0.054302 -0.544765 -0.262427 0.198589 -0.301248 0.139800 -0.083134 0.593234 0.074150 0.076740 0.750999 0.224414 0.505053 0.199788 -0.472983 0.098963 0.522748 0.249453 0.441257 0.449826 -0.018228 0.076489 -0.199086 -0.129981 0.217372 0.525803 -0.074790 0.095578 0.028274 0.325839 0.367282 0.191739 -0.062703 0.204818 -0.173146 -0.103531 -0.217236 -0.070959 -0.048033 0.010271 0.281679 0.291824 -0.020127 -0.164314 -0.013497 -0.172487 -0.210018 0.112522 -0.273979 0.199222 0.313959 -0.093770 0.024438 0.072707 -0.072210 -0.221520 -0.028922 -0.291214 -0.255978 0.290462 0.071431 -0.137909 0.423840 -0.164335 0.170462 -0.436555 -0.143847 -0.249263 0.573818 0.324484 -0.184723 -0.684169 -0.561168 0.392048 0.562508 0.133501 0.207136 0.028110 0.451169 -0.253956 -0.271955 -0.115567 0.166794 0.090936 -0.603540 0.454244 -0.026779 0.118646 -0.412909 0.217102 -0.249005 0.545539 -0.579260 -0.059791 0.485829 -0.861652 0.018802 0.100835 0.236693 -0.147238 0.193154 -0.031426 -0.083694 0.237256 0.291359 -0.016136 0.042968 -0.005983 0.513660 0.074047 0.457463 -0.091442 0.188261 0.167098 -0.370813 -0.701066 0.105303 0.267300
780 -0.035158 -0.108970 0.062162 0.487723 0.711910 -0.338333 -0.438150 0.660781 -0.026313 0.414919 -0.315440 0.018115 -0.310268 -0.102213 0.330348 0.083858 0.215520 0.117327 0.216164 0.255983 0.222590 -0.286687 0.546729 0.047294 -0.505925 0.246595 -0.088385 0.034226 -0.008183 0.059328 -0.036632 -0.087519 -0.083703 -0.186449 -0.014805 0.018783 -0.351396 0.079127 0.154833 0.123047 0.108363 -0.109376 0.259582 -0.067421 0.372351 0.140939 0.506742 -0.382019 -0.271908 -0.136635 0.108667 -0.240017 0.366583 -0.307049 0.657249 -0.453591 0.136003 -0.025705 -0.150708 -0.368729 0.141912 -0.029465 -0.037882 -0.294951 -0.047150 -0.038248 0.005753 -0.268279 -0.795393 0.051121 0.182705 -0.029309 0.038481 -0.198350 0.328870 -0.101944 0.154815 0.351022 -0.109635 0.498940 -0.338437 -0.161991 -0.245117 -0.039225 0.124368 0.134748 0.032530 0.270034 0.078135 -0.153382 0.271229 -0.487095 0.095657 -0.134707 -0.283832 -0.006555 0.185833 0.319700 -0.369732 0.201983 -0.128441 0.106404 0.352867 -0.333487 -0.518755 -0.055084 0.294748 0.120786 0.239521 -0.231433 0.304812 -0.109961 -0.003851 0.409069 0.040915 -0.102405 0.018194 0.255186 0.428586 -0.413773 0.199191 -0.109539 0.504069 -0.065796 -0.193401 -0.042413 0.496084 -0.218830
1731 -0.186892 -0.351144 -0.354878 -0.039073 -0.154621 0.523562 -0.126685 0.876175 0.124602 0.045930 -0.095270 0.213456 -0.193975 -0.137799 -0.332321 -0.254013 0.147591 0.168093 0.142343 -0.125043 -0.652251 -1.028363 0.079645 -0.348224 0.348362 0.349103 -0.157236 0.479943 0.263203 0.083037 0.304082 0.297598 -0.010148 -0.445827 0.245439 0.270294 0.872922 0.332449 0.219085 0.239995 0.902282 0.608410 -0.412229 0.359042 0.719094 0.089076 0.237717 0.308931 -0.356461 -0.181231 0.495384 -0.602530 0.062997 -0.455098 -0.259689 0.271727 -0.225838 -0.607162 0.185041 -0.279595 0.097748 -0.560814 0.048734 -0.397027 0.811444 0.227216 -0.693139 -0.393615 -0.593008 -0.016055 0.440126 -0.431258 0.147368 0.206627 -0.302333 0.382722 -0.063204 1.010815 -0.073144 0.450663 0.343452 -0.685400 -0.718731 -0.143902 -0.672056 0.256238 0.978041 0.199397 0.170497 0.193014 -0.470247 -0.249811 0.004920 -0.406294 -0.869905 0.077140 -0.033940 -0.094693 -0.982535 -0.384010 0.039785 -0.284500 -0.458031 0.421856 0.196038 -0.254647 0.268755 0.022741 0.152166 -0.372313 0.462063 -0.659149 0.877174 -0.241371 -0.420409 0.041855 -0.485800 0.221925 0.309163 -0.378752 -0.877441 -0.411851 -0.017765 0.168545 -0.577035 -0.423922 0.113014 0.296487
616 -0.076189 -0.187071 -0.060927 -0.393163 -0.352041 0.108466 -0.024964 -0.228492 0.215412 0.091507 -0.440804 -0.409917 -0.489253 0.004382 -0.232001 -0.093179 -0.003045 0.494945 0.289382 0.439070 -0.595366 0.034652 0.367863 0.143833 -0.291910 -0.482764 0.483558 -0.393834 -0.103964 0.244529 0.101811 0.000638 0.047346 -0.108938 0.280836 0.146451 -0.274409 0.282516 -0.333833 -0.021265 0.170856 0.089117 0.036914 -0.162826 0.447143 0.123920 -0.355326 0.024719 -0.011238 0.027467 0.113272 -0.122186 0.251898 0.000323 0.691001 -0.164916 0.053487 -0.432233 -0.452450 -0.124932 -0.265717 -0.251110 0.045350 -0.297342 -0.176648 -0.536591 0.244689 0.351498 0.207470 0.098546 0.353739 -0.187075 0.038765 -0.227672 0.206689 -0.167272 0.111430 0.049447 0.331300 0.285033 0.148968 -0.224657 -0.277009 -0.336472 -0.066716 -0.352136 0.192542 0.207022 0.176145 0.004916 0.399153 0.270172 0.114845 -0.211878 -0.388890 0.154014 0.533720 -0.171729 -0.341791 0.028878 0.467212 0.528742 0.362834 -0.113041 0.128388 -0.257985 -0.236941 0.266700 0.367137 0.192249 0.108235 -0.257856 0.238511 0.753032 -0.301020 0.073881 -0.415488 -0.093286 -0.253426 -0.395908 -0.302008 0.083973 0.268693 0.238636 -0.222898 -0.039947 0.432646 -0.487548
31 -0.046903 -0.023832 0.075687 0.235194 0.182956 0.057906 0.007197 0.624362 -0.000858 0.497277 -0.362555 -0.165650 0.440926 -0.009102 -0.260442 0.286527 0.118800 0.141385 0.300970 0.392863 -0.254075 -0.171549 0.519687 0.673470 -0.007348 -0.105514 0.288498 0.202644 -0.128827 0.238118 -0.202005 -0.167848 -0.109155 -0.276541 0.126298 -0.027457 -0.256055 -0.051718 0.626338 -0.093381 0.267496 0.023944 0.100795 0.155501 0.538570 -0.132582 0.197258 0.081183 -0.135101 -0.454413 -0.056702 0.224486 0.033249 -0.226042 0.104023 -0.761768 -0.072635 0.213028 -0.004062 -0.262228 -0.173672 0.260256 0.107498 -0.481414 0.076909 -0.065463 -0.409950 -0.049218 -0.271815 -0.453606 0.330935 0.355184 -0.060468 -0.740569 0.486666 -0.223836 0.567824 -0.184551 0.159535 0.123387 -0.403987 0.020895 -0.405816 -0.081467 0.217310 -0.043914 -0.118899 0.360900 -0.019778 -0.044152 0.325276 -0.423275 0.192024 -0.270802 -0.111780 -0.111130 0.527276 0.059728 -0.453742 0.062611 -0.108793 0.342470 -0.025272 0.035862 -0.210737 -0.184296 -0.025178 0.089514 0.223144 -0.780048 0.354409 -0.406200 0.244978 -0.005584 0.047996 -0.208927 0.017714 -0.219910 0.222546 -0.465619 0.110840 -0.473011 0.251166 -0.259789 0.069327 0.009257 0.050503 -0.245161
698 -0.138055 -0.295919 0.115122 -0.150680 -0.000074 -0.096265 -0.017279 -0.301715 -0.111992 0.150739 -0.425122 -0.208285 -0.172244 -0.060606 -0.228100 -0.125577 -0.127957 0.349340 0.506358 0.182988 -0.576716 0.090417 0.376926 0.456481 -0.277630 -0.092337 0.709990 -0.282787 -0.248717 0.178098 -0.006520 -0.228178 -0.021831 -0.185225 0.211095 0.120935 -0.197446 0.150303 -0.331515 0.009246 0.426655 -0.152775 0.138370 -0.138712 0.811517 -0.157530 -0.191173 -0.103784 0.010880 -0.181544 0.121420 -0.589913 0.155153 0.127977 0.200095 -0.105819 0.061200 -0.033035 -0.066980 0.140376 -0.287802 -0.126953 -0.053185 -0.042556 -0.083599 -0.026360 0.069421 -0.025160 -0.042549 0.384395 0.278355 0.111922 -0.082617 -0.354750 0.408400 -0.145620 0.019437 -0.331682 -0.106143 0.128126 -0.016221 -0.134719 -0.280342 -0.327597 0.168115 -0.008925 0.206500 0.026606 0.072870 0.217162 0.036950 0.046626 -0.132918 -0.069433 -0.785073 -0.100612 -0.009382 0.003089 -0.256628 -0.079668 0.282968 0.683347 0.193062 -0.042677 0.266222 -0.440624 -0.085668 -0.268883 0.674443 0.345428 0.448315 0.067047 0.068123 0.347758 -0.171227 0.099059 -0.136265 -0.028606 -0.343295 -0.427471 -0.123484 0.010847 0.307630 0.041891 -0.387707 0.004482 0.180452 -0.354199
354 -0.258294 -0.321874 -0.260111 0.234064 0.137379 -0.268973 0.390638 0.099622 -0.660056 0.041672 -0.191960 -0.017735 0.295684 0.225890 0.777288 -0.008357 0.183723 0.571389 -0.025948 0.045000 -0.214074 0.121042 0.033403 -0.626673 -0.604398 -0.983406 0.238276 1.336103 -0.691533 0.466290 0.231279 0.145038 -0.132688 -0.233297 0.282165 0.083866 -0.210009 -0.273284 0.000887 -0.462884 0.767727 -0.419474 -0.286686 -0.117023 0.329396 -0.460097 -0.236970 -0.315184 -0.350347 -0.459897 0.202286 -0.139879 0.540911 -0.186429 0.012839 -0.252821 -0.159169 0.108722 -0.167153 -0.025750 -0.501525 0.375289 -0.768293 -0.022860 0.582414 -0.128679 0.899998 -0.598886 0.064682 -0.602099 0.309921 0.477324 0.444274 0.162532 0.279078 0.375523 -0.154317 1.216636 -0.061174 -0.062463 -0.017907 -0.311616 0.013075 -0.236041 -0.183931 -0.671771 -0.578998 0.089460 0.158745 -0.128182 -0.913445 0.113969 -0.319830 0.202725 -0.218172 -0.184808 0.043345 -0.046111 0.123284 0.370963 0.213558 -0.448549 0.154996 -0.166643 0.778788 -0.637719 -0.560446 0.372244 -0.410376 0.367017 0.776879 -0.087859 -0.079379 0.078148 -0.416152 -0.558107 0.200159 0.088411 -0.077693 -0.315737 -0.229679 -0.341228 0.592107 -0.071695 -0.337428 0.331994 -0.643150 0.095821
673 -0.048101 0.029711 -0.478813 -0.134836 0.052899 -0.342198 0.220174 0.012755 -0.085123 0.223076 -0.260034 -0.175481 0.260169 0.384158 -0.070774 0.067599 -0.252146 -0.169708 -0.300730 -0.136750 0.152650 -0.201872 0.417420 0.102406 -0.438541 -0.147154 0.406456 0.108429 0.170377 0.241315 0.246939 0.176374 0.141328 -0.165184 0.273948 -0.277255 -0.240118 0.136767 0.056034 0.295394 -0.198055 -0.177443 0.159406 0.214469 0.563694 0.023849 0.210603 -0.214859 -0.012833 -0.015661 -0.092717 -0.001428 0.565213 0.039000 0.304137 -0.579710 0.516832 -0.009011 0.086308 0.037865 0.223398 -0.370549 -0.003368 -0.310463 0.309493 -0.326234 0.264212 0.081467 -0.144440 0.177520 -0.170216 -0.217975 -0.003020 -0.461159 0.670108 -0.228071 -0.074874 -0.005377 0.355181 0.290066 0.463957 -0.245497 -0.375817 -0.135501 -0.155711 -0.349511 0.268960 0.134578 0.481888 0.189366 -0.081613 0.181530 0.455737 -0.220445 -0.683143 -0.372666 0.176648 0.320286 -0.307251 0.161695 0.058215 0.227960 -0.050796 -0.288088 0.310033 0.165624 0.288287 -0.056237 0.687210 -0.055149 0.394336 0.217121 -0.390709 0.638582 -0.070249 0.241356 -0.120576 0.556140 0.035313 -0.509408 -0.137038 -0.221706 0.024668 -0.135530 -0.049021 -0.069982 0.085224 -0.029843
634 -0.113302 0.430068 0.088000 0.022101 -0.453388 -0.503880 -0.917741 -0.132132 -0.460300 0.453471 -0.072818 0.289895 -0.186429 0.622349 -0.556828 -0.711847 0.567645 -0.266468 0.268547 -0.229003 -1.340476 -0.245911 0.206774 0.455395 -0.338270 0.124840 0.848228 0.810851 0.427192 1.438785 0.273291 -0.258944 -0.015342 0.877001 0.426397 0.036802 -0.783288 0.201559 0.056341 0.428860 0.324594 -0.541886 0.799766 0.178132 0.209602 -0.008106 -0.152927 0.241508 0.242014 -0.009960 0.406954 0.510224 -0.114612 -0.471306 0.342187 -0.614037 -0.684384 -0.318172 0.227512 -1.185624 0.324801 -0.300374 -0.111800 -0.034514 0.986546 -0.016663 0.215558 -0.047856 0.199367 0.474760 0.728630 -0.894103 -0.023044 -0.666003 0.157615 -0.051498 0.245681 0.116727 -0.104488 -0.504953 -0.867120 0.156990 -0.056386 0.070885 0.150252 -0.253433 -0.387569 0.519751 -0.476418 -0.585445 -0.244067 -0.758880 0.684478 -0.661973 0.161745 0.296612 0.150338 -0.241519 0.117396 0.078111 -1.361943 0.503164 -0.194015 -0.387427 0.331385 0.193107 0.259411 0.140062 0.309827 0.139379 0.149739 -1.151690 0.471203 -0.155121 0.039716 0.082386 0.706030 -0.190289 -0.011977 -0.921595 -0.165192 -0.479524 0.116547 -0.028013 -0.226794 -0.050015 0.306301 0.824802
0 -0.247828 -0.323606 -0.401246 0.484260 -0.321256 -0.220807 -0.073453 -0.157420 0.280647 0.207757 -0.003620 -0.407195 0.459125 -0.109821 0.297106 0.229375 0.061453 0.097569 -0.466489 -0.254775 -0.599184 -0.403097 -0.236192 -0.245298 -0.460095 -0.145048 1.188261 0.381973 -0.098122 0.303658 -0.163795 -0.626680 0.108881 -0.448544 -0.524340 0.022900 0.054620 0.258895 0.194777 0.102356 -0.333186 0.113261 -0.065157 0.352289 -0.292222 0.034716 -0.376096 -0.059322 -0.325894 -0.251186 0.802427 0.356376 0.233964 -0.023293 0.476340 -0.137366 -0.232760 0.412557 -0.062108 -0.245014 -0.070433 -0.439333 0.176022 0.196921 0.364375 -0.072405 0.289737 0.034381 -0.261512 0.692718 -0.087160 0.139714 -0.052615 0.388169 -0.404883 -0.556566 -0.166305 0.053748 -0.073700 0.299573 -0.215116 -0.624561 0.590626 -0.349737 -0.360398 -0.113704 -0.303410 -0.314690 0.226477 -0.293337 0.234399 -0.329506 0.104329 -0.250612 -0.699996 0.012749 -0.064814 0.436121 -0.360319 -0.187951 -0.146977 0.069397 -0.145038 0.772001 -0.294963 -0.347138 0.384100 0.337762 0.127019 -0.032680 0.289009 -0.272356 -0.541696 -0.009642 0.200549 -0.098705 -0.174653 -0.508420 0.042778 0.032159 -0.132302 0.033868 0.179151 0.503319 -0.291872 -0.010723 0.150032 -0.001495
876 -0.550202 -0.015311 0.206889 -0.451923 0.215742 -0.191265 -0.352853 0.404321 0.602154 0.040999 0.180142 -0.673113 -0.067600 0.464319 -0.049036 0.367437 0.265450 0.315010 -0.125798 0.235194 -0.274107 -0.374090 0.462975 0.197938 -0.096606 -0.397933 0.812249 0.000986 0.180316 0.416827 0.250743 -0.576827 0.012630 -0.040212 0.340808 0.354172 -0.093892 0.590798 0.576565 0.565852 0.156146 -0.332891 -0.063932 -0.014731 0.451472 0.004754 0.405144 -0.238524 -0.260746 -0.782403 0.528070 -0.488609 0.516739 0.144303 -0.183470 0.008889 0.366111 0.134204 0.427710 -0.413886 -0.234131 0.585441 0.258009 -0.519512 0.469394 -0.136592 -0.178830 -0.203299 -0.200053 -0.199095 -0.039279 -0.336749 0.396684 -0.429922 0.197631 -0.569652 0.673918 0.214141 0.510264 0.398683 -0.389993 -0.341800 0.108467 -0.086420 0.302346 0.019557 -0.276031 -0.209216 -0.469222 0.137851 0.332960 0.120985 -0.038558 -0.215358 0.139048 -0.251857 0.203870 -0.329966 -0.424567 -0.017094 0.142405 0.310217 0.164256 -0.060287 -0.654228 0.042397 -0.311817 -0.205856 0.411114 -0.473811 0.537460 -0.620393 -0.049835 -0.261841 -0.128058 -0.537650 -0.229692 0.151067 0.566681 -0.041213 -0.000433 0.056537 -0.013810 -0.350764 -0.286261 -0.375661 0.236703 -0.026480
691 -0.235445 -0.062040 -0.027469 0.441084 -0.273057 -0.412275 0.028520 -0.004258 0.396138 0.156832 0.147499 0.155833 0.037693 0.104156 0.463720 -0.107775 0.036633 -0.260018 -0.104552 -0.216295 -0.600058 -0.191175 -0.319856 -0.334297 -0.338917 -0.300718 0.977389 0.423512 -0.736759 -0.068858 0.003446 -0.435543 -0.188173 -0.536102 -0.392936 -0.389388 -0.065331 0.133605 0.094530 0.459240 0.253109 0.500655 0.247104 0.331329 0.688075 -0.079888 -0.181107 0.289477 -0.363779 -0.289587 0.594584 0.132433 0.364339 -0.439067 0.206529 -0.221613 -0.145248 -0.040305 0.024924 0.075968 -0.479607 -0.157031 -0.147782 -0.134371 0.006643 0.257245 0.771189 -0.217279 0.283420 0.430504 -0.452402 0.380168 -0.672516 0.069908 -0.212669 -0.250492 -0.128095 -0.019220 0.129995 0.035107 -0.032599 -0.636225 0.136706 -0.440610 -0.035184 -0.085756 -0.137902 0.048970 -0.140085 -0.199337 0.116864 -0.351538 0.281181 -0.409705 -0.477876 0.090349 -0.303192 0.282812 -0.174124 0.076798 -0.267680 0.122232 -0.320451 0.776849 -0.174448 -0.291092 -0.535131 0.326045 -0.191506 0.359863 0.170381 -0.224728 -0.199219 0.344464 -0.415839 0.065731 -0.250475 -0.683483 0.470527 0.310583 0.104888 -0.046661 0.071514 0.030946 -0.202592 0.034574 -0.006915 0.217425
1460 -0.348372 -0.040940 0.274170 -0.194158 0.110687 -0.295781 -0.371607 -0.144046 0.086168 0.589624 -0.605592 -0.362695 -1.016469 0.328675 0.070072 0.426841 1.122825 -0.324785 0.318159 0.354402 -0.358200 -0.470456 0.303805 0.013650 -0.694507 0.197746 0.898882 -0.183980 -0.535683 0.155774 -0.059053 0.676769 -0.441559 0.337752 0.369900 -0.077206 -0.004592 0.042333 0.130338 -0.336962 0.004028 -0.111102 0.506356 0.343810 -0.014644 0.065547 0.419837 0.120031 0.219499 -0.087275 -0.054511 -0.606356 0.375120 0.260215 0.888218 -0.037856 -0.011666 -0.159172 -0.337660 -0.100136 0.467887 -0.135219 0.699733 -0.084767 -0.208447 0.095187 0.302705 0.147583 0.056513 -0.315551 0.513772 -0.191795 0.175690 -0.505543 0.081052 0.938559 -0.034008 -0.077641 0.139823 0.295111 0.052585 -0.085045 0.592576 -0.103129 0.460659 0.015961 -0.321074 0.749203 0.205011 0.391630 0.093748 -0.176716 0.629463 0.281491 -0.152677 -0.051008 -0.003193 0.396908 -0.453167 -0.696469 0.136890 0.331849 0.005456 0.184354 0.271355 0.253681 -0.018324 -0.068232 0.000785 0.551387 1.263541 -0.232475 0.488729 0.356928 -0.242103 0.094325 -0.607335 -0.424749 -0.121098 -0.431061 -0.477126 -0.086298 0.016406 0.324169 -0.237737 -0.056593 0.018238 -0.364850
1150 0.647524 -0.551645 -0.030973 -0.442508 0.091362 0.672819 -0.080419 -0.295306 -0.086787 0.247074 0.010845 0.515633 -0.211426 -0.527250 0.094968 -0.138494 0.684695 -0.080334 0.268427 0.276386 -0.756869 0.200773 0.150205 -0.482820 -0.686608 0.008835 0.937742 0.502241 -0.045107 0.709059 -0.331447 0.047952 -0.487753 -0.303357 0.148091 0.389830 1.075311 -0.077270 -0.263361 0.362645 0.327897 0.061986 0.121328 0.033578 0.045449 -0.104406 0.081369 -0.312779 -0.554794 -0.000699 0.076526 0.022349 0.014328 0.008331 0.329949 -0.105502 0.051021 0.146166 -0.073566 0.514277 0.052254 -0.188790 -1.013562 -0.262032 -0.024254 0.158433 -0.317296 -0.053079 -0.403346 -0.142424 -0.793405 0.392372 0.451765 0.019739 0.705870 -0.118415 0.443643 0.668560 -0.068514 0.184108 -0.125725 -0.087698 -0.152879 0.003369 -0.179165 -0.025964 0.159663 0.181604 0.211605 0.606627 0.365774 0.092902 0.717411 0.306329 -0.419337 0.157401 0.058255 -0.678450 0.044193 -0.274002 -0.074902 -0.066434 0.223988 -0.169727 0.711359 0.476293 -0.439167 0.179187 -0.128418 0.351690 0.695893 -0.055468 0.393024 -0.562198 0.650303 -0.284772 0.572017 -0.258844 0.699506 -0.119766 -0.335616 0.022020 0.369195 0.567548 -0.315795 0.229738 0.197762 0.308646
2050 -0.320886 -0.019973 -0.107637 0.188473 -0.527634 0.020328 0.531206 -0.079689 0.097439 0.396827 -0.335486 0.221886 -1.202456 -0.232597 -0.260160 0.092195 -0.261367 0.118101 -0.279344 -0.156332 0.102766 -0.064853 0.064667 0.214721 -0.253518 0.154988 0.247554 -0.187724 0.443663 -0.183493 -0.254440 -0.245839 -0.431144 -0.012412 -0.269774 -0.091288 -0.050839 0.322310 0.318503 0.191137 0.410293 0.085964 0.500871 -0.234878 0.434701 0.278149 -0.261225 -0.006532 0.144806 -0.404093 0.243103 0.076102 0.228867 0.156859 0.658499 -0.310596 -0.185283 -0.058442 -0.045930 -0.729715 -0.000194 -0.482148 -1.087371 0.015726 0.213959 0.043501 0.303710 -0.061855 -0.530933 -0.506724 -0.377039 0.494313 0.449898 0.642353 0.075801 0.469235 -0.225990 0.439512 -0.191014 0.126718 -0.270695 -0.012893 0.228087 -0.611399 0.503881 -0.230427 0.866301 0.378098 0.526906 -0.409638 -0.163104 0.204950 -0.020427 -0.188887 -0.071181 0.051614 0.080867 -0.496029 -0.203211 0.025924 0.093612 -0.427975 -0.105716 0.076912 -0.562218 0.249131 -0.102105 -0.153468 0.572502 -0.274527 0.484673 -0.151563 0.194148 -0.371369 -0.000386 0.066283 -0.521859 -0.337297 0.570786 0.011626 -0.050550 0.114777 -0.060483 -0.251828 -0.066575 0.301865 -0.109629 0.479293
979 -0.190996 0.517329 0.088813 0.388083 -0.403209 -0.301058 0.402045 0.142452 0.241775 0.554421 0.609127 0.988293 -0.110330 0.241026 0.477974 -0.024512 -0.107150 -0.422533 -0.100201 0.147886 -0.338278 0.242908 -0.652848 0.315028 0.274033 -0.505105 0.756517 -0.144158 -0.355870 -0.406212 0.005705 -0.176360 -0.417163 -0.201007 0.073905 0.292739 -0.266004 -0.132678 0.321769 -0.109171 0.126600 0.200602 0.482392 0.037764 0.463065 -0.382922 0.191335 -0.222589 0.138142 0.287371 0.485529 0.091572 0.022236 -0.375553 -0.054944 -0.029710 -0.006604 -0.278359 0.035319 0.142495 -0.485003 0.167439 -0.419498 -0.344919 -0.212425 0.088160 0.605030 -0.438129 -0.426748 0.011637 0.028583 -0.111255 0.355042 0.004871 0.041151 0.159705 -0.430509 0.461770 0.119481 0.745196 0.267514 -0.034071 0.236291 -0.229783 0.155435 -0.034926 0.323083 -0.670655 -0.379898 0.086507 -0.211355 -0.652577 0.083116 -0.573796 -0.391077 -0.266221 0.292841 -0.102508 0.063814 0.181082 -0.291616 -0.260921 -0.180629 0.505759 0.182944 -0.433836 -0.194996 -0.101383 -0.286289 0.205304 0.942280 0.286566 -0.054923 0.247033 -0.203311 -0.093474 -0.057826 -0.453042 0.393868 -0.034365 -0.219071 -0.242987 0.067381 0.167492 -0.107745 -0.236106 0.050801 0.186678
1004 0.146902 -0.380139 -0.508553 0.000514 -0.127316 -0.131782 0.427648 -0.412461 0.104131 0.111790 -0.070437 -0.337541 -0.209201 0.028105 0.090211 0.132733 0.049185 0.097350 0.548543 0.306299 0.049862 0.482276 0.170503 0.389265 -0.324628 0.199764 0.412179 0.272309 0.097561 0.417549 -0.137486 -0.309644 0.214085 -0.005674 0.192551 0.224280 0.034769 0.268365 0.023698 0.132576 -0.253815 -0.157522 0.084926 -0.226105 0.647162 0.361813 0.095859 -0.222240 0.046789 -0.489390 0.034320 -0.282449 -0.332959 -0.395535 0.210901 -0.056274 -0.142610 0.053475 -0.004362 -0.302890 -0.543828 -0.197947 0.414065 -0.355588 -0.029500 -0.253490 0.300139 -0.289360 0.198667 0.576786 -0.204319 0.189586 -0.190059 -0.390675 0.214733 0.272008 0.365196 -0.275705 0.328795 0.394162 0.168876 -0.578396 -0.113879 -0.005085 -0.013816 -0.105637 0.094874 0.564209 -0.010520 -0.169260 0.042766 0.067779 0.773862 -0.247245 -0.532170 0.016220 0.287787 0.217485 -0.425039 -0.116776 0.022519 0.255849 -0.013107 -0.407101 0.498104 -0.373711 -0.140605 0.096988 0.367515 -0.654003 0.560386 -0.209762 0.213937 -0.027748 -0.270653 0.308281 0.062620 0.421416 -0.039068 -0.378420 -0.325358 0.127278 -0.037005 -0.092290 -0.177609 -0.075497 0.260482 -0.157197
416 0.056925 -0.076156 0.080708 -0.028293 -0.054289 -0.431383 -0.396290 0.298876 -0.280496 0.159787 0.326545 0.233541 0.105372 -0.366583 0.307609 -0.039858 0.268694 0.779630 0.426559 -0.157697 -0.279341 0.450037 0.006707 0.178035 -0.248755 -0.624772 0.396875 0.272695 -0.065903 -0.050709 -0.070827 0.068730 0.090598 -0.200203 0.115119 -0.422747 0.236675 -0.244126 0.052120 0.322728 0.177031 0.334576 -0.074808 0.233544 0.392855 -0.128301 -0.176706 0.263853 0.199882 -0.791350 0.052585 -0.104916 0.565922 -0.445306 -0.114912 0.294712 -0.479553 -0.215183 0.207381 -0.182695 -0.975883 -0.015449 -0.274195 0.302036 0.452456 -0.072720 0.958596 -0.406743 -0.426533 -0.052182 -0.027161 0.333361 0.240231 0.230980 0.008005 0.269418 -0.462869 -0.061083 -0.301479 0.463600 0.019344 -0.669331 -0.334357 -0.368962 -0.028168 -0.571811 -0.315786 -0.516983 0.090818 -0.122500 -0.121153 -0.532008 0.437049 -0.308110 -0.115906 -0.159514 0.087874 -0.252806 0.134459 -0.188194 -0.240335 -0.865394 -0.185478 0.312259 0.315066 -0.480218 0.033703 0.386637 -0.542346 0.385542 0.861543 -0.274141 -0.365330 0.506120 -0.577526 -0.541586 -0.143610 -0.596020 -0.021201 0.035054 -0.009627 -0.297514 0.006874 -0.012101 0.033240 0.104939 -0.577113 0.176897
516 -0.119319 -0.163676 -0.194058 0.247310 0.141021 0.301564 -0.027683 -0.454591 0.058123 -0.025559 -0.270333 -0.193856 -0.211711 0.129376 0.049979 0.234056 0.182460 0.008919 0.167033 0.006100 -0.104557 -0.032122 0.628188 0.140224 -0.223902 0.211004 0.629233 -0.054381 0.092610 0.159183 -0.196837 0.053534 0.427782 0.074665 0.170097 0.273992 -0.333432 0.216959 -0.352284 0.112110 -0.018165 0.048278 -0.143502 0.251448 0.721391 0.006512 0.279799 -0.003868 0.411527 -0.109314 -0.097830 -0.112555 0.015759 -0.242771 0.513255 -0.173507 0.003279 0.009259 0.166280 -0.124944 -0.377793 0.050093 -0.151099 -0.068337 -0.064453 -0.137387 0.173898 -0.202776 -0.365794 0.465931 0.029357 0.051281 0.280050 -0.479399 0.261140 -0.126232 -0.089245 -0.200506 0.290685 0.089032 -0.073581 -0.566209 -0.050744 0.214225 -0.354358 -0.493957 -0.042466 0.534252 0.068812 0.239071 -0.096173 -0.121657 0.366768 -0.397893 -0.597890 -0.188695 0.108035 0.070637 -0.184964 -0.098452 0.185570 0.238699 0.425932 -0.322149 0.058820 -0.397408 0.055962 -0.161514 0.312492 -0.152829 0.522311 -0.212907 -0.097104 0.217231 -0.272684 0.261073 -0.036747 0.229845 -0.205641 -0.275642 -0.157670 -0.088933 0.078538 -0.044198 -0.294180 -0.060952 0.206344 0.073891
483 -0.133317 -0.029732 -0.403769 0.257887 0.151993 0.035668 -0.022786 -0.257570 0.144704 0.081985 -0.009834 -0.357711 -0.063268 0.170336 0.364749 0.129567 0.282089 0.219643 0.086682 0.143760 -0.048671 0.210197 0.392274 0.412496 -0.184079 -0.086787 0.458439 -0.231652 0.079123 0.156560 0.076302 0.021598 0.366188 0.240178 0.141606 0.394025 -0.113966 0.448245 -0.362055 -0.000144 0.023318 -0.145727 -0.118871 0.332037 0.879086 -0.227043 0.462882 -0.082033 0.021916 0.135383 -0.027742 -0.514991 0.070201 -0.411521 0.426535 -0.221440 0.231810 0.081471 0.061242 0.145541 0.094923 0.137977 -0.037030 0.321516 -0.011685 -0.179508 0.156207 -0.247816 0.035740 0.168641 0.124937 0.044738 0.145543 -0.280913 0.318328 -0.210814 0.039947 0.114251 0.080674 -0.004942 0.019820 -0.452073 -0.120232 0.133464 -0.341580 -0.307548 0.428757 0.083209 -0.086868 0.217852 0.006853 0.390434 0.206674 -0.932106 -0.736736 0.264842 0.124175 -0.156597 -0.009019 -0.415902 -0.049571 0.075152 0.504838 -0.223905 0.180485 -0.292973 -0.190840 -0.154423 0.620971 -0.010836 0.625846 -0.052782 0.020335 -0.066914 0.046603 0.199093 -0.052555 -0.140582 0.030259 -0.475129 -0.260163 0.118905 0.054530 0.005191 -0.029161 0.149135 0.174692 0.143952
295 0.310151 0.018657 -0.333158 0.058250 0.078908 -0.515490 -0.659900 -0.090021 -0.523096 0.373659 -0.095716 0.041360 -0.019740 0.364012 -0.280250 0.282229 0.309050 0.216128 0.056695 -0.092732 -0.699883 -0.451789 0.458212 0.639969 -0.406762 0.363539 0.452497 0.381166 0.216973 0.722492 0.600225 0.010391 -0.148851 0.395228 0.220236 -0.477502 -0.631973 0.007789 0.430604 0.146370 0.276655 -0.403362 0.561177 0.044582 0.072103 -0.280180 -0.307263 0.096986 0.125628 -0.112825 0.332057 0.392677 -0.233778 -0.453063 0.270952 -0.314009 -0.563824 -0.037357 0.293600 -0.907643 -0.091946 0.302441 -0.217438 -0.078971 0.408321 -0.023340 -0.122659 0.159639 -0.113319 0.756180 0.509842 -0.528493 -0.086721 -0.398873 -0.011610 -0.059738 0.499884 0.487596 -0.006818 -0.337750 -0.376470 -0.204896 -0.275585 0.055802 0.135355 -0.281059 -0.186540 0.410652 -0.117813 -0.352087 0.186284 -1.216005 0.261958 -0.498546 0.225854 -0.035376 0.016730 -0.138634 0.078135 0.085997 -0.561914 0.575229 -0.158044 -0.133557 -0.077056 -0.084264 -0.184018 0.009624 0.362636 -0.311601 0.385683 -0.560130 0.650722 -0.006814 -0.021055 -0.269678 0.223331 -0.077849 0.511936 -0.338630 -0.409130 -0.236431 0.329262 -0.251719 -0.353230 -0.073291 0.212092 0.102969
1386 0.810089 0.078291 0.739383 -0.479438 0.011704 0.073765 0.250423 -0.139291 0.209817 0.126180 -0.145446 0.458290 -0.093691 -0.485976 0.216605 0.685107 0.127941 0.229345 -0.518149 0.317814 -1.003680 -0.029919 0.479257 -0.429250 1.007467 -0.411283 1.549430 0.580946 -0.737040 0.541548 0.341327 -0.447893 -0.753286 0.507660 -0.264821 0.415467 0.416697 0.517983 -0.435811 0.617001 0.232354 0.336732 0.419199 -0.044511 0.083516 0.729873 0.015122 -0.272397 0.141536 -0.215121 0.611020 0.599851 -0.316045 -0.203876 0.296380 -0.387954 -1.296378 -0.353431 -0.174866 -0.416655 0.697606 -0.383536 0.431232 0.888080 0.041717 -0.441103 -0.369352 -0.686942 0.098648 -0.564721 0.142915 -0.474526 0.164903 0.191758 0.736295 -0.120054 -0.517740 -0.429639 0.089781 -0.033025 -0.138970 -0.244131 -0.524828 0.731080 0.257692 -0.657614 -0.215344 -0.566935 0.416763 0.157336 0.156489 -0.894657 0.966930 -0.262429 -0.597889 0.197290 0.223587 -0.306945 0.176005 0.542448 0.468201 0.062544 0.345908 0.005276 0.266112 0.640473 -0.495904 0.415327 0.101195 -0.654600 0.644227 0.143431 -0.162997 0.544365 0.056517 0.075255 -0.591348 0.188735 -0.372361 0.062515 -0.328126 0.491273 0.570234 -0.097246 -0.086928 0.166787 0.502662 0.080350
495 -0.382117 0.649187 0.034170 0.444364 -0.466399 -0.001685 0.414703 -0.100995 -0.080882 0.313079 0.322166 1.224986 0.004063 0.255832 0.481335 -0.045427 -0.288356 -0.532736 0.058220 0.013941 -0.376249 0.170409 -0.566445 0.325508 0.212509 -0.360107 0.770163 -0.007997 -0.325913 -0.294398 0.218969 -0.261811 -0.542901 -0.271643 0.219867 0.143626 0.119715 0.073258 0.185396 -0.035804 -0.077371 0.515620 0.311260 -0.171059 0.557818 -0.145778 0.045831 -0.019832 0.178856 0.329270 0.543007 0.258325 0.096557 -0.222449 -0.002770 -0.056996 0.218571 -0.070882 0.237093 -0.234440 -0.552047 0.085222 -0.283235 -0.014672 -0.460169 -0.077236 0.321097 -0.244514 -0.543726 -0.002452 -0.051926 0.064715 0.328750 -0.187353 -0.141778 -0.127469 -0.258457 0.656746 0.223134 0.745609 0.191167 -0.170710 0.024645 -0.369360 0.226623 -0.351419 -0.026077 -0.371859 -0.422558 0.112604 -0.205102 -1.245316 0.221962 -0.483558 0.097060 -0.188166 0.027310 -0.179971 0.104890 0.491812 -0.143753 0.209638 0.169556 0.414171 0.162622 -0.641086 -0.876097 0.177407 -0.155577 -0.022719 0.961229 0.406484 -0.116408 0.336729 -0.216623 -0.486057 0.103786 -0.638828 0.349467 -0.262448 -0.099702 0.010459 0.027874 0.368814 -0.221953 -0.306215 -0.162969 0.308851
202 -0.226505 -0.146594 0.075620 -0.056352 -0.224422 -0.012897 -0.052513 0.100165 0.090865 -0.200468 0.125202 -0.421911 -0.096869 -0.090415 0.950897 -0.327203 -0.504269 -0.027000 0.094092 -0.054890 -0.203424 -0.026966 0.276867 -0.357895 -0.370216 0.280704 0.376987 -0.385795 -0.252234 -0.077250 0.768137 -0.459894 -0.360962 -0.492034 0.347879 -0.039555 0.013773 0.220195 -0.316392 0.178053 1.174985 0.320038 -0.042849 0.423213 -0.208098 0.118928 -0.349177 0.203633 0.497598 -0.003775 -0.129361 0.260126 0.639907 -0.234705 0.416077 -0.053980 -0.301459 -0.059769 0.014861 0.033032 -0.077910 -0.150931 -0.292485 -0.205907 -0.032121 -0.019184 0.695804 -0.508816 -0.080097 0.179224 0.528149 0.300663 0.347837 -0.595330 0.740718 -0.056331 -0.448707 0.443809 0.032652 0.660342 -0.079500 -0.321734 0.269720 -0.187261 0.032552 -0.340805 -0.110017 -0.426623 -0.501762 0.250732 -0.239993 -0.379282 0.377752 0.069701 0.228787 -0.151198 0.196868 0.107953 0.489748 -0.058385 -0.304707 0.091002 -0.267636 0.669816 0.365913 0.053098 -0.261657 -0.640555 -0.037226 -0.851986 0.199355 -0.020450 0.388190 -0.078233 -0.085098 -0.184964 0.111405 -0.653749 0.151391 0.039838 -0.279265 0.016575 -0.054377 0.146538 0.174605 0.225234 -0.340100 0.645060
2996 0.857758 -0.009234 -0.723171 -0.015360 -0.407869 0.605627 0.536945 0.470936 -0.368219 0.812372 0.266453 0.198109 -0.739301 0.298038 -0.841190 0.350717 0.253588 1.201221 -0.833945 -0.658793 -1.327065 -0.021524 0.545094 -0.133609 0.446613 -0.123057 1.043786 0.729961 -0.827312 -0.234407 0.437034 -0.042501 -0.537876 0.203646 0.681800 -0.120286 0.368440 -0.364661 0.044026 0.908019 0.486547 0.828881 0.211105 -1.368029 -0.687540 0.744459 0.677910 -1.022926 -0.278254 -0.307302 0.033217 -0.067128 -0.331895 0.622974 0.574120 0.053791 -0.750935 0.200673 -0.608271 -0.335245 0.447913 -1.019233 -0.111103 -0.730065 0.296780 -0.996581 -0.468347 0.037932 -0.630021 -0.562735 0.520461 -0.496313 0.696295 -0.388099 -0.005831 0.054930 -0.790604 0.392772 0.173172 1.434457 0.022246 -0.754525 -0.596886 0.693877 -0.680170 -0.022296 0.645953 -1.141015 -0.704985 -0.377444 0.203555 -0.694362 0.859091 -1.038144 0.530118 0.198245 0.772357 -0.762772 0.371591 -0.069138 -0.590624 0.201343 -0.576566 -0.213573 0.442872 -0.945823 -0.381273 0.369626 0.480976 -0.204312 0.410890 -0.691989 0.298877 -0.582515 0.218353 -0.544027 -0.543539 -0.089676 0.101838 0.530713 -0.047005 -0.330436 -0.112569 0.956424 -0.477399 1.029692 0.414413 0.389194
848 0.271609 -0.025866 0.135228 0.384591 -0.183851 -0.149717 -0.383272 0.257449 0.232313 0.059287 0.494722 0.589521 -0.163984 -0.067341 0.007479 -0.320955 -0.194300 -0.250070 0.164837 0.280066 -0.033856 -0.183502 -0.332511 -0.333360 0.057794 -0.626706 0.431723 0.118873 0.266681 -0.153046 0.066466 -0.536293 -0.240902 -0.297547 0.001442 0.278985 -0.465747 -0.386421 0.170653 0.042174 0.236012 0.041945 -0.234319 0.046870 -0.099121 0.275589 -0.412348 0.142096 -0.306368 0.453178 0.170212 -0.333525 0.633705 -0.652266 0.126837 -0.133780 -0.170194 -0.151028 -0.100545 -0.185975 -0.380293 0.098532 -0.625010 -0.229044 0.728461 0.121384 0.353058 -0.293450 0.056647 0.031200 0.051946 -0.078477 0.741866 -0.407429 -0.044487 0.081230 -0.546039 -0.083647 0.182134 0.353736 0.107361 -0.064044 0.281548 0.032546 0.207460 -0.111182 -0.192050 -0.265137 -0.416965 -0.005012 0.153799 -0.030497 0.495145 0.000386 -0.489303 0.628129 0.242327 -0.090254 0.169708 0.556712 -0.088797 0.470622 -0.361731 0.463061 0.055361 -0.326479 -0.117981 -0.128830 0.067905 -0.206795 0.483994 -0.407613 -0.453932 0.078417 0.393977 -0.285978 -0.126126 -0.431385 0.059133 -0.360631 -0.174768 0.007998 0.113398 0.507911 -0.261378 0.688551 -0.187222 0.420579
389 0.056853 0.358093 -0.233590 -0.176835 0.008466 0.193075 -0.003432 0.073481 0.137288 -0.277861 -0.018158 0.746945 -0.660226 0.032540 0.614256 0.155342 -0.845825 0.022154 0.634029 -0.199068 -0.101353 0.331556 0.533147 0.107185 0.214640 0.345549 0.566650 -0.814233 -0.310758 -0.684228 0.175928 -0.513227 0.193747 -0.653615 -0.034010 -0.039523 0.098599 0.287644 -0.487540 0.138928 0.309662 0.049652 0.670036 -0.014321 0.282708 -0.218748 -0.604792 0.137066 0.209323 0.159809 0.794253 0.328913 0.358488 -0.311176 0.160607 -0.233061 -0.274221 -0.070047 0.159064 0.684602 -0.105900 0.196223 0.621483 -0.346789 0.547643 0.439819 1.443643 0.031583 -0.299288 -0.741324 -0.206487 0.232163 0.065237 -0.352886 0.481725 0.131301 -0.193804 0.449231 -0.142788 0.195653 -0.223946 -1.008524 -0.324569 -0.143310 0.375407 -0.806299 -0.158987 -0.072228 0.349934 0.541639 -0.219893 -0.492899 0.220604 -0.133318 0.493001 0.548032 -0.067653 0.255355 -0.246790 0.448847 -0.153384 0.075341 -0.206929 0.203407 0.856656 -0.288562 0.168130 -0.308862 -0.474379 -0.762284 0.956618 0.195919 0.170129 -0.939634 0.078284 -0.585038 -0.053701 -0.193737 0.203655 0.150749 -0.319520 -0.251269 -0.000047 0.186992 -0.009482 -0.140733 -0.093704 0.467671
2832 -1.193096 -0.374775 -0.071571 -0.379838 -0.471164 0.771491 0.589634 -0.578768 0.342970 0.100023 0.214166 0.237119 -0.429036 -0.208592 -0.298364 -0.193942 -0.714385 -0.118807 0.412359 0.547542 0.347464 -0.192327 0.225814 -0.193883 -0.531057 -0.521407 1.445861 0.407574 -0.638117 0.281060 0.329453 -0.654403 -0.456976 0.035427 0.820677 -0.142028 0.164716 1.148827 -0.504400 0.811141 0.949934 -0.384155 0.022029 -0.027600 1.636650 0.977659 0.021012 -0.253659 -0.444998 0.213618 -0.259864 0.242885 0.345793 -0.174340 0.596137 0.060632 0.403856 -1.414013 0.063770 1.004694 0.432507 0.795437 -0.015856 0.344461 1.313753 0.728289 -0.095348 0.733545 -0.393995 0.486294 -0.158488 0.572588 -0.297179 -0.612089 0.328306 -0.299559 -0.614821 0.786529 -0.413499 0.632182 0.604227 0.665073 0.032163 -0.021021 -0.831222 0.036760 -0.553591 0.428742 0.407889 0.366491 0.460713 0.022698 0.417249 0.321741 -0.257621 -0.194988 0.319447 1.768304 -1.287818 0.412426 -0.785756 0.125339 -0.006063 0.343428 -0.202733 -0.313988 0.225534 -0.025310 0.567317 -0.015059 0.324781 0.176161 0.412447 -0.592630 0.500914 -1.575272 0.186277 -0.338951 -0.016170 -0.828946 0.692570 0.213127 0.721811 -0.157775 -0.545838 0.227641 0.343363 0.316218
1168 -0.037297 -0.326312 -1.094502 0.159042 0.773166 -0.060716 -0.005912 -0.611514 0.593782 0.425989 -0.694742 -0.382544 0.486673 0.038781 0.328787 -0.160713 -0.401146 -0.745101 0.156026 -0.027027 0.067478 0.162850 -0.307441 -0.233380 -0.299437 -0.193830 0.955423 -0.047017 0.452590 0.139677 0.265329 0.194047 0.281651 0.246334 -0.119038 -0.184653 -0.029177 0.034003 0.497839 0.083638 -0.261248 0.259611 -0.037226 0.558702 0.757270 -0.387468 -0.052621 0.106264 0.155151 -0.255753 0.410832 -0.843289 0.788165 -0.042918 0.565854 0.244328 -0.675414 -0.509997 -0.547875 0.012535 0.155259 0.210424 0.320446 0.219076 0.154189 -0.303169 0.337245 0.067292 0.622610 -0.753852 0.431210 -0.172235 -0.058098 -0.127841 0.358338 -0.345921 -0.577887 0.143018 -0.373411 0.052122 -0.238963 -0.444455 -0.609398 0.250284 -0.014487 -0.232570 0.037269 0.593553 0.131286 0.306320 0.115903 -1.109123 -0.289277 -0.375183 -0.344014 -0.434056 0.210524 0.021527 0.067097 0.142407 -0.157324 -0.266019 -0.071805 -0.835333 0.430018 0.923678 -0.280855 -0.411397 0.536791 0.085692 0.546114 -0.037891 -0.305327 -0.582247 -0.552535 -0.290209 -0.068325 0.181039 0.774394 0.583265 -0.030496 0.133531 0.120481 -0.057576 -0.922526 0.312501 0.127059 -0.106143
441 0.494573 -0.180930 -0.229032 -0.157612 -0.102575 0.150141 -0.253578 -0.207224 -0.126198 0.232394 -0.055123 -0.242936 -0.766120 0.053382 -0.164324 0.206960 -0.028659 -0.081986 0.159053 0.750599 -0.164344 -0.116263 0.076252 0.172062 -0.245904 0.192275 0.641394 0.034752 -0.714547 0.362549 0.008288 -0.160421 0.182055 0.273830 0.538978 -0.016476 0.537863 0.122164 0.302562 0.274716 0.360387 0.192039 -0.241121 0.244537 0.661294 -0.438409 0.253198 0.142251 -0.523866 -0.047235 0.482862 0.269187 0.235088 0.110438 -0.357924 -0.162256 -0.299366 0.027454 0.109596 0.173745 -0.040304 0.304222 -0.227469 -0.244870 -0.142365 -0.676370 0.177657 0.225303 -0.047762 -0.325149 -0.301445 -0.159403 0.549049 -0.409027 0.334573 -0.027702 0.163754 -0.311113 -0.543598 0.413440 -0.256856 -0.159199 -0.668793 0.433571 -0.334541 -0.016062 0.288671 0.371381 0.289663 -0.072238 0.062452 0.228699 0.503041 0.582744 -0.315859 -0.520337 0.436466 0.037481 0.204886 -0.151891 0.474210 -0.118699 0.367829 0.444910 0.200328 -0.343370 -0.074120 0.108526 0.249928 -0.040979 0.294440 -0.053913 0.194080 -0.551063 0.395171 0.125124 0.042160 -0.126052 0.613370 -0.279985 0.247549 0.041089 0.049198 0.270120 -0.085013 0.019408 0.109367 0.019541
1374 -0.175087 -0.074818 0.037463 -0.155656 0.177697 -0.627651 -0.433661 0.182929 0.171323 0.639193 -0.710791 -0.203995 -0.959902 0.715494 -0.200818 0.402226 0.558614 -0.429670 0.512467 0.296000 -0.259817 -0.399360 0.439705 0.044060 -0.858774 0.328836 0.474277 0.027501 -0.005234 0.253931 0.239565 0.584800 0.067462 0.100657 0.236394 -0.242083 0.322539 -0.172858 0.077868 -0.300401 0.381428 0.025971 0.458191 -0.219567 0.126356 0.148340 0.284925 0.012052 0.027762 -0.169855 -0.082005 -0.255530 0.686613 0.318817 0.783931 -0.145750 0.123987 -0.705253 -0.611850 -0.181836 0.254988 -0.102407 0.482637 -0.072572 -0.209786 -0.616900 0.165727 -0.026537 0.081855 -0.436564 0.662482 -0.320680 0.158981 -0.165195 0.106025 0.420954 -0.126869 -0.495764 0.102840 0.587921 0.037204 -0.180057 0.275582 -0.224951 0.494306 0.005958 -0.091842 0.485401 -0.094911 0.551024 0.226596 -0.274903 0.251646 -0.064560 -0.245318 0.314646 -0.258684 0.600601 -0.411354 -0.479919 0.037260 0.367728 0.556090 0.215922 0.190840 0.125054 -0.170649 0.192726 0.236590 0.355991 1.010020 -0.129426 0.643852 0.203420 -0.182677 -0.024340 -0.437082 -0.637889 0.198756 -0.458346 -0.494606 -0.241993 0.268167 0.291378 -0.178752 0.125436 0.208963 -0.306898
447 0.257313 0.005060 -0.230102 -0.041103 -0.112941 -0.041386 -0.189957 -0.227910 0.037347 0.322264 0.425139 -0.066116 -0.209351 0.416561 0.309615 0.895736 0.131285 -0.314094 -0.165564 -0.103412 -0.490095 -0.796225 -0.111126 0.530459 -0.404179 0.673087 -0.031632 0.101002 0.079865 0.337646 -0.147094 0.015732 0.282272 -0.107197 -0.202461 -0.133839 -0.411338 -0.008595 -0.185232 0.466310 0.712827 -0.542393 0.628847 -0.022195 0.984264 -0.246466 -0.686349 0.489518 0.120684 -0.243837 -0.383894 0.035333 -0.592199 -0.230005 0.365638 -0.110627 -0.281307 -0.063257 -0.010037 -0.108033 -0.354335 0.723139 -0.013968 0.268952 0.455200 -0.550226 0.441062 0.209079 -0.678053 0.293723 0.404372 -0.328009 -0.330830 -0.846640 -0.334698 0.085581 -0.299170 0.499116 0.211356 -0.004042 -0.726874 -0.408415 -0.276335 0.406851 -0.333986 -0.452819 -0.100000 0.190035 -0.248650 -0.050919 -0.421029 -0.877012 0.219047 -0.225936 -0.400827 0.122266 -0.002781 -0.546381 -0.360056 0.474268 0.208865 0.495880 -0.397214 0.053953 0.416437 -0.184362 -0.312920 0.035720 0.336103 -0.446248 0.262295 0.022639 0.683177 0.177063 0.261391 0.205437 0.254093 0.083689 0.005776 0.124239 -0.091995 0.666843 -0.197303 0.502240 -0.931045 -0.047531 0.344289 -0.311755
685 0.412887 0.191777 0.021129 0.048563 -0.038228 -0.221051 -0.230661 -0.290684 -0.397706 0.696190 0.172563 -0.290295 0.155621 0.003332 0.117207 0.168147 -0.263263 0.293159 0.218962 0.248691 0.050825 0.005083 0.444635 0.091169 -0.363552 0.559153 0.405258 0.184904 0.048044 0.542255 -0.173166 0.207874 -0.634168 0.002704 -0.061534 0.574880 -0.357992 0.343279 0.160715 0.022986 0.108909 0.091915 -0.105335 0.304579 0.355895 -0.200579 -0.159124 0.099418 -0.409884 -0.562720 0.157285 0.102152 0.421666 0.034095 0.313059 -0.391358 0.198826 0.444195 -0.658898 -0.057542 0.059176 -0.320044 0.286639 -0.021065 0.305737 -0.364355 -0.209563 0.166671 -0.265815 0.152561 0.047985 -0.112401 0.375953 0.174738 0.373765 -0.146305 0.201101 0.486283 0.043473 0.645856 -0.038748 -0.267386 -0.393802 0.427102 0.239478 0.053172 0.186287 0.009633 -0.114415 -0.022030 -0.041996 0.206083 -0.216408 -0.005861 -0.354131 0.335558 -0.159582 0.102524 -0.503439 -0.024220 -0.199203 0.376307 -0.433496 -0.446189 0.172248 -0.141732 -0.043935 0.192170 0.252736 -0.101606 0.218455 -0.304092 -0.078248 0.536970 0.083496 -0.278101 -0.196619 -0.312566 0.327959 -0.377077 0.331438 0.024015 0.401133 -0.069858 -0.264126 -0.242202 -0.270767 0.210573
1759 -0.708522 -0.063805 -0.434946 0.593115 -0.554453 -0.100295 0.003152 -0.488347 0.364251 0.643102 0.114018 -1.339962 -0.663037 1.119721 -0.627253 0.032337 0.199564 -0.421767 -0.182655 1.640597 0.587332 -0.812945 0.846040 0.659194 0.470681 -0.325465 0.209111 -0.443974 0.558210 0.784519 0.191451 -1.207837 -0.656378 -0.621071 -0.490149 0.027314 0.896502 0.399315 -0.537340 -1.007289 0.250582 -0.581774 0.579238 -0.366131 0.940277 -0.098865 -0.363702 0.421103 -0.352981 -0.164866 1.252055 0.269295 0.954386 0.202546 0.788302 -0.859932 -0.309000 0.167335 0.959075 -0.834961 0.176371 -0.187119 -0.322970 -0.136846 1.130578 0.381321 0.759863 -0.404392 0.132431 -0.144862 0.757519 0.435868 -0.455503 0.155543 0.980743 -0.306712 0.193113 -0.012290 -0.238273 0.408580 -0.278591 -0.111720 0.049310 -0.242366 -0.260790 -1.175620 -1.000328 -0.161589 0.006095 -0.621365 0.528380 -0.600636 0.276451 0.258960 -0.396828 -0.101635 -0.230500 0.447241 -0.444774 0.150747 -0.083117 0.480909 -0.489497 0.686516 0.314867 1.293088 0.722480 1.066335 0.778745 -0.177259 0.249848 0.322736 0.131786 -0.114890 -0.429763 -0.771873 0.698718 0.596592 1.086932 -0.663707 -0.062344 0.015699 0.832921 0.191411 0.702088 0.528294 -0.441167 0.456065
522 0.018544 -0.254918 0.012681 -0.175403 0.062738 -0.323072 -0.017760 -0.051785 0.055512 0.219610 -0.333387 -0.435960 -0.579126 0.084152 -0.362785 0.156412 0.255965 -0.220658 0.302731 0.453992 -0.118443 -0.148582 0.229984 0.030625 -0.319091 -0.037356 0.674999 -0.262270 -0.246132 0.254419 0.105540 0.303447 -0.027509 -0.170216 0.560970 0.093037 0.046723 0.075927 -0.188088 0.019746 0.135266 0.005563 0.414623 0.179016 0.315517 -0.100177 0.106291 0.226267 -0.009684 0.088712 -0.112486 -0.472950 0.099140 -0.033654 0.715408 -0.201672 -0.027549 -0.219900 -0.333499 -0.101974 0.182605 -0.331916 0.222001 -0.150082 0.091150 -0.303199 0.325212 0.212748 -0.125868 -0.061226 0.328776 -0.102382 0.047345 -0.069194 -0.029667 0.542152 -0.318179 -0.116445 0.271684 0.287959 -0.104651 -0.059819 0.126821 0.084448 0.190121 0.122101 -0.214023 0.285116 0.100709 0.129086 0.475838 0.040916 0.443874 0.003466 0.004457 -0.111390 0.284308 -0.093360 -0.349971 -0.316502 0.275927 0.340752 0.492454 -0.173648 0.309212 -0.249962 -0.167035 0.061663 0.513603 0.306057 1.038152 -0.229756 0.234535 0.461761 -0.067712 0.122587 -0.424148 -0.179709 -0.229099 -0.207542 -0.207240 0.025021 0.029783 0.230691 -0.179846 -0.417064 0.159437 -0.511701
429 0.122414 -0.275380 -0.764811 -0.142911 0.129031 -0.413146 -0.097107 0.420943 0.101665 -0.132070 -0.040206 -0.218104 0.276444 0.490432 -0.247280 0.507559 0.473914 0.439062 0.029969 0.418941 -0.019686 -0.811890 0.247696 0.184974 0.252719 0.102117 0.681124 -0.021769 0.083543 0.299925 0.114096 -0.492769 0.239802 -0.266585 0.066463 0.197170 -0.032360 0.395704 0.873061 0.386277 0.260355 -0.028890 0.101928 0.008430 -0.496550 0.403646 -0.080490 0.255064 0.301736 0.235227 0.489828 0.209450 0.399072 -0.043411 -0.035119 0.214212 -0.485573 -0.027030 -0.172642 -0.035944 -0.141118 0.101046 -0.205342 -0.328923 0.011173 -0.447911 0.068804 -0.029446 -0.128346 -0.310920 0.889387 -0.231425 -0.247837 -0.450285 -0.051902 -0.180847 0.598618 0.871802 -0.348443 0.044064 -0.203331 -0.722019 -0.174449 -0.665193 -0.038615 0.253807 0.067193 0.691017 0.055743 -0.274685 0.502351 -0.307670 0.223949 -0.392467 -0.167099 -0.220878 -0.080379 -0.059686 -0.503280 0.061572 -0.398412 -0.094136 0.010427 -0.090547 -0.380393 0.513238 0.032594 -0.374743 -0.084710 0.484132 0.634828 -0.372184 0.252650 0.256221 -0.123300 -0.044380 0.087664 0.011632 0.264176 0.066575 -0.437881 -0.004252 0.249806 -0.643396 -0.306405 0.213068 0.154014 0.354448
1083 0.140957 -0.057499 -0.032324 -0.856463 -0.003449 0.283380 -0.623988 -0.793678 0.062015 0.113715 -0.370303 -0.019805 0.318770 -0.176983 -0.307327 -0.066932 0.338510 0.086605 0.289711 0.244570 -0.434443 -0.536355 -0.057919 -0.246526 -0.188857 -0.457872 0.567478 0.237859 0.016228 0.414960 -0.732089 -0.274778 -0.517076 -0.263575 0.446085 -0.582757 0.901205 0.123960 0.263470 -0.763124 0.935899 -0.433493 0.423313 0.519924 0.892830 -0.461941 -0.087990 -0.317451 -0.413860 -0.171524 0.753404 0.254099 -0.184106 0.109875 0.473257 -0.565595 0.092354 0.007138 0.041111 0.314057 0.506906 0.502862 -0.760292 0.376657 0.061647 0.302293 0.040134 -0.092095 -0.495950 -0.233766 -0.607759 -0.783189 0.684739 -0.175209 0.431758 0.360415 0.280501 0.437676 -0.341085 0.590021 -0.678970 -0.296705 0.410758 -0.153584 0.275295 0.145185 0.193593 0.052739 0.436062 0.172943 -0.058589 -0.387676 0.807032 0.037473 -0.724839 0.175067 0.461062 -0.059119 0.191177 -0.222162 -0.131991 0.094878 0.275069 -0.067435 0.851489 0.029842 -0.718873 -0.490613 -0.597393 0.656440 -0.095189 -0.444244 0.076628 -0.661764 0.474506 -0.025638 0.299208 -0.376355 0.665416 -0.162487 -0.529261 -0.454927 0.322287 0.310340 0.034466 0.413970 0.262382 -0.057054
506 0.244428 0.006128 -0.302383 -0.082607 -0.454734 -0.674901 -0.309386 -0.040568 0.160451 -0.270896 0.332675 -0.096490 0.278471 0.006608 0.456488 0.130973 -0.388407 -0.503211 -0.058773 0.081222 0.262167 0.205051 0.059906 -0.148857 -0.141395 -0.387399 0.811504 -0.397854 -0.227968 0.167817 0.532691 -0.432715 0.203468 -0.149649 0.207711 -0.182279 0.086050 0.173207 0.500422 -0.198205 0.594388 0.527075 0.245296 0.075459 -0.031705 0.590660 0.192939 0.159271 0.315533 0.407965 -0.048286 -0.166287 0.425681 -0.426380 0.362433 -0.117929 -0.326200 0.452060 -0.211356 0.135663 -0.294645 0.289445 -0.920313 -0.253973 0.500124 0.396680 0.686245 -0.742182 -0.654214 -0.031533 -0.191043 0.470699 -0.282338 -0.252870 0.633051 -0.002779 -0.232061 0.012503 -0.369226 0.938008 0.586016 0.000671 0.327402 0.415080 -0.286711 -0.203305 -0.044505 0.515617 -0.093912 0.076101 -0.618890 -0.556977 0.168539 0.160913 -0.187737 0.698681 0.396766 -0.515632 -0.330751 -0.019410 0.058347 -0.093252 -0.251218 0.885742 0.539198 0.223015 0.478725 -0.463791 -0.392707 0.036258 0.287612 0.236414 -0.083892 0.555842 -0.105121 -0.169154 -0.173006 -0.551657 0.554773 0.108001 -0.095375 -0.258829 0.337313 0.002635 -0.423992 0.127366 -0.028265 -0.019777
40 -0.489873 0.168941 -0.171851 -0.139602 -0.512927 0.163962 -0.209416 0.449771 0.010153 0.294235 0.421986 0.054566 -0.190219 0.017624 0.485396 0.030326 -0.216341 -0.240326 -0.333920 0.108400 0.265908 0.229854 -0.029593 -0.118300 0.191674 -0.154708 0.545797 -0.501512 -0.549011 0.080381 0.231861 0.247222 0.142537 0.053821 0.137024 0.008638 -0.224584 0.085403 0.655073 -0.282481 -0.502912 0.543087 0.071617 0.074543 0.360997 0.022338 -0.643041 0.090860 0.377961 -0.352473 0.081338 0.091341 0.157212 -0.038269 -0.095921 0.383780 -0.048347 0.046502 -0.330727 -0.229771 -0.485928 0.139977 -0.283386 0.166564 0.454018 -0.215553 0.383563 -0.115542 -0.210649 -0.051131 -0.278048 0.393807 0.005480 -0.321462 0.216855 0.216123 -0.240283 0.174403 -0.227519 0.685217 0.091437 -0.048937 -0.273308 -0.332505 0.178026 0.050573 0.013694 -0.225408 -0.655951 0.090412 -0.511043 -0.322645 1.231837 -0.402304 -0.296795 0.493989 -0.237603 0.327987 0.411366 -0.287820 -0.258752 -0.446050 -0.135885 0.387453 0.059546 -0.174205 0.003581 -0.390165 -0.626013 0.507214 0.692488 -0.392267 0.264322 0.437688 -0.194130 -0.554840 -0.206054 -0.180904 0.254033 -0.427326 0.359132 0.033033 0.330872 0.817029 -0.541150 0.369169 0.274866 0.626158
1747 -0.209743 -0.256801 -0.194803 -0.441038 -0.150379 0.260085 -0.479367 0.027843 -1.048127 0.198231 0.205051 -0.537666 0.044043 -0.697934 0.662229 -0.055631 -0.073576 0.318136 0.342529 0.697678 -0.141793 0.033535 0.007195 0.244030 0.824549 -0.056086 0.713229 1.423793 -0.613993 0.257227 -0.377631 -0.713534 0.451422 -0.826531 -0.680717 -0.025752 0.524340 0.758644 -0.282926 -0.192107 0.395302 -0.322062 0.556425 0.516620 0.121727 -0.147824 -0.403497 -0.509112 0.307514 -0.662165 0.342396 0.240471 0.245163 -0.519258 1.423701 0.007632 -0.065751 -0.373153 -0.179440 -0.302428 -0.181769 -0.230722 0.757751 -0.031445 0.189476 0.950608 -0.192209 -0.611745 0.095265 -0.079978 -0.210386 -0.300247 0.199254 0.163827 0.441232 -0.314069 -0.594688 -0.003286 -0.257022 -0.018426 -0.423661 -0.059042 -0.450634 -0.096311 -0.064867 0.285689 -0.284113 -0.299546 0.125495 0.021241 -0.284286 -0.442511 0.777331 -0.345317 -0.870034 -0.023696 -0.051565 0.302101 0.013933 -0.485697 1.008693 -0.130167 0.538012 0.184194 0.434052 0.558528 -0.046993 0.326414 -0.010255 -0.295212 0.724478 -0.242793 -0.986517 0.561332 0.336345 0.138667 -1.024089 -0.037442 0.163894 0.094824 -0.450943 0.493683 -0.429754 0.343456 -0.447821 0.535003 -0.060043 0.257417
855 -0.515180 -0.386730 1.024202 0.159783 -0.385523 -0.281633 -0.802147 0.108768 -0.344453 0.534231 -0.220556 0.038651 -0.324576 -0.274108 -0.090097 -0.000324 -0.356915 0.261067 -0.768173 -0.288690 0.305575 0.054058 -0.633880 0.530983 0.046426 -0.641635 0.225536 0.797654 0.094396 0.253764 -0.375434 -0.245496 0.693310 -0.301554 1.030966 0.345735 0.036522 0.745218 0.028783 0.112754 0.540000 -0.296522 0.427851 -0.264159 -0.189668 -0.146265 0.465069 0.258370 0.007393 0.505206 0.792584 0.060296 0.607173 0.064049 0.078697 -0.114196 -0.177917 0.005026 0.208158 -0.260856 -0.417991 -0.072670 0.006632 0.163291 0.346024 0.491010 -0.513595 0.364434 -0.049503 0.172764 -0.087592 0.637621 0.013744 -0.187844 -0.018648 0.017587 -0.170511 0.624173 0.131544 0.763516 -0.057893 0.012279 -0.349480 0.447219 0.004863 -0.345918 0.505069 -0.145093 0.151046 0.208185 0.123299 -0.699166 0.160152 0.352259 -0.475564 0.364306 0.283688 0.397156 -0.664908 -0.326594 0.244965 -0.465664 -0.359050 0.164632 0.660727 0.750108 -0.548275 -0.274422 0.532004 -0.045928 0.625710 -0.228113 0.266014 -0.085374 0.058817 -0.025353 -0.937844 0.045466 0.383366 0.258860 0.019222 -0.198499 -0.155158 0.371324 0.370030 0.111207 0.404770 0.286071
916 -0.278978 -0.240193 0.706530 0.277726 0.179929 -0.028000 0.137942 0.040947 0.028543 -0.418878 0.545509 -0.786338 -0.317244 -0.026892 0.241227 0.300052 -0.015420 -0.753343 -0.321957 -0.035172 0.177141 -0.493331 0.140108 0.238742 -0.118444 -0.951990 -0.035350 -0.163684 -0.103975 -0.419414 0.504523 -0.434620 -0.644726 0.607924 0.159570 0.341436 0.514476 0.449649 0.137008 -0.431010 0.146490 -0.351638 0.661064 -0.338630 -0.150754 -0.003536 -0.399963 0.350917 0.228571 -0.328775 0.245972 0.142741 -0.070997 -0.310890 -0.152745 -0.097529 -0.130307 0.067363 -0.225287 0.033517 -0.278117 -0.380989 -0.428143 -0.502687 0.199051 0.026827 0.321378 -0.226899 0.191202 0.179719 0.268184 -0.000064 0.392810 -0.370175 0.616696 -0.307295 -0.215446 0.282702 -0.512019 0.730921 0.142783 -0.019263 0.298961 -0.223913 -0.494434 0.162600 0.558488 0.243793 0.037099 0.097875 0.382015 -0.775975 0.168403 -0.482463 -0.447931 0.457065 -0.046950 0.040983 0.284402 0.005106 -0.012140 -0.147015 -0.531632 -0.067799 0.800315 -0.074844 -0.634593 0.570164 0.037087 0.266245 0.921946 -0.268518 -0.396120 0.144261 0.126589 -0.245726 -0.227029 -0.393899 0.648440 -0.263353 -0.055519 -0.183977 -0.078887 0.214425 -0.187976 0.137072 0.036353 0.145026
1980 -0.128953 -0.229751 -0.139290 -0.009360 -0.610175 -0.287399 0.394876 -0.150284 0.137434 0.409738 -0.358590 0.175346 -0.997344 -0.536646 -0.263282 0.229651 -0.253879 0.351207 -0.155429 -0.341883 0.159759 -0.276637 0.349408 0.111213 -0.185583 -0.151512 0.302496 -0.195183 0.411399 -0.110959 -0.518444 -0.399410 -0.398179 -0.021356 0.177503 0.327716 0.243956 0.411316 0.224818 0.062578 0.064761 -0.342305 0.932653 -0.355712 0.495211 0.169516 -0.024639 0.172104 0.163579 -0.630448 0.413786 0.159760 0.064867 0.345518 0.739913 -0.155587 -0.206245 0.125152 -0.224890 -0.794896 -0.208920 -0.506205 -0.993892 -0.163844 0.204266 0.061120 0.518577 -0.132750 -0.342594 -0.525028 -0.312772 0.617779 0.282121 0.661092 -0.221997 0.195428 -0.183827 0.305209 -0.059253 -0.009825 0.073657 0.042210 0.185175 -0.407944 0.595454 -0.170750 0.968782 0.139513 0.406110 0.062664 -0.565045 0.207745 -0.174617 -0.137641 0.058637 -0.015871 0.046637 -0.328918 -0.194881 -0.079897 0.080851 -0.367842 -0.040351 0.393455 -0.392304 0.235569 -0.362381 -0.113725 0.424529 -0.260446 0.527686 -0.093391 0.718631 -0.484284 0.133597 0.341987 -0.336471 -0.137855 0.653969 -0.058495 -0.055485 -0.003891 0.032607 0.114631 -0.171119 0.505047 -0.247536 0.519380
1727 0.463007 -0.020402 0.218778 0.499940 -0.152491 -0.007985 -0.491807 0.036758 0.167622 -0.115466 -0.882088 -0.072688 -0.086271 0.562568 -0.535814 -0.301501 0.692054 -0.112005 -0.007253 0.192505 -0.101713 0.251890 0.709420 0.033724 -0.003838 0.345683 0.533584 0.616616 0.562306 -0.219826 0.217705 -0.052350 -0.049988 0.209837 -0.030879 -0.064714 0.100532 0.114858 0.245507 0.107810 1.087650 0.027783 0.165436 0.329407 -0.338043 0.672326 0.042551 0.436222 -0.377665 -0.441534 0.398781 -0.972323 -0.127328 0.029345 0.882187 -0.094439 -0.592219 -0.693156 -0.420814 -0.461034 -0.171640 0.527514 0.357702 -0.375243 0.128012 -0.504843 0.566424 0.302185 -0.525711 -0.921613 0.572007 0.718297 0.082915 0.378429 -0.256777 0.828046 0.719306 -0.475346 -0.178851 0.404490 0.252926 -0.345493 0.120843 -0.547537 0.271900 -0.877858 0.152752 -0.236510 0.239226 0.129257 0.220770 -1.265689 0.240094 -0.377696 -0.542138 0.354434 0.163899 0.444548 -0.252434 0.467285 0.051418 0.126016 0.551144 0.307971 0.598578 0.582201 0.156461 -0.250500 -0.153894 0.088642 0.313014 0.321530 -0.804971 0.014356 -0.366618 0.091155 -0.873112 0.098858 0.873898 -0.381110 -0.333771 -0.332119 -0.832377 0.043827 -0.464780 0.042919 0.804553 -0.026583
1637 0.012934 -0.167496 -0.578457 0.274239 -0.637908 -0.155715 -0.314356 0.208497 0.416513 0.903710 0.104547 0.037687 0.037848 1.133911 -0.058104 0.535377 -0.108249 -0.554582 -0.236136 -0.464928 -0.457678 0.051250 0.355911 0.385437 -0.252899 0.257115 0.493586 -0.236745 -0.918074 0.004337 0.044509 0.110495 -0.347391 0.692785 0.071513 0.551685 0.328220 0.169780 0.428665 0.186459 0.934258 -0.230575 1.317408 0.306839 0.125163 0.024159 -0.630425 0.288519 -0.087473 -0.500769 -0.360042 -0.425030 0.189241 -0.253386 0.812434 -0.612911 -0.186963 0.352409 -0.110705 -0.318926 -0.593146 0.478114 -0.368776 0.187634 -0.702960 -0.521082 0.274405 0.599251 -0.285297 -1.075256 0.165552 -0.288972 -0.215874 -0.138908 0.632634 -0.762836 0.293131 0.073032 0.033953 -0.317093 -0.240867 0.788909 0.163201 -0.391001 0.362078 0.193667 0.345422 0.480014 0.541078 0.283960 0.799578 -0.711705 0.869688 0.432852 -0.558985 1.267196 0.491151 0.682561 -0.686864 -0.688957 0.780980 -0.887390 -0.111731 0.165443 -0.069777 0.057272 0.534901 -0.218794 0.666951 0.031316 1.080396 -1.189525 0.388357 -0.272337 0.128519 -0.602249 0.040414 0.589933 -0.100548 -0.088743 0.123511 -1.050351 -0.209928 0.151780 0.088060 -0.515285 -0.464614 0.096384
1811 -0.135692 -0.097831 -0.333460 0.396007 -0.173159 0.170267 -0.381019 0.163669 -0.078151 0.184076 -1.006882 -0.342116 0.012138 0.218574 -0.355510 0.046245 0.545194 -0.308994 0.253199 0.107475 0.148516 0.102906 0.090636 0.529938 0.506678 0.311304 0.689476 0.652460 0.956427 0.096539 0.339326 -0.104750 -0.267869 0.414941 -0.173551 0.090656 0.027573 0.172052 -0.352151 0.098766 0.974634 -0.408136 -0.020468 -0.130344 -0.414741 0.914403 0.204889 0.623868 -0.328954 -0.333903 0.227299 -0.669039 -0.100321 0.240551 0.953459 -0.090956 -0.261667 -0.608834 -0.282789 -0.208221 -0.569121 0.495104 -0.071020 -0.358823 0.549289 -0.488412 0.541223 0.381263 -0.280901 -0.701679 0.312256 0.650336 -0.135697 0.194010 0.181194 0.934130 0.730325 -0.104248 -0.104451 0.215427 0.021228 -0.146355 0.167025 -0.367319 -0.205647 -0.443006 0.393095 -0.226859 0.003472 0.079045 0.064011 -0.957715 0.052234 -0.058829 -0.731156 0.298671 -0.005347 0.526337 0.032697 0.295618 -0.187877 0.062224 0.099238 0.558377 0.624172 0.257728 0.206242 -0.121688 -0.192114 0.122426 0.025429 0.320935 -0.358932 0.258264 0.002370 -0.087441 -0.814212 0.199622 0.912368 -0.040967 -0.386261 -0.545568 -0.538935 0.186930 -0.437541 0.206946 0.758063 0.195337
3043 -0.556710 -0.464785 -0.673427 -0.085701 -0.025491 -0.294882 0.176745 0.115334 0.471722 0.899461 0.284980 -0.152197 0.722378 0.580106 -0.104754 0.485443 0.761071 -0.139100 0.392609 0.361677 -0.067566 -0.748360 0.074783 -0.153450 -0.706161 -0.277686 1.050328 0.085479 0.366071 0.177082 0.265683 -0.403205 -0.283348 -0.504754 0.153752 0.060116 -0.163694 0.732565 0.104926 0.219257 0.022602 1.546775 0.750414 -1.065812 -0.508190 -0.064504 0.517427 0.300882 -0.402372 -0.212221 1.114250 0.380008 -0.389872 -0.336762 0.813304 -0.313059 0.535253 0.399903 -0.133154 -0.798563 -0.611715 0.009550 -0.112900 -0.350008 0.619491 -0.335850 0.064441 -0.704669 0.217257 0.147657 0.224605 0.278171 0.669809 -0.262037 -0.184976 0.739101 -0.248026 0.574451 -0.384193 0.370401 -0.469550 -0.654860 0.049512 -0.123072 -0.420530 -0.271964 0.665885 -0.644338 -0.137975 -0.029587 -0.299563 -0.757343 0.846600 0.774866 -0.563242 -0.029583 -0.166839 -0.536180 -0.308075 0.015382 0.142158 -0.734312 0.113817 -0.715568 0.478677 0.064486 -0.336874 0.420041 -0.282895 0.225194 0.226134 -0.305678 0.061300 -0.709729 -0.401325 0.291822 0.913305 -0.015793 -0.303013 0.927687 -0.335508 -0.812370 -1.500277 -0.439229 -0.769044 1.141586 0.098512 -0.100414
57 -0.502916 -0.307839 -0.522963 0.298028 -0.344060 -0.271072 -0.304968 0.633251 0.091606 0.163018 0.702022 -0.697181 0.111035 0.226402 -0.184698 -0.204757 -0.347123 0.241219 0.224670 1.046493 0.044843 -0.261425 -0.234689 -0.073261 -0.614393 0.043383 0.793781 0.319071 0.336397 -0.138413 -0.081327 -0.053692 -0.221438 0.197633 0.421201 -0.141146 -0.023872 -0.335202 -0.175967 0.176131 0.220722 0.564515 0.140489 -0.242948 -0.297945 0.319529 -0.346656 0.040072 0.485699 0.289635 0.439186 -0.097501 -0.030232 0.309391 0.605807 -0.250735 0.336253 -0.071521 0.284039 -0.918317 -0.724143 -0.548012 -0.554420 0.640468 0.761275 0.322265 0.409416 -0.387825 -0.290000 0.097106 0.387963 0.158124 0.577275 -0.185909 0.475879 -0.684580 0.142647 0.633796 -0.723963 0.318876 0.051225 0.079397 0.052929 0.308680 0.666428 -0.271304 0.076553 -0.245235 0.322841 -0.263543 0.421738 0.223626 -0.493607 -0.845069 -0.695162 -0.141296 -0.410855 -0.115373 -0.342108 0.049219 0.307845 0.070701 0.239294 0.520661 0.512312 0.129406 -0.029345 0.664442 -0.358282 -0.467446 0.183229 -0.257620 0.243225 -0.620555 -0.497080 0.140310 -0.053531 -0.217919 0.400567 0.092448 0.489585 -0.772022 -0.070591 0.626080 -0.398877 -0.090053 0.660312 -0.032584
810 -0.068788 -0.543389 -0.505912 -0.224249 -0.321267 -0.331094 0.060835 0.178876 -0.476591 0.342633 0.284241 0.132428 0.104398 -0.254120 0.398885 0.104421 0.256256 0.774880 0.274866 -0.028389 -0.185680 0.221939 0.111243 -0.205939 -0.142080 -0.623338 0.444336 -0.455431 0.144070 -0.058051 0.095388 -0.226835 -0.028522 -0.089843 0.075387 -0.192569 0.150851 -0.101337 0.243155 -0.185104 0.149009 0.588707 0.266857 0.163694 0.479518 -0.658445 -0.197095 -0.089831 0.018133 -0.286434 0.432230 0.320767 0.499626 0.338383 0.659073 0.213549 0.240469 0.176046 0.587938 -0.407071 -0.436889 -0.062051 0.378870 0.104501 0.685931 0.430327 0.432185 0.253554 0.364874 -0.077122 0.228539 -0.181355 0.301171 0.684625 0.067762 0.284527 -0.077153 0.339534 -0.056697 0.770750 -0.369994 0.084961 -0.853914 -0.479162 -0.127931 -0.656237 0.110573 0.216824 -0.536480 0.153931 0.044698 -0.769045 0.760126 -0.182453 -0.801409 0.693185 0.286373 0.719081 -0.470058 0.302203 -0.248669 -0.466875 -0.338429 0.914716 -0.008391 -0.808852 0.682363 -0.563259 -0.387551 0.123982 0.497895 -0.400957 -0.187045 -0.240716 -0.136723 0.031239 0.059276 -0.684458 0.203692 0.842300 -0.207499 0.448111 -0.702304 -0.115279 -0.340665 0.224726 -0.547414 0.346389
1500 0.664381 -0.055549 -0.683514 -0.784656 0.278221 0.831175 -0.462221 -0.461543 0.060276 0.238232 -0.241913 -0.373413 -0.339874 0.365059 0.207877 0.105909 0.338049 -0.208732 0.489963 0.642645 -0.312685 -0.443736 0.081965 -0.039732 -0.601428 -0.383040 0.719919 -0.256408 -0.458090 0.581052 0.009795 -0.467237 -0.312998 -0.036642 -0.264764 0.405179 0.667695 -0.047005 -0.168564 0.753354 0.311783 0.419280 -0.180947 0.579277 0.491736 -0.134704 -0.344937 -0.464948 -0.349846 0.159495 -0.102205 -0.070442 -0.036728 0.220171 -0.241963 -0.068415 0.401660 -0.188081 -0.420321 -0.235971 -0.000376 -0.226621 -0.469832 -0.016664 0.277720 -0.290328 -0.252949 0.418084 -0.520673 -0.238003 -0.258488 0.454175 0.545568 0.495710 0.306437 0.199064 0.304853 0.938190 0.190539 0.367430 0.054747 0.285408 0.114905 0.138752 -0.223932 0.005298 0.503813 -0.120998 0.720694 -0.054742 -0.275445 0.046067 0.759809 0.712184 -0.449092 -0.340366 0.702128 -0.321499 0.047311 0.016280 0.637462 -0.016040 0.121218 0.303561 0.367566 0.055432 -0.362964 -0.321054 -0.755170 -0.054662 1.049729 -0.746059 0.218121 -0.269778 0.418512 0.107867 0.222175 -0.245625 0.793653 0.112069 -0.063106 -0.216792 0.112344 0.190508 -0.154783 0.285739 -0.128289 -0.087583
51 0.023628 -0.143806 -0.205662 0.233090 0.241024 0.337127 -0.007953 -0.160447 0.129290 0.021582 -0.294974 -0.368175 -0.283449 0.303175 0.085271 0.204962 0.021138 0.358280 0.292682 0.224718 -0.205075 -0.016878 0.445716 0.442561 -0.182439 -0.077896 0.612654 -0.262974 -0.039996 0.331737 0.013181 0.126852 0.637273 0.144854 0.083879 0.036049 -0.292347 0.515471 -0.447348 -0.232958 0.052529 -0.103639 0.136773 0.152458 0.440420 0.206375 0.309054 -0.024225 -0.043130 0.003833 0.063940 -0.413598 -0.011808 -0.442302 0.504744 0.181389 0.192437 -0.088362 -0.054534 0.066495 -0.302428 0.009528 -0.306192 0.166849 -0.063137 0.244828 -0.016564 -0.115008 0.083084 0.054205 0.020332 -0.116604 0.056666 -0.361494 0.347250 -0.142806 0.094689 0.010811 0.114471 0.265460 -0.112773 -0.625717 -0.291812 -0.215972 -0.215475 -0.504845 0.339687 0.430683 0.210318 0.182248 0.101703 0.370923 0.344235 -0.521270 -0.550061 -0.205200 0.366813 -0.168093 -0.040111 -0.198236 0.195976 0.268516 0.401991 -0.198866 0.052767 -0.308323 -0.340869 0.021702 0.200698 -0.090864 0.446956 -0.289382 -0.005873 0.460339 -0.093022 0.060652 -0.165257 -0.128685 -0.177460 -0.369753 -0.048204 -0.049789 0.108487 0.127906 -0.284927 -0.185851 0.032918 -0.251381
2137 0.171077 0.081860 -0.465715 0.997792 -0.090681 0.891823 0.022607 0.782741 0.277754 -0.297638 1.344934 -0.447414 -0.376907 -0.021368 -0.336715 0.213930 0.098884 0.063300 0.271185 1.271279 -0.080072 -0.011459 0.270461 -0.296256 -0.427287 0.042378 0.520687 0.660851 -0.381473 0.201771 1.443578 0.082107 0.115856 -0.699597 -0.241185 -0.465805 0.025150 -0.283933 0.094488 -0.893011 0.542237 -0.197081 0.408580 0.676622 0.298781 0.384527 -0.251149 -0.243818 -0.454774 0.575903 -0.617735 -0.137371 1.012617 0.923679 -0.131769 0.089349 -0.195406 0.748587 0.118458 -0.222979 0.378748 -0.228652 -1.392091 0.196592 1.489201 0.219802 -0.016463 -0.530991 -0.476845 -1.253908 -0.741205 -0.025847 1.050078 0.067101 -0.272734 -0.020369 0.505352 0.418748 0.092120 1.099978 -0.528465 -0.625353 -0.647555 -0.244256 -0.076153 -0.413378 -0.226566 0.273326 -0.546979 0.068816 -0.048904 -0.949564 0.115282 -0.365643 -0.710962 -0.407404 -0.360558 -0.608852 -0.856089 0.277249 1.426347 0.344608 -0.324341 0.093600 0.596369 0.489966 -0.507710 -0.599002 0.211737 -0.223621 1.587495 -0.449603 -0.106650 -0.407980 -0.185867 -1.022181 -0.467153 0.700571 -0.525572 -0.015311 -0.580974 0.437177 0.601120 0.081710 -0.867890 0.907107 0.745875 -0.103939
769 0.044921 0.164754 -0.399048 0.431786 0.014353 -0.156577 -0.201721 -0.292798 -0.062023 0.711407 -0.307277 -0.218766 0.175988 -0.160311 -0.058139 0.100093 -0.244282 0.330856 0.144927 0.114437 -0.053633 -0.036716 0.684996 0.202617 -0.136320 -0.251915 0.498028 0.195202 0.639034 0.479777 0.187477 -0.077599 -0.281199 -0.099591 -0.161591 0.445480 -0.498040 0.269910 0.432191 0.144585 -0.060395 -0.107612 -0.238523 0.713972 0.238409 -0.118401 -0.048884 0.040669 -0.167535 0.005831 -0.044498 0.398374 0.420562 -0.282598 0.383946 -0.628775 -0.006013 0.201990 -0.407069 0.295408 0.629314 -0.167043 0.148638 -0.318706 0.109020 -0.187491 0.199647 -0.168748 0.065954 0.391313 0.056402 -0.322505 0.211569 -0.116115 0.625590 0.095317 -0.130687 0.326916 0.284487 0.450288 -0.028033 -0.001389 -0.207995 0.587061 0.344893 -0.203616 0.293881 -0.114611 0.453189 0.105415 0.097333 0.161722 0.236997 -0.207248 -0.516677 -0.234954 -0.107022 0.145076 -0.510526 -0.111320 0.106662 0.341847 -0.523233 -0.106832 0.588346 -0.329553 0.029353 0.313651 -0.138227 -0.153578 0.303280 0.196506 0.196609 0.325886 -0.095279 -0.326498 -0.384375 0.193415 0.408598 -0.154290 0.495638 -0.083593 0.290456 -0.071382 -0.229887 -0.458016 -0.135792 0.012447
218 -0.578268 0.109532 0.124782 -0.531067 0.254222 -0.211445 -0.484035 0.485175 0.540093 0.059719 0.096593 -0.604512 -0.110363 0.387097 0.056185 0.148462 0.352437 0.181374 -0.118357 0.115636 -0.237857 -0.358518 0.534806 0.266658 -0.086494 -0.271554 0.952300 0.071425 0.233887 0.348057 0.166135 -0.561422 0.031487 -0.048217 0.370402 0.326990 -0.004121 0.492480 0.479205 0.446572 0.001448 -0.353359 -0.064676 0.033266 0.394087 -0.093487 0.418045 -0.139532 -0.271564 -0.856880 0.518038 -0.530511 0.367314 0.083370 -0.140705 -0.099976 0.358853 0.282074 0.509262 -0.417002 -0.239877 0.461126 0.290911 -0.458399 0.566001 -0.198659 -0.301349 -0.203843 -0.270064 -0.106417 -0.170942 -0.246279 0.378004 -0.367854 0.230327 -0.511490 0.645842 0.172242 0.494134 0.466092 -0.349914 -0.287234 0.092539 0.114834 0.334140 -0.057751 -0.183783 -0.064647 -0.374574 0.158906 0.189272 0.178990 0.024939 -0.295075 0.157993 -0.216300 0.331927 -0.354356 -0.449077 0.153953 0.133373 0.379738 0.098369 0.116780 -0.644855 0.102545 -0.352917 -0.337488 0.342364 -0.328237 0.452644 -0.699099 0.024901 -0.247532 -0.168532 -0.541532 -0.258341 0.079973 0.384262 0.059872 0.123295 -0.064108 0.123775 -0.500423 -0.332406 -0.388066 0.261318 -0.136133
608 0.148560 -0.131373 -0.032667 0.586070 0.175333 -0.104297 0.375723 -0.188615 0.059928 0.242254 0.388073 -0.305983 -0.031266 0.310815 0.293155 0.141598 0.505568 0.042330 0.157073 0.013662 -0.608260 0.089969 0.409152 -0.186817 0.222836 0.013977 0.418665 -0.135267 -0.332524 0.775052 0.004831 -0.312522 0.327347 -0.042505 -0.109380 0.090589 0.127790 0.278390 -0.026816 -0.033472 -0.086701 -0.263158 0.138194 0.528728 0.472596 0.037314 -0.032154 0.001949 0.262991 0.420015 0.432339 -0.849242 -0.111672 -0.460138 0.219624 -0.540199 0.711395 0.059539 0.085901 0.056657 -0.140484 -0.006468 0.018160 0.054856 0.210492 0.210273 0.095955 0.006329 -0.101826 -0.162013 0.052486 0.124669 0.579169 -0.713951 0.194306 -0.408779 -0.674934 -0.132544 -0.255819 0.563223 -0.330110 -0.616222 -0.360772 -0.035439 -0.221327 -0.688838 0.579553 0.361989 -0.038050 0.037542 -0.352329 0.380785 0.015112 -0.696289 -0.575143 -0.000548 -0.041623 -0.097255 -0.092229 0.047625 0.193846 -0.159437 0.535746 -0.620852 0.377453 -0.294301 -0.154616 -0.385292 0.424027 0.030052 0.043740 -0.040510 0.206489 0.123853 0.102327 -0.059833 -0.247506 0.363664 0.177584 -0.341491 -0.135365 0.284477 0.024565 -0.484333 -0.056974 0.140287 0.342990 -0.016176
1528 1.101071 0.063157 -0.493084 -0.716144 -0.099331 -0.411581 -0.294709 -0.316546 0.860542 0.263896 -0.001135 -0.443798 -0.586263 -0.197966 -0.114933 0.145528 0.149608 -0.035429 0.445600 0.725287 -0.061564 -0.068802 -0.305656 -0.088851 -0.094417 -0.207442 0.644255 0.407208 -0.674644 -0.039138 0.061339 -0.737706 0.140797 -0.011117 0.820579 0.212105 0.773168 0.571770 0.459031 0.280171 0.835173 0.357753 -0.025731 0.123043 0.856964 -0.560288 0.230140 0.353662 -0.089242 -0.082430 0.714714 0.415700 0.006980 0.144956 0.213322 0.016362 0.090024 -0.306289 0.282881 -0.091070 0.312398 0.161922 -0.030796 -0.340882 0.170462 0.095712 -0.047851 0.187613 -0.211226 -0.433107 0.157571 -0.401508 0.627281 0.004069 0.569894 0.184237 0.040902 0.068243 -0.652069 0.680151 -0.680519 -0.214046 -0.302083 -0.013228 -0.210249 0.094716 0.322904 0.640300 0.578975 0.057709 0.422461 -0.042585 0.681979 0.572469 -0.553773 -0.446158 0.138898 0.275266 0.288480 -0.505204 0.828093 -0.439637 0.041430 0.250579 0.269124 -0.861747 0.053859 -0.015843 -0.208504 0.074993 0.045864 0.327101 0.033645 -0.103470 0.510562 0.177267 -0.388429 0.067302 0.760217 -0.375880 0.193930 -0.017556 0.281450 -0.081787 0.356974 -0.178335 0.193657 0.007577
