1000 128
278 -0.086740 -0.058348 -0.117319 0.131654 0.221155 -0.014841 0.216586 -0.218262 -0.140197 0.073328 0.147439 -0.106050 -0.274412 -0.053849 0.141848 0.056910 0.195373 -0.193260 0.032065 0.053540 0.240278 -0.067554 0.041873 0.096645 -0.015393 -0.116630 -0.117364 -0.226836 -0.140419 0.223459 0.069604 -0.076545 -0.098016 -0.186393 0.225361 -0.179495 0.013297 0.147908 0.030710 -0.051339 0.019928 0.055232 -0.015366 0.068508 -0.085145 0.176395 0.076712 -0.115854 -0.102134 -0.048703 -0.056877 0.199452 0.047087 0.217339 -0.030270 0.105614 0.021906 -0.306730 -0.002534 0.065646 -0.130708 -0.145513 0.040281 -0.071312 0.009424 0.191183 -0.088527 0.249882 0.086396 -0.094637 0.008804 0.068572 0.132270 -0.129933 -0.001463 0.122009 0.158232 0.147099 -0.066611 0.087346 0.143747 -0.018763 0.125560 -0.020172 0.267412 -0.125151 0.021893 -0.233427 -0.203252 -0.004054 0.117246 -0.178260 -0.081458 -0.156796 0.064332 0.019102 0.070993 -0.016000 0.089549 -0.093064 -0.146357 -0.049388 -0.012978 0.072791 0.111174 0.113316 -0.027313 -0.165162 0.161496 0.126753 0.130254 0.085120 -0.051880 0.028614 0.086914 0.161826 -0.138930 0.165192 -0.025883 -0.008369 -0.061400 0.081843 0.102231 -0.246735 0.074610 -0.017213 0.164493 0.202379
274 -0.171669 0.026507 -0.109382 0.053334 0.054753 -0.245835 0.151852 0.025057 0.270239 0.041955 -0.053475 0.134093 -0.015709 -0.025289 0.016996 -0.123905 0.041002 0.076832 -0.058047 0.266314 -0.100598 0.154110 -0.004736 0.050351 0.006221 -0.031833 0.079219 -0.064920 -0.067220 0.029029 -0.037707 -0.026414 -0.028635 -0.008377 0.002918 0.018567 0.047040 -0.187097 -0.195539 0.163825 0.163282 -0.150662 0.086541 0.036812 -0.000948 0.124880 0.118725 -0.150288 -0.115859 0.082822 -0.177550 -0.010994 0.015030 0.000103 0.124285 -0.047314 -0.094471 0.211569 -0.189277 -0.208907 0.169985 -0.087394 0.022735 0.063938 0.157996 0.146054 -0.049211 0.071057 -0.088254 0.099838 0.095390 0.093887 0.115250 -0.105143 -0.027695 -0.036710 0.206266 -0.025202 0.353340 -0.146132 -0.116603 -0.104888 -0.136987 0.112126 -0.273980 -0.132381 0.067452 0.097145 0.049101 0.221563 0.063349 0.140303 0.042788 0.102321 -0.012343 -0.035309 0.045189 0.013381 0.163883 0.145272 -0.089438 0.195573 -0.010618 0.010373 -0.324968 0.019929 0.180470 -0.048835 0.018269 0.097911 0.073354 0.121622 -0.302483 -0.037567 0.004404 -0.036695 -0.078711 0.116155 0.018663 -0.198759 -0.014464 -0.165247 -0.132199 -0.240178 -0.005133 0.050270 0.155249 0.005686
493 -0.127461 -0.020531 -0.119156 0.006266 0.048108 -0.046646 0.330480 0.186469 0.132505 -0.223742 -0.056257 0.054939 -0.014528 -0.131628 -0.089974 -0.198848 -0.147984 -0.065211 -0.129193 0.103849 -0.061574 0.027040 0.168337 0.100665 0.153904 0.050156 0.059772 -0.130584 -0.028083 0.170681 0.160990 0.001326 0.015681 -0.085974 0.182796 -0.160318 0.176608 -0.000410 -0.015213 0.095859 0.332446 0.154202 -0.026763 -0.090109 0.076888 0.355918 -0.065423 0.220687 0.129382 -0.003408 -0.186848 0.225301 -0.144887 0.014812 -0.009649 0.035551 -0.066868 0.123621 -0.124316 0.084435 -0.119147 0.071670 0.160189 -0.125321 -0.054664 -0.046228 0.065631 -0.160446 -0.061811 0.154011 -0.135543 -0.135611 0.016929 -0.327324 0.118077 -0.033797 0.277472 0.142403 0.035976 -0.184849 0.223653 0.205485 0.182349 -0.079538 0.008981 0.081045 0.065205 -0.149720 -0.095133 -0.008585 0.175610 -0.021782 0.044926 0.335000 -0.142918 -0.035058 -0.009449 -0.144206 0.167578 0.131037 0.003075 -0.047748 0.121514 -0.013156 -0.055903 -0.044966 0.108600 -0.013148 0.112703 0.169914 -0.027661 -0.092249 -0.021332 0.116618 0.249213 0.006235 -0.011650 0.035327 -0.240542 -0.123462 0.095945 -0.174475 0.226689 0.088489 -0.022869 0.151740 -0.258438 0.150632
442 -0.092532 -0.029627 -0.113286 0.085130 0.330386 -0.087766 -0.139017 0.171730 0.009599 0.126559 -0.102457 0.159137 0.065504 -0.256640 -0.082814 0.113042 -0.078886 0.009938 -0.058719 0.267266 -0.026345 -0.149617 -0.018219 -0.068771 -0.012839 0.030295 0.057588 -0.178775 -0.026782 0.013646 -0.113823 0.085711 0.141775 -0.043955 -0.071534 -0.060078 0.098159 -0.204682 -0.088300 0.181722 0.045735 0.091184 0.021094 -0.000013 -0.103842 0.186833 0.062706 -0.042363 0.047353 -0.212442 -0.178481 0.121562 0.056261 -0.126165 -0.113750 -0.137270 -0.087283 0.030154 -0.033456 -0.034205 -0.196507 0.023813 0.180149 -0.090671 -0.073988 -0.075010 0.067058 0.096412 -0.034287 0.026182 -0.060776 0.174497 -0.043821 -0.031840 0.121227 -0.178380 0.225664 0.113697 0.073350 0.006685 -0.121846 0.111723 -0.182457 0.126783 0.129383 0.184558 -0.014825 0.055869 0.004236 -0.118823 0.213740 -0.110214 0.012266 -0.224311 -0.126695 0.047759 0.194466 -0.309678 -0.024285 0.037162 0.026511 -0.135436 -0.174653 0.118608 0.005658 0.141659 0.316008 -0.218362 0.018512 0.168918 -0.070026 0.049972 0.041119 0.019822 -0.136868 0.031113 -0.173679 0.033188 -0.000625 -0.238272 0.250102 -0.067219 -0.011239 -0.133874 0.023381 -0.061764 -0.220795 0.028167
349 0.006971 0.050870 -0.025689 0.211618 0.031352 -0.010273 0.036046 -0.081309 -0.110652 0.148432 0.232915 0.128467 -0.177875 -0.120981 0.016820 -0.117161 0.061692 0.078378 -0.196014 -0.100684 0.031096 -0.231224 0.116746 -0.109594 0.074475 -0.085023 0.080874 0.002505 0.100163 -0.135304 -0.259957 0.126376 0.122693 -0.060443 -0.141329 0.084095 0.163599 0.069720 0.204940 0.167372 0.133688 0.196925 0.160564 0.041661 0.154216 0.315174 0.017490 -0.052714 0.006305 0.130157 0.055104 0.011847 0.109486 0.024754 0.015685 -0.154612 -0.030855 0.053750 -0.146315 -0.008558 -0.129697 0.044528 0.171399 0.080478 0.169242 0.188599 0.093517 0.182128 0.038848 0.184798 0.245064 -0.120966 0.124954 -0.076871 0.101820 0.045328 0.183858 0.134820 0.154280 -0.008361 0.123216 0.086776 0.007592 -0.099283 0.037259 0.036578 0.224643 -0.177697 0.081845 -0.037240 0.239187 0.077549 -0.045240 -0.037143 -0.100068 0.195407 -0.126093 0.044750 0.090386 -0.336875 -0.218114 0.138819 0.023391 -0.205656 0.054244 -0.021731 0.204817 0.065688 0.018390 -0.155438 0.011356 -0.031531 -0.117119 -0.009849 -0.006379 -0.119014 -0.108838 0.092834 0.155028 -0.102375 0.031746 -0.074059 0.130169 -0.127756 0.322594 0.039113 -0.049745 -0.096501
7 -0.098545 -0.065295 -0.361667 0.176325 0.091049 -0.125572 0.107306 -0.153324 0.239913 -0.008604 -0.012563 0.054442 -0.028451 -0.095423 -0.025726 0.136960 -0.031543 -0.190549 -0.240689 0.066421 0.002176 0.184230 -0.239701 -0.024738 0.257925 -0.003943 -0.105966 -0.059604 -0.109470 -0.161033 0.009182 0.014187 -0.256050 0.173752 -0.306005 0.067703 0.069326 -0.031005 -0.139222 0.033493 -0.131835 0.104273 -0.047809 -0.014406 -0.139566 0.064572 0.130414 -0.116860 -0.195377 -0.034115 0.085298 0.073967 -0.281365 0.139802 0.142373 -0.260920 0.103054 0.015562 -0.079311 -0.006635 0.096686 -0.065820 0.015928 0.009418 -0.175116 0.176908 -0.050054 0.005533 -0.188489 0.090724 -0.016082 0.193900 -0.215180 -0.017654 0.040694 -0.081890 -0.031732 -0.177802 -0.025306 -0.073660 0.017622 -0.218381 0.068881 -0.095734 -0.018887 0.054793 0.315862 -0.042760 0.035644 0.058395 0.096974 -0.089662 -0.019493 -0.060325 -0.116671 0.208399 -0.048323 -0.320366 0.006742 -0.032330 0.035024 -0.147802 0.112319 0.092257 0.142221 0.077889 -0.081911 -0.002738 0.040187 0.235079 0.192709 -0.033700 -0.321054 -0.028840 0.023612 -0.034571 -0.385042 0.074265 0.182887 -0.185934 -0.012706 -0.131047 0.035831 -0.101311 0.240585 -0.171288 -0.022307 0.033543
167 0.090198 0.041422 -0.073505 0.108907 -0.083503 -0.182466 -0.004961 0.229201 0.217235 0.084632 -0.064122 0.013159 -0.023402 0.038389 0.070750 -0.079625 0.088112 0.125193 -0.010393 0.040234 0.095223 0.039954 0.263196 0.041700 -0.134484 0.040018 0.196203 -0.071914 -0.055973 0.182160 0.051143 0.048483 0.047030 -0.171065 -0.144091 -0.021641 0.032687 0.000145 -0.241712 -0.093929 0.045967 0.204780 0.018099 -0.000308 0.030862 0.058492 -0.111127 -0.267600 -0.063837 0.142241 0.011096 0.094518 -0.246954 0.168781 0.062160 -0.036588 -0.096076 -0.126753 -0.181691 0.200647 -0.008485 0.017539 0.014737 -0.011762 0.043782 -0.057650 -0.068937 -0.026098 -0.154891 0.113926 -0.016510 -0.135636 -0.012962 -0.162871 0.079658 0.346867 0.168914 -0.107614 0.028413 -0.041039 -0.178484 0.043698 -0.005148 0.207946 -0.024387 -0.063268 0.359183 -0.049164 0.059822 0.137150 0.020123 0.169326 0.035294 -0.181840 0.044431 0.038737 0.073059 -0.181902 0.204839 -0.049121 -0.342638 -0.070994 0.220706 -0.003246 0.009994 0.004088 -0.095482 -0.205564 0.043488 0.090959 0.246601 0.013504 0.104190 -0.010552 0.105355 0.156566 -0.159949 0.009135 0.107150 -0.093275 0.121541 0.076904 0.017442 -0.225126 0.005912 -0.007838 -0.058337 0.114139
198 -0.043441 0.125831 -0.107513 -0.075916 0.060249 -0.106978 0.014245 0.062268 -0.023525 -0.121659 0.242018 0.019533 0.066475 0.135804 0.166012 -0.139584 0.055462 -0.213235 -0.301041 0.237762 0.095699 0.065622 0.146377 0.157465 -0.156582 0.199536 -0.057476 -0.316369 -0.015989 -0.091906 0.233373 0.044050 0.018243 -0.165858 0.004860 -0.103296 0.078285 -0.178799 -0.076535 0.183730 0.109074 -0.198167 -0.029955 -0.014499 0.114333 -0.093917 0.110325 -0.096793 0.109546 -0.126531 0.021365 -0.063933 0.020608 -0.005984 -0.063694 0.279162 0.283364 -0.003619 -0.165441 0.069964 -0.052566 -0.101156 -0.100191 -0.119648 -0.067795 0.088882 -0.045308 0.061594 0.167609 0.111566 -0.073322 0.099807 0.018976 -0.022973 0.077596 0.243065 0.177787 0.039743 -0.096193 0.053977 0.025661 -0.144983 -0.005316 0.035057 0.040705 -0.234052 -0.154948 0.069828 0.192110 -0.098408 0.238848 0.196839 0.019923 0.034738 -0.128155 0.378596 0.015521 -0.167266 0.075052 -0.050191 -0.164118 0.181983 0.101720 0.024775 0.052154 -0.067886 -0.084715 -0.172825 0.125757 0.003236 0.045517 -0.111875 -0.136456 0.032669 -0.019382 0.022616 -0.102542 0.207527 -0.157509 -0.521895 -0.024274 -0.005427 0.021423 -0.243402 -0.001207 0.028121 -0.175727 -0.099295
423 0.077589 -0.079949 0.067751 -0.062871 0.090493 -0.065107 0.045240 -0.097042 0.150947 -0.010078 0.003392 -0.036143 -0.101132 -0.035611 0.210765 -0.222983 -0.025805 -0.141720 -0.032892 0.175098 0.104798 -0.053649 -0.025099 -0.118611 -0.045566 0.035244 0.069446 -0.086710 -0.101615 -0.028332 -0.101940 0.123371 -0.124644 -0.129324 0.105291 0.116519 -0.048497 -0.126485 -0.120562 0.046881 -0.181046 0.314112 0.191053 -0.033390 -0.021948 0.075085 -0.151174 -0.304749 -0.036721 0.043933 -0.243286 0.184515 -0.013026 -0.073955 0.107004 -0.253562 0.023938 0.034538 -0.091910 -0.024071 -0.038285 0.051922 0.100196 0.044214 -0.018064 0.115564 -0.087659 0.094575 -0.268129 0.128289 -0.010453 0.032645 0.187178 -0.254173 -0.008766 -0.087280 -0.003485 0.062363 0.037377 -0.107733 0.049182 0.187220 -0.085703 -0.102373 -0.220407 0.025436 0.089384 0.176578 0.207297 -0.093165 0.315173 -0.117602 0.103326 0.176909 0.244910 0.136127 0.238134 -0.132745 0.000715 -0.132011 0.080394 -0.240541 0.293175 0.100992 0.117790 -0.281219 0.016616 -0.259187 -0.029092 0.131270 0.208316 0.165764 0.024209 -0.105726 0.039159 0.187407 -0.303395 0.016820 -0.158972 0.103506 -0.060705 -0.026310 0.192035 -0.045137 0.038357 -0.088270 -0.124305 -0.039371
467 -0.158085 -0.226574 -0.022634 0.173960 0.033753 -0.026374 0.029290 -0.036119 -0.348237 0.204423 0.195591 0.137257 0.035795 0.005791 0.005985 -0.274723 0.166623 -0.135185 -0.149525 0.130262 0.050717 -0.086416 -0.068688 0.160908 0.206040 0.030505 -0.209516 0.040199 -0.107355 -0.144735 0.041401 -0.146321 -0.162721 -0.197694 -0.091903 -0.051420 0.190239 -0.152078 -0.271384 -0.031351 0.136047 0.094394 0.027627 -0.096131 0.278482 0.216105 0.116012 0.016978 -0.215005 -0.040629 -0.093954 -0.176853 -0.047737 0.125690 -0.010828 0.052681 0.103820 -0.042099 -0.150727 -0.145081 -0.029604 0.109342 -0.032643 -0.204705 0.200312 -0.185536 0.011933 0.040474 -0.153592 0.107389 0.101850 0.120800 0.158727 -0.041691 0.221408 0.139989 0.072833 0.079039 -0.061683 -0.091082 0.020981 -0.244766 0.250436 0.057560 0.060924 0.042393 -0.009885 -0.015734 -0.112966 0.021203 -0.032123 -0.081221 -0.010353 -0.006679 -0.043971 0.060123 0.025730 -0.037220 0.082981 -0.006639 0.118024 0.002519 -0.016202 0.017237 0.124657 0.211955 -0.028666 -0.087882 -0.055861 0.301098 0.006907 -0.115487 0.005236 -0.233610 0.165239 0.050361 0.195792 -0.056168 -0.043469 -0.084984 0.049601 0.185417 0.152470 -0.202135 0.210622 0.120564 0.170256 0.042973
456 0.095568 0.092362 -0.001698 -0.093353 0.029811 -0.074387 -0.101949 -0.064747 0.019300 0.019929 -0.017835 0.107503 -0.169238 -0.164745 -0.143790 -0.273145 -0.017186 0.023284 -0.088445 0.258313 -0.027193 -0.006679 -0.105024 -0.083896 0.052190 -0.219062 -0.167014 -0.087243 0.017370 0.108851 -0.009728 0.041331 -0.012749 -0.055978 -0.037082 -0.306080 0.138772 -0.009786 -0.294744 -0.005923 0.068725 -0.007692 0.105453 -0.037800 -0.168273 0.402105 -0.074198 -0.113757 0.138848 -0.201694 -0.038275 0.025346 -0.014508 0.064194 0.122794 -0.025746 -0.033247 -0.300056 -0.181205 -0.248828 0.004160 0.015328 -0.131266 0.017763 -0.055352 0.202216 -0.108648 0.246367 -0.237610 0.095837 0.198838 -0.119677 0.104875 0.130169 0.216559 -0.037815 0.118418 -0.195748 0.189230 -0.140236 -0.068258 -0.190735 -0.017897 0.037371 -0.061820 -0.045565 -0.002282 -0.355634 0.012617 0.021859 0.116245 0.076952 -0.071329 -0.125311 0.180771 0.031206 -0.082656 -0.211428 0.177289 -0.180539 -0.149975 -0.135780 0.166328 0.115411 0.031808 0.209474 0.025802 -0.073244 0.184899 0.058824 -0.031915 -0.091097 0.155334 -0.117905 0.169043 0.076750 0.007492 -0.085593 -0.034624 0.078156 0.119477 -0.047616 -0.194050 -0.033718 -0.079978 0.067323 0.051605 0.083428
357 -0.034699 0.107038 -0.214262 -0.096141 0.167663 -0.041241 0.060870 0.166192 0.007235 0.023619 -0.053223 0.014137 -0.114460 -0.158151 -0.031348 -0.168270 -0.133940 -0.052145 0.008715 0.113590 -0.040672 0.090261 -0.015615 0.183323 -0.040397 -0.070561 -0.163842 -0.138119 0.114726 0.149749 -0.013587 0.048043 -0.075408 -0.185815 0.259337 0.004544 0.185911 -0.069435 0.274269 -0.047804 0.151678 0.262029 0.092093 -0.165783 0.062057 0.313258 0.299155 -0.211413 0.148070 -0.008507 0.027069 -0.058176 0.184403 0.069126 0.085089 -0.022787 0.124535 0.083469 0.073306 -0.014517 0.043034 -0.113657 -0.067686 -0.097164 0.082423 0.060421 0.114418 -0.074869 -0.239889 0.175466 -0.226791 0.097119 -0.095880 -0.125490 0.199580 0.141466 -0.007433 -0.088874 0.010955 0.002279 -0.094255 -0.203844 0.002679 -0.075621 0.054745 -0.107185 -0.086114 0.012304 0.026992 0.141339 0.159835 0.406862 0.130049 -0.156930 0.201176 0.196699 -0.012450 -0.059930 -0.072168 -0.119363 0.027940 -0.020852 -0.126474 0.003293 -0.254555 0.109530 0.115538 -0.184526 -0.247602 0.071318 0.202037 -0.008900 -0.027015 -0.092567 0.209087 -0.168976 -0.258533 0.130919 0.119254 -0.227155 -0.024862 0.019881 0.064971 -0.082526 0.044823 0.037435 -0.087259 0.035776
101 -0.128125 0.097981 -0.063965 0.258820 -0.036581 -0.227267 -0.011032 0.075104 0.087511 0.031774 -0.148290 -0.107683 -0.324152 -0.315499 0.105582 -0.057502 -0.054745 0.034088 -0.191047 0.056247 0.043270 0.008058 -0.265062 0.156264 0.071823 0.112902 0.084010 -0.026187 -0.209698 -0.005683 -0.042438 -0.263413 -0.011255 -0.081564 -0.101900 0.040819 0.067881 0.004621 -0.170231 0.018236 -0.119085 0.000235 -0.133587 0.098125 -0.057269 0.005464 0.191178 -0.150968 0.034925 -0.233588 -0.251558 0.111218 0.247641 -0.012797 0.093842 -0.196639 -0.002267 0.336419 -0.079324 -0.126384 -0.242933 0.138788 0.022150 -0.188370 -0.059237 -0.074475 -0.166065 -0.065702 0.045043 0.022348 0.257913 -0.059228 -0.000594 -0.124291 0.181444 0.090685 0.267144 0.096425 -0.031955 0.102713 0.016603 -0.096726 0.028403 0.116084 0.000176 -0.046723 0.207215 0.032731 -0.120918 0.098419 0.015767 -0.222801 0.040668 -0.094542 0.124524 0.155712 -0.078618 -0.296084 -0.129022 0.152013 0.053446 -0.036128 -0.029139 0.012305 0.223648 -0.101405 -0.055761 -0.123688 0.038688 -0.011971 -0.084567 -0.120015 -0.089653 -0.021265 -0.128128 0.026701 -0.017340 0.094956 -0.108453 -0.044564 0.060251 0.139278 0.131622 -0.134203 0.074295 0.116561 0.190929 -0.096991
311 0.126673 0.082130 0.123331 0.105249 0.048404 0.040759 -0.037730 -0.059647 0.132438 -0.068068 -0.139459 0.032228 -0.153368 -0.090552 -0.244563 -0.054277 -0.052116 -0.205449 -0.193537 0.195645 0.116545 -0.209314 -0.059530 -0.102858 0.075475 -0.033251 -0.102895 -0.003583 -0.092472 -0.120391 -0.137885 0.165981 -0.001881 -0.090414 -0.052916 -0.160871 0.290923 0.114527 -0.310703 0.296732 0.011582 0.092217 -0.051050 -0.010274 0.128033 0.069056 0.005085 -0.093151 0.116735 0.093838 -0.197704 0.099908 -0.004173 -0.187507 0.156859 -0.056570 0.013956 0.022093 -0.076470 -0.170185 -0.090365 -0.235220 -0.039603 -0.169777 -0.089823 -0.008714 -0.012761 -0.165538 0.098355 -0.025373 -0.007719 -0.143722 0.069428 -0.169076 -0.095054 0.000343 0.090291 -0.075336 0.119164 -0.249941 -0.058864 0.154332 0.057676 -0.002098 0.100482 0.160905 0.044907 0.009859 -0.029354 -0.002571 0.177718 -0.139658 0.011511 0.030086 -0.021808 -0.010462 -0.206435 0.140538 -0.021105 0.018676 -0.147402 0.362394 0.009964 0.245759 0.004165 -0.088117 0.155483 -0.053458 0.401521 0.095811 -0.051882 -0.091985 -0.125319 -0.087333 0.211169 -0.169610 -0.078878 -0.072923 -0.076928 -0.081343 0.205154 -0.068999 0.184251 0.038006 0.001994 -0.195379 0.083879 0.155501
160 -0.238511 -0.040457 -0.208845 -0.060784 0.146547 -0.023461 0.219616 -0.064913 0.007496 0.044923 0.145481 -0.179727 0.016914 -0.077552 0.078702 -0.003555 0.122343 -0.078907 0.177570 0.089597 0.037051 -0.000793 0.019050 -0.239861 -0.113901 -0.050055 -0.015978 0.059418 0.006741 -0.264827 0.012066 0.165088 0.235671 0.030292 -0.023297 -0.007960 0.204126 0.012875 -0.185656 0.047600 0.222231 0.070698 0.064444 -0.272566 0.207405 0.148889 0.032299 -0.082853 0.028307 -0.231943 -0.056454 -0.014868 0.012997 0.159834 0.191379 -0.081067 -0.176948 0.055166 -0.271992 -0.211414 -0.112550 0.149031 -0.177896 0.043289 -0.243223 -0.071022 -0.079353 0.156944 0.136147 -0.025992 -0.075563 0.011359 0.082346 -0.133028 -0.030507 0.173651 0.070804 -0.019213 0.329262 -0.067039 0.100218 -0.028626 0.163267 -0.129331 0.174701 0.008199 -0.025075 -0.085238 0.054199 0.216044 0.045218 -0.100387 -0.043000 -0.064817 -0.004534 -0.040120 0.050148 0.078490 0.024369 0.039881 -0.023574 0.006939 -0.050092 0.067387 0.060632 -0.114579 -0.045543 -0.158647 0.330860 0.103715 0.038512 0.128522 -0.039927 -0.257560 0.226987 0.044111 -0.170608 0.035626 -0.133748 -0.047393 -0.028617 0.182987 0.061846 -0.165475 -0.005470 -0.124859 0.025178 -0.113252
67 0.140588 -0.071301 0.085106 -0.123195 -0.056724 0.013485 -0.028015 -0.202734 -0.058635 0.035625 0.001047 0.156068 -0.139331 -0.284499 0.000928 0.051426 0.083295 -0.246733 -0.222520 0.074304 -0.028838 0.047711 0.058947 0.192915 -0.029679 0.095101 -0.056301 -0.076707 0.035370 0.098316 0.063054 -0.040510 -0.060966 0.008207 0.192468 0.045941 -0.000218 -0.077632 -0.035728 -0.048430 -0.062377 0.196930 -0.000743 0.028579 -0.078104 0.262372 0.099662 -0.183402 -0.083206 -0.086174 0.134907 -0.158135 0.113237 0.150648 -0.098693 -0.049261 0.136174 0.146790 -0.013937 -0.281613 0.094159 0.064869 -0.209692 -0.070609 -0.124091 0.199308 -0.132911 -0.003602 -0.126226 0.213284 0.072174 0.096911 -0.016885 -0.048289 -0.001777 -0.156626 -0.009764 -0.012174 0.112582 -0.122807 -0.086049 0.123686 0.199882 0.051225 0.159352 0.016169 0.099400 0.187010 -0.095322 -0.096548 0.046810 -0.168104 0.074942 0.262493 0.025478 0.119802 0.023916 0.043345 0.170155 0.321505 0.030299 -0.084440 0.196127 -0.135991 0.009426 0.095168 0.083658 -0.041301 0.096849 0.130880 -0.051700 -0.126858 0.009326 0.056497 0.031167 0.105188 -0.026886 0.027372 0.118308 -0.354082 -0.022542 0.062449 -0.090061 -0.115257 0.052518 0.020700 0.134476 -0.203623
31 0.038821 0.160987 -0.018108 0.193736 0.012578 -0.397108 0.022313 -0.191146 0.047946 -0.027833 -0.001705 0.046709 0.100341 -0.079879 -0.203389 -0.160147 0.021217 0.028558 0.070981 0.045629 0.293023 -0.029885 -0.129170 0.106864 0.151991 0.037900 0.116237 -0.023612 -0.107906 -0.191420 -0.061505 0.183181 0.188232 0.075632 -0.038172 -0.140508 0.083757 -0.172646 -0.117563 0.092176 -0.082214 -0.230922 0.076737 -0.052732 -0.016480 0.132714 0.094481 -0.138319 0.091173 -0.060000 0.005798 0.017434 0.220131 0.045831 -0.105120 -0.114287 -0.160467 0.159800 -0.016341 0.056266 0.113566 -0.073945 0.066862 0.015267 0.036801 0.177264 -0.074645 0.034101 -0.260582 0.050869 0.116041 0.093144 -0.059678 -0.112020 0.028054 0.044148 0.025368 -0.180294 0.097687 0.075134 -0.018167 -0.095974 -0.093388 -0.032583 0.032562 0.111619 0.035171 0.119226 -0.281597 -0.050043 0.032290 -0.093089 0.243282 -0.050902 0.000447 0.092773 0.309125 0.053935 0.132650 0.059697 -0.121841 0.133106 0.008082 -0.069412 0.050889 -0.135853 0.146396 -0.108381 0.251785 0.080814 0.117882 -0.040037 0.158398 -0.008179 -0.081659 -0.120956 -0.060441 0.107320 0.010179 -0.206304 0.104936 -0.082494 0.107244 -0.049503 -0.174962 -0.181853 0.207952 0.106178
282 -0.051307 0.035692 -0.071185 0.078168 -0.099048 0.192725 0.057114 0.073078 -0.188351 0.023849 -0.019585 0.209377 -0.055375 -0.004503 -0.042899 -0.374467 0.031773 -0.106531 -0.245827 0.052077 0.142421 -0.077859 -0.201520 -0.084464 -0.177155 -0.112450 -0.169674 0.021116 0.091101 0.125388 -0.069960 -0.068061 0.123799 -0.138578 -0.029353 0.058366 -0.009487 0.017109 -0.268121 0.029388 0.217582 0.109559 0.044679 0.059406 -0.112273 -0.083439 0.051578 0.074786 -0.195247 0.000943 0.089373 -0.072736 0.075907 -0.040739 -0.037888 0.163998 -0.045193 0.180654 -0.030929 0.008136 -0.037789 0.166935 0.088114 -0.146593 -0.168285 0.177556 -0.128870 -0.067490 0.006313 -0.064365 0.181227 0.020174 -0.107912 -0.212460 0.393416 0.040836 0.119187 0.074747 -0.008286 -0.009041 -0.031670 0.151747 0.000306 0.017046 0.090940 0.177960 0.117035 0.081081 0.172638 -0.037420 0.141263 -0.019966 0.317516 0.094819 -0.004597 0.048557 0.099206 0.104254 0.177593 -0.147048 0.132672 0.226901 0.111332 0.053056 0.100450 -0.037584 -0.148600 -0.231526 -0.083135 0.104141 0.268410 0.008923 -0.168573 -0.014803 -0.043622 0.059413 -0.029885 0.121888 0.108376 0.040883 0.282025 -0.042755 0.158629 -0.118910 -0.119466 -0.111002 0.296264 0.088840
420 -0.102233 -0.013354 -0.050406 -0.011324 0.125938 -0.015395 0.024043 -0.064361 -0.084610 0.037608 -0.072141 0.220597 -0.168977 0.120116 0.068454 -0.137523 0.157054 -0.204354 0.010588 0.148573 -0.108798 -0.005037 0.019120 0.022561 -0.086899 -0.081418 0.018354 -0.099601 0.088382 0.060805 -0.095174 0.021667 0.251491 -0.237164 0.030884 -0.065026 0.130165 -0.137560 -0.046411 0.129567 -0.001923 0.029942 -0.172533 0.169341 0.007343 0.026867 0.194771 -0.034056 0.023786 0.005046 -0.104078 0.092843 0.065386 0.127832 -0.044484 0.000100 -0.057279 0.147319 -0.016924 0.021291 0.106491 -0.107626 -0.137125 -0.237061 0.216499 -0.046683 -0.087612 -0.106679 -0.027766 -0.072726 -0.155450 0.062604 0.032944 -0.116686 0.265900 -0.104639 -0.252477 -0.078547 -0.144580 0.024091 0.009857 -0.005274 0.079188 0.049481 0.033098 -0.028218 0.282314 0.082255 0.196978 -0.072191 0.335594 0.090389 -0.000184 0.126944 -0.145160 0.315785 0.097425 0.023405 0.034331 0.126100 -0.117201 0.097062 0.066043 0.232214 -0.128717 0.122386 0.030650 -0.189536 0.082173 0.165006 0.252497 -0.003233 -0.110139 -0.057129 -0.076359 0.218049 -0.149323 0.140790 0.199682 -0.136563 0.147887 -0.089231 -0.038606 -0.118986 -0.062342 0.032694 -0.033699 0.154622
75 -0.170483 0.214602 -0.028175 -0.009036 -0.003007 -0.035640 -0.022420 -0.046676 0.009188 0.373351 0.089021 0.003742 0.016795 -0.209192 -0.067200 -0.234634 0.025519 -0.103345 0.100572 0.133254 0.194546 0.039868 -0.182000 -0.084208 0.089190 -0.195182 -0.052642 -0.040229 -0.018499 0.179220 0.038451 -0.043901 0.102250 -0.028768 0.062110 0.040711 0.147889 -0.096334 -0.097870 -0.117183 0.173872 -0.011901 -0.066123 0.095159 0.032214 -0.071186 -0.339953 -0.052792 -0.003367 0.064751 -0.049991 0.126164 0.124116 0.116113 -0.087181 -0.181150 0.085364 0.137616 -0.106737 0.063900 -0.078788 -0.188715 0.042092 -0.242354 0.104564 0.157220 0.143314 -0.150994 -0.037446 0.108425 0.088514 -0.193169 0.144715 -0.073406 0.184763 -0.114673 -0.001288 0.167880 0.154425 -0.001747 0.053662 -0.037987 -0.021281 -0.115322 0.025889 -0.088239 0.263306 0.098413 0.094829 0.091483 0.075206 -0.101766 0.064715 0.114206 0.180931 0.002033 0.220406 0.044029 0.097216 -0.160709 -0.095524 0.083642 0.040160 0.186076 -0.009224 0.127950 -0.100993 0.083839 0.126401 0.099250 0.210207 -0.008443 0.018381 0.069746 -0.003492 0.096996 -0.154850 0.001111 0.051725 -0.238872 0.030773 -0.042906 0.205437 -0.006443 0.262712 0.003091 0.006127 -0.056922
127 0.065648 -0.039760 -0.160436 0.099710 0.120075 0.038457 -0.011672 0.029434 -0.002834 0.087401 0.003357 0.019339 -0.021798 -0.013856 0.063042 -0.012530 -0.004015 -0.238731 -0.050868 0.086743 -0.160830 0.072798 -0.013143 0.188000 -0.072708 -0.013197 -0.005450 0.068238 -0.032567 -0.161653 -0.121508 -0.108209 0.259951 0.042007 0.050153 0.036252 0.119312 0.038142 -0.300503 0.258238 0.108837 0.081399 0.141735 -0.013962 -0.078638 0.077659 0.040492 0.064392 -0.002061 -0.019070 -0.228807 -0.006818 0.402629 0.033669 -0.003832 -0.061279 0.002127 0.007354 -0.036142 -0.028233 -0.120451 0.043510 0.161866 -0.048549 -0.031740 -0.000314 -0.016473 0.061804 -0.104498 0.268435 0.021291 0.050788 -0.085131 0.033543 0.033532 -0.014168 0.044788 0.003386 -0.033574 -0.272924 -0.280087 -0.015277 0.165502 -0.146388 -0.091600 0.115523 0.009785 0.006851 0.049411 0.010251 0.129014 0.028902 0.166605 -0.001347 0.054165 0.078484 0.075587 0.088188 0.139942 -0.055400 -0.501556 0.113598 0.000660 0.222975 0.102971 -0.100281 -0.139895 -0.059555 -0.213614 0.040873 0.109725 -0.098415 -0.189336 0.106048 0.024899 0.141693 -0.128046 0.041627 0.074631 -0.309074 0.225117 0.266726 -0.132249 -0.183484 0.072258 -0.100834 -0.094845 -0.162262
205 -0.126188 -0.079225 -0.129732 -0.039910 0.004917 0.160648 0.066389 0.158676 0.088708 -0.076643 -0.042410 0.008226 0.156811 -0.227053 0.013883 0.016888 -0.023845 -0.082459 -0.096416 -0.027574 0.244377 -0.031088 0.074070 -0.189224 0.021224 -0.079451 0.053650 -0.197141 0.080740 0.025432 0.107526 -0.141808 0.065028 0.084637 -0.126479 -0.093030 0.050968 0.010707 -0.322518 -0.038196 -0.069965 0.099161 0.248842 0.107583 -0.129101 0.268734 0.107446 -0.020605 0.210813 -0.111483 0.018904 0.140381 0.006430 -0.015329 0.045256 -0.127765 -0.090865 0.161124 0.006061 -0.106774 0.081064 0.065971 -0.038064 0.052299 0.295920 -0.035228 -0.142848 -0.242334 -0.066727 0.221578 0.005044 -0.002486 0.214379 0.132876 0.132436 0.103063 0.202527 -0.058641 -0.199922 -0.212471 0.020142 -0.053554 0.120501 -0.038181 0.323391 -0.351151 -0.031646 0.039646 0.087292 0.173830 0.021445 -0.021982 0.083997 -0.159834 0.083307 0.025925 0.123729 -0.246642 -0.149721 0.028062 -0.128910 0.124881 -0.158148 -0.144295 0.105729 0.041430 -0.019089 -0.335153 0.085557 0.214014 0.134389 -0.046979 0.212105 -0.019430 0.039310 0.038665 -0.096523 -0.065577 -0.322594 -0.024875 -0.011654 -0.230158 0.077542 -0.070144 0.142094 -0.183696 0.224860 -0.017950
183 0.023477 0.074265 -0.121350 -0.080640 -0.062901 -0.294972 -0.110790 0.264555 0.106237 0.062525 -0.137003 0.272577 -0.071949 0.052009 -0.039299 -0.118936 -0.003168 -0.118373 -0.081828 -0.025945 -0.044773 -0.232759 0.005282 -0.088579 0.161836 -0.126577 -0.065259 -0.078445 0.114765 0.084868 0.068358 0.072890 -0.020993 0.016240 0.189506 0.107552 0.209754 -0.030768 -0.044337 0.131126 -0.025167 -0.158795 0.088816 0.087060 -0.081776 -0.151743 -0.032731 -0.337165 -0.083004 -0.117802 -0.001585 -0.075046 0.142367 0.203640 -0.161035 0.014030 0.101269 0.120036 -0.017281 -0.099091 0.021831 0.018854 -0.034441 0.093468 -0.099138 0.117988 -0.226850 0.391400 -0.155799 0.360471 0.162177 -0.039316 -0.156790 -0.092795 0.184036 -0.106044 0.200030 0.086886 0.135577 -0.050624 0.192133 0.086321 0.055268 -0.181496 0.160208 0.070863 0.058501 0.154204 -0.044361 0.115549 0.112692 -0.110540 -0.006575 0.037562 0.046904 -0.064281 0.115381 -0.129969 0.168703 -0.107759 0.086862 -0.238997 0.242677 -0.240647 0.092149 0.008446 -0.056274 -0.328070 0.009700 0.082838 0.316091 0.054284 0.032008 -0.128388 0.170849 0.288695 0.027519 0.090237 0.121328 0.056091 -0.060749 -0.250798 -0.049940 -0.053415 -0.054923 -0.127360 0.143616 0.088609
6 0.088820 -0.233378 0.081080 0.008903 -0.068742 0.160381 -0.010949 0.135961 -0.115883 0.193602 -0.030112 0.127348 -0.017036 -0.102735 0.012625 -0.210500 -0.066374 -0.060567 0.208493 -0.034278 0.146069 -0.167356 0.023876 -0.003537 -0.133986 -0.017359 -0.038616 -0.243698 0.032346 0.025873 -0.012858 -0.124108 -0.204076 -0.422693 -0.083264 -0.047187 0.027724 -0.028173 -0.061264 0.137600 0.050372 -0.021778 -0.078929 -0.015918 -0.094076 0.127296 0.034747 -0.060546 -0.067853 0.081221 -0.154338 -0.201351 0.271361 -0.062610 0.083775 -0.316357 0.066036 0.063750 -0.164374 -0.033921 0.052317 -0.206926 -0.190308 -0.125051 -0.211788 0.231315 -0.198164 0.085431 -0.029448 0.036529 0.116965 -0.265429 0.057004 0.140219 0.062707 0.107374 0.087833 0.039459 -0.005636 0.044309 -0.081436 -0.141491 -0.091297 -0.229793 -0.312359 0.098695 0.259509 -0.029137 -0.099581 0.150480 0.207971 -0.035278 -0.163701 -0.026676 -0.044648 0.055531 0.173688 -0.174330 -0.028256 -0.086111 -0.099172 0.054420 -0.293022 0.086276 0.059540 0.152996 -0.057427 -0.106722 0.115123 -0.009577 0.080396 0.167347 0.178131 -0.199049 0.181054 0.042653 -0.056377 0.151275 -0.119728 -0.010833 0.053841 -0.047916 0.199221 -0.126148 0.157090 0.111976 -0.052445 -0.011982
236 -0.065397 0.029875 -0.087436 0.105774 0.081890 -0.246813 0.209756 -0.350047 -0.033886 0.285843 -0.164569 0.144489 0.052097 -0.141673 0.073039 -0.157632 0.208203 -0.029945 0.099911 0.123144 0.150651 -0.044893 -0.131070 -0.088554 0.142831 0.276972 -0.278867 -0.133571 0.012608 -0.065654 0.185565 0.084851 -0.010362 0.099968 0.126730 -0.172046 0.320950 -0.065623 0.115735 -0.264426 0.185774 -0.110222 0.116313 0.207716 -0.062901 -0.015671 -0.014493 -0.201361 -0.014321 0.141897 -0.048614 0.053547 0.048354 -0.118831 0.065442 0.019815 0.222201 -0.102831 -0.334779 -0.149630 0.157330 0.033001 -0.096046 0.022927 0.107765 0.087634 -0.179793 -0.026914 0.078885 0.015889 0.049991 0.201234 0.198921 -0.045561 0.053601 0.165354 -0.032138 0.048222 -0.119217 -0.134023 -0.111684 0.225864 0.062901 -0.038434 0.094490 0.083584 0.113122 0.011072 0.078909 -0.007764 0.090569 -0.048384 -0.057402 -0.095338 0.252532 0.013650 0.128942 -0.067389 0.027769 -0.076288 -0.009028 0.086242 -0.075534 0.312024 0.091904 0.107884 0.066754 -0.158953 0.064529 -0.002983 -0.038858 0.062368 0.170275 0.013384 -0.020209 0.068750 -0.188974 0.119313 0.212959 -0.005912 0.168540 0.143230 0.101870 0.040302 0.117884 0.052819 -0.121195 0.192738
496 -0.069800 -0.051115 -0.233758 -0.089629 -0.060305 -0.013070 0.076899 0.112303 -0.033185 0.073381 -0.012048 -0.100689 -0.059425 -0.071186 0.051419 -0.011265 -0.253019 -0.120091 -0.144031 -0.018641 0.103512 -0.225030 -0.075213 -0.131983 -0.201535 0.058705 -0.124804 0.146568 0.010220 -0.098337 -0.168697 0.064859 0.038518 0.049843 0.188081 0.302838 0.035021 0.012412 0.006353 0.162799 -0.284391 -0.046931 0.071662 0.126779 -0.013399 -0.075433 0.274801 -0.181188 0.053932 -0.262754 -0.100242 -0.026388 0.055086 0.041407 -0.146756 0.064128 -0.112790 -0.105585 -0.095387 -0.095375 -0.177342 -0.125319 -0.049963 -0.297706 -0.142679 0.044240 -0.076985 -0.114730 -0.055494 0.262408 0.054016 0.213569 -0.013499 -0.327655 0.175078 0.184112 0.132906 0.082328 0.248149 0.078087 -0.136902 -0.141138 0.102318 0.002673 -0.010701 -0.111704 -0.011728 -0.093042 -0.014199 0.144622 0.019244 0.408714 -0.103735 0.012737 -0.279757 0.029461 0.055228 -0.286175 0.014438 -0.105216 -0.309504 0.268750 0.219371 -0.256354 0.209459 -0.091954 -0.123911 -0.125401 0.391209 0.042121 -0.076452 0.162128 0.143715 0.031026 -0.041596 0.170260 -0.020313 -0.004105 -0.121133 -0.155463 -0.004522 -0.006950 -0.005351 0.061179 0.180633 0.127120 -0.072149 0.079447
405 -0.015922 0.034373 -0.083747 -0.111392 -0.241937 0.232091 0.058831 0.000620 0.200633 0.217060 0.034977 0.261037 0.058860 -0.079881 -0.138594 -0.174222 0.106957 -0.193804 -0.091809 0.213401 0.089762 0.068941 -0.007270 -0.079051 -0.070651 0.019412 0.172745 -0.214078 -0.087021 -0.326896 -0.111430 0.038581 0.074744 -0.056296 -0.058058 -0.029463 -0.018494 0.011142 0.239524 -0.088126 0.091379 0.222367 0.225341 -0.182583 0.023007 0.081785 0.148972 -0.156619 0.112663 -0.178766 0.029674 0.107995 0.111639 0.204663 -0.167164 -0.018759 0.091120 -0.045520 0.087128 -0.036706 -0.151950 -0.044065 -0.145752 -0.155980 -0.020661 -0.016576 -0.403410 0.019547 -0.001077 0.152294 -0.178927 -0.028469 -0.017565 -0.275005 0.012605 -0.001035 -0.030336 0.071724 -0.085255 -0.185639 -0.071578 0.079688 0.093064 -0.057819 0.096307 -0.084159 0.170330 0.110812 -0.180328 -0.070858 0.011513 -0.212133 0.161739 0.091111 -0.083447 -0.028739 0.130352 -0.000390 0.131335 0.032952 0.037394 0.044030 -0.102682 0.133694 0.107745 -0.006154 0.255806 -0.063605 0.065135 0.080573 -0.049224 0.006265 -0.199638 0.210739 -0.012304 -0.128574 0.058168 0.135423 -0.019619 -0.085035 0.342262 0.034348 0.058479 -0.286212 0.082237 -0.043361 0.034854 0.057550
27 -0.134998 0.111497 0.130313 0.090680 0.159916 0.133996 0.085120 -0.067333 0.118366 -0.062914 0.041085 0.148418 0.235803 0.055911 0.170468 0.074652 0.046153 -0.309522 -0.007545 -0.074841 0.255585 -0.092770 0.092328 -0.040636 0.024196 -0.128968 0.136154 -0.104296 -0.145146 0.081489 0.042334 -0.011980 0.013451 0.155563 0.086584 -0.028557 0.106291 -0.003216 -0.054346 0.187207 0.024295 0.173858 0.117002 0.108547 -0.041433 0.254419 -0.095069 -0.175565 -0.037889 -0.201670 -0.093497 -0.058904 0.131472 0.135802 0.044956 -0.083621 0.227651 0.029932 0.057748 -0.234310 0.171470 -0.027388 0.283600 -0.125488 0.303834 0.219132 -0.100814 0.064783 0.172657 0.013213 0.001770 0.120480 0.020083 -0.188397 -0.118647 -0.078161 -0.025405 -0.030509 0.046116 0.062005 0.081180 0.139079 0.071669 0.042963 0.062566 0.108158 0.193685 0.000894 -0.053229 0.153587 0.038157 -0.107484 0.295243 0.007052 0.155440 0.349955 -0.098676 -0.208837 0.066511 -0.034770 -0.057213 -0.052340 0.052163 0.129142 -0.032667 0.053073 0.009521 -0.045116 0.251478 0.015395 0.274474 0.194174 0.019624 -0.185520 0.157390 -0.218424 0.051579 0.112108 -0.001747 -0.122930 -0.051080 -0.203208 -0.084498 -0.082664 -0.019067 -0.033583 -0.045625 0.126678
76 0.004159 0.048820 0.085361 -0.054490 0.270402 0.168986 0.213209 -0.048524 -0.164841 0.213816 0.057679 0.106818 0.165903 -0.108757 -0.086495 0.065393 0.032083 -0.100899 -0.213785 0.167919 -0.004793 -0.155351 -0.204749 0.016248 0.071728 -0.002353 0.347885 0.101052 0.022129 0.018708 -0.164821 0.145074 -0.056973 -0.139324 0.249942 -0.131789 0.190783 0.019983 -0.109371 0.105506 0.024948 0.353620 0.143107 0.183839 -0.049986 -0.026622 -0.040856 -0.164743 -0.070805 0.077232 -0.220002 -0.061270 -0.189189 0.067706 0.184226 0.052132 -0.122514 -0.073228 -0.187785 0.071940 -0.195739 0.030058 -0.070995 0.134792 0.124237 0.114819 -0.146941 -0.002989 0.170577 0.314149 0.011926 0.010538 -0.138368 0.076553 0.062196 -0.058122 0.040666 -0.066051 0.313101 -0.011078 -0.162382 0.000718 -0.087070 -0.047524 0.055601 0.206800 0.147467 -0.051700 0.108608 0.067625 0.039049 -0.043688 0.148273 0.275495 0.045659 0.193336 0.188260 -0.074608 0.225045 -0.080967 -0.070136 0.132749 -0.146033 -0.183199 0.075172 0.169933 0.169622 0.170043 0.189637 -0.007813 0.154838 -0.110364 -0.179528 -0.043464 0.002263 -0.007971 0.023958 -0.012069 0.155613 -0.096492 -0.091330 0.101298 -0.271275 -0.060001 0.260917 -0.014992 -0.129408 -0.301001
361 0.081849 -0.158748 0.083917 0.199281 -0.028414 -0.153075 0.343547 0.023364 -0.018026 0.073466 0.046814 0.122486 0.000393 -0.034401 -0.066114 0.202590 0.005645 0.267481 -0.005714 0.158096 -0.060065 0.016810 -0.217027 0.164004 0.046478 -0.180649 -0.026985 0.048520 0.173078 -0.273498 0.019703 -0.078559 0.138796 -0.034488 0.256425 0.137438 0.237882 -0.110815 -0.037893 0.053143 -0.089516 0.169955 -0.043639 -0.026254 0.066306 0.121586 0.169151 -0.034344 0.003814 -0.113622 -0.137213 -0.160243 0.116898 -0.023012 0.122656 -0.196843 -0.101636 -0.119218 -0.206466 0.138926 -0.130307 0.136574 -0.061495 -0.068819 0.118897 -0.058392 -0.154389 -0.128958 -0.072095 0.027609 0.173174 0.138045 0.106719 -0.071178 0.105886 -0.030612 0.291541 0.041156 -0.136599 -0.066119 0.007675 0.061899 0.053042 -0.192812 0.038704 -0.250357 -0.198947 0.061593 -0.187398 -0.022165 0.100124 -0.025241 0.068433 0.026353 0.355670 0.097816 -0.005951 -0.061637 0.283730 0.113460 0.043673 -0.017734 0.149832 0.017628 0.083965 0.281162 0.035353 -0.319301 -0.017185 0.188146 0.182047 -0.166576 0.231872 -0.085163 0.092099 -0.004734 -0.146341 0.091658 -0.172382 -0.075519 -0.117356 0.154578 -0.043899 -0.097870 0.044836 -0.021028 -0.144880 0.279050
433 -0.042225 -0.097722 -0.208042 0.062728 0.097369 -0.000145 0.098007 -0.008566 0.109176 0.237828 -0.061462 0.047470 -0.027429 0.087132 0.065446 0.046198 0.274156 0.023728 -0.138918 0.009753 0.159419 -0.153603 0.061841 -0.085405 -0.052098 -0.065997 -0.033399 0.130017 0.031110 0.079594 0.166895 -0.142044 -0.196277 0.104420 0.100398 -0.010593 0.281703 -0.202708 -0.163281 0.086778 0.230252 0.128248 -0.160637 -0.126334 -0.028641 0.282646 0.047195 -0.045865 0.032868 0.034747 0.123903 0.170638 -0.362220 0.081069 0.170098 0.025864 0.223556 -0.011133 0.032926 0.125168 0.251500 -0.001724 -0.113477 -0.057242 0.063661 0.088877 -0.185535 -0.078184 0.166203 0.154871 0.128027 -0.134358 -0.074401 -0.094676 0.122222 -0.036578 -0.074842 0.039884 0.157810 -0.366628 -0.045798 0.287243 0.194845 0.111188 0.030269 0.215692 -0.022166 0.130734 0.109243 -0.113951 -0.164324 0.067549 0.154922 0.154018 -0.087615 0.002106 -0.012697 -0.159392 -0.010284 -0.205856 -0.137288 0.089081 0.122900 0.065129 -0.034599 0.037004 0.055151 -0.201534 0.001511 0.261960 -0.028477 -0.017601 0.104210 -0.101757 0.136738 -0.188379 -0.085628 0.159499 0.053790 -0.219024 0.131150 0.068291 0.135634 -0.049236 0.151405 -0.183066 0.230148 -0.268254
267 0.024703 0.090390 -0.014824 0.166515 0.117569 -0.095774 0.252358 0.232207 -0.242775 0.239188 -0.061863 0.059945 0.004394 -0.067657 -0.163915 -0.201575 -0.111981 -0.215501 0.077478 0.029302 -0.002905 0.012341 -0.197419 -0.123287 0.034141 0.035788 -0.098473 -0.131361 -0.035726 -0.110775 -0.006064 0.132582 0.007520 -0.076526 -0.083232 -0.231728 0.216180 0.029142 -0.119144 -0.010544 -0.063916 0.020691 0.057356 0.050006 0.234737 -0.005217 0.209606 0.030580 0.037248 0.043460 0.280109 0.078624 0.225990 0.025604 0.039881 -0.044616 0.021654 -0.030657 -0.039507 -0.085589 0.121920 -0.017278 -0.041271 -0.140308 0.299094 0.148475 0.151363 0.025349 -0.100755 0.153532 0.097587 -0.302079 0.275543 -0.237895 -0.046930 0.103702 -0.031925 0.122792 0.013789 -0.188085 -0.202515 -0.060796 0.069772 -0.053168 0.123886 0.157337 0.196744 -0.081087 -0.034438 -0.026225 0.167311 0.057175 0.059858 -0.014743 0.311715 0.041250 0.171623 -0.059187 -0.117402 -0.244495 -0.079016 -0.214298 0.239346 0.029586 0.107131 -0.142725 0.117836 -0.015787 0.004914 -0.151254 -0.170470 -0.060721 -0.055800 -0.066197 -0.081127 0.075100 -0.111535 0.271023 0.227635 -0.259484 0.277837 -0.050764 0.057209 -0.122831 -0.042808 -0.035556 0.311848 0.076693
483 0.119323 -0.086096 0.181241 0.226879 0.093053 -0.000597 0.123968 0.193139 0.017861 0.218062 0.030711 -0.043572 -0.012570 0.137758 0.051678 -0.295866 -0.017537 -0.106502 0.128900 -0.114415 0.098858 -0.049739 -0.207383 -0.006269 0.147572 0.057645 -0.193345 -0.297367 0.025388 0.171246 -0.165599 0.103789 -0.111411 -0.040430 0.119273 -0.101795 0.112587 -0.062541 -0.151486 -0.169189 0.055136 0.182845 -0.090783 -0.146732 0.057260 0.077049 0.022969 -0.011902 0.056586 -0.032326 0.037468 0.116489 0.083395 0.057287 0.113620 0.019573 -0.117898 0.015350 0.121953 -0.143657 0.140471 -0.120682 0.024568 -0.009034 -0.110189 0.174862 -0.048544 -0.035558 -0.054464 0.293664 0.087690 0.046044 0.071318 -0.072957 0.029288 0.226430 -0.020053 0.209655 0.195145 -0.076130 0.126681 0.014462 -0.229164 -0.056202 0.271935 0.009701 0.294913 0.137633 -0.013098 -0.116751 0.238732 0.047517 -0.006234 0.136066 -0.089876 0.139849 -0.061802 -0.183781 0.109810 -0.139442 -0.050091 0.189490 -0.007653 -0.132446 0.096951 -0.043917 0.117105 -0.034795 0.101358 0.144854 0.026868 0.130737 -0.196049 -0.094356 0.152464 -0.063086 -0.272616 -0.054171 -0.074694 -0.071015 -0.011922 -0.161289 -0.098465 -0.079618 0.109181 0.049884 0.025813 0.098722
481 0.122015 -0.243457 -0.125088 0.045368 0.029337 0.054961 0.078713 0.001481 0.116420 -0.071596 -0.035140 0.048027 -0.008885 -0.215084 0.009889 0.156035 0.099051 -0.085922 0.096449 0.330499 0.057754 -0.080025 -0.064817 0.118398 -0.179863 0.103630 -0.254267 -0.146763 -0.093484 -0.064477 0.049702 -0.096280 0.153808 0.181455 -0.261049 -0.038937 0.067274 0.063671 -0.076317 0.309409 0.022617 0.183650 0.092573 -0.082751 -0.256322 0.123829 0.166793 0.042068 -0.060721 -0.164154 0.054444 0.112720 -0.028932 0.160530 0.071139 -0.133783 -0.071644 0.127712 0.224243 0.115325 0.074390 0.038997 -0.056447 -0.142308 -0.108137 0.065094 -0.089314 -0.009374 -0.106547 0.076933 0.121110 -0.040224 0.214356 0.033144 -0.063351 0.171039 0.093222 0.321823 -0.166993 -0.190218 0.173090 -0.057206 0.022319 -0.053180 0.021766 -0.014353 0.108262 0.139767 -0.019450 -0.130228 0.323206 0.103504 -0.102822 0.110814 0.155793 0.149653 -0.062404 -0.134132 0.262819 -0.066272 -0.197427 0.108292 0.000283 -0.081602 0.054351 -0.015916 0.054065 -0.090892 -0.169197 0.274702 -0.015457 -0.055971 0.080968 -0.050488 -0.089352 0.238876 -0.022212 0.254846 0.040367 -0.305477 0.066393 -0.127704 -0.038256 -0.128318 0.152146 0.014481 -0.111516 -0.090217
221 0.177881 -0.119839 -0.118201 0.129912 0.021740 -0.232577 0.058140 -0.075755 -0.076626 -0.062807 0.170389 0.194206 -0.033335 -0.127666 -0.149288 -0.108092 -0.033011 0.038489 -0.138671 -0.052711 0.033584 0.209411 -0.108601 0.127899 -0.191357 -0.146273 0.099548 -0.235483 0.142607 0.080982 -0.021177 0.148436 -0.048766 -0.012667 0.031460 -0.057208 0.168701 -0.091163 -0.070331 0.116778 0.055221 0.222052 -0.048240 0.134472 0.043993 0.084078 -0.018360 0.285691 -0.146649 -0.022585 -0.082433 0.001531 -0.003481 0.235517 0.088144 -0.333421 -0.015309 0.104947 0.015563 0.018984 0.024400 0.158035 0.063466 -0.178857 -0.023528 0.091457 -0.109918 -0.155695 -0.022422 0.059974 0.021986 -0.044037 -0.187298 -0.217229 0.121116 0.038558 0.163236 0.021914 0.078247 0.084276 0.124921 -0.118095 0.121492 0.098626 0.085672 0.201018 0.386757 0.246005 0.004524 0.031223 -0.091106 0.227015 0.139170 -0.002017 -0.189509 -0.086580 0.074940 -0.058279 0.003058 -0.044480 -0.305453 -0.096604 -0.086939 0.128561 0.144511 0.078388 0.115774 -0.024936 -0.116136 -0.075733 0.040108 -0.115758 0.103629 -0.222147 -0.029368 0.054472 0.151908 0.125865 -0.069777 -0.258152 0.230701 0.011861 -0.128529 -0.138687 0.041055 -0.083347 0.057189 -0.021158
312 0.157765 0.059579 0.069845 -0.051063 -0.011686 -0.082368 -0.062126 -0.072783 -0.024521 -0.076893 0.141058 -0.000701 -0.074671 -0.154290 0.177331 0.001747 -0.039772 0.134928 -0.129856 -0.162028 0.042569 -0.297127 -0.092759 0.036726 0.107757 0.147069 0.100750 -0.043791 -0.180208 0.133204 -0.226595 -0.104563 -0.073210 0.028241 0.114705 0.081274 0.208300 -0.081101 -0.147349 0.153517 -0.081812 -0.013059 -0.086497 0.034523 0.143425 0.004907 0.256962 -0.311778 -0.121314 -0.013665 0.017084 0.020180 0.054327 0.187158 0.007985 -0.051201 -0.049224 0.283177 -0.131006 0.001022 0.017155 -0.133102 0.078412 0.038510 0.117030 0.148337 -0.108837 0.052577 0.111903 0.143526 0.095453 0.209843 -0.101894 -0.311003 0.124712 0.113778 0.032530 0.033542 0.046463 -0.120432 0.118596 0.079339 0.047918 0.084439 0.326418 0.042377 0.031117 0.115936 0.028186 0.144733 0.144437 -0.082843 0.029889 0.233215 -0.096581 0.114296 -0.001349 -0.153680 0.084679 0.094346 -0.107729 0.117369 0.091569 -0.238714 0.125095 0.041014 -0.207199 -0.142785 0.078125 0.031471 0.197261 -0.131450 0.056053 0.033619 0.055778 0.070982 -0.178373 0.017806 -0.111591 0.026740 0.095838 0.012198 -0.239518 0.008261 0.087186 0.130674 0.036715 -0.149674
430 -0.030059 -0.345796 -0.213303 0.008828 0.176897 -0.217927 0.251973 0.046984 -0.000589 0.215147 0.039812 -0.076332 0.051998 0.156508 -0.104415 0.072980 -0.085147 0.128594 -0.275019 0.169867 0.180009 -0.312206 0.123017 0.095256 -0.103279 -0.082229 0.192337 -0.111581 0.053803 -0.107107 -0.021856 -0.144444 -0.039237 0.059030 -0.108474 -0.117611 -0.096552 0.030449 -0.100740 0.106791 0.194278 0.083554 -0.048497 0.049681 0.109090 0.110558 0.218568 0.081601 0.032959 -0.154607 -0.119461 0.019504 0.200659 -0.017547 -0.144920 -0.002524 -0.058700 0.219029 0.000719 -0.192281 0.429067 -0.023169 0.250336 -0.155141 0.083444 0.077230 -0.130621 0.047301 -0.112065 0.050024 -0.120364 0.124638 0.107436 0.031487 0.075110 0.077871 0.056405 -0.043984 0.051211 -0.226484 -0.001211 -0.194164 -0.033229 -0.011784 -0.067952 -0.058451 -0.013681 0.053786 -0.208922 0.173143 0.141196 0.035871 0.001906 -0.237938 -0.031226 0.184176 0.071071 -0.125597 0.140417 -0.002042 -0.113013 -0.128176 0.061236 -0.125773 0.048085 -0.043500 0.170509 0.123769 0.152334 0.042702 0.080879 0.114869 -0.165794 -0.007653 -0.036727 0.075625 -0.121263 -0.091215 -0.063746 -0.155992 0.117500 0.278866 -0.077486 -0.185205 0.149939 -0.117225 -0.091516 0.141078
3 0.123612 -0.042160 0.032877 -0.114282 0.112528 -0.055244 0.056361 -0.076105 0.018385 -0.087653 -0.113714 0.181151 -0.094049 -0.197411 0.062480 -0.086287 0.026189 -0.036940 0.020271 -0.066623 0.184859 0.081417 -0.205579 -0.051946 0.173393 0.012883 -0.055035 -0.268998 -0.060159 -0.085157 -0.046115 -0.177218 -0.101160 0.016679 0.009228 0.089122 0.104084 0.108823 0.047012 0.150456 0.023605 0.038753 -0.074935 0.133903 0.159325 0.058479 -0.032530 -0.069394 -0.033860 -0.066486 -0.001027 -0.181405 0.063957 0.195215 0.099508 -0.043025 0.023335 0.227389 -0.101614 -0.243189 -0.040818 0.150519 0.195033 0.119770 0.079231 0.097764 0.253370 -0.047306 0.057864 -0.148494 -0.100130 -0.011952 0.051964 -0.153968 0.076997 0.029285 -0.228403 0.124454 0.186221 0.220083 -0.052463 -0.034528 0.175573 -0.210939 0.141941 0.065194 0.183293 0.174627 -0.028438 -0.162313 0.029715 -0.137566 -0.042406 0.028614 -0.029112 0.200228 -0.056230 -0.136706 -0.035947 0.000584 -0.177648 -0.136974 0.313022 0.056180 0.203866 -0.043679 0.153450 -0.087384 0.207480 0.161456 0.032147 -0.151073 -0.035737 -0.151814 0.143343 0.009688 -0.201920 -0.031048 0.049888 -0.018162 0.221238 -0.001935 -0.061979 -0.127431 0.103378 -0.137211 0.095211 -0.117852
216 -0.171059 0.049331 -0.214886 -0.152284 -0.138051 -0.176595 -0.158840 -0.203397 0.111334 0.003536 -0.139044 0.029478 -0.264666 0.092178 -0.152998 -0.097403 -0.019804 -0.045658 -0.115346 0.242544 -0.007209 -0.198037 -0.102667 0.288226 0.062135 0.120912 0.139679 -0.134083 0.090928 0.004566 0.091527 -0.056494 -0.031591 0.110437 -0.151298 -0.103097 0.061823 -0.112275 0.007316 -0.021561 0.036951 0.140455 0.137615 -0.122131 -0.254707 0.114057 0.038636 -0.229138 0.188357 0.121495 0.095826 0.167919 0.072299 0.063913 0.101333 0.069454 -0.031812 0.138450 -0.149840 -0.038390 -0.134529 -0.040457 -0.049085 -0.110587 -0.051801 0.137366 0.061773 0.086108 -0.053626 -0.141565 -0.095592 -0.073620 -0.048341 -0.022412 0.158036 0.275655 0.102085 -0.132316 -0.023003 0.079025 -0.239074 -0.036524 0.167615 0.051729 0.144024 -0.183041 0.187841 0.056057 -0.013483 0.222316 0.212098 0.017123 0.007837 -0.116719 0.088442 0.355459 -0.003678 0.111732 0.297318 -0.156187 -0.170321 0.055105 -0.022942 -0.052379 0.057822 0.121143 0.147902 -0.069547 -0.029471 0.019396 -0.075820 0.279214 -0.008731 -0.052051 0.090919 -0.136648 -0.047152 0.093372 0.128522 -0.210266 0.093150 -0.071907 0.083513 0.129445 0.015234 0.231540 0.146056 -0.093306
445 -0.089554 0.119250 0.038200 -0.121191 -0.191045 -0.146969 0.164449 0.056935 0.027403 0.157311 -0.140904 0.123409 -0.174199 0.041575 0.019940 -0.113373 0.035218 0.112186 0.058829 0.037594 0.014161 -0.002356 0.257300 -0.150927 -0.225695 0.110654 0.024782 0.020850 -0.122966 -0.095981 0.071448 -0.081664 0.092757 -0.003363 0.075735 -0.061279 0.090906 -0.094751 -0.149389 0.036492 -0.025191 0.004384 0.065289 0.103784 0.011438 0.097495 0.083510 0.051409 -0.031058 0.072393 0.126684 0.213582 0.231430 0.188886 0.148140 -0.115237 -0.125462 -0.053498 -0.013043 0.048170 -0.079939 0.004608 0.004933 -0.302902 0.103549 -0.059937 -0.010300 -0.021792 -0.137289 -0.243063 -0.049405 -0.074874 0.052776 -0.293602 0.403419 -0.010779 0.139183 -0.033131 0.118826 -0.010462 0.104666 -0.013680 -0.074718 0.170466 -0.067215 -0.324313 0.078479 0.014094 -0.048582 -0.033315 0.202787 0.060077 0.213089 -0.065192 -0.040678 0.152116 0.177961 -0.343514 0.075461 -0.033553 -0.124774 0.006772 0.010567 -0.012952 -0.069303 0.000118 0.201169 -0.108725 -0.099194 0.068380 0.059579 0.043316 -0.135531 -0.177774 0.029389 0.003838 -0.059105 0.152805 0.031371 -0.130136 0.057590 0.067633 0.145484 0.122466 0.064238 -0.270931 0.075736 0.012258
209 -0.195824 0.090195 -0.247904 -0.129039 -0.172535 -0.153083 -0.108869 -0.006752 -0.005061 -0.003079 -0.167720 0.193081 0.142425 -0.196853 0.052608 -0.168164 0.177479 0.083522 0.060314 0.329352 0.030572 -0.044254 -0.112456 0.036107 -0.133599 0.005974 -0.042806 -0.063582 -0.027588 0.082646 -0.153741 -0.104869 0.100494 -0.137434 -0.023743 0.030144 0.139064 0.026914 -0.020378 0.085505 -0.224008 0.104456 0.015997 -0.200682 -0.313959 -0.176112 0.179839 -0.012185 0.131605 -0.264302 0.124966 0.067918 0.013891 0.308130 0.028168 0.013677 -0.143386 -0.047052 -0.076537 -0.081649 -0.171642 0.013439 -0.193424 -0.095072 -0.104937 0.023216 -0.034979 -0.272657 -0.036557 -0.139917 0.130178 -0.052880 0.236182 -0.136901 0.137630 -0.002884 0.119337 0.075070 0.071443 -0.188253 0.091336 0.151853 -0.047043 0.078368 -0.047648 -0.150890 0.249125 0.168543 0.263014 -0.082410 0.068027 0.172599 0.117322 -0.108400 -0.260081 -0.120327 0.267540 -0.120672 0.191223 0.064236 -0.126484 -0.138513 0.030390 -0.052550 0.074892 0.124130 -0.050758 -0.025835 0.117119 0.056696 -0.035930 0.236831 -0.128020 0.043497 0.055285 0.105571 -0.227814 0.296528 0.020996 -0.282147 0.097521 -0.238534 0.237887 0.053364 0.063231 -0.058596 -0.032771 -0.033810
389 -0.077891 -0.010885 0.001721 0.018671 0.157276 -0.178084 0.070065 0.025112 -0.033627 -0.044825 0.127184 0.009329 -0.041407 -0.088155 0.150121 -0.160664 0.159918 -0.084253 0.006315 0.141791 0.128979 -0.038767 0.092256 0.148765 -0.086568 -0.056963 -0.216226 -0.168662 0.000164 -0.191994 0.197272 0.088678 0.064281 -0.056854 0.125716 -0.041690 0.108732 0.154753 -0.324586 0.114683 0.094873 -0.033248 -0.026707 -0.068611 0.158048 0.046206 0.376721 -0.181980 0.007545 -0.210628 -0.273805 0.166735 -0.097647 -0.007035 0.103989 -0.084790 0.033444 0.045995 -0.001532 -0.015144 0.171577 -0.203768 -0.068288 -0.043453 0.196346 0.190505 -0.050071 -0.109152 -0.177533 0.023171 0.139377 -0.131297 -0.056359 -0.043236 0.100835 -0.012821 -0.108340 0.027609 0.082144 -0.093146 -0.099445 -0.169133 0.172405 0.123791 0.017937 0.274631 -0.095400 -0.022897 0.042774 -0.061380 0.098935 -0.078232 0.073043 -0.009852 -0.027965 -0.043023 0.157620 0.082993 0.212223 -0.241999 -0.002362 0.142944 0.163932 -0.112581 -0.163343 0.110905 -0.099100 -0.181102 0.013462 0.074993 -0.064116 0.112488 -0.014227 -0.232205 0.286401 0.027241 0.134601 0.034074 -0.176683 -0.131383 0.255246 -0.017403 0.136046 -0.022134 0.004026 0.150585 -0.025458 -0.115935
257 -0.171226 0.044748 -0.139058 -0.038316 -0.017131 -0.190167 0.162279 -0.042461 -0.053145 0.106616 -0.216321 0.077947 -0.099830 0.215924 -0.017175 -0.098748 0.191707 -0.023647 -0.119995 0.134455 0.004632 -0.057080 0.077667 0.031992 -0.019605 -0.162127 0.216364 0.012524 0.117830 0.053916 0.001740 -0.044012 0.008969 -0.104493 -0.020354 -0.153922 -0.168542 -0.100658 0.082493 0.300611 0.016748 -0.043429 0.093841 -0.047933 0.155838 0.198943 0.046564 -0.122228 -0.025169 0.005860 0.031206 -0.023131 0.052440 0.188722 0.037550 0.245527 -0.132745 0.124778 -0.038178 -0.058840 0.100993 -0.020020 0.288786 0.050502 -0.131969 0.107415 0.244222 -0.209792 -0.076268 0.118840 0.054350 0.249314 0.125814 -0.042109 0.081769 0.030232 0.098087 0.008634 -0.201715 0.128941 0.344999 -0.172169 -0.018059 -0.174068 -0.016310 0.032511 0.023062 0.108181 -0.146488 0.139226 0.035863 -0.082607 0.137943 -0.015281 0.080931 0.325705 0.058821 -0.198343 0.135390 -0.000344 0.012106 0.200707 0.096345 0.053480 -0.065293 0.066562 0.235347 -0.094792 0.034567 0.162418 0.190296 -0.042849 -0.177215 -0.066497 0.266746 -0.081483 -0.158176 0.320342 0.142891 -0.034516 0.033747 0.026799 -0.076167 -0.150557 0.108588 0.040824 -0.145165 -0.347002
333 -0.031536 -0.099801 -0.060567 0.019674 -0.323246 0.004167 0.062710 0.209920 -0.262817 0.200289 -0.015500 -0.056507 -0.233536 -0.215286 0.092904 -0.116906 -0.177188 -0.183399 0.080782 0.149488 0.117468 -0.013365 0.178229 0.206420 -0.029754 0.036568 -0.098633 -0.144893 0.117895 0.072691 -0.039285 0.256252 -0.145094 -0.013344 0.247320 -0.061385 0.106938 0.137389 -0.090235 -0.032972 0.069063 -0.014783 -0.079191 0.021008 0.072473 -0.064346 0.092255 -0.239225 0.020344 -0.164115 0.064914 0.064110 0.391541 0.015397 0.051098 -0.217883 0.185129 0.322786 -0.112726 -0.155626 0.058004 0.180059 0.233075 -0.019530 0.032443 0.092886 -0.098911 0.036336 -0.117002 0.003471 0.106199 -0.114880 -0.046103 0.004380 0.135740 0.099645 -0.264895 0.302827 0.094561 0.019194 -0.145102 -0.061776 0.107583 -0.174012 0.166524 0.086730 0.201361 0.197566 0.173956 -0.099898 0.073615 -0.045291 0.027344 0.159098 -0.094622 0.267170 -0.026156 -0.194396 -0.174219 -0.156484 0.029018 0.029507 0.304674 -0.130263 0.048716 0.004093 0.149132 -0.244918 0.149585 -0.009756 0.014606 -0.045672 -0.055466 -0.044656 -0.144759 -0.050413 -0.003194 -0.046122 0.128627 -0.084923 -0.014603 0.023971 -0.003670 0.091240 0.103216 -0.087364 0.016677 -0.001678
378 -0.241538 -0.039598 -0.180365 -0.035240 -0.062293 -0.118717 -0.238102 -0.188259 0.166629 0.046490 0.150237 -0.126032 -0.062525 0.016990 -0.047690 -0.138125 0.068489 -0.080696 -0.129559 0.041063 -0.024115 -0.009291 -0.150020 -0.093118 0.192426 -0.128175 0.198869 0.079675 -0.255205 -0.060184 0.021215 0.168885 0.137049 0.024060 0.014237 0.046314 0.073612 -0.110275 -0.186356 0.086771 0.232072 0.245952 0.010353 -0.054559 -0.030952 0.225090 0.050537 -0.017133 0.024670 -0.025054 -0.060952 -0.004966 0.205212 0.075340 0.022423 0.105350 0.056499 0.218302 -0.085368 -0.210922 -0.001181 -0.011007 -0.117877 -0.032539 -0.010146 0.051129 -0.040983 -0.088145 -0.166735 0.067544 0.205536 -0.001813 0.083150 0.031085 0.007987 -0.123841 -0.050518 0.183944 0.033405 -0.285070 -0.015574 -0.028452 -0.276845 0.067555 -0.097260 0.181194 0.026897 -0.129899 0.018426 -0.222659 0.170306 -0.089892 -0.007395 0.017636 0.202274 -0.038257 0.276355 -0.144064 0.021503 -0.011960 -0.066942 -0.018784 0.149041 -0.039780 -0.067536 -0.091485 0.083486 -0.312600 -0.040470 -0.083513 -0.040006 0.066565 -0.009388 -0.205212 0.232170 -0.065577 -0.155871 0.044319 0.128445 -0.037734 0.168179 -0.115011 0.032111 0.008897 0.120849 -0.102654 0.096895 0.070111
499 -0.063104 -0.028952 -0.221724 -0.176009 -0.078426 -0.054190 -0.084435 -0.096496 -0.109034 0.140532 -0.065264 -0.193745 -0.124760 -0.023824 0.012272 0.098747 -0.033077 -0.214952 -0.105857 0.051204 -0.091373 -0.046132 0.027430 0.115803 0.066014 0.158704 -0.067864 -0.246906 -0.129354 -0.074355 0.013166 -0.123680 0.102628 0.082672 0.183842 0.118003 0.180317 0.064811 -0.244289 0.117452 -0.099695 0.037812 0.109843 0.098712 -0.104531 0.173166 0.085480 -0.075727 -0.047800 -0.058669 -0.090284 0.190283 0.075636 0.037676 -0.058939 0.019792 0.099426 0.122817 0.188084 0.075123 -0.056354 -0.038768 0.082076 -0.124893 0.029674 0.046785 -0.082778 -0.005603 0.064949 0.072112 -0.027544 -0.082327 -0.167749 -0.105110 0.137089 0.094342 0.173687 0.185072 0.058838 -0.120378 0.155596 0.194639 -0.107230 -0.036395 0.066412 -0.112261 0.200481 0.121280 0.051888 0.171976 -0.047437 0.019340 0.026280 -0.099808 -0.062956 0.055258 0.226079 -0.008864 0.069949 -0.068775 -0.232217 0.113399 -0.058192 0.177962 0.363333 0.125255 0.141610 -0.126369 -0.026600 0.078669 -0.229369 0.140092 0.191793 -0.226057 0.122472 -0.119919 0.116283 0.064230 -0.022950 -0.189233 0.173099 0.073557 0.204484 0.169553 -0.011878 0.049269 -0.105150 0.210011
155 -0.021179 -0.130287 0.057176 0.096523 -0.062820 0.035711 -0.066394 0.238979 0.075678 0.048021 0.144924 0.307837 -0.079367 -0.144907 0.144535 -0.102574 0.030588 -0.032999 -0.185909 0.353993 0.181159 0.105330 0.123961 0.117128 -0.070808 0.044749 0.034266 0.012258 0.168971 -0.033071 -0.040135 -0.050346 -0.059122 -0.221907 0.069070 -0.086985 0.052889 -0.064796 -0.044952 0.019386 0.103694 0.034244 -0.047968 0.030006 0.182184 0.134106 0.259777 0.077262 -0.004224 0.110469 0.041243 -0.036978 -0.004904 -0.107704 -0.081710 -0.000695 0.180445 0.080545 -0.149177 0.142696 -0.059828 0.077386 -0.026552 0.029286 0.076367 0.117678 -0.069249 -0.094782 0.024410 -0.190275 -0.064576 0.251253 0.027921 -0.124484 0.217992 0.092604 0.050184 0.112199 0.131239 -0.072399 -0.066441 0.096078 -0.176550 0.009356 0.099756 0.292894 0.182385 0.176957 0.058774 0.019952 0.099775 -0.104452 0.141202 0.194005 -0.036171 0.021219 0.040305 0.073261 -0.001266 0.060614 -0.364920 0.118071 0.025785 0.005102 -0.006457 -0.066795 0.218399 -0.181836 0.261376 -0.013262 0.263951 0.060705 0.099463 -0.051520 0.257764 -0.119139 -0.100545 0.030482 -0.011522 -0.006217 0.025246 0.125775 0.199199 0.081498 0.123684 0.101823 -0.019112 -0.205094
343 -0.048724 -0.064296 -0.181448 0.043339 0.159482 0.142206 0.040713 -0.161232 -0.184379 0.118808 -0.003634 0.149534 0.007135 -0.343361 0.040085 0.117541 -0.025160 -0.143282 -0.079467 -0.023605 0.020333 -0.048208 0.021065 0.177159 -0.058187 0.004963 -0.137231 0.009574 -0.068379 0.007714 -0.022226 0.021484 0.047582 -0.012887 0.179981 -0.110461 -0.117821 0.149332 -0.276707 0.159169 0.055318 0.103595 0.023252 0.088210 0.113940 -0.079222 -0.117135 -0.129903 0.026079 -0.083801 0.038489 0.140229 -0.166704 0.065082 0.136590 -0.053361 -0.122583 0.090677 0.087140 -0.066521 0.131535 -0.221517 0.015380 -0.080067 -0.085150 -0.009669 0.066073 0.026362 0.073130 -0.003144 0.078519 0.039295 -0.020886 -0.168323 0.089378 0.273314 0.158623 0.094932 0.345377 0.098472 0.028090 -0.095206 -0.070320 -0.135643 0.045236 -0.023709 0.210639 0.140234 -0.085482 -0.066243 0.042880 0.074088 0.105131 0.018557 0.192840 -0.115780 -0.083797 -0.161519 0.419433 -0.031892 -0.085095 0.027697 -0.097013 -0.134333 0.063423 0.203970 0.121068 -0.035794 0.070858 0.135098 -0.007611 -0.017943 0.052467 0.119140 0.154977 0.034703 -0.010249 -0.050119 -0.037135 -0.217246 0.136556 0.170699 0.242602 0.120495 -0.063812 -0.140898 0.308839 -0.072790
20 -0.036123 -0.210940 -0.217593 -0.167006 0.056372 -0.044522 0.045591 0.122375 0.073434 0.151907 -0.051891 0.038413 0.027519 0.237550 0.283452 -0.140207 0.019890 0.103980 0.097882 0.000234 0.139045 -0.093098 0.224910 -0.044150 0.107047 0.090778 -0.027701 -0.207030 0.429487 0.162685 -0.004925 -0.025184 -0.050282 -0.013591 -0.057389 -0.217123 -0.054242 -0.133946 -0.136333 -0.064562 0.002937 -0.069852 -0.087317 -0.086559 0.029984 0.074490 0.079813 -0.063516 0.118651 0.014995 0.023915 0.254467 -0.028373 0.115485 -0.089832 0.020858 -0.309182 0.192639 0.068242 0.003949 0.139883 -0.128385 -0.054051 -0.453963 -0.034279 0.138132 -0.076366 0.234543 0.052732 0.026943 0.017615 0.123518 -0.065574 -0.177073 0.315106 -0.032695 0.001764 0.193317 0.146711 0.016080 -0.273212 -0.114526 -0.103551 -0.284258 0.064502 0.036613 -0.086899 -0.104064 -0.003239 -0.006792 -0.054200 -0.152654 0.188184 -0.082597 -0.046445 0.249218 0.105121 -0.042818 0.157951 -0.006852 -0.175173 0.054250 -0.072242 0.054598 0.043352 -0.094826 0.203255 -0.084142 0.311467 0.123333 0.133144 -0.007710 0.227273 0.170382 0.195360 -0.063787 -0.223323 0.244687 -0.127900 -0.198756 0.105580 -0.072913 0.127746 0.138541 0.097131 -0.021317 -0.205553 -0.064033
58 -0.064344 0.014974 -0.134132 0.236231 0.071235 -0.054703 0.052386 0.006203 -0.203824 -0.020792 0.083892 -0.148568 -0.249729 -0.049183 -0.115477 0.020092 0.020654 0.227435 -0.029048 0.208801 -0.001712 0.058576 0.151890 0.110043 0.013569 0.024805 -0.012702 -0.165215 0.008774 0.179451 -0.213959 -0.218226 -0.014067 0.058579 -0.060424 0.004307 -0.007439 -0.055782 -0.245073 0.083614 0.200870 -0.018564 -0.322264 0.009045 -0.084444 0.140510 -0.033051 -0.157542 -0.059127 -0.053323 0.055064 0.329012 0.337944 0.228297 -0.079661 -0.002169 0.120218 -0.089548 -0.086358 -0.123863 -0.106434 -0.070469 -0.116981 0.083338 0.131710 -0.057395 0.083727 0.001459 -0.288466 0.033999 0.025672 -0.006264 0.086849 -0.188159 -0.141400 0.130286 0.093071 0.415541 0.100438 0.002882 -0.132750 -0.023511 0.122207 0.047770 -0.190148 0.074687 0.019503 0.156035 -0.079948 0.018679 0.135449 0.016819 -0.112371 -0.068498 0.123464 0.062545 -0.055063 -0.209361 0.255640 -0.155212 -0.184092 0.028283 -0.128695 -0.113950 0.022324 0.145507 0.244207 -0.150968 -0.079988 0.113087 0.293045 -0.054726 0.007504 -0.133540 0.115148 -0.024478 -0.045743 0.178101 -0.082853 -0.236482 0.283264 0.044080 0.065522 0.037156 -0.194159 0.126509 0.044772 -0.124176
387 0.059561 0.069014 0.051788 -0.056495 -0.128638 -0.323399 0.126791 -0.092865 -0.133457 0.030759 0.299820 0.156239 -0.073282 -0.380907 0.022135 0.026428 0.074450 -0.088539 -0.349523 0.158326 0.085609 -0.039554 0.010147 -0.105870 0.129375 -0.082213 -0.134001 0.026273 0.105771 0.104950 -0.035326 -0.137654 0.105543 -0.069158 -0.152578 0.117336 0.270392 -0.281507 -0.032029 -0.069917 0.245328 -0.136263 -0.025611 -0.037899 -0.044560 0.027774 0.105268 -0.095137 0.020239 -0.037838 -0.130007 -0.125670 0.065512 0.193156 0.039004 0.047770 0.034268 -0.042071 0.012034 -0.234054 -0.106563 -0.122484 -0.076748 0.116921 -0.080476 0.087236 -0.119412 -0.067219 0.155132 0.127004 0.162783 0.041529 -0.016383 -0.150298 0.362781 -0.093675 0.037463 -0.084848 0.032497 -0.076792 -0.228765 0.047632 -0.095561 -0.194006 -0.052439 -0.074012 0.355800 -0.130827 0.018772 -0.072045 0.128999 0.088799 0.013950 -0.004552 0.176087 -0.020935 -0.096973 -0.167539 0.329286 -0.160786 -0.116132 0.104613 -0.038229 0.115171 0.040124 -0.128864 0.108579 -0.020648 -0.098109 0.063303 -0.025348 -0.017113 0.078233 -0.055151 0.035789 -0.324448 -0.113758 0.158917 0.077079 0.089849 0.033858 -0.030864 0.051591 -0.104663 -0.053970 -0.129557 0.165705 0.002586
38 0.034221 -0.152224 -0.124872 -0.120181 -0.171063 0.027186 -0.117106 -0.028233 0.120118 0.079961 0.117478 -0.063378 -0.070229 -0.078712 0.085266 -0.171930 0.161273 0.072386 0.033206 0.096048 0.007362 0.047992 -0.153343 0.025949 -0.025615 -0.011887 0.253074 -0.271469 -0.153980 0.132362 0.111134 0.166609 -0.195257 -0.120026 0.024768 0.005926 0.123642 0.040851 0.066137 -0.039332 0.134193 0.134836 0.101169 -0.248382 0.308355 0.103475 0.068254 -0.149283 -0.004267 -0.059590 0.021957 0.041367 -0.058373 0.143044 0.188851 -0.050174 -0.047141 -0.036135 -0.061873 -0.214206 0.018048 -0.038888 0.117055 -0.017711 0.121159 -0.045823 0.064546 -0.090556 -0.004957 0.129273 -0.007230 -0.221913 0.067485 -0.238398 0.174102 0.152145 0.139390 -0.032363 0.191490 -0.065367 -0.218226 0.032129 0.007394 0.154250 0.128548 -0.045457 -0.119013 0.081861 0.056022 -0.141025 0.070114 -0.148384 0.047056 -0.263482 -0.017417 -0.013799 0.047819 -0.082974 0.041448 -0.041637 0.048651 -0.063807 0.146131 0.011023 0.188649 0.330313 -0.047284 -0.114601 0.174927 0.050954 0.183132 0.037113 0.095304 -0.025308 -0.109111 0.086906 0.023755 0.123116 -0.016783 -0.049333 0.338161 0.060115 0.093552 -0.048697 -0.072725 -0.082175 -0.145378 0.234192
436 -0.093574 0.161202 -0.087771 -0.092610 -0.204080 -0.009221 0.140324 -0.153123 0.050296 0.080168 -0.140971 0.056993 -0.071352 0.074402 0.041208 -0.211111 0.038357 0.075395 0.002799 0.256766 0.134819 -0.114736 0.068747 0.214118 0.009854 0.294014 -0.001249 0.151266 0.037781 -0.123440 0.048088 -0.034030 0.047073 -0.139162 0.020440 -0.049733 -0.073543 -0.034818 -0.154937 0.093179 0.258089 0.218352 -0.008425 -0.055872 -0.020935 0.262099 0.119299 -0.276179 -0.052869 -0.114445 -0.198928 0.022001 0.012545 0.063369 0.049378 0.032352 0.147031 0.252558 0.010545 -0.030451 -0.087298 -0.029061 -0.113185 -0.126937 -0.002787 -0.176054 -0.071547 0.034755 0.030000 0.091681 0.065262 0.127909 0.044887 -0.192501 0.218340 0.111312 0.216669 -0.124275 0.121068 -0.238246 -0.216657 -0.061189 0.102098 0.094696 0.016666 0.152405 0.094067 -0.066283 -0.281064 -0.000109 0.057827 -0.012431 -0.079042 0.119779 -0.067759 0.188141 0.288064 -0.115685 0.125681 -0.003370 0.079067 -0.087925 -0.114654 -0.032859 0.018039 -0.039392 0.200762 0.095086 0.008435 -0.139639 -0.113158 -0.123801 -0.013463 0.065460 0.019872 -0.068531 -0.093340 0.113418 0.186939 0.056517 0.190992 -0.146756 0.054797 -0.097421 0.089143 -0.187410 -0.009207 0.172445
44 -0.113948 -0.164020 -0.082225 0.089470 0.014327 -0.109095 -0.154264 -0.113330 0.045939 0.172199 0.018149 0.070316 -0.241859 -0.104775 0.004736 0.008522 0.169691 -0.189030 0.044807 0.149784 0.229793 -0.150576 -0.093332 -0.116227 0.018052 -0.222341 -0.168045 -0.177117 -0.091720 -0.139312 -0.029237 0.230172 0.041571 -0.040236 0.136330 0.100282 0.139678 -0.079666 -0.064448 0.078110 -0.129085 0.045727 0.146693 -0.021925 -0.019547 0.259686 -0.177171 -0.191040 0.143899 -0.057764 0.002618 0.027508 -0.167873 -0.002214 0.073592 0.043211 0.235788 0.050019 -0.119428 0.047702 -0.189740 -0.041958 0.256048 -0.088882 -0.138361 -0.059362 -0.298130 -0.198461 -0.005073 0.081949 -0.166374 -0.125529 0.084200 0.026195 0.253103 0.129574 0.093647 0.279581 0.107828 0.055858 -0.133533 -0.081326 -0.164810 0.022953 0.176199 -0.143262 0.082668 -0.148973 -0.126001 0.047029 0.013609 -0.058826 0.150722 0.096901 0.023988 0.090676 0.102354 0.001796 0.137037 -0.185251 0.141114 0.044615 0.097693 -0.025525 0.162335 -0.005453 0.217670 0.022221 0.150597 -0.006442 0.013719 -0.086177 -0.023969 -0.119549 0.034415 0.098520 -0.117135 0.155880 0.017237 0.010992 -0.100855 0.131578 -0.087197 -0.027099 0.072486 0.028777 0.040073 -0.047397
435 0.107530 -0.036142 0.008270 -0.082210 0.106552 -0.216722 -0.054288 -0.010816 0.006386 -0.064618 -0.072088 0.117502 -0.124866 -0.149315 0.261687 -0.215593 0.040400 0.036717 -0.187949 0.169401 -0.088266 0.146917 -0.194832 0.035721 -0.057251 -0.074162 -0.077882 -0.029746 -0.057411 0.198936 -0.055450 0.035471 -0.194173 -0.198945 0.027401 -0.003871 0.284072 -0.150377 -0.138697 -0.010502 -0.142093 0.091831 0.049869 0.113951 0.019968 0.125876 0.188593 -0.081287 0.133698 -0.120906 -0.017094 0.135503 0.172681 0.097295 -0.030928 0.124718 -0.076208 0.280724 -0.109567 -0.204622 0.018673 -0.115641 -0.262220 0.001423 0.051676 0.082209 -0.045260 -0.176566 -0.070957 -0.071903 0.199275 -0.224372 0.232882 -0.041196 -0.078332 0.091430 0.008014 -0.103469 0.062722 -0.172597 -0.059902 0.119486 -0.122796 -0.032908 0.053498 -0.054468 -0.052791 0.052733 -0.214562 0.051955 0.214750 -0.032381 0.016525 0.048937 -0.168058 0.273295 0.011984 -0.107525 -0.069662 -0.179978 -0.022549 0.108036 0.114079 0.068141 -0.012638 0.102657 -0.032322 0.028819 0.117638 0.019047 -0.136628 0.096061 -0.082317 -0.036093 0.261528 -0.013598 0.066093 0.056258 -0.069101 -0.005108 0.135984 -0.105154 0.116942 0.049043 0.132376 0.050091 -0.020833 0.022049
335 -0.017602 0.013380 -0.114280 0.090758 0.025261 -0.032536 -0.100287 0.158951 0.199161 0.247889 0.040693 -0.063082 -0.132198 -0.056140 0.009285 0.112523 -0.114756 0.010920 -0.295520 -0.023731 0.110433 -0.112531 -0.041460 -0.084854 0.069145 -0.055199 0.071802 -0.215720 0.070057 -0.117239 0.082683 0.145150 -0.028545 0.029658 -0.072237 0.093129 -0.150288 -0.130421 -0.253934 0.090659 0.055495 0.004182 0.130377 -0.000464 0.291251 0.019665 0.091192 0.134461 -0.009667 0.023622 0.126659 0.132948 0.138221 0.102486 -0.063282 -0.137490 0.090582 -0.055982 -0.001537 -0.000101 0.142970 -0.154781 0.017663 0.041324 0.013766 -0.017140 -0.062603 0.153173 -0.072803 -0.071754 0.175742 0.068514 0.106881 0.031953 0.218460 0.198688 0.071369 -0.222195 0.219856 -0.193013 -0.017572 0.039295 -0.077656 0.000944 -0.052916 0.046121 0.156416 0.026017 0.038040 -0.085951 0.038442 -0.159011 0.221130 -0.127745 0.007369 -0.100945 0.023566 -0.131129 0.017647 0.135917 -0.031163 0.064830 0.273598 0.064790 0.067992 0.038459 0.275663 -0.135350 -0.091189 0.252678 0.079180 0.335704 0.183954 0.024579 0.265692 0.192273 -0.007180 -0.051912 0.268975 -0.279835 0.190676 0.110882 -0.284278 -0.002713 -0.022461 0.104653 0.054468 0.025566
440 0.008707 -0.107139 0.019663 -0.041974 0.144679 0.172991 0.158900 -0.011654 -0.005318 0.127520 -0.187527 -0.147558 -0.153033 0.034552 -0.186515 -0.066504 0.076657 -0.172575 -0.073836 0.313369 0.035561 -0.082539 -0.317692 0.098332 0.027073 0.149939 -0.114091 -0.134279 0.095018 -0.091545 -0.156330 -0.056832 0.036120 0.037119 0.195317 0.098031 0.205422 -0.268996 -0.231689 0.162480 -0.134933 0.089441 0.040819 0.206538 0.045985 0.242428 -0.104339 0.064865 -0.050851 0.059358 0.028628 0.036425 0.085748 0.034700 -0.014381 0.012022 0.053896 0.102560 -0.093531 -0.026876 -0.113803 0.102707 -0.011030 -0.026731 -0.430842 0.207574 -0.166242 0.213138 -0.023436 -0.302073 0.064081 0.009479 -0.114524 0.002055 0.144918 0.016173 -0.014511 0.197981 0.155845 -0.091337 -0.025757 0.116560 0.181575 -0.060903 -0.004484 0.181631 0.079845 0.236702 0.032779 0.005988 -0.070712 -0.081204 0.043673 0.078830 0.183384 0.063014 0.084864 -0.140317 -0.025189 0.006397 0.121899 0.162379 -0.115068 -0.124511 0.042830 0.053543 0.227777 -0.274414 -0.132861 0.205733 0.155435 -0.027344 0.073671 -0.037603 0.117386 0.247869 -0.117907 0.105616 0.045742 -0.091618 -0.184413 -0.068326 0.091753 -0.151599 0.277203 -0.192349 -0.103250 0.190930
94 0.001370 -0.140264 -0.005238 -0.177346 -0.053039 -0.118012 0.055456 -0.051620 -0.090499 -0.007361 -0.001207 -0.150813 -0.112116 -0.073186 0.029927 0.068641 -0.134923 -0.084340 -0.008269 0.050340 0.185992 0.063917 -0.118785 0.105880 -0.149056 -0.002440 0.004446 -0.210006 -0.205923 0.030968 0.011982 0.244221 0.184287 -0.114507 0.039277 -0.149375 0.243363 0.038891 0.075226 0.063404 -0.093623 0.173610 -0.100336 -0.107547 0.169734 0.223151 0.005538 -0.233903 -0.265796 -0.215271 -0.100904 0.133715 0.093708 0.026076 -0.114063 0.045681 0.181869 0.137077 -0.208848 0.084987 -0.137134 -0.085772 0.031338 -0.072400 0.001564 -0.035007 -0.132023 0.106783 0.052110 0.068031 -0.069264 -0.005561 0.041906 -0.104281 0.364697 -0.045961 0.284434 -0.096231 -0.175147 -0.155828 0.002100 -0.163634 0.139183 -0.006824 -0.069800 0.011355 0.029234 0.088034 -0.061929 -0.155390 -0.141217 -0.050286 0.156998 0.067394 0.144588 0.013828 0.169949 -0.079592 0.148500 0.034752 -0.081569 -0.132124 0.058395 0.029188 0.057801 0.032700 -0.021371 -0.086841 0.200444 0.032281 0.141433 0.136841 0.175947 -0.002938 -0.137762 0.067998 -0.055556 0.018185 0.178652 -0.285531 0.011680 0.176151 0.078926 -0.056094 -0.123121 -0.058708 -0.049107 0.111095
62 -0.000576 -0.210355 -0.152177 0.254496 -0.054154 0.065604 0.141088 0.143008 0.094773 -0.067210 0.109079 -0.040431 0.067916 -0.156473 -0.171061 -0.146493 0.074020 -0.122102 -0.117044 0.039106 0.098830 -0.115500 -0.244797 0.069144 -0.154933 0.076388 0.103812 0.171889 0.159845 -0.166804 -0.044227 0.138774 -0.156395 -0.124678 0.139739 0.002476 0.017621 -0.138808 0.141388 -0.110923 -0.113960 0.092213 0.257024 0.006524 0.112736 0.023745 0.058486 -0.113351 0.049277 -0.022259 0.176120 -0.071315 0.106670 0.207110 -0.010971 0.034497 0.126447 0.017114 0.016230 -0.187654 -0.134013 -0.149492 0.026545 -0.153901 -0.016208 0.188173 -0.132005 -0.044511 -0.128485 0.042980 0.177100 -0.130755 -0.076223 -0.336700 0.072958 0.127367 -0.048091 0.127531 0.169557 -0.016150 -0.126657 -0.037398 0.061607 -0.077856 -0.133881 -0.154731 -0.000626 -0.065439 0.092284 -0.116054 0.050163 -0.108414 -0.168358 -0.070423 0.139725 0.239103 0.059720 -0.370487 -0.100819 -0.097508 0.102874 0.160415 0.211155 -0.026742 0.230379 0.050936 0.127163 -0.047281 -0.019873 0.037595 0.068285 0.061547 0.007610 -0.057423 0.056809 0.059615 -0.012110 0.176957 -0.069238 -0.249845 -0.003563 -0.016621 -0.143556 -0.166765 -0.018157 -0.065581 0.236180 0.118699
139 -0.061655 -0.045578 -0.186296 0.147484 -0.173468 -0.011721 0.001665 -0.099413 -0.024467 0.206131 -0.294300 0.167040 0.078995 0.163581 0.248497 -0.125224 0.110776 -0.130775 0.001151 0.140481 0.167822 0.018179 0.162266 -0.177304 -0.033072 0.132851 0.078730 -0.067298 0.037599 -0.066334 0.130768 0.124294 -0.057970 -0.232040 -0.247978 -0.106504 0.226349 -0.259833 0.001121 0.071170 0.157212 0.244102 0.107697 -0.087149 -0.014219 -0.069436 0.098859 -0.004499 -0.049303 0.048245 0.159651 -0.049385 0.197335 -0.085364 -0.035512 0.122711 -0.145338 -0.152313 -0.107150 -0.001823 0.268017 -0.022279 0.052422 0.088560 0.186694 0.183243 -0.087884 -0.133261 0.072857 -0.172413 0.144940 -0.166776 -0.064763 -0.255953 0.238810 0.033710 0.085254 0.361727 0.062096 -0.144149 -0.121953 -0.052112 -0.020306 -0.027987 -0.069864 0.100890 0.165472 -0.326663 -0.051687 0.077380 0.024298 -0.081626 0.083635 0.260974 -0.075989 -0.040714 0.084378 -0.080914 -0.033547 0.003985 -0.167906 0.003087 0.102819 -0.036008 0.044571 0.124431 0.142747 -0.150029 0.024440 0.208724 -0.002644 -0.109505 0.043338 0.173213 0.077037 -0.417257 -0.052682 0.084393 -0.099025 -0.058585 0.388258 -0.069318 0.043028 -0.172743 0.133330 -0.161441 -0.012541 -0.060478
452 -0.042538 -0.066649 0.016498 0.050943 0.047758 -0.021497 -0.078746 0.051133 -0.011526 0.015814 -0.055484 -0.128913 0.055792 -0.116138 0.069587 0.103447 -0.047293 -0.099233 0.081229 0.137697 0.071048 0.109712 -0.052890 -0.211467 -0.056117 -0.105432 -0.161322 -0.164999 0.120699 -0.011905 0.023300 -0.075140 -0.025149 0.072165 -0.060548 -0.034083 0.161036 -0.133147 -0.125662 0.166702 -0.017859 0.327713 -0.100464 0.115399 0.030656 -0.129779 0.059713 -0.190959 -0.244250 -0.029704 -0.038091 -0.061286 0.047108 0.027863 0.182406 -0.074496 -0.068453 0.185117 -0.081198 -0.125293 -0.062638 0.099095 0.093463 -0.036580 0.036252 0.052053 0.064604 -0.021604 -0.108492 0.108619 -0.049760 -0.099012 -0.004862 -0.387653 0.065857 0.032288 -0.005303 -0.096464 0.092401 -0.277897 0.025659 0.001319 0.119445 -0.024098 0.156841 -0.184911 0.118514 0.150723 -0.075371 0.054679 -0.027424 -0.072538 -0.010363 0.130287 -0.295046 0.151218 -0.003247 -0.141702 0.023521 -0.049558 -0.014152 0.086464 0.243154 -0.036354 0.199587 0.045886 -0.008556 0.007376 -0.034003 0.182318 0.203822 -0.167910 0.376519 -0.211112 0.108424 -0.097511 0.069193 -0.096232 0.138665 -0.215826 0.019665 0.042174 0.190996 0.007390 0.104277 -0.009639 -0.238617 0.089213
323 0.072175 0.034092 0.002059 0.240951 0.085782 -0.219210 -0.064224 -0.276467 0.044291 0.074702 0.110686 0.112540 0.100990 0.154070 0.101053 -0.202734 -0.022400 0.029172 -0.250142 0.078312 0.073246 -0.122513 0.147490 -0.112895 -0.165748 0.115393 -0.310187 -0.109869 0.088352 -0.096205 -0.071439 -0.175800 0.365109 0.082018 -0.038245 0.156941 0.095413 0.178861 -0.175498 0.088767 0.174747 0.270205 -0.001766 0.082933 -0.025809 0.122178 -0.049788 -0.124745 -0.151538 -0.296089 0.171246 0.040251 0.212066 0.028846 -0.037521 0.036931 0.010485 -0.114905 0.038225 -0.065820 0.256687 0.114066 0.119942 -0.009700 0.114575 0.294257 -0.106917 -0.105223 0.015143 0.372300 0.110126 -0.101201 -0.036244 -0.022450 -0.144735 -0.050452 -0.016387 -0.040822 0.001869 0.077556 -0.056060 -0.242827 0.116123 0.015385 0.199414 -0.067987 0.181928 0.028721 0.147248 0.107800 0.048084 -0.095430 0.036508 -0.113339 -0.045459 0.247924 -0.075469 -0.021667 0.029868 -0.008668 0.016025 0.145854 0.035969 -0.120094 0.265660 -0.168842 -0.047164 -0.233200 0.088848 0.130650 -0.061542 0.107158 0.219077 0.035057 0.165708 -0.010033 -0.337061 0.146214 0.422663 -0.001532 0.203187 -0.126240 0.112040 0.148899 0.148925 -0.075359 0.011763 0.055270
46 0.068213 0.001669 -0.257259 0.027558 0.013475 -0.216869 -0.022034 -0.217104 0.073245 -0.054509 0.058943 0.302046 -0.196015 -0.174932 0.244807 0.130040 0.039163 -0.171560 -0.173420 0.114747 0.073368 -0.064736 0.103274 0.033910 -0.050117 -0.237071 0.026152 -0.076771 0.017817 -0.056896 -0.011804 0.012264 -0.014142 -0.022177 0.236861 -0.109839 0.015539 -0.123300 -0.167406 0.067915 0.066262 0.244217 -0.015920 0.246186 0.139146 -0.034614 -0.047266 -0.126335 -0.066141 -0.210436 0.060401 0.367070 0.090452 0.348765 -0.035521 -0.149519 0.106145 0.081097 0.055309 -0.122719 0.025991 0.057458 -0.161406 -0.023050 -0.000785 0.195596 0.016560 0.239516 -0.117727 0.092967 -0.023086 -0.086066 0.137054 -0.048083 0.304583 0.093109 0.095186 -0.060864 0.048218 -0.062453 0.099341 -0.103551 -0.195687 -0.138184 0.003686 0.032313 0.059297 -0.202686 0.194444 0.104219 -0.055987 -0.045545 0.013484 -0.081809 0.176385 0.081457 -0.057276 -0.081636 0.131140 -0.110843 -0.140044 0.003233 0.148913 -0.141482 -0.046813 -0.215563 0.048274 0.012477 -0.247974 -0.080089 -0.058827 0.061803 0.088369 0.000418 0.027697 -0.180848 0.018796 -0.008392 -0.001665 -0.317698 0.005286 -0.041103 -0.088647 -0.096860 -0.085501 0.070832 0.074088 0.100800
432 -0.142800 -0.100461 -0.276704 0.046946 -0.046223 -0.051640 -0.070414 -0.002324 0.115063 0.127240 0.018117 -0.105784 0.063228 0.018765 0.231831 -0.004728 0.121605 0.040196 -0.021333 0.003618 -0.159414 -0.096675 -0.182080 0.017645 -0.028335 -0.176842 0.257199 0.022257 -0.144703 -0.237808 -0.050131 0.134120 -0.004657 -0.126271 0.217983 -0.063077 0.147968 0.088375 -0.127019 0.056578 -0.024349 -0.079867 0.008455 0.099722 -0.057497 0.202138 0.073503 -0.177955 -0.195523 0.021337 0.050473 -0.030294 0.112381 -0.046817 -0.030360 0.157949 0.159338 0.205820 -0.230010 -0.027515 -0.221668 -0.047466 0.092515 -0.004301 0.068122 0.184261 0.139971 0.129340 0.046315 0.041810 0.005335 0.237620 0.036910 -0.064973 0.086567 0.087326 0.226182 -0.181009 0.125344 -0.178971 -0.159403 -0.027345 0.175736 0.029229 0.017191 0.103499 -0.011392 0.356814 -0.223507 -0.013012 0.140176 0.063646 0.021251 0.354143 -0.129558 0.147156 -0.030933 -0.021882 0.079339 0.019008 -0.150639 0.223817 0.107823 0.025096 0.170657 0.066607 0.293428 -0.050390 0.086073 0.205297 0.169275 -0.100600 0.330342 0.080648 -0.028931 -0.050600 0.184684 -0.176105 -0.136887 -0.156272 0.143538 0.152420 0.116711 0.088265 -0.152409 -0.047687 0.085393 0.092118
243 -0.108260 -0.148618 -0.156593 -0.018203 -0.155854 -0.071041 0.220971 -0.058542 0.076437 0.032372 -0.104504 0.179598 -0.117668 -0.285700 -0.112789 -0.134429 -0.057607 -0.121176 -0.112062 0.090502 -0.148244 -0.242492 0.000764 0.004561 0.252079 -0.102173 -0.031188 -0.110278 -0.232836 -0.053130 0.001496 0.093808 -0.049660 -0.086964 -0.101903 -0.015402 0.105959 -0.008962 -0.108556 0.097900 0.051579 0.225921 0.166853 -0.008702 -0.066157 0.228503 0.114146 0.011677 0.115662 0.004730 -0.102233 -0.149375 0.060537 0.063262 -0.022914 -0.002318 -0.008598 -0.004315 0.004415 -0.162041 -0.216968 0.022211 -0.021333 0.136878 0.307772 0.165329 -0.082268 -0.052497 -0.236890 0.230022 0.156729 0.047333 -0.296869 -0.018583 0.132595 0.115562 0.178048 0.118294 -0.275666 -0.069794 -0.251309 -0.206910 0.023559 -0.002644 0.065754 -0.041485 0.190352 0.140322 0.231570 -0.010859 0.022776 0.098938 -0.021316 -0.134116 0.158523 -0.084048 0.062359 0.037485 -0.225030 0.014922 -0.125750 0.172729 0.076249 -0.087041 0.294926 0.377924 -0.129114 -0.081179 0.130535 -0.076632 0.131179 -0.177776 -0.073922 -0.019750 0.038613 -0.038420 -0.028436 0.082140 0.103302 0.069478 0.137099 0.177639 -0.041895 -0.061874 -0.051032 -0.213772 -0.095058 0.096529
12 -0.109583 -0.054851 0.104007 0.186006 0.087892 0.018667 0.024571 -0.058434 -0.121096 0.181342 0.032503 0.043694 -0.045317 -0.129791 0.132475 -0.227060 0.038607 -0.289279 -0.071934 -0.074273 0.070358 -0.204805 0.172348 -0.222110 0.032097 0.058334 -0.199406 -0.138004 0.020054 -0.096966 0.130524 0.005107 -0.096143 -0.009065 -0.009848 0.153171 0.215140 0.079063 -0.133654 0.213446 0.108316 -0.006297 0.118021 0.045669 0.215984 0.217105 0.134301 -0.082524 0.027472 0.163135 -0.278377 0.320706 0.026217 -0.016003 0.059080 -0.112629 0.142169 0.055863 0.044277 -0.349119 0.012749 -0.034945 -0.231854 -0.072273 -0.028079 -0.273175 0.055301 0.030234 -0.165052 -0.002165 0.069251 0.031893 -0.187889 -0.211927 -0.111524 0.124833 -0.066879 0.025894 0.139775 -0.183232 -0.039964 0.006527 -0.012878 0.074692 0.167887 -0.142141 0.164501 -0.083426 -0.061030 -0.081173 0.041889 0.164983 0.009941 0.173665 -0.084687 -0.046493 0.192501 -0.048114 0.098376 0.056942 -0.105543 -0.063262 0.087723 0.070371 -0.116692 -0.057724 0.393349 0.041093 0.132407 0.199457 0.276911 -0.239184 -0.083670 -0.070915 0.046505 -0.023406 0.057001 -0.075230 -0.169691 -0.268131 0.019862 -0.157616 -0.110660 0.063960 -0.092620 0.126383 -0.008970 -0.289612
41 -0.320179 -0.003689 -0.164719 -0.142890 0.116145 -0.294649 0.062028 -0.249865 0.014130 -0.095395 -0.121682 0.071616 -0.197739 -0.049798 -0.113621 -0.208245 0.101217 -0.164905 -0.116971 0.235105 0.012966 0.078059 -0.023753 0.202915 0.097873 -0.224417 0.082978 0.017186 -0.053493 -0.105198 0.073077 0.162167 0.029825 0.029441 -0.057853 0.006187 -0.020194 0.065215 -0.168062 0.042890 -0.092598 0.136158 0.081934 -0.066916 -0.081684 -0.133054 0.335679 -0.101479 -0.193129 0.010620 -0.052549 0.052976 0.052772 -0.094425 -0.105502 -0.140632 0.117057 0.106992 0.143630 -0.089547 -0.298303 -0.031187 -0.165950 -0.128353 -0.087456 0.151454 0.048355 0.156576 -0.045030 0.390998 -0.230113 0.024375 0.330627 -0.269644 -0.010935 0.066709 0.037898 -0.017545 -0.061773 0.170146 -0.004975 0.147719 -0.144226 0.116814 -0.077335 0.022232 0.345281 0.055628 0.009997 0.131039 -0.023124 -0.134246 -0.073223 0.223949 0.058049 0.212295 0.067751 -0.119287 0.104118 -0.020529 -0.040243 -0.013391 0.080047 -0.010885 0.034214 -0.023859 0.169578 -0.203436 -0.032116 0.236076 -0.208925 -0.059777 0.072424 -0.045443 -0.070300 -0.098561 -0.011004 0.333553 -0.007220 -0.112218 0.080554 -0.156569 -0.019770 0.062515 0.019136 -0.254096 -0.021957 0.017045
32 -0.161170 0.052436 -0.256168 -0.291082 0.018076 -0.106635 0.079677 0.012195 -0.040166 0.060517 -0.061098 0.370206 0.061082 0.309223 -0.087594 -0.029234 0.125994 0.169982 -0.012518 -0.079656 0.032943 -0.131889 -0.032191 0.027460 0.128703 -0.016019 0.219399 -0.143730 -0.116871 -0.204065 -0.003025 -0.112351 0.142662 0.017479 0.099297 -0.187369 0.143635 -0.003718 -0.066436 0.173064 0.073297 0.285381 0.167073 0.013068 0.131404 -0.183111 0.082070 0.038648 -0.365212 0.006564 0.000145 -0.069534 -0.011524 0.048596 0.042775 -0.266899 -0.067521 0.114042 0.121653 0.120549 0.102438 0.001572 -0.100594 0.165852 -0.152620 0.006704 -0.187587 -0.224012 -0.003116 0.144424 0.158437 -0.079227 0.025599 0.103009 0.130528 0.135711 0.168702 -0.014203 0.066913 -0.154380 0.104885 -0.069215 0.101115 -0.258417 -0.051939 0.277288 0.106437 0.095646 0.040037 -0.000492 0.184345 -0.280439 0.134174 -0.037271 0.018362 0.026079 -0.031285 -0.438796 0.076564 0.119685 -0.108810 0.180995 0.003117 0.111437 -0.016698 0.121922 0.108082 -0.279049 0.158944 0.065635 0.003736 -0.046571 0.089379 0.118672 -0.123778 -0.005920 -0.201387 -0.284377 -0.096203 -0.101859 0.048192 -0.060191 0.125071 0.153460 0.245985 0.099179 0.323394 -0.165194
125 -0.100391 0.031405 -0.075441 0.179821 0.000528 -0.139477 -0.072666 0.109582 0.021662 0.154098 -0.003796 -0.085547 -0.118652 -0.090262 0.209896 0.060699 -0.057549 -0.077291 -0.202995 0.131533 0.260883 -0.006827 0.058205 0.065078 -0.068691 -0.117167 0.041360 -0.087733 0.026315 -0.136196 0.129267 0.145409 -0.124341 0.061997 -0.172559 0.133439 0.056310 0.106598 -0.000499 0.050958 -0.107116 0.159170 0.095007 0.129003 0.068028 0.014586 0.120284 -0.012606 -0.063584 -0.018604 0.008558 0.087308 0.171918 0.194339 0.266992 -0.168556 0.047670 0.028844 -0.160228 0.002393 -0.126787 0.041969 -0.347207 -0.031249 0.194384 0.122914 -0.020754 0.207389 0.306028 0.181909 0.056021 0.074214 -0.086133 0.129717 -0.049934 -0.064604 0.027663 0.050503 0.021969 0.106311 0.025227 -0.184085 0.197569 0.028484 0.056171 0.086526 0.110750 -0.214844 -0.193544 0.101155 0.177391 -0.049408 0.092433 -0.168734 -0.052775 -0.121590 0.253593 -0.173584 0.164441 0.105207 -0.100661 0.130527 0.198627 -0.300812 0.020405 0.162244 0.035739 0.096091 -0.006463 0.203337 0.023407 -0.084945 0.230728 -0.175826 0.099949 -0.044184 -0.283461 -0.138009 -0.103730 -0.358411 0.054598 0.059217 0.104327 0.021528 -0.224327 0.320651 -0.012087 0.027409
304 -0.253015 -0.272504 0.041600 0.071971 -0.138528 0.043861 0.037403 -0.079537 0.054013 -0.027167 0.111309 0.186841 0.001483 -0.046301 0.059813 0.011013 0.109800 0.004393 0.005437 -0.089795 -0.030763 -0.332712 0.069883 0.011828 -0.058856 -0.156181 -0.015581 0.166762 -0.133403 -0.121508 0.125494 -0.019329 0.060304 -0.157733 -0.059203 0.138043 0.136459 0.006951 0.015525 0.054698 0.140484 0.239974 0.145417 -0.052851 0.123405 -0.017523 -0.000664 0.010052 -0.099668 -0.175987 -0.082332 -0.059496 0.009442 0.234269 0.196201 -0.049801 -0.182631 0.002574 -0.205833 -0.126586 -0.152211 -0.163893 -0.009624 -0.017807 -0.006346 0.070053 -0.233309 0.096223 0.185786 0.011026 -0.045092 0.114037 0.217066 -0.057309 0.218563 -0.082665 0.093414 0.089321 0.055268 -0.256923 -0.057783 -0.088480 0.008076 -0.070088 0.141080 0.070775 -0.010739 0.144276 0.078690 0.094763 0.037931 0.209039 0.015982 0.203405 0.318456 0.133713 0.182733 0.045097 -0.066853 -0.170754 -0.151113 0.130261 0.127073 0.208788 0.166340 -0.064812 0.272232 -0.065994 0.077300 0.139621 0.049589 0.190406 0.031969 0.052106 -0.006428 0.164531 -0.044643 0.035065 0.100061 -0.051238 0.083516 0.159354 -0.208327 -0.131161 0.098930 -0.131211 -0.028450 0.009737
479 -0.103303 0.003810 -0.024185 0.360662 -0.159083 -0.105165 0.194487 -0.170298 -0.246896 -0.033384 -0.014613 0.083442 0.087875 0.036281 -0.138710 -0.050211 -0.046309 -0.153894 -0.026828 0.050234 0.159597 -0.062867 -0.209498 -0.234027 0.155122 -0.040218 0.205169 -0.193670 -0.011769 0.079041 -0.201797 -0.135938 -0.068005 0.031397 0.037590 0.287167 0.141160 -0.022528 0.069368 -0.040053 0.027164 0.197796 0.055727 -0.067925 0.117276 0.265857 -0.056494 -0.218418 0.117469 -0.170131 0.204969 0.057255 -0.023886 -0.018323 0.036628 -0.173467 -0.085646 0.264122 -0.126548 -0.244209 0.052123 -0.080002 0.020271 0.071242 -0.245872 -0.124559 0.024168 0.047108 -0.020228 0.090643 0.242776 0.005969 -0.075632 0.059565 -0.030370 0.149296 -0.082391 0.198918 0.000020 -0.060188 -0.086227 -0.063514 -0.055661 0.009846 -0.120400 -0.092720 -0.080195 0.200140 -0.174468 0.049190 -0.094249 -0.016942 0.008565 -0.185655 0.018003 0.253514 0.069768 -0.020775 -0.073392 0.153998 -0.289077 0.017476 0.182599 -0.063025 0.136310 -0.000572 -0.036500 -0.218657 -0.003001 0.169642 -0.112651 -0.187908 0.126597 0.078194 0.049405 -0.034916 0.035430 0.133475 -0.033569 -0.380394 0.148906 0.168464 -0.077293 -0.090728 -0.074565 -0.104112 0.288570 0.065722
231 0.004459 -0.045550 -0.081387 0.066939 0.149718 -0.129501 0.080565 -0.024073 0.163907 0.164056 0.084249 0.142197 -0.149169 0.084185 0.189260 -0.018040 0.186012 -0.043915 -0.199464 0.057059 0.031820 0.040789 0.128784 -0.088738 0.202494 0.014359 -0.076467 -0.146573 0.207880 -0.157888 0.260508 -0.005962 0.168771 -0.021352 0.139201 -0.027561 0.096475 -0.005631 -0.263913 -0.100648 0.252701 0.250210 0.083361 0.120763 0.090885 0.009743 0.071418 -0.152002 -0.007278 -0.082764 -0.109573 0.011945 0.147713 0.130460 0.161579 -0.004283 0.100183 -0.020259 0.007387 -0.001297 0.091719 -0.239543 -0.026788 0.011073 0.168787 -0.110680 0.110199 -0.095511 -0.020377 -0.190636 0.114136 -0.061861 0.024295 -0.145135 0.099933 -0.027424 0.204686 -0.008516 0.233009 -0.188010 -0.196200 -0.164271 0.012648 -0.045284 0.195277 0.031659 0.180300 0.006992 0.006208 -0.176020 -0.025508 -0.144525 0.024517 0.155267 -0.221855 0.121832 -0.028142 -0.162670 0.191673 0.042714 0.091662 -0.026155 0.019108 -0.209632 -0.078627 -0.006542 0.050173 0.205399 0.048708 -0.016211 0.018463 -0.130567 0.095509 -0.198314 0.153856 0.172312 0.102439 0.368491 0.125702 -0.005236 0.096811 -0.032013 -0.086104 -0.078238 0.057279 0.150802 0.022891 0.018294
346 -0.132468 -0.153223 -0.003434 0.048991 0.047674 0.116358 -0.205003 -0.180465 0.100931 0.077252 -0.142950 0.165998 0.073831 -0.318764 -0.097942 0.021105 -0.069613 0.042449 -0.046015 0.054057 0.239503 -0.145825 -0.221903 -0.153878 -0.017719 0.053886 0.216504 0.015145 0.055856 0.063467 0.264411 -0.243428 0.017396 0.161981 0.311401 0.004884 0.147972 0.046052 0.108380 -0.033714 -0.049604 0.007115 -0.012826 0.260452 -0.026225 -0.135151 0.244553 -0.229196 -0.017455 -0.152443 -0.196430 0.143089 0.357400 0.038005 -0.170457 -0.142975 0.005601 0.032638 -0.193731 0.131733 -0.105544 0.001455 0.051584 -0.042460 0.069617 0.006773 -0.017397 0.112312 0.014662 0.009649 0.009268 -0.135711 0.144991 -0.024240 0.081884 -0.058251 0.036958 0.021034 0.056610 0.021922 -0.004586 0.005489 -0.032460 0.079415 -0.108704 -0.129851 0.208722 0.103082 0.040921 -0.052030 0.117957 0.006720 0.029119 -0.033077 -0.007101 0.103462 0.025979 -0.082255 0.222185 -0.084039 -0.219154 0.174327 0.124657 0.060283 -0.006061 -0.003515 0.185957 0.103058 0.047281 0.137139 -0.017659 -0.210223 0.097792 -0.063400 0.230338 0.089368 -0.052943 -0.156568 -0.165401 -0.073737 0.337695 0.034382 0.015790 -0.197918 0.133100 -0.253442 0.156678 -0.236629
196 -0.010503 -0.232043 0.044538 -0.108289 0.280875 0.016909 0.034633 -0.117977 0.246627 0.097990 0.213316 0.092993 0.126206 -0.113758 -0.145369 -0.217884 0.450484 -0.015715 0.018858 0.267985 0.169200 0.058051 0.041014 0.054139 -0.017310 -0.043051 0.143716 -0.023118 -0.088635 0.121101 -0.052144 -0.126571 0.191569 0.095432 0.029718 0.070578 0.065401 0.092352 -0.127790 0.029150 0.080124 0.051893 0.069175 0.044691 -0.086220 0.029242 0.016257 0.025483 0.065998 -0.119023 -0.060069 -0.046770 -0.030079 0.067521 0.098063 -0.065690 -0.329770 -0.132567 0.027912 0.067691 -0.052773 0.010674 0.075519 -0.134591 -0.093617 0.064684 -0.081617 -0.067857 -0.163879 0.038555 0.198161 0.097759 -0.178509 -0.324237 -0.169519 0.147558 0.150702 0.050034 0.183159 0.051256 0.082767 -0.121137 0.000497 -0.072831 -0.129916 -0.008956 0.154497 -0.059776 0.073217 0.086247 0.003357 0.005353 0.132340 -0.036925 -0.016057 -0.149400 0.167823 -0.027999 -0.055734 -0.042121 -0.098443 0.190551 -0.096162 -0.167024 0.036230 0.157876 0.147526 -0.142075 0.194731 0.185587 0.090446 0.085614 0.251280 0.204260 0.012726 0.170038 -0.119396 0.044687 0.193620 -0.233306 0.035373 0.018856 0.004198 -0.104057 -0.081921 -0.021334 -0.052147 0.145438
93 -0.080154 0.124125 0.014314 -0.036658 0.072132 -0.085356 0.070668 0.127514 0.146793 0.381838 0.027257 0.058439 -0.094571 -0.028296 0.056528 -0.216124 -0.224567 0.055968 0.183368 0.105477 0.234654 -0.088080 -0.092497 -0.153815 0.017592 0.135950 -0.081320 0.165796 -0.087188 -0.119096 0.046320 0.139484 -0.086288 -0.066304 0.113233 -0.082853 0.114116 -0.105538 0.008344 -0.005105 0.056249 0.069892 -0.066943 0.059219 0.100562 -0.013369 0.076540 0.076018 0.081368 -0.022148 -0.063210 0.048192 -0.014243 0.246408 -0.071926 -0.058463 0.047118 0.229394 0.071457 0.031176 -0.096153 -0.111554 0.017700 -0.114280 -0.086832 0.008770 -0.143484 -0.113443 -0.093915 -0.058537 0.005082 0.066406 0.303599 -0.075130 0.230727 -0.088779 0.121674 -0.045428 0.127921 0.125589 -0.109914 -0.001886 0.020652 -0.249053 0.154852 0.080311 0.077365 -0.063155 0.121306 0.112914 0.094616 0.034171 0.157724 -0.150111 -0.121981 0.015713 0.091628 -0.154087 0.044685 0.119923 0.104037 0.124235 0.090244 0.044167 0.233926 -0.030805 -0.046053 -0.072662 -0.032842 0.210207 0.256079 -0.142576 0.020573 -0.279810 0.119758 0.028253 0.197889 0.075194 -0.134920 -0.231167 0.163271 -0.196519 -0.020983 -0.093732 -0.100657 -0.277390 0.114759 0.007682
415 0.106141 -0.116524 -0.007307 -0.017223 0.206526 0.046602 0.028312 -0.090252 -0.012206 0.063385 -0.076107 0.189665 0.030367 -0.169735 -0.137926 -0.003175 0.009791 -0.107556 0.027460 0.090957 0.114505 -0.128423 0.021420 -0.177323 0.148334 -0.023874 0.015059 -0.321128 -0.176663 -0.064216 0.115376 0.109636 0.034348 -0.083235 0.015507 0.041937 -0.200225 -0.013119 -0.199051 0.165760 0.352026 0.114247 0.249944 0.120034 -0.002499 0.180462 0.073980 -0.105436 -0.040364 -0.116031 0.023818 -0.084596 0.220466 -0.006140 -0.006725 0.350435 -0.129147 0.181764 0.012932 0.087424 0.012531 -0.129734 -0.125055 -0.016578 0.005945 0.248990 0.068439 0.174353 -0.165496 -0.018714 -0.076947 -0.086246 0.186938 -0.149542 0.135537 0.019888 0.023222 -0.041396 -0.073364 -0.286270 0.026104 0.034776 0.026499 -0.087086 -0.157674 0.168550 0.189462 -0.146626 0.153112 0.005661 0.047519 -0.114715 -0.085522 -0.025849 -0.221524 0.001537 0.189269 -0.008225 0.037372 0.082522 -0.028375 0.103009 0.205215 -0.117777 0.077235 -0.186028 0.119001 0.049895 -0.041849 0.025393 -0.100853 0.141711 -0.002903 -0.201022 -0.065108 0.046154 0.038036 0.326913 0.039843 -0.159381 0.005988 0.154266 -0.186600 -0.115034 -0.042147 -0.158661 0.050981 0.118973
328 -0.189955 0.117969 -0.182821 0.039032 -0.066050 0.101328 0.176669 -0.002856 -0.066180 -0.002490 -0.063480 0.019629 -0.063952 -0.108284 -0.120177 -0.106529 -0.194928 -0.052639 -0.137337 0.245322 0.005903 -0.034493 0.236040 -0.026374 0.049141 -0.060009 -0.123057 -0.136730 -0.139457 -0.045270 -0.017800 -0.178095 -0.104072 -0.023464 0.094844 -0.163797 0.158528 -0.156678 -0.060967 -0.057733 -0.109273 0.098529 -0.034565 0.157542 -0.027826 0.186505 -0.007414 -0.037505 0.079913 -0.209666 -0.248122 -0.142331 0.056723 0.032014 0.026681 0.044050 0.125150 -0.066649 0.059983 0.234564 0.100636 0.075467 -0.086344 -0.112728 0.037392 0.172199 -0.097801 -0.052986 0.049683 0.258070 -0.146660 -0.138235 0.019855 -0.219673 0.087376 -0.164892 0.045892 0.094889 -0.052516 -0.238639 0.053547 -0.224705 -0.255372 0.121564 -0.091267 -0.202729 0.079897 0.121411 -0.073509 0.054652 0.176555 -0.168214 0.019761 -0.106420 -0.237494 0.068401 0.054852 -0.389388 0.142471 -0.008420 -0.050460 0.290664 0.113741 -0.094230 -0.048581 -0.010956 -0.020652 -0.154832 0.181261 0.080787 0.035802 0.149099 -0.153010 -0.067773 0.064081 -0.182465 -0.211590 0.007726 0.237378 -0.022784 0.056294 -0.108029 -0.110849 -0.098058 0.016720 0.042993 -0.030268 0.176543
412 -0.085440 -0.007610 0.148054 0.258471 -0.105218 -0.289398 -0.011178 -0.177930 0.077070 0.045006 0.078780 0.075872 0.121986 -0.194566 -0.147902 -0.222092 -0.047295 0.064577 -0.056110 -0.095730 0.092133 -0.140301 -0.110899 0.085471 -0.016087 0.023551 -0.098916 -0.058575 0.120816 -0.085149 0.218708 -0.083986 -0.184411 -0.044127 -0.045608 -0.035192 0.110064 0.164572 -0.139736 0.178852 -0.003666 0.270023 -0.014514 -0.106853 0.270197 0.287813 0.116594 -0.187636 -0.044679 -0.183053 -0.129406 -0.008585 0.040264 0.093189 -0.236516 0.010035 -0.242884 0.242804 0.063876 0.195485 -0.004068 -0.025043 -0.123872 -0.179028 0.042887 0.082023 -0.134351 0.142461 0.061064 -0.129876 -0.012560 0.159349 0.101301 -0.028967 0.130473 -0.142101 0.026996 -0.014299 0.132209 -0.044084 -0.186710 -0.053180 -0.043560 -0.117401 -0.051250 0.118609 0.108972 0.080398 -0.126626 0.011538 0.047475 -0.114062 0.258683 0.198365 -0.024699 0.094448 0.167868 -0.078654 -0.124861 -0.079828 -0.246425 0.044481 0.198619 -0.100370 0.273738 0.123503 0.081060 -0.218772 -0.043578 -0.048688 -0.058331 -0.000766 -0.255574 0.114420 0.176107 0.008061 -0.006315 -0.028759 -0.013302 -0.227870 -0.112344 0.123229 0.047038 0.033920 0.090676 0.164097 -0.026971 0.114811
161 0.150718 0.054410 -0.058611 -0.067319 -0.078896 -0.168674 -0.160131 0.073317 0.206265 0.066373 -0.027474 -0.098194 -0.037789 0.052292 -0.030995 0.042267 -0.084309 -0.249213 -0.089086 0.008490 0.016321 0.099841 -0.091500 0.185284 0.121691 0.128526 -0.079291 -0.100500 0.110198 0.032905 -0.012462 0.079431 -0.001031 0.013150 0.035649 -0.041599 0.183493 -0.128074 0.034102 -0.101513 -0.102785 0.089995 0.093820 0.118130 0.038977 0.379418 0.115658 0.200182 -0.115538 -0.140008 -0.170313 -0.216783 0.316494 0.185924 0.015846 -0.041010 0.077195 0.135148 -0.103820 -0.034158 -0.172136 0.211689 -0.089325 -0.199078 -0.237824 0.123339 0.004464 0.072590 -0.076458 -0.118143 -0.002471 -0.292235 -0.088766 -0.027055 0.079319 0.010894 0.165712 0.007449 -0.095933 0.063139 -0.163189 0.205502 -0.177485 -0.167572 0.037726 -0.061538 0.120981 -0.064893 0.173598 0.109178 0.318925 0.169095 -0.019309 -0.103494 -0.049596 0.146521 0.072622 -0.300826 -0.136755 -0.112079 0.062160 -0.055617 0.033370 0.050866 0.003488 0.281958 0.078941 0.056446 0.133299 0.216182 0.388807 0.060576 -0.079082 0.163530 0.129839 -0.097403 -0.244997 0.156372 0.006296 0.013403 0.013594 0.054028 -0.080929 -0.000861 -0.115015 -0.047290 0.106184 -0.273550
284 -0.029867 -0.007861 -0.067109 -0.000338 0.122473 0.130608 0.138656 -0.009757 -0.054164 -0.072543 -0.022421 0.110804 0.043453 -0.022265 -0.193166 -0.198344 -0.063474 -0.044544 -0.205708 0.237140 0.037419 0.069651 -0.024673 0.109867 0.194079 0.036874 0.024631 0.006518 -0.070774 -0.129316 -0.286685 0.022297 -0.082591 0.063961 -0.112863 -0.143244 0.133071 -0.006182 -0.215102 0.218495 0.191982 0.107225 0.031405 0.026758 -0.118294 0.168317 0.044643 -0.092072 -0.186532 0.151447 0.134694 0.067247 0.190212 0.072197 0.026802 0.225877 0.103004 0.219138 -0.100823 -0.025543 -0.044213 -0.145558 -0.103824 0.114690 0.078124 0.082834 -0.021285 -0.102838 0.017682 0.023446 0.061929 -0.062465 0.062697 -0.109936 -0.053744 0.011162 -0.100125 0.200360 0.166326 -0.044908 0.082188 0.096240 0.090069 0.094103 0.121245 0.043862 0.056402 -0.041937 -0.094222 0.115571 0.029789 0.112784 0.250626 -0.063752 -0.092838 -0.163859 0.338676 -0.236083 0.048800 0.123770 -0.166977 -0.043999 0.021474 0.144123 0.057518 0.029551 0.187537 -0.075251 -0.245019 0.195265 0.152858 -0.101939 0.006667 -0.258899 0.011137 0.062211 -0.047034 0.150644 -0.328661 0.093352 0.247569 0.097348 -0.049622 -0.256320 0.029076 0.022088 0.022392 0.106163
474 -0.097658 -0.108101 -0.178203 0.129648 0.067705 -0.121291 0.185830 -0.093569 0.003503 0.242320 0.116882 0.251051 0.024734 -0.241759 -0.031966 0.114717 0.050205 -0.246945 0.007178 0.208703 0.041222 -0.023241 -0.040439 0.090143 -0.070815 -0.199270 -0.208221 -0.210054 -0.004140 0.061771 0.122321 0.045636 -0.149463 -0.080176 0.204041 -0.222513 0.236063 -0.257049 0.010147 0.051675 -0.027905 -0.086614 0.126716 0.047469 -0.309429 -0.069603 -0.258279 -0.116720 0.030655 0.197876 -0.043334 0.014852 0.240336 0.241514 -0.085204 -0.004745 0.085065 0.103548 -0.056366 -0.081435 0.126093 0.098164 -0.036066 -0.085016 0.200264 0.069191 -0.055687 -0.312585 -0.054992 0.125903 -0.061019 0.239908 0.057804 -0.113835 0.044761 0.105127 -0.118775 0.008258 0.252844 0.064420 0.056417 -0.208419 -0.131738 0.000855 -0.080054 0.073276 0.115777 0.156405 -0.012082 0.016702 -0.027855 0.214502 0.081993 0.033335 -0.160403 0.111480 0.015534 -0.151391 0.044350 0.098387 -0.007515 -0.041525 0.008056 0.238915 -0.063226 0.419844 0.272732 -0.183284 0.104057 0.238080 0.113625 -0.096246 0.073395 0.200602 0.079471 0.156753 0.152825 -0.011714 -0.147827 0.081280 -0.081611 -0.107405 0.008605 0.000651 0.173603 0.061376 0.028956 -0.101940
144 0.006394 -0.114541 -0.094460 0.080199 0.057462 0.010304 0.023525 0.068405 -0.285443 0.027880 -0.017378 -0.075925 -0.082568 -0.090285 -0.075975 -0.021159 -0.143244 0.002239 -0.302668 -0.119125 0.088932 -0.082373 0.140991 -0.058746 -0.141514 -0.043569 -0.044974 -0.122149 0.004009 -0.092839 -0.100867 0.048216 0.102045 -0.035786 -0.078710 -0.282298 0.070501 -0.185129 0.166205 -0.009148 0.243458 0.122508 0.069209 0.120889 -0.056504 0.143358 0.127383 0.062375 -0.105634 -0.171767 -0.133770 -0.108770 0.039822 0.127054 -0.063229 -0.047241 0.095750 0.040215 -0.009725 -0.280984 -0.078907 -0.154508 -0.010273 -0.007225 -0.174554 0.185834 -0.084326 -0.078887 -0.137579 0.105364 0.065899 -0.074729 -0.186586 -0.244283 0.016780 0.261138 0.304965 0.139843 0.221301 -0.045256 0.114119 0.088513 0.105354 -0.003091 -0.075242 0.194283 0.209639 0.057950 -0.022220 0.123364 0.160440 0.019873 -0.028729 -0.075570 -0.086678 -0.020706 0.083671 -0.079677 -0.210642 0.189771 -0.105795 0.024413 0.176063 0.183494 0.097541 0.060876 0.086849 -0.165028 0.151568 0.112802 0.243859 0.058343 0.062758 -0.005573 0.099499 -0.224791 -0.212549 -0.095261 0.081909 -0.129308 -0.066534 0.129571 -0.237239 0.023517 0.006932 -0.121191 -0.185244 0.101903
