1000 256
278 -0.047215 -0.145429 -0.103348 -0.160531 0.124043 0.070073 0.088084 -0.064597 0.091611 -0.073808 0.049035 0.032166 -0.087463 -0.008604 0.040190 0.126072 0.084696 -0.016550 -0.245219 0.188489 0.074510 0.050009 0.082549 0.102333 0.074627 0.196342 -0.049796 0.073553 -0.226634 -0.020815 -0.002606 0.038884 -0.199619 -0.075590 0.108280 -0.059457 -0.039956 -0.033626 0.078342 -0.058978 -0.065802 0.165149 0.139716 0.129032 0.051997 0.073953 0.146669 -0.012424 -0.047684 -0.221105 -0.001278 0.091942 -0.046551 0.129583 0.057071 0.031825 -0.043324 0.066493 0.032333 -0.046557 0.134564 -0.009434 -0.028270 -0.166847 -0.092641 0.255623 -0.014310 0.013527 0.014022 0.149339 0.169516 0.080767 0.065996 -0.038262 0.247428 0.073059 -0.159867 0.199433 -0.037524 0.172235 -0.150053 -0.250263 -0.086750 0.072947 0.107297 -0.091935 -0.025291 -0.038456 -0.078428 -0.105789 -0.031242 -0.220187 0.154976 -0.010609 0.035989 -0.141728 0.193629 -0.187758 -0.126651 0.115847 -0.232729 0.342601 0.038019 0.190299 0.201771 -0.043769 0.080816 -0.056319 0.024717 0.056665 0.263771 0.006076 0.115693 0.145970 -0.018574 -0.009172 -0.277445 0.453419 -0.110088 -0.147350 0.035598 0.054864 0.103716 -0.014231 0.276757 -0.225341 0.077206 -0.005987 -0.020618 0.115140 0.045693 0.022296 -0.022338 0.032456 0.090172 -0.110149 -0.084100 0.049701 0.104127 0.074790 -0.177315 -0.016173 -0.032440 -0.128752 0.096272 -0.145758 -0.059261 0.099280 0.075385 0.117051 -0.030733 0.009813 0.094084 0.089861 0.015213 0.027645 0.065287 -0.021292 -0.041130 -0.059144 -0.090688 -0.041728 0.000365 -0.014315 0.003152 -0.006927 -0.063320 0.035059 -0.016807 -0.094043 -0.042350 -0.035256 0.081181 0.046139 -0.060640 -0.120596 0.012107 0.008934 0.093687 -0.059082 0.069060 0.045325 -0.017098 -0.045874 -0.063008 0.076366 0.050591 -0.003558 -0.042622 -0.009959 0.033393 -0.074365 -0.017424 -0.051902 0.137555 0.162591 -0.015667 0.127367 -0.057575 0.029877 -0.018316 0.092773 -0.024779 0.010060 0.002044 0.032978 0.027799 -0.107594 0.000554 0.033828 0.077822 -0.144301 0.085277 0.126011 -0.159798 0.172129 -0.089209 0.120585 0.116959 0.032525 0.096129 0.036144 0.111539 0.114833 -0.059782 -0.063183 0.085630 -0.051426 -0.023957 -0.018848 -0.002422 -0.041980 0.149562 0.097103 0.007085 0.064283 0.111089 -0.076354 -0.069522 -0.082736 0.077137 0.040335 0.027178 0.030084 -0.073067 0.015605 0.082407 -0.005051 0.050322 0.033446 0.022826 -0.036688 0.021327 0.050299 0.029845 -0.012208
274 0.083038 -0.009721 -0.255659 -0.078688 0.028801 -0.154717 -0.049702 -0.055260 0.089886 0.237312 -0.044090 0.121642 -0.222285 -0.056976 -0.120589 -0.062306 0.277015 -0.189915 -0.153887 -0.069708 -0.028190 0.241507 -0.038283 0.008076 0.234974 0.067214 -0.166598 -0.061618 0.280347 0.119747 -0.069089 -0.186693 -0.169110 0.190110 0.011371 0.057015 0.078802 0.096367 -0.116058 0.210462 0.034041 0.060375 0.082876 -0.005645 -0.098602 0.220114 0.141627 -0.127460 -0.040925 -0.016424 0.050408 0.032244 -0.166873 0.046662 0.247638 0.089342 -0.087662 0.045507 -0.227099 0.069395 0.057623 0.049930 -0.042004 -0.053509 -0.054703 0.079533 0.204528 0.023626 -0.023678 0.113789 0.222345 -0.025368 -0.027401 -0.082598 0.045042 -0.058455 0.123303 0.173649 0.086304 -0.010737 0.159892 0.018218 0.144319 0.023183 0.069613 0.212191 0.259405 0.068506 -0.011434 0.115446 0.124821 0.243931 0.066702 -0.099551 0.025447 -0.025708 -0.103201 0.039366 0.011988 0.049246 -0.210407 0.190001 -0.006523 -0.295683 -0.125284 0.090406 0.244405 -0.076494 0.020524 0.075373 -0.081650 0.000550 -0.013727 -0.037867 0.084769 0.097228 0.114514 0.136049 0.054543 -0.261083 0.085599 0.071816 -0.059620 0.132618 -0.046577 -0.038275 0.026698 -0.006248 0.004624 -0.032824 -0.074628 0.028778 0.142521 0.018582 -0.005796 -0.005002 0.010986 -0.123427 -0.004055 -0.001468 -0.019076 -0.076319 -0.027015 0.014170 0.021581 -0.196375 -0.189029 0.090322 0.166515 0.083206 0.076347 -0.033650 0.057649 0.066210 0.049986 0.009193 -0.136175 -0.081469 0.025207 -0.070892 0.029886 0.017200 0.017908 -0.014197 0.008206 0.060158 -0.028592 0.067719 -0.060870 0.079428 -0.126365 -0.061336 -0.013741 0.106571 0.041469 -0.000290 -0.059371 -0.028808 -0.078928 0.165780 0.052901 0.138795 -0.061554 -0.001495 -0.107615 0.017990 -0.083862 0.008970 0.039522 -0.015174 -0.035205 -0.092316 -0.045431 -0.028862 0.105526 -0.014413 -0.033263 0.066429 0.049975 -0.155307 -0.057084 -0.040962 0.060913 0.077788 0.063048 -0.108336 0.058242 0.017956 0.003717 -0.008271 -0.146150 0.113126 -0.027704 0.080169 0.086380 0.039519 -0.105467 0.020669 0.059216 0.109109 -0.006471 0.117676 0.026120 0.021609 0.005774 0.057352 0.059120 -0.039396 -0.049214 -0.004338 -0.028881 0.045853 0.108338 0.068268 0.076990 0.014630 -0.078592 0.037610 -0.124350 -0.059459 0.090643 0.003916 0.024677 0.001971 0.093106 0.090645 0.015280 -0.011572 -0.128447 0.074229 -0.058873 -0.080422 0.023665 0.001565 0.071639 -0.023856
493 -0.089657 -0.109454 -0.014586 0.022283 -0.151967 -0.214132 0.337362 0.087116 0.172438 -0.076473 0.094874 0.040189 0.059928 -0.165826 -0.004024 0.142542 0.239824 -0.039479 -0.291853 0.142503 0.044828 -0.054152 -0.112973 0.063422 0.026066 0.132100 0.038055 0.021575 -0.190256 -0.143213 0.073946 -0.091266 -0.031503 -0.247298 -0.007551 -0.246603 -0.148325 0.094903 -0.194950 -0.080692 0.100413 0.021451 0.095512 -0.104138 -0.008214 -0.039469 0.118233 -0.069162 -0.151097 -0.115432 0.204987 0.094610 -0.234300 0.185010 -0.147564 -0.178397 0.073050 0.034739 -0.109821 0.084493 -0.014167 -0.226117 0.080595 -0.052829 -0.084189 0.011686 -0.122490 -0.170668 -0.099855 0.230998 0.024880 0.037718 0.059752 -0.234568 0.213230 -0.082248 0.035922 0.045697 0.146783 -0.186839 0.135546 0.045501 -0.001048 0.196890 -0.076614 0.078882 0.076380 -0.163569 -0.037326 0.128332 0.054476 0.121728 -0.077617 0.094784 -0.111325 0.193895 -0.028093 -0.088381 0.321456 0.055619 -0.234485 -0.081255 -0.297325 -0.038446 0.143940 0.119175 0.129545 -0.046077 0.166248 0.056915 0.084665 0.195197 -0.169753 -0.245608 -0.046424 0.105475 -0.046365 0.048646 -0.236684 -0.083025 0.246153 0.061308 0.055367 0.010217 0.047953 0.017977 -0.012989 0.025807 -0.203037 -0.081964 0.040798 0.093694 -0.168740 -0.067185 0.075047 0.128495 -0.017165 0.055083 0.003152 -0.086211 0.040777 -0.085006 0.003836 -0.104447 -0.035316 0.011511 0.076204 -0.031937 0.059362 0.071835 -0.037664 0.030102 -0.096252 -0.050088 -0.038360 -0.032542 -0.011200 -0.074995 0.026197 0.056490 -0.058715 -0.010091 -0.029494 0.057947 0.020449 0.071265 -0.038254 -0.152093 0.016957 -0.132051 -0.001416 0.049681 0.007344 0.010561 0.015319 -0.114174 0.049467 0.076349 0.052610 -0.038476 0.104299 -0.025132 -0.157182 -0.067839 0.010480 -0.117713 -0.115618 -0.018370 -0.109856 -0.023396 0.052984 -0.074225 0.057056 -0.054133 0.151787 0.098455 -0.025373 0.058083 0.012002 -0.030474 -0.098463 -0.099052 0.009790 0.058343 0.126558 0.112902 -0.057418 -0.069172 -0.156623 -0.017394 0.065898 0.043703 0.053841 0.119721 0.063884 0.112031 -0.034524 -0.008036 0.140501 0.008713 0.087870 -0.089967 -0.032099 0.075690 -0.067922 0.005700 0.101291 -0.120403 -0.079924 -0.140579 0.027637 -0.023196 0.015507 -0.015194 -0.115729 -0.083953 0.009175 -0.111308 0.031321 -0.051466 -0.070273 -0.083054 0.143162 0.027122 0.012018 0.140040 -0.028827 0.072003 0.047770 -0.020546 -0.040091 -0.100817 -0.019557 0.099469 0.043300 0.068558
442 -0.033497 -0.025113 -0.110914 0.072888 0.166575 -0.125618 0.097295 0.202821 -0.066241 0.114200 0.042013 0.103760 0.101049 -0.286665 0.163823 -0.146554 0.067750 0.107526 -0.136735 0.188077 0.210233 0.104157 0.033415 0.053415 0.089853 -0.264464 0.071724 0.080038 0.059624 -0.121356 0.189405 0.076796 0.344296 0.021587 -0.038646 0.016715 0.079935 0.076274 -0.051878 0.063151 0.072786 0.311413 0.074563 0.067469 0.007056 -0.002949 0.023147 -0.051635 0.029045 0.033116 -0.040220 0.084965 -0.009426 0.175347 -0.143045 -0.058775 0.042824 0.105303 -0.329315 0.056378 0.038995 0.059034 0.061034 -0.097163 0.052802 0.082963 -0.009676 -0.265746 -0.075236 -0.030707 0.118706 0.282792 -0.254077 -0.084021 0.084497 0.011063 0.075371 0.131375 0.072759 -0.034625 0.262045 0.137778 -0.038884 0.003926 -0.041889 -0.021461 0.015104 0.149749 -0.012370 0.036822 0.130902 -0.210535 0.037270 -0.139862 0.036248 -0.013972 -0.166903 -0.112061 0.084294 0.076550 0.049773 -0.036418 -0.097225 0.047744 0.075577 -0.040837 0.173222 -0.176900 -0.086206 0.061272 -0.092823 -0.198868 0.224717 -0.090512 0.210608 0.041856 -0.029773 0.165279 0.102100 -0.119421 0.241964 0.058279 0.095683 0.147742 0.222635 -0.013045 0.118487 0.004743 0.020767 0.023166 0.077396 0.002127 0.076487 -0.015827 0.015439 0.110760 0.005124 0.013353 0.063044 0.039523 0.041469 -0.041065 0.046323 0.069711 0.133518 -0.054524 -0.064558 -0.067744 0.078732 -0.012877 -0.070825 0.083795 0.007466 -0.067396 -0.063065 0.011419 0.128838 0.005632 0.086468 -0.100979 0.028454 0.022069 -0.015319 0.123588 0.102010 0.001842 -0.161988 -0.115103 -0.058025 0.049236 -0.029950 -0.064466 0.002381 0.020455 0.071947 0.116548 0.164282 -0.114939 -0.146412 0.065493 -0.035967 0.030722 0.040907 -0.046798 -0.004141 0.104115 0.056391 0.045276 0.121347 -0.007384 0.030123 -0.114497 -0.020418 -0.063423 0.050126 0.013070 0.125251 -0.003683 -0.048154 0.047271 -0.014179 -0.061615 0.006986 0.104242 -0.051538 0.018485 0.032985 -0.025618 -0.017502 0.020981 0.141386 -0.085553 -0.024416 -0.018914 0.043917 0.219323 0.056121 0.024155 0.054168 0.072051 0.096990 -0.047571 0.070228 0.087861 0.009298 -0.100003 0.165711 -0.025739 -0.085554 -0.135090 0.084725 -0.005800 0.096588 0.091502 -0.021884 -0.061083 -0.050754 -0.020432 0.022616 0.055467 -0.013671 0.017300 0.065363 -0.137526 -0.056323 -0.037083 0.139684 -0.067101 0.001036 0.001158 0.074861 -0.079704 0.055285 -0.165464 0.017954 0.106873
349 -0.140111 -0.101433 0.066657 0.039115 0.182114 -0.122805 -0.048130 -0.228145 0.161833 0.244238 0.215644 0.179020 -0.049099 -0.111022 -0.027385 0.005140 0.059161 -0.028656 -0.192314 0.110244 -0.096046 0.003431 0.234256 0.031245 0.175041 -0.070879 0.063199 -0.053346 -0.221528 -0.012368 -0.105008 -0.143649 -0.256039 -0.203096 0.019025 0.104553 -0.135317 0.064792 -0.054051 0.347114 0.135009 0.151618 0.019699 -0.067566 -0.124705 0.059451 -0.039131 0.125419 -0.144505 0.191211 -0.103295 -0.027373 0.125711 0.077206 0.021730 -0.097452 -0.033783 0.130884 -0.251193 0.122624 -0.080875 -0.202969 0.135839 0.102948 -0.210386 0.037801 0.090415 -0.013010 0.083564 0.006639 0.304136 0.074309 -0.044764 -0.118613 0.050410 -0.056165 -0.004214 -0.026609 0.049251 0.101864 0.040518 0.143699 0.030232 -0.097441 0.049902 0.060502 0.373883 -0.012907 -0.123278 0.011443 0.192661 0.004314 0.126610 0.082260 0.179538 0.009519 0.041037 -0.198262 0.089878 0.066822 -0.081517 0.013789 -0.226907 -0.008315 -0.038626 0.180706 -0.206612 -0.016913 -0.024369 0.064136 0.163970 -0.081086 -0.071226 -0.066347 0.109799 -0.221094 -0.073848 0.161415 0.047194 -0.185857 0.032964 -0.089069 0.051156 -0.008190 0.238580 -0.082076 0.018301 -0.428137 -0.020618 0.115140 0.045693 0.022296 -0.022338 0.032456 0.090172 -0.110149 -0.084100 0.049701 0.104127 0.074790 -0.177315 -0.016173 -0.032440 -0.128752 0.096272 -0.145758 -0.059261 0.099280 0.075385 0.117051 -0.030733 0.009813 0.094084 0.089861 0.015213 0.027645 0.065287 -0.021292 -0.041130 -0.059144 -0.090688 -0.041728 0.000365 -0.014315 0.003152 -0.006927 -0.063320 0.035059 -0.016807 -0.094043 -0.042350 -0.035256 0.081181 0.046139 -0.060640 -0.120596 0.012107 0.008934 0.093687 -0.059082 0.069060 0.045325 -0.017098 -0.045874 -0.063008 0.076366 0.050591 -0.003558 -0.042622 -0.009959 0.033393 -0.074365 -0.017424 -0.051902 0.137555 0.162591 -0.015667 0.127367 -0.057575 0.029877 -0.018316 0.092773 -0.024779 0.010060 0.002044 0.032978 0.027799 -0.107594 0.000554 0.033828 0.077822 -0.144301 0.085277 0.126011 -0.159798 0.172129 -0.089209 0.120585 0.116959 0.032525 0.096129 0.036144 0.111539 0.114833 -0.059782 -0.063183 0.085630 -0.051426 -0.023957 -0.018848 -0.002422 -0.041980 0.149562 0.097103 0.007085 0.064283 0.111089 -0.076354 -0.069522 -0.082736 0.077137 0.040335 0.027178 0.030084 -0.073067 0.015605 0.082407 -0.005051 0.050322 0.033446 0.022826 -0.036688 0.021327 0.050299 0.029845 -0.012208
7 -0.078695 -0.116434 -0.132944 0.084558 0.001023 0.061656 -0.083894 -0.085985 -0.124880 -0.123551 0.062192 0.065245 -0.109579 -0.152664 -0.257008 -0.000441 -0.011603 -0.129134 0.064680 0.086541 0.050249 0.088494 0.286832 -0.045034 -0.079738 -0.101170 0.071870 0.056890 0.022227 -0.077207 0.089356 -0.014751 -0.158331 -0.011987 -0.081233 0.374958 -0.057707 -0.125062 0.012975 0.179998 -0.147783 0.155575 -0.068254 -0.114820 0.011836 0.282425 -0.058139 -0.240323 -0.012802 -0.014038 -0.263574 -0.106739 -0.107204 0.165689 0.018978 -0.224687 0.139213 0.050195 -0.097077 0.004383 -0.044081 -0.068443 -0.036641 -0.173045 0.076246 0.232394 -0.073553 -0.142123 0.081121 -0.063168 0.069863 0.046863 0.127672 -0.015499 -0.006633 -0.060980 -0.000934 -0.061513 0.116886 -0.195544 -0.191478 -0.178818 0.067550 -0.001055 0.000232 0.023388 0.304589 -0.020797 0.021042 0.319990 -0.188984 0.094763 -0.007680 -0.090617 -0.091190 0.102608 0.030745 -0.119412 0.072928 -0.031042 -0.003482 -0.005020 0.135886 -0.112037 0.273588 -0.203337 0.087913 -0.037278 0.059067 0.254660 0.159421 -0.085673 -0.250274 -0.100542 0.194699 0.070120 -0.041034 0.141419 0.115240 -0.083645 0.177022 0.166193 0.204876 0.075803 -0.056094 -0.035325 0.198524 -0.070292 -0.091996 0.128019 0.006978 0.091997 0.045236 0.122007 0.013100 0.002563 -0.032862 -0.035905 0.071415 0.023361 -0.014052 -0.075816 0.007022 -0.045888 0.007157 0.089149 -0.060818 0.039804 -0.054467 0.042978 0.000088 0.111283 0.040562 -0.022686 0.021841 0.056038 -0.077402 -0.057725 0.022610 -0.049474 -0.078856 0.060030 0.008480 0.129203 0.197706 -0.081029 -0.121624 0.122325 -0.030353 0.039298 -0.077138 -0.029060 -0.042101 0.067253 -0.044794 0.018890 -0.095649 0.005518 0.029414 0.006215 0.050178 -0.088317 0.109951 0.025237 -0.032320 -0.018675 0.056591 0.080799 -0.043246 -0.040719 0.005264 -0.134792 0.010828 -0.068280 0.065520 0.062148 -0.022873 0.109695 -0.020215 -0.018451 -0.091236 -0.009699 -0.071609 0.003469 -0.066934 -0.126414 0.017337 -0.030486 -0.008333 0.019131 0.026893 -0.048276 -0.053812 0.049838 0.004460 0.003815 -0.017644 0.044442 0.119489 -0.018298 0.042554 0.097220 0.061874 -0.004070 0.050590 0.053626 0.121223 0.030231 0.053219 -0.059667 0.036754 -0.142217 -0.099200 0.042749 -0.008480 -0.135528 0.054015 0.115763 -0.000811 -0.028099 -0.066999 -0.049888 -0.037077 -0.031654 0.158835 0.043679 0.021235 -0.013231 -0.017955 0.054763 -0.156174 -0.086136 0.065367 0.016965 0.056671 0.012591
167 0.006765 -0.183911 -0.148759 0.092331 0.100060 0.013815 0.037050 -0.095361 -0.175223 0.172246 -0.277765 -0.014863 0.104743 0.154856 -0.183012 -0.054124 0.063500 -0.147825 -0.114738 0.096143 0.106159 0.047208 -0.080535 -0.087050 0.103665 -0.193796 0.009059 0.115319 -0.226107 0.220325 -0.060918 -0.131423 -0.134177 -0.178374 0.026936 -0.011742 0.018722 -0.065399 -0.185376 0.038345 -0.041469 0.328432 -0.015116 0.114138 -0.003149 0.068788 0.227336 -0.243434 -0.059282 0.025232 0.155182 0.221538 0.168133 0.141794 0.204147 -0.069131 -0.012873 0.311988 -0.178197 0.021185 0.055187 -0.040666 -0.077233 0.025394 0.070195 0.089354 0.053586 0.029929 -0.158266 -0.043030 0.124621 -0.104564 -0.097034 -0.136674 0.128160 0.104938 0.018971 0.118113 -0.099747 0.021509 -0.098128 -0.158478 0.023615 0.025457 -0.176017 -0.027569 0.182052 -0.096685 0.137773 -0.079524 0.211330 0.105592 -0.212265 -0.142191 0.033874 0.134990 0.125440 -0.136021 0.050611 0.122933 0.172889 -0.116476 0.053644 -0.039759 0.096735 0.126635 0.038034 -0.012846 0.113323 0.005301 0.087878 -0.132527 0.229636 -0.022355 -0.023366 0.144855 0.091410 0.214268 -0.052473 -0.042496 0.182174 0.066377 -0.000381 0.247725 0.156847 0.065703 -0.011803 0.112173 0.004624 -0.032824 -0.074628 0.028778 0.142521 0.018582 -0.005796 -0.005002 0.010986 -0.123427 -0.004055 -0.001468 -0.019076 -0.076319 -0.027015 0.014170 0.021581 -0.196375 -0.189029 0.090322 0.166515 0.083206 0.076347 -0.033650 0.057649 0.066210 0.049986 0.009193 -0.136175 -0.081469 0.025207 -0.070892 0.029886 0.017200 0.017908 -0.014197 0.008206 0.060158 -0.028592 0.067719 -0.060870 0.079428 -0.126365 -0.061336 -0.013741 0.106571 0.041469 -0.000290 -0.059371 -0.028808 -0.078928 0.165780 0.052901 0.138795 -0.061554 -0.001495 -0.107615 0.017990 -0.083862 0.008970 0.039522 -0.015174 -0.035205 -0.092316 -0.045431 -0.028862 0.105526 -0.014413 -0.033263 0.066429 0.049975 -0.155307 -0.057084 -0.040962 0.060913 0.077788 0.063048 -0.108336 0.058242 0.017956 0.003717 -0.008271 -0.146150 0.113126 -0.027704 0.080169 0.086380 0.039519 -0.105467 0.020669 0.059216 0.109109 -0.006471 0.117676 0.026120 0.021609 0.005774 0.057352 0.059120 -0.039396 -0.049214 -0.004338 -0.028881 0.045853 0.108338 0.068268 0.076990 0.014630 -0.078592 0.037610 -0.124350 -0.059459 0.090643 0.003916 0.024677 0.001971 0.093106 0.090645 0.015280 -0.011572 -0.128447 0.074229 -0.058873 -0.080422 0.023665 0.001565 0.071639 -0.023856
198 0.031281 -0.200432 0.109975 0.227994 -0.093539 0.060430 0.052478 0.061491 0.110110 -0.058487 0.015412 0.024242 -0.050763 -0.169690 0.042935 -0.085998 -0.022479 0.087500 -0.226168 0.116864 -0.103013 -0.021219 0.009934 0.033958 0.210896 0.002047 -0.091891 -0.168372 -0.134762 0.008288 -0.089297 0.202792 0.072235 0.042778 -0.101249 -0.020269 0.189382 -0.042744 -0.195034 0.320517 0.141076 -0.031914 -0.115865 -0.092852 -0.049271 0.138884 0.264426 -0.005161 0.037632 0.152027 -0.025522 0.058847 0.126857 0.131590 0.060523 -0.148208 0.057537 0.218280 -0.061000 -0.023630 -0.005687 0.110097 -0.198580 -0.161888 -0.017720 0.122478 -0.142705 -0.267119 -0.057867 0.212632 -0.001126 -0.155324 0.202506 -0.018437 0.128290 0.205346 -0.035368 0.022725 -0.028805 -0.010661 -0.071230 -0.108724 0.044501 -0.046399 -0.036562 -0.071842 0.187380 0.015733 -0.062477 0.029682 0.014958 0.060480 -0.005755 0.148886 0.023401 0.003121 0.011352 -0.017209 0.232806 -0.020193 -0.076164 0.160875 -0.070095 0.176309 -0.058455 -0.224268 0.261391 0.087103 0.252366 0.107516 0.120440 -0.110323 0.095497 0.206503 0.072445 0.278008 0.036046 0.355256 0.107240 0.083700 -0.000257 -0.093559 0.061177 0.039424 0.128851 0.024719 -0.043962 0.092067 -0.079146 0.037131 0.052834 0.131103 0.055925 0.141759 0.088453 0.056699 0.027008 0.077188 -0.069890 -0.091283 0.019311 -0.118518 -0.023048 -0.067413 -0.097196 -0.086120 -0.078146 0.027980 0.157030 -0.095592 0.125255 -0.065915 -0.030964 0.059438 0.000082 0.025521 0.066933 -0.029715 -0.068026 0.023968 0.080482 -0.089673 -0.020072 0.023647 0.112029 0.006290 -0.040688 0.054127 -0.041187 -0.002910 -0.056656 -0.131018 0.175017 0.069210 0.044748 -0.112584 0.052749 0.032556 0.073083 -0.054102 -0.097180 -0.071351 0.043917 -0.130636 -0.048004 -0.016507 0.023529 -0.068879 -0.009812 -0.072053 -0.130234 -0.117207 0.103609 -0.062372 -0.009523 -0.067809 -0.049279 0.012073 -0.114260 -0.053300 0.021660 -0.039164 0.066025 0.023944 0.147376 0.000210 -0.048650 -0.091874 0.036731 -0.045053 0.081155 0.189485 -0.045489 0.080554 -0.069481 0.069236 0.071903 0.032231 0.078388 -0.040099 0.049560 0.037251 -0.080453 -0.014220 0.042436 0.079614 0.026753 0.026609 -0.068694 0.039262 -0.043762 -0.039108 -0.099955 -0.007790 0.098240 0.011797 0.078865 0.035935 0.042105 -0.023896 0.041865 -0.026464 0.038550 -0.030395 -0.027981 0.021497 0.080628 -0.007069 -0.146817 0.092663 -0.015634 -0.063062 -0.041995 0.014177 0.073950 -0.057644
423 -0.040123 -0.029355 0.044943 -0.011613 -0.097787 -0.091506 0.208761 -0.300191 -0.025009 0.148042 0.032153 0.009718 0.119462 0.020076 0.078544 -0.269291 0.005712 -0.161875 0.136712 0.004354 0.063964 -0.181243 0.142236 -0.122694 0.078982 0.003807 -0.028306 -0.048033 -0.086372 0.021777 0.032390 -0.057727 -0.039712 -0.232343 -0.157513 -0.040389 0.144250 -0.057461 -0.087762 -0.093269 -0.083302 0.044077 0.222522 -0.143144 -0.146648 0.064825 0.153578 -0.079738 0.162876 -0.083607 -0.163095 0.072282 0.150513 -0.070593 -0.016076 0.206141 0.033434 0.015637 -0.130138 0.250646 0.219789 -0.132789 0.175873 0.019976 -0.052509 0.038215 0.071329 0.130534 -0.371045 0.075201 0.112221 0.033098 0.121161 -0.056632 0.117901 0.080114 0.062335 -0.169370 0.190450 -0.164353 -0.101579 -0.067930 -0.166942 -0.258213 -0.018303 0.018302 0.004584 -0.038766 0.048507 -0.004978 0.070566 0.104387 -0.161991 -0.256006 0.009208 -0.013326 0.009314 -0.096650 0.005646 -0.046930 -0.167305 0.020183 0.170384 -0.063164 0.225986 -0.079461 0.030666 -0.142132 0.016283 0.164567 -0.063517 0.053121 0.075226 -0.191993 -0.017723 0.082092 0.080353 0.107499 0.058217 -0.072923 0.225866 0.073404 0.219601 -0.017164 0.252124 0.009563 0.295376 0.195348 -0.091041 -0.028788 0.008335 -0.035011 0.086325 0.091668 0.003494 -0.028596 0.075327 -0.054163 0.179239 -0.064001 -0.001238 0.070861 0.022192 -0.165294 0.029805 0.039730 -0.067729 -0.007507 -0.029625 0.071807 0.037765 -0.001879 0.012577 -0.050887 -0.139571 -0.051091 -0.071107 0.000104 0.078426 -0.091788 0.062053 0.017272 0.000622 -0.034732 0.005989 -0.127025 0.042354 -0.087586 -0.006449 0.179453 -0.062424 0.074737 0.016796 0.025920 -0.023595 -0.052238 0.138127 0.063569 0.114415 -0.030397 -0.024119 -0.019915 -0.012801 0.020536 -0.006506 0.006817 -0.024161 -0.136601 0.030162 -0.070657 -0.036583 -0.060542 0.082185 0.008600 0.087397 -0.060446 -0.037736 0.069467 0.036492 0.032674 -0.095811 -0.024916 -0.094917 -0.058387 -0.031103 -0.084253 0.001151 -0.025147 -0.005840 0.060739 0.009516 -0.051923 0.011824 -0.013104 -0.031610 0.039519 0.043119 0.000677 0.177745 -0.069256 0.101014 -0.010211 0.019056 -0.006208 0.099866 -0.058689 0.085790 -0.074028 0.031108 0.067639 0.058607 0.022949 -0.067838 0.165374 0.074492 -0.089379 0.026828 -0.019291 0.097646 -0.122082 0.013113 -0.065804 0.024738 -0.015071 0.009425 0.113405 0.071553 -0.012358 -0.046016 -0.155406 0.065035 -0.014469 0.024088 -0.035765 0.075850 0.032292
467 0.166563 -0.376295 -0.011610 0.086548 0.312326 0.008444 0.224919 -0.066902 -0.028731 -0.151975 0.004094 -0.099016 0.005658 -0.052327 0.028250 -0.127164 -0.081310 0.105847 -0.094504 0.004015 0.036823 -0.124945 0.078629 0.022641 0.128120 0.101133 0.024745 -0.075286 -0.276873 -0.059085 0.196951 0.062561 -0.073579 0.039726 0.176049 -0.031430 0.127557 -0.157455 -0.258854 0.062163 0.112938 0.195260 0.036427 0.052713 -0.101004 0.047702 0.023049 -0.134638 -0.048068 0.019005 -0.135641 -0.074159 -0.174871 0.047203 0.021950 -0.322382 0.176443 0.150705 -0.168440 0.096573 -0.021344 -0.099628 -0.067431 -0.053832 0.181758 -0.116174 -0.022870 -0.083383 0.064459 -0.016077 -0.249896 -0.046400 0.025811 -0.259771 0.035322 0.015502 -0.072603 -0.055904 0.043503 0.164990 -0.082276 0.111162 0.155925 -0.040528 0.031432 0.258500 -0.101959 0.018864 0.077266 0.244035 0.098846 -0.193968 0.174176 -0.028737 0.056978 0.220142 -0.062544 -0.348564 -0.129615 -0.142296 -0.136587 -0.034529 0.005983 -0.163191 -0.071056 0.097662 0.210920 0.061721 0.078521 -0.107098 0.130961 0.175483 -0.150279 0.016415 0.112341 -0.083008 -0.193388 -0.020052 0.002304 -0.248828 0.091723 0.068454 0.196392 0.131094 0.163882 0.162639 -0.026672 0.186546 0.112347 -0.068413 -0.025895 -0.009020 0.004443 0.022286 -0.011447 0.018249 0.032467 -0.008834 -0.074151 0.127086 0.010626 -0.128209 -0.018189 -0.038496 0.033192 0.062117 -0.061401 0.042940 0.046553 -0.050581 0.016281 -0.038997 -0.028694 -0.048122 0.003764 0.089591 0.066027 0.029560 -0.020724 0.049425 -0.072125 0.080496 0.134878 0.152863 0.126578 0.070254 0.045648 -0.108055 0.063757 0.046262 0.021557 -0.038531 -0.107900 -0.020866 -0.006007 0.083377 0.131922 -0.058199 0.073477 0.127371 -0.051672 0.101504 -0.058740 -0.104957 -0.009911 -0.021379 0.095864 -0.020303 0.115854 0.004054 -0.099293 -0.103231 0.114573 -0.066190 0.044811 -0.014214 -0.042616 0.008177 -0.117915 -0.026825 -0.041767 0.040073 -0.012024 0.178667 0.136620 -0.071207 0.054177 -0.062942 -0.060315 -0.063356 -0.032942 0.048501 0.160151 0.001522 -0.089755 0.064306 -0.057406 -0.071500 0.112753 0.031621 -0.008897 0.041264 -0.098280 0.086828 -0.117442 0.024784 -0.063734 -0.093455 0.080201 -0.005766 0.057056 -0.054509 0.013970 0.087264 0.037062 -0.195251 -0.048577 -0.088976 0.059031 0.019360 -0.008840 -0.060357 -0.056942 0.001799 -0.023919 -0.000692 0.041618 0.019856 0.034826 -0.129824 0.077727 -0.017475 -0.001617 0.030388 0.052228 0.026656
456 -0.261939 -0.022916 0.094044 0.146806 0.218641 0.197336 -0.063406 -0.096233 -0.053588 0.056491 0.063284 0.049617 -0.222237 -0.227059 -0.128412 0.054689 0.149016 0.070922 -0.067581 0.040769 0.281930 -0.024310 -0.033202 0.108634 -0.115047 -0.096529 0.081391 -0.382493 0.011079 -0.012346 0.097663 0.011144 -0.030990 0.105846 0.218562 -0.068530 0.195492 -0.230210 0.037064 0.141225 0.014876 0.106230 -0.105204 -0.102568 0.103876 0.194687 0.135151 -0.000958 -0.206442 -0.269958 -0.069695 0.002435 -0.143582 -0.055175 0.091228 -0.024101 0.045550 -0.064191 0.028100 0.006473 0.107397 -0.075189 -0.029959 0.084890 -0.030161 0.053567 0.046319 0.112599 -0.053958 0.103223 -0.031791 -0.068552 -0.104188 -0.246922 -0.040753 -0.153114 0.043512 0.367377 -0.012215 0.071503 -0.000782 0.033710 0.053689 0.227421 0.210196 -0.117658 0.110422 0.026647 -0.082508 0.156269 0.175629 -0.107354 0.065367 0.140798 -0.013620 0.000338 -0.027824 -0.046354 -0.151426 -0.175111 -0.004062 -0.040799 0.059547 0.141121 -0.051132 0.143080 0.197347 -0.003605 0.365477 -0.270828 0.168765 0.066378 -0.053943 -0.025429 0.063087 0.033605 -0.214010 -0.016401 0.028403 -0.171194 0.145326 -0.036540 0.229084 0.158157 0.147260 -0.071777 0.034834 0.162013 -0.011221 0.017127 -0.038779 -0.004551 0.073351 -0.075721 0.051632 0.085039 0.061555 -0.060446 -0.012362 -0.040696 -0.054526 -0.077640 -0.070626 -0.042320 0.061358 -0.021300 -0.027420 0.084363 0.036827 0.118801 0.017806 0.100844 0.040541 -0.054651 -0.006868 -0.021667 0.005307 -0.001942 -0.016836 0.126057 0.094519 0.053051 0.026849 0.069667 -0.009494 -0.100159 -0.065497 -0.029375 0.101514 0.126435 0.082352 0.009401 0.030503 0.134020 0.037669 -0.016642 0.018567 0.000217 -0.091429 -0.098152 0.153932 -0.055319 -0.049220 -0.082626 -0.078293 0.007220 0.051352 0.014798 0.004932 -0.157647 -0.053471 -0.028129 -0.050139 -0.014224 -0.026973 -0.015137 -0.054428 0.125384 -0.031984 -0.005093 0.036197 -0.050770 0.024622 -0.130576 0.065682 -0.036456 0.078478 -0.044494 -0.047081 0.143671 -0.038072 0.085699 -0.001807 0.000488 -0.099297 0.069454 0.062585 0.033079 -0.050142 0.165838 0.138792 -0.032194 -0.090187 0.114244 0.063855 -0.106584 -0.078413 0.045521 0.073420 -0.064736 0.033895 0.046158 0.040539 0.004655 -0.099412 -0.057456 0.008697 -0.016156 0.047467 -0.121758 0.063988 -0.047270 0.066484 -0.090532 0.015988 0.134483 0.057870 0.043776 -0.158294 0.043249 -0.048942 -0.080674 -0.064205 0.114439 -0.018810 0.021192
357 0.034328 0.095526 -0.038276 0.209657 0.080898 -0.203472 0.153842 -0.029935 -0.256820 0.101120 0.067874 -0.018043 0.090150 -0.190620 -0.004690 -0.120989 0.001210 0.079893 -0.275817 0.093331 0.095337 -0.028474 0.119787 0.044592 0.303119 -0.097292 0.089564 -0.059570 0.223255 -0.097196 -0.055247 0.142835 -0.023776 -0.059693 0.175766 0.180926 0.110452 -0.081689 0.091259 0.020246 -0.041562 0.134143 -0.166746 0.120495 0.167683 0.314481 0.127859 0.004828 0.015590 -0.008471 -0.078816 -0.143790 0.068804 0.087899 0.156354 -0.108033 -0.097172 -0.008608 -0.041900 0.015020 -0.026826 -0.041067 -0.226433 -0.009268 0.133101 0.002323 0.137520 -0.206354 -0.228611 0.173711 0.123173 0.104197 0.255043 0.090778 0.090421 0.048414 -0.073500 0.041074 -0.137349 -0.056772 0.126341 -0.111861 -0.052203 0.207380 0.062944 0.035971 0.176525 -0.062730 -0.073891 0.027024 0.283732 0.161888 0.093197 -0.080250 -0.161260 0.054527 -0.154148 0.082126 0.029450 -0.157920 -0.082845 0.055009 -0.022481 -0.036130 0.232347 0.108605 0.040224 0.096839 -0.008627 -0.074886 0.188899 -0.075998 0.031676 0.013218 0.051347 0.275437 -0.222404 0.256435 -0.104830 -0.143356 0.098063 -0.059951 -0.054154 -0.032721 0.095947 -0.028246 0.035965 -0.038806 0.112347 -0.068413 -0.025895 -0.009020 0.004443 0.022286 -0.011447 0.018249 0.032467 -0.008834 -0.074151 0.127086 0.010626 -0.128209 -0.018189 -0.038496 0.033192 0.062117 -0.061401 0.042940 0.046553 -0.050581 0.016281 -0.038997 -0.028694 -0.048122 0.003764 0.089591 0.066027 0.029560 -0.020724 0.049425 -0.072125 0.080496 0.134878 0.152863 0.126578 0.070254 0.045648 -0.108055 0.063757 0.046262 0.021557 -0.038531 -0.107900 -0.020866 -0.006007 0.083377 0.131922 -0.058199 0.073477 0.127371 -0.051672 0.101504 -0.058740 -0.104957 -0.009911 -0.021379 0.095864 -0.020303 0.115854 0.004054 -0.099293 -0.103231 0.114573 -0.066190 0.044811 -0.014214 -0.042616 0.008177 -0.117915 -0.026825 -0.041767 0.040073 -0.012024 0.178667 0.136620 -0.071207 0.054177 -0.062942 -0.060315 -0.063356 -0.032942 0.048501 0.160151 0.001522 -0.089755 0.064306 -0.057406 -0.071500 0.112753 0.031621 -0.008897 0.041264 -0.098280 0.086828 -0.117442 0.024784 -0.063734 -0.093455 0.080201 -0.005766 0.057056 -0.054509 0.013970 0.087264 0.037062 -0.195251 -0.048577 -0.088976 0.059031 0.019360 -0.008840 -0.060357 -0.056942 0.001799 -0.023919 -0.000692 0.041618 0.019856 0.034826 -0.129824 0.077727 -0.017475 -0.001617 0.030388 0.052228 0.026656
101 0.018452 0.080803 -0.170757 0.222752 0.138596 -0.059692 -0.030382 -0.060114 0.023087 0.081532 -0.085489 -0.005528 -0.134184 -0.055566 0.048715 -0.047091 -0.022422 -0.017552 -0.006615 -0.158461 0.168713 0.029905 -0.080249 -0.102861 0.066171 -0.039780 0.015542 -0.230910 -0.034993 -0.205133 0.021880 0.049998 0.079155 0.027136 0.128167 0.123987 0.088212 -0.001475 -0.145130 -0.012656 0.071320 -0.006484 0.139685 -0.046306 -0.117722 0.054602 0.063671 -0.007746 -0.133580 -0.012762 -0.087982 -0.035308 0.055773 0.161059 0.063695 -0.175875 0.030443 0.127245 -0.159153 -0.039716 0.119636 -0.053265 -0.034986 -0.256844 0.035387 -0.222584 -0.149229 -0.003928 -0.084576 0.118791 -0.054756 -0.119299 -0.138393 -0.009460 -0.012070 -0.007261 0.019490 -0.035152 0.095173 -0.249389 -0.090416 0.031300 0.016127 0.051457 -0.068831 -0.126543 0.209944 -0.062547 0.048350 0.259448 0.095558 -0.066079 -0.050696 -0.031925 -0.053818 0.138142 0.211079 -0.076476 -0.129598 0.053225 0.161669 0.180829 0.111018 -0.078748 -0.122729 -0.135977 0.236557 -0.123937 -0.188688 0.025459 0.186580 -0.114590 -0.121019 0.031137 0.104322 -0.135844 -0.283054 0.060813 -0.194225 -0.088557 0.300451 0.186857 0.040703 0.020596 -0.036123 0.214924 0.118506 0.070671 -0.003564 -0.071278 -0.037941 0.012352 -0.086648 -0.014553 -0.019013 0.043031 0.009344 -0.142304 0.011869 -0.012406 0.043215 0.138032 -0.048787 0.014419 0.013923 -0.019029 -0.063434 -0.001063 -0.017589 0.050205 -0.119766 0.057739 0.146469 -0.100906 -0.042181 -0.084624 0.026261 0.098778 -0.020009 0.036839 -0.005313 -0.075370 -0.023225 0.096213 0.003460 0.024543 -0.142965 0.106362 -0.156019 0.076982 0.031263 0.084068 -0.007782 0.132058 -0.001354 -0.042823 0.139786 0.113876 -0.093663 0.065646 -0.001625 0.004374 0.012323 0.011155 -0.083036 -0.037419 0.021022 -0.045092 -0.055507 -0.049477 -0.115771 -0.016281 0.189769 -0.075468 0.079222 -0.038393 -0.032844 -0.005923 -0.076270 -0.023124 -0.182843 -0.074197 0.026754 0.025750 0.017504 -0.054690 0.051272 -0.017842 0.008112 0.058543 -0.076465 -0.060456 0.010272 0.027444 -0.019043 0.143936 0.044381 0.083354 0.023618 -0.100104 -0.034119 -0.061983 0.005645 0.093217 0.073446 0.016863 0.013724 -0.061992 -0.015688 -0.011960 0.106271 0.027551 0.054673 -0.030574 0.057829 -0.195332 0.043017 0.111756 -0.065955 -0.007603 0.018175 -0.026042 0.006817 0.014613 0.010983 0.035850 0.071872 0.051370 -0.053893 0.059693 -0.032059 -0.040056 0.042285 0.048899 0.094846 0.089979
311 0.029419 -0.182002 -0.100329 0.064873 0.087525 -0.261326 0.134329 0.007424 0.086912 -0.173164 -0.264747 0.234515 -0.388671 -0.083806 0.124003 0.034752 0.288135 -0.154853 -0.070735 -0.183573 0.091612 -0.160481 -0.112156 0.201754 -0.064665 -0.153556 0.040456 -0.070850 -0.004610 -0.033510 -0.152144 -0.267400 0.248937 0.077893 0.021775 -0.084981 -0.045320 0.165555 -0.235289 0.130699 0.051396 -0.117314 0.183732 -0.027588 -0.116623 0.144085 0.302386 0.270335 -0.040025 -0.046756 -0.149121 0.231967 0.158207 -0.009725 0.061699 0.012510 -0.167786 0.207395 -0.082485 0.151830 -0.002963 -0.062489 0.126468 -0.078412 -0.106926 0.029879 0.001385 -0.185820 -0.201212 0.198747 0.063458 0.269171 -0.173794 -0.273101 0.038656 0.017553 0.267844 -0.114805 0.143008 -0.173627 -0.064066 0.227200 -0.010547 0.190512 -0.021616 0.094194 0.065900 0.077507 0.027940 -0.075207 -0.090968 -0.005001 0.139934 -0.058696 -0.058807 0.196287 -0.253471 -0.167139 -0.015940 -0.004380 0.005265 0.093752 0.024354 -0.151382 0.225579 -0.047840 0.214213 -0.037109 0.036972 0.088810 0.178389 0.020661 -0.027063 0.018170 0.111058 -0.022091 -0.311839 0.026237 0.029758 -0.042615 -0.133368 0.010163 0.204740 0.107898 -0.107913 0.056431 -0.008246 -0.006913 0.020767 0.023166 0.077396 0.002127 0.076487 -0.015827 0.015439 0.110760 0.005124 0.013353 0.063044 0.039523 0.041469 -0.041065 0.046323 0.069711 0.133518 -0.054524 -0.064558 -0.067744 0.078732 -0.012877 -0.070825 0.083795 0.007466 -0.067396 -0.063065 0.011419 0.128838 0.005632 0.086468 -0.100979 0.028454 0.022069 -0.015319 0.123588 0.102010 0.001842 -0.161988 -0.115103 -0.058025 0.049236 -0.029950 -0.064466 0.002381 0.020455 0.071947 0.116548 0.164282 -0.114939 -0.146412 0.065493 -0.035967 0.030722 0.040907 -0.046798 -0.004141 0.104115 0.056391 0.045276 0.121347 -0.007384 0.030123 -0.114497 -0.020418 -0.063423 0.050126 0.013070 0.125251 -0.003683 -0.048154 0.047271 -0.014179 -0.061615 0.006986 0.104242 -0.051538 0.018485 0.032985 -0.025618 -0.017502 0.020981 0.141386 -0.085553 -0.024416 -0.018914 0.043917 0.219323 0.056121 0.024155 0.054168 0.072051 0.096990 -0.047571 0.070228 0.087861 0.009298 -0.100003 0.165711 -0.025739 -0.085554 -0.135090 0.084725 -0.005800 0.096588 0.091502 -0.021884 -0.061083 -0.050754 -0.020432 0.022616 0.055467 -0.013671 0.017300 0.065363 -0.137526 -0.056323 -0.037083 0.139684 -0.067101 0.001036 0.001158 0.074861 -0.079704 0.055285 -0.165464 0.017954 0.106873
160 0.059334 -0.134913 -0.194016 0.001213 0.083174 -0.144692 0.083027 -0.083913 0.171582 0.100058 0.215369 0.177833 0.087428 0.119103 0.018285 -0.245892 0.009714 0.035996 -0.075172 -0.080725 0.244242 -0.144482 0.014848 0.093956 0.036326 -0.178576 0.072096 -0.136793 -0.057933 0.012983 -0.072453 0.033444 -0.029168 0.028464 -0.158609 -0.000522 0.132994 0.056263 -0.113592 -0.063673 0.206448 0.000876 0.020201 -0.026438 0.048504 0.129581 -0.073460 0.125117 0.078139 -0.216799 0.091537 0.110454 -0.231284 -0.106780 0.147009 0.064420 -0.128467 -0.130872 -0.218832 -0.290948 0.057816 0.035331 0.061956 -0.138865 0.012200 0.133689 -0.023750 0.066471 -0.064354 -0.030874 -0.078652 -0.131903 -0.096667 -0.190981 0.087350 0.059756 -0.101460 -0.112668 0.208806 0.062280 -0.120234 0.060738 0.040072 0.096009 0.207184 -0.066854 0.094408 -0.066554 -0.117551 -0.132000 0.337615 -0.203274 -0.069437 0.127015 -0.020709 0.291911 0.123619 -0.261017 -0.129561 0.287203 -0.037114 -0.031991 0.129242 -0.238888 -0.155050 0.058045 0.022550 0.055068 0.231059 0.043998 0.154535 0.098849 0.087391 -0.163102 0.101977 0.173445 -0.090796 0.248241 -0.098004 -0.229353 0.096770 -0.102695 0.057678 -0.018032 0.106717 0.150781 0.064373 -0.211544 0.020723 0.066269 0.039059 0.042269 -0.010691 -0.029397 -0.026534 -0.134956 -0.020678 -0.029638 -0.035703 -0.026493 0.008327 -0.023872 0.095839 0.039485 -0.012739 -0.146477 -0.117693 0.039841 0.100698 0.014214 0.102680 0.135173 0.122164 -0.061406 0.055347 -0.029915 0.116802 0.021168 0.022732 0.013351 0.104294 0.019410 0.072054 -0.039871 0.025652 0.041423 0.020512 -0.019855 -0.093157 0.004829 0.069812 0.039778 0.061786 0.154885 0.005306 -0.078224 -0.050684 -0.004649 0.032914 0.001741 0.177435 -0.010415 -0.091966 -0.016616 -0.015891 0.002831 0.051037 -0.181819 0.031863 0.022189 -0.020961 0.051127 -0.077209 -0.033683 0.113566 -0.021706 0.038059 0.008368 0.017307 -0.036459 0.018005 0.002272 0.109024 0.058916 -0.083484 -0.093047 -0.025735 -0.106406 -0.011028 0.061355 0.079347 0.015010 -0.006141 -0.012282 0.120492 0.141054 0.134204 -0.023252 0.064393 0.022859 0.110301 0.125714 -0.069236 -0.001625 -0.005655 -0.019243 0.053799 -0.080408 -0.001614 0.069008 -0.012578 0.007448 -0.012836 0.190976 -0.012743 -0.151754 -0.005479 -0.023548 -0.005539 0.006666 0.066367 -0.049815 -0.016199 0.146507 0.124443 0.054376 0.090857 0.004035 0.034574 -0.129603 -0.057063 -0.103696 0.052443 0.009708 0.104300 -0.028227
67 -0.109565 -0.029452 0.079453 -0.025942 0.094161 -0.105112 0.136408 -0.103385 0.071290 0.088342 -0.000701 0.026807 -0.129723 -0.129241 0.080920 0.020595 -0.221469 -0.020752 0.011080 0.126809 -0.058272 -0.003070 -0.141444 0.022071 0.082557 0.103070 0.225117 0.028123 0.141193 0.191432 -0.001167 0.053069 -0.247688 -0.044017 0.306706 -0.175020 0.013553 -0.116082 -0.082782 -0.001907 -0.067448 -0.228194 -0.205495 -0.015809 -0.033949 0.183559 0.237058 -0.032014 -0.230420 -0.056880 -0.218262 -0.166888 -0.021127 0.110467 0.130507 -0.048879 0.045955 0.134645 -0.179050 -0.094220 0.058124 0.085695 -0.042079 -0.026314 -0.020306 -0.040228 -0.194365 0.021903 -0.146017 0.178777 0.027026 0.175874 0.022402 -0.249247 0.124936 0.122209 0.119756 -0.074208 -0.061374 0.032087 0.034863 -0.089810 0.038063 0.016114 0.143206 0.151359 0.260661 -0.026992 -0.014586 0.255846 -0.007083 -0.128268 -0.125724 -0.014130 -0.000725 0.178621 -0.045718 -0.015343 0.048713 0.000661 -0.301095 0.057677 0.222368 -0.081861 0.213216 -0.093989 -0.106966 0.151340 0.174745 0.202185 0.007742 0.200701 0.211085 -0.084237 0.135143 0.060060 -0.080738 -0.041081 0.090680 0.070642 -0.119047 0.267747 0.012382 -0.156372 0.051237 0.109335 -0.088439 -0.013165 0.112347 -0.068413 -0.025895 -0.009020 0.004443 0.022286 -0.011447 0.018249 0.032467 -0.008834 -0.074151 0.127086 0.010626 -0.128209 -0.018189 -0.038496 0.033192 0.062117 -0.061401 0.042940 0.046553 -0.050581 0.016281 -0.038997 -0.028694 -0.048122 0.003764 0.089591 0.066027 0.029560 -0.020724 0.049425 -0.072125 0.080496 0.134878 0.152863 0.126578 0.070254 0.045648 -0.108055 0.063757 0.046262 0.021557 -0.038531 -0.107900 -0.020866 -0.006007 0.083377 0.131922 -0.058199 0.073477 0.127371 -0.051672 0.101504 -0.058740 -0.104957 -0.009911 -0.021379 0.095864 -0.020303 0.115854 0.004054 -0.099293 -0.103231 0.114573 -0.066190 0.044811 -0.014214 -0.042616 0.008177 -0.117915 -0.026825 -0.041767 0.040073 -0.012024 0.178667 0.136620 -0.071207 0.054177 -0.062942 -0.060315 -0.063356 -0.032942 0.048501 0.160151 0.001522 -0.089755 0.064306 -0.057406 -0.071500 0.112753 0.031621 -0.008897 0.041264 -0.098280 0.086828 -0.117442 0.024784 -0.063734 -0.093455 0.080201 -0.005766 0.057056 -0.054509 0.013970 0.087264 0.037062 -0.195251 -0.048577 -0.088976 0.059031 0.019360 -0.008840 -0.060357 -0.056942 0.001799 -0.023919 -0.000692 0.041618 0.019856 0.034826 -0.129824 0.077727 -0.017475 -0.001617 0.030388 0.052228 0.026656
31 0.031897 0.169471 0.010478 0.010742 0.051512 -0.011206 -0.357267 -0.080083 0.230426 0.209523 -0.080429 -0.049474 -0.218142 0.057047 -0.036878 -0.117826 -0.176906 0.006428 0.072282 0.113630 0.366348 -0.037971 0.020265 -0.021346 0.043610 -0.084156 -0.161869 -0.079043 -0.002475 -0.108559 -0.111187 -0.111019 0.006734 -0.100589 0.077180 -0.050868 0.173363 -0.105098 -0.379003 0.155748 -0.108495 0.087529 0.153345 -0.048791 -0.060370 0.057684 0.170387 0.001303 0.026472 -0.242468 0.032701 -0.046567 0.018947 0.035723 -0.060058 -0.152488 -0.012412 -0.127297 0.124018 0.169674 -0.003268 0.096837 -0.106674 -0.210548 -0.098408 0.132826 -0.075420 0.101836 -0.031138 0.087194 -0.098220 0.199643 0.023188 -0.349939 0.034311 -0.053761 0.067337 0.104388 -0.124947 -0.077235 0.110530 -0.033388 -0.014155 -0.117748 -0.006615 -0.059913 0.118439 -0.099298 0.192608 -0.167288 0.252918 -0.098164 -0.153120 0.025917 -0.025784 0.073713 0.040374 -0.001984 0.071229 -0.244097 0.170358 0.085113 0.040570 0.118888 0.071774 0.052538 0.127219 -0.124546 -0.052208 0.176402 0.283593 -0.133368 0.099179 -0.009690 0.188568 0.003257 -0.180033 0.030051 0.270382 -0.132330 0.024966 -0.074063 -0.081566 -0.106092 0.012822 -0.050650 -0.059246 -0.167647 -0.046794 -0.105428 -0.081845 0.043374 0.039538 0.006248 0.028990 0.061977 0.102330 0.013995 -0.060244 0.072788 0.176969 -0.085254 -0.023753 0.002209 0.052551 -0.006411 0.039913 -0.052052 0.071935 0.006113 0.130792 0.207669 0.043029 -0.081472 0.023573 -0.098083 0.109587 0.008934 0.040689 -0.056868 0.017208 0.027376 -0.045830 -0.060421 0.105046 -0.054008 -0.084640 -0.054064 -0.082695 -0.105132 0.139113 0.163887 -0.050186 0.066069 -0.036628 -0.116116 -0.020108 0.143334 0.050487 0.097387 -0.016610 0.093167 -0.006819 0.022754 -0.012465 0.070060 0.070247 0.138482 -0.124752 -0.012329 0.041336 -0.004660 0.057738 0.042609 0.031004 -0.103497 0.079834 0.117923 -0.047538 -0.031104 0.044052 -0.174102 -0.023711 0.010579 0.147824 -0.071785 0.009302 -0.028094 -0.047935 0.060566 0.042165 0.005823 -0.042727 0.043405 -0.041520 0.046574 -0.052132 -0.047621 0.123948 0.065878 -0.037367 0.025983 0.077598 -0.048426 0.030749 -0.093743 0.032210 -0.019342 -0.029119 -0.055944 0.030969 0.070049 0.015883 0.026741 0.071492 0.029837 0.165000 0.025930 0.069536 -0.022384 -0.072600 -0.151288 0.036013 -0.000162 -0.057909 -0.035974 0.027035 -0.073804 0.049504 -0.049385 0.062670 -0.011726 0.080077 -0.147158 0.112274 -0.021453
282 -0.011447 0.109496 0.289593 0.010656 -0.109140 0.350322 0.170923 -0.064232 -0.062924 -0.027469 -0.136551 0.047058 -0.124013 -0.218465 0.037811 -0.061676 0.067879 0.152539 -0.070214 0.065713 0.002526 -0.131617 0.239612 -0.304684 0.086601 -0.111637 -0.124147 -0.028128 0.090186 0.078878 0.118111 0.005830 -0.195976 -0.160239 0.149776 -0.002505 0.177324 0.030774 -0.133492 0.127264 0.208765 0.153214 0.322611 -0.051271 0.198779 0.079988 0.201874 -0.081111 0.068961 0.014800 -0.037111 0.136320 -0.038370 0.002724 -0.069863 -0.002457 0.022556 0.137005 -0.055096 -0.107312 -0.037182 -0.141942 -0.027564 0.030135 -0.102003 -0.059779 -0.317613 0.205445 -0.188048 0.085996 0.046480 -0.013592 -0.043127 -0.119919 0.072325 0.180030 0.058534 -0.067238 0.074776 -0.074418 0.005651 0.007557 -0.096154 0.079330 -0.132322 0.053944 0.118470 -0.056873 0.076136 0.106220 -0.080638 -0.270109 0.064305 -0.004628 0.010478 0.330165 0.107762 -0.171570 -0.058408 -0.050672 0.070062 0.021880 -0.024370 0.008508 0.076838 -0.060919 0.262057 0.137667 -0.027085 -0.053228 -0.168148 -0.063010 -0.008336 -0.126576 0.229270 -0.033595 0.076685 0.193083 0.231228 -0.247997 0.191619 0.217665 0.128684 0.012292 0.038934 -0.066062 0.089693 0.019161 0.020767 0.023166 0.077396 0.002127 0.076487 -0.015827 0.015439 0.110760 0.005124 0.013353 0.063044 0.039523 0.041469 -0.041065 0.046323 0.069711 0.133518 -0.054524 -0.064558 -0.067744 0.078732 -0.012877 -0.070825 0.083795 0.007466 -0.067396 -0.063065 0.011419 0.128838 0.005632 0.086468 -0.100979 0.028454 0.022069 -0.015319 0.123588 0.102010 0.001842 -0.161988 -0.115103 -0.058025 0.049236 -0.029950 -0.064466 0.002381 0.020455 0.071947 0.116548 0.164282 -0.114939 -0.146412 0.065493 -0.035967 0.030722 0.040907 -0.046798 -0.004141 0.104115 0.056391 0.045276 0.121347 -0.007384 0.030123 -0.114497 -0.020418 -0.063423 0.050126 0.013070 0.125251 -0.003683 -0.048154 0.047271 -0.014179 -0.061615 0.006986 0.104242 -0.051538 0.018485 0.032985 -0.025618 -0.017502 0.020981 0.141386 -0.085553 -0.024416 -0.018914 0.043917 0.219323 0.056121 0.024155 0.054168 0.072051 0.096990 -0.047571 0.070228 0.087861 0.009298 -0.100003 0.165711 -0.025739 -0.085554 -0.135090 0.084725 -0.005800 0.096588 0.091502 -0.021884 -0.061083 -0.050754 -0.020432 0.022616 0.055467 -0.013671 0.017300 0.065363 -0.137526 -0.056323 -0.037083 0.139684 -0.067101 0.001036 0.001158 0.074861 -0.079704 0.055285 -0.165464 0.017954 0.106873
420 -0.156055 -0.055394 -0.023006 -0.223717 0.010535 0.072573 0.097509 0.112715 -0.035034 0.028044 -0.053879 -0.126356 -0.032085 -0.079239 0.055445 -0.001135 0.093021 -0.082078 -0.023377 0.148712 -0.014770 -0.040615 0.203141 -0.192192 0.081094 -0.049188 0.033649 -0.181134 -0.162179 -0.089432 -0.078305 -0.168972 -0.154945 -0.010900 0.135612 -0.408063 0.136893 -0.006995 -0.115849 0.058195 -0.090924 0.209325 -0.211206 0.045271 0.119111 -0.002759 0.307032 -0.058715 0.205318 0.009768 -0.064639 0.116431 0.021117 0.012564 -0.047118 -0.112113 -0.098877 0.159333 -0.089796 -0.147268 0.155855 0.030762 -0.095496 -0.140444 0.084926 0.227993 -0.023468 -0.160936 0.011091 0.104717 0.175416 0.091699 0.122057 -0.107475 0.206140 0.158937 0.060425 -0.074127 -0.152222 -0.029493 0.174365 -0.065043 -0.076836 0.093455 0.206306 0.020534 0.169611 0.247064 -0.068186 -0.014643 0.003674 -0.160026 0.221791 -0.051251 -0.049552 -0.007585 -0.225802 0.019666 0.183812 -0.128695 -0.319128 0.239653 0.158358 -0.000555 0.148972 0.102392 0.158289 -0.042114 0.027496 0.227185 0.030048 -0.111851 0.260329 -0.132121 -0.108422 0.080812 0.117963 0.143491 0.162232 0.006245 0.178658 -0.164312 -0.051281 0.156892 0.021647 0.036861 -0.042638 0.068798 -0.056226 -0.022543 0.020807 0.078387 0.006066 0.043344 0.070596 -0.095802 -0.011248 -0.218045 0.027790 -0.081388 -0.047505 0.002389 -0.054508 -0.092100 0.028882 -0.068028 -0.040213 -0.052364 0.040506 -0.001195 -0.089662 0.077657 -0.020197 -0.089292 -0.229780 -0.009094 -0.013455 0.124793 0.055705 -0.024760 -0.029191 0.034348 0.012398 0.016442 0.017809 0.003231 -0.003489 0.010322 0.035132 -0.008704 0.097095 -0.019136 0.016421 0.117880 0.127434 0.005946 0.063548 0.004560 -0.009088 -0.026326 0.048484 0.152600 -0.048137 -0.000394 0.063156 0.144209 -0.043764 0.006498 0.046794 -0.028637 -0.000735 -0.153760 -0.167192 -0.017155 0.029634 0.032250 -0.195852 0.024468 -0.029387 0.039740 -0.019320 -0.136497 -0.005645 0.153269 0.020226 -0.015954 0.024165 -0.100707 -0.085421 -0.014696 0.010453 0.026198 -0.079053 -0.052144 -0.107270 0.104256 0.036128 -0.090239 0.033467 -0.170185 0.137843 -0.054223 -0.075649 0.052056 0.059942 -0.001995 0.052093 0.030210 0.046238 0.010711 -0.031058 -0.110339 -0.049723 -0.026886 0.015380 -0.038698 0.052197 0.070506 0.037079 -0.017025 0.075521 -0.140440 -0.009269 0.006029 0.062360 -0.000099 0.063269 0.060506 0.003428 -0.021514 -0.103549 -0.011375 0.041433 -0.010908 0.016427 -0.027622
75 -0.165249 -0.127950 0.069289 0.193866 -0.007980 0.106341 0.163027 -0.098757 0.365563 0.104105 -0.084949 -0.097223 -0.112367 -0.082512 -0.013353 -0.012270 0.039563 -0.091149 -0.082138 -0.075492 0.119739 -0.135978 0.150178 -0.030719 0.284431 -0.065499 -0.207176 -0.073241 -0.035444 -0.069798 -0.061843 -0.067309 -0.077370 -0.096707 -0.102218 0.013511 -0.012835 -0.212204 -0.150263 -0.119174 -0.054152 0.099554 0.017470 0.050142 0.170984 0.040508 0.207199 -0.166458 -0.068106 -0.080589 -0.166760 0.013265 0.119104 0.251094 -0.009344 -0.132437 -0.103314 0.186313 -0.299400 -0.056030 -0.016653 -0.046837 0.042822 -0.057571 0.040456 0.133214 0.031148 0.057587 0.199125 0.100444 0.256261 0.120948 0.103684 -0.206948 0.035944 -0.017536 0.061791 0.143717 0.140820 -0.205194 -0.131704 -0.051571 -0.148411 -0.028760 0.024634 0.034183 0.035882 0.010268 -0.111982 0.016861 0.011551 -0.133865 0.047851 -0.185339 0.080282 -0.153814 0.218979 -0.065055 -0.032067 -0.048876 -0.101852 -0.011815 0.275491 0.062851 0.021388 0.002780 0.201176 0.157392 -0.079885 -0.038953 -0.065834 -0.031208 0.007140 0.045456 -0.020700 -0.084661 -0.300312 -0.063878 -0.090457 -0.156204 -0.061056 0.075026 0.129376 -0.205439 0.163563 0.090815 -0.209574 -0.056961 -0.011221 0.017127 -0.038779 -0.004551 0.073351 -0.075721 0.051632 0.085039 0.061555 -0.060446 -0.012362 -0.040696 -0.054526 -0.077640 -0.070626 -0.042320 0.061358 -0.021300 -0.027420 0.084363 0.036827 0.118801 0.017806 0.100844 0.040541 -0.054651 -0.006868 -0.021667 0.005307 -0.001942 -0.016836 0.126057 0.094519 0.053051 0.026849 0.069667 -0.009494 -0.100159 -0.065497 -0.029375 0.101514 0.126435 0.082352 0.009401 0.030503 0.134020 0.037669 -0.016642 0.018567 0.000217 -0.091429 -0.098152 0.153932 -0.055319 -0.049220 -0.082626 -0.078293 0.007220 0.051352 0.014798 0.004932 -0.157647 -0.053471 -0.028129 -0.050139 -0.014224 -0.026973 -0.015137 -0.054428 0.125384 -0.031984 -0.005093 0.036197 -0.050770 0.024622 -0.130576 0.065682 -0.036456 0.078478 -0.044494 -0.047081 0.143671 -0.038072 0.085699 -0.001807 0.000488 -0.099297 0.069454 0.062585 0.033079 -0.050142 0.165838 0.138792 -0.032194 -0.090187 0.114244 0.063855 -0.106584 -0.078413 0.045521 0.073420 -0.064736 0.033895 0.046158 0.040539 0.004655 -0.099412 -0.057456 0.008697 -0.016156 0.047467 -0.121758 0.063988 -0.047270 0.066484 -0.090532 0.015988 0.134483 0.057870 0.043776 -0.158294 0.043249 -0.048942 -0.080674 -0.064205 0.114439 -0.018810 0.021192
127 0.207446 0.009993 0.065360 0.125499 0.401653 0.052088 -0.199902 0.009391 0.273429 0.303444 -0.176667 0.003859 0.044549 -0.100880 -0.061973 -0.160645 0.145537 -0.063879 0.053505 -0.155358 -0.048427 -0.089592 -0.048324 -0.047578 -0.031662 0.052046 0.115500 -0.095956 -0.016508 -0.005820 0.025481 -0.031784 0.109435 0.006291 -0.076810 -0.033769 0.120859 0.061543 0.032417 -0.017844 0.138557 0.031987 0.120146 0.083578 0.202452 0.145353 0.070155 -0.363132 -0.089020 0.025801 -0.275126 0.153619 0.093585 0.034335 0.082313 -0.058932 -0.201541 0.008778 -0.180705 0.148922 0.265818 0.151193 -0.081291 0.057401 -0.013319 -0.012165 -0.150644 -0.011955 -0.032698 0.068097 0.017872 -0.130627 0.190464 0.010137 0.229167 0.124780 0.083425 -0.002625 -0.061549 -0.064506 0.207049 -0.124590 0.031464 -0.190283 0.065372 0.364966 0.158934 0.134622 -0.006199 -0.119417 -0.030721 -0.050100 -0.099478 0.183068 0.068686 0.063720 0.221148 -0.050108 0.051735 0.012167 -0.144852 0.240765 0.136224 0.168143 0.196474 -0.330789 -0.001584 0.194643 0.069813 0.075636 0.227956 0.085055 0.155614 0.174642 -0.099118 0.085938 -0.241414 0.081166 -0.020888 -0.143062 0.242080 0.155902 -0.011726 0.019460 0.071040 0.155005 -0.019080 0.101191 0.112347 -0.068413 -0.025895 -0.009020 0.004443 0.022286 -0.011447 0.018249 0.032467 -0.008834 -0.074151 0.127086 0.010626 -0.128209 -0.018189 -0.038496 0.033192 0.062117 -0.061401 0.042940 0.046553 -0.050581 0.016281 -0.038997 -0.028694 -0.048122 0.003764 0.089591 0.066027 0.029560 -0.020724 0.049425 -0.072125 0.080496 0.134878 0.152863 0.126578 0.070254 0.045648 -0.108055 0.063757 0.046262 0.021557 -0.038531 -0.107900 -0.020866 -0.006007 0.083377 0.131922 -0.058199 0.073477 0.127371 -0.051672 0.101504 -0.058740 -0.104957 -0.009911 -0.021379 0.095864 -0.020303 0.115854 0.004054 -0.099293 -0.103231 0.114573 -0.066190 0.044811 -0.014214 -0.042616 0.008177 -0.117915 -0.026825 -0.041767 0.040073 -0.012024 0.178667 0.136620 -0.071207 0.054177 -0.062942 -0.060315 -0.063356 -0.032942 0.048501 0.160151 0.001522 -0.089755 0.064306 -0.057406 -0.071500 0.112753 0.031621 -0.008897 0.041264 -0.098280 0.086828 -0.117442 0.024784 -0.063734 -0.093455 0.080201 -0.005766 0.057056 -0.054509 0.013970 0.087264 0.037062 -0.195251 -0.048577 -0.088976 0.059031 0.019360 -0.008840 -0.060357 -0.056942 0.001799 -0.023919 -0.000692 0.041618 0.019856 0.034826 -0.129824 0.077727 -0.017475 -0.001617 0.030388 0.052228 0.026656
205 0.027402 0.067638 0.026540 0.095235 0.065608 0.098404 -0.115976 -0.312999 0.213048 -0.010364 0.138627 0.023212 -0.007647 -0.022203 0.037607 0.037081 -0.029684 -0.080896 0.098778 -0.042801 0.370412 0.008712 -0.157944 0.169263 0.074322 0.127243 -0.084394 -0.154113 0.041502 -0.028932 0.092316 -0.203280 -0.023758 0.063573 -0.020900 -0.006029 0.254599 -0.034735 -0.091522 -0.116898 -0.107746 0.116592 0.120059 0.183755 0.222440 -0.049357 0.067507 0.162274 -0.175897 -0.051582 -0.142243 0.051118 0.137888 0.161900 0.055028 -0.279483 -0.095571 0.006720 -0.134785 -0.040171 -0.027443 -0.119374 0.023688 0.041251 0.336160 0.054671 -0.097829 -0.098807 -0.125897 0.070926 -0.060793 -0.131147 -0.010208 0.047779 0.093419 0.077805 0.137383 -0.184930 -0.157031 -0.092938 -0.134178 -0.139103 -0.173683 -0.018864 0.126351 0.055580 0.005777 -0.054722 -0.093682 0.137716 0.143355 0.107358 0.158692 -0.216494 0.101211 0.110717 -0.061462 -0.152949 -0.022629 0.117998 -0.192402 -0.032946 -0.122885 0.151376 0.124604 0.047741 0.127080 -0.021702 0.179862 0.092867 0.091652 -0.042227 -0.091361 -0.034952 0.069769 0.181513 -0.082904 0.258723 0.129536 -0.036935 0.335136 0.085624 -0.074209 -0.012453 -0.085519 -0.000226 0.044705 0.069467 -0.132271 0.060682 0.010389 -0.146225 -0.029862 0.010614 -0.018481 0.033751 0.040481 0.000030 -0.084185 -0.043081 0.041243 -0.062469 -0.004395 -0.074537 0.107468 -0.076919 -0.166120 -0.031474 0.035200 0.090385 0.045597 -0.090689 -0.052705 -0.047224 0.022451 -0.112965 -0.042182 0.059332 0.065115 -0.037540 0.038430 -0.040520 0.051318 -0.033469 0.077976 -0.103161 -0.114840 -0.081519 -0.069742 0.124706 0.114078 -0.020483 -0.097780 0.050854 0.085735 -0.059812 0.090030 -0.043321 0.056296 0.048786 -0.079883 -0.002380 0.039321 0.059224 -0.034003 0.073128 0.111158 0.051399 0.072689 -0.135420 -0.153652 0.014538 -0.031821 -0.067675 0.058859 0.069148 -0.005177 0.035482 0.007486 -0.006984 0.041023 0.058544 -0.039082 0.186091 0.029445 -0.145353 0.157270 -0.025907 -0.154031 0.139766 0.084807 -0.059234 0.055056 -0.028196 0.041034 -0.014921 0.063477 0.010715 0.047903 -0.166476 0.019954 -0.015611 -0.001962 -0.068017 -0.022383 0.036258 0.062492 0.020510 -0.011215 -0.121868 -0.008527 0.053308 0.048536 0.053205 -0.129334 0.015624 -0.126692 -0.017256 -0.006661 -0.008669 0.009259 -0.114025 0.148731 0.109036 -0.034021 -0.060601 -0.028648 0.009154 -0.017085 0.016630 0.018006 0.020698 -0.041039 -0.070738 0.058325 0.054147
183 0.004570 -0.216842 -0.116229 0.241745 0.080175 0.070528 0.198586 -0.015005 0.031673 -0.076250 -0.098065 0.001443 -0.146745 -0.200224 -0.123538 -0.138513 -0.088539 -0.071030 -0.053847 0.173716 0.119782 -0.107949 -0.059611 0.049240 0.171311 -0.192031 0.172554 0.153287 0.008505 -0.062825 0.158732 -0.086387 -0.041003 0.020972 0.169409 0.089930 0.345337 -0.205644 -0.138332 0.171317 0.099030 0.019073 -0.003031 -0.113738 -0.211048 -0.011546 -0.185052 -0.197283 -0.013998 0.023568 -0.162864 -0.222973 0.067903 0.010595 -0.233367 0.113274 0.082836 0.002889 0.108756 0.086833 0.022819 -0.226839 -0.111984 -0.043112 -0.006878 -0.208391 -0.217580 0.066113 -0.212686 -0.011702 -0.000930 -0.208873 -0.143248 -0.261746 0.013684 -0.014958 -0.030093 0.155821 0.202335 -0.233120 0.044955 0.035038 0.086784 -0.034620 0.071077 -0.049857 0.027230 -0.048216 0.090648 -0.113974 0.148162 -0.199301 -0.121024 0.175996 -0.201484 0.221803 0.054673 0.028348 0.147145 -0.128960 -0.232018 -0.189035 0.308394 0.016203 -0.049744 0.066374 -0.019306 0.166944 0.111967 0.098238 0.098256 -0.084958 -0.019711 -0.274261 -0.188329 0.104018 -0.123575 0.366449 0.149888 -0.097431 0.218284 -0.079894 0.030421 -0.161958 -0.014418 -0.081284 -0.033128 -0.010563 -0.046794 -0.105428 -0.081845 0.043374 0.039538 0.006248 0.028990 0.061977 0.102330 0.013995 -0.060244 0.072788 0.176969 -0.085254 -0.023753 0.002209 0.052551 -0.006411 0.039913 -0.052052 0.071935 0.006113 0.130792 0.207669 0.043029 -0.081472 0.023573 -0.098083 0.109587 0.008934 0.040689 -0.056868 0.017208 0.027376 -0.045830 -0.060421 0.105046 -0.054008 -0.084640 -0.054064 -0.082695 -0.105132 0.139113 0.163887 -0.050186 0.066069 -0.036628 -0.116116 -0.020108 0.143334 0.050487 0.097387 -0.016610 0.093167 -0.006819 0.022754 -0.012465 0.070060 0.070247 0.138482 -0.124752 -0.012329 0.041336 -0.004660 0.057738 0.042609 0.031004 -0.103497 0.079834 0.117923 -0.047538 -0.031104 0.044052 -0.174102 -0.023711 0.010579 0.147824 -0.071785 0.009302 -0.028094 -0.047935 0.060566 0.042165 0.005823 -0.042727 0.043405 -0.041520 0.046574 -0.052132 -0.047621 0.123948 0.065878 -0.037367 0.025983 0.077598 -0.048426 0.030749 -0.093743 0.032210 -0.019342 -0.029119 -0.055944 0.030969 0.070049 0.015883 0.026741 0.071492 0.029837 0.165000 0.025930 0.069536 -0.022384 -0.072600 -0.151288 0.036013 -0.000162 -0.057909 -0.035974 0.027035 -0.073804 0.049504 -0.049385 0.062670 -0.011726 0.080077 -0.147158 0.112274 -0.021453
6 0.027626 -0.106653 0.029509 -0.134611 -0.069146 -0.003908 -0.112848 0.112300 0.032069 0.010186 -0.132909 -0.000489 0.051893 -0.226425 0.022312 -0.122313 0.089762 -0.005770 -0.095817 0.074513 0.115558 -0.191007 -0.149513 -0.059465 0.024349 -0.085311 0.142040 -0.193134 -0.091012 0.036637 0.086020 -0.204717 0.026884 -0.011313 -0.136522 0.037281 0.346651 -0.204886 0.034478 0.017400 0.121200 -0.022276 -0.082473 0.039012 0.015908 0.105042 -0.003084 0.035492 -0.021138 -0.032327 -0.060260 0.067970 0.087305 -0.137847 0.081717 0.161235 0.000351 0.091394 -0.282798 0.030896 0.002274 -0.010302 -0.176627 0.228961 -0.155705 -0.101857 -0.075394 -0.202662 0.015671 0.105151 0.060092 -0.056660 -0.144826 -0.090455 0.029910 0.008063 0.224217 0.161538 0.171898 -0.141584 -0.171412 -0.001660 0.022552 -0.285036 -0.152542 -0.097856 0.191212 -0.076378 0.102600 0.051061 0.248456 0.099291 0.099687 -0.091166 0.064257 0.163045 0.136293 -0.249603 -0.041358 -0.072925 -0.198754 0.071266 -0.046862 0.096353 0.224734 0.251639 0.219545 -0.023963 -0.208116 0.008521 0.254970 -0.132568 -0.017406 0.014380 0.008887 -0.107373 -0.030529 0.091913 0.064717 0.031958 0.044669 0.048930 0.011243 -0.058791 -0.147403 -0.222740 0.048503 0.211289 -0.024795 -0.033427 0.063540 0.087055 0.078639 -0.032435 0.017667 0.005812 0.044088 0.046998 0.044532 0.084222 -0.075892 -0.081855 0.024445 -0.040225 -0.020979 -0.156706 -0.025580 -0.059502 0.093005 0.088369 -0.019089 0.026250 0.017592 0.069709 0.051957 0.030855 0.056520 0.024652 -0.029055 0.139236 0.073326 -0.173841 0.053621 0.023251 0.049941 0.097463 0.013438 0.035820 -0.003137 0.049422 -0.013238 0.011667 -0.001444 -0.039223 0.018579 -0.042540 0.006705 -0.022385 0.018076 0.069819 0.066155 0.132576 0.033378 -0.007930 0.036739 -0.073574 -0.023406 -0.024142 -0.067827 0.016593 -0.098658 -0.019643 -0.013331 0.030662 0.021528 -0.020396 -0.042552 0.027913 -0.115627 0.078638 -0.057592 0.017275 -0.012106 0.020270 0.116794 0.005783 0.087169 0.006492 -0.173643 0.220750 -0.063572 0.041171 -0.117088 -0.026223 0.031657 0.071462 0.070743 -0.047295 0.084498 -0.228519 0.110407 0.027205 0.010987 -0.033587 0.069791 0.050026 0.065947 -0.020580 0.023814 -0.045816 -0.086728 -0.052724 0.000904 0.070316 -0.029245 0.035115 0.061171 -0.028355 -0.040077 0.034841 0.051920 0.093074 0.048085 0.004040 0.027813 0.055000 0.078873 0.021762 -0.001240 0.093253 0.009007 -0.127713 -0.056312 0.097970 0.078521 0.070138
236 -0.124589 0.051136 -0.066011 -0.085556 0.062678 -0.108804 0.083086 -0.085641 0.128340 0.004062 -0.163464 0.153292 -0.242561 0.047323 0.094810 -0.272592 0.246709 -0.134175 -0.038306 0.103799 -0.069275 -0.322583 -0.037694 0.233376 0.065952 -0.082259 -0.087301 -0.166117 0.152675 -0.116158 0.012343 0.116528 0.084023 0.047818 -0.089803 -0.195587 -0.067424 -0.077077 -0.001485 -0.065344 0.085312 0.283599 -0.034942 -0.001977 -0.090889 0.034794 0.056173 -0.273966 0.242298 0.044667 -0.155306 0.048647 0.064558 0.099570 0.093640 -0.210862 0.096835 0.130792 -0.135708 -0.075649 -0.095796 -0.089422 0.049946 0.064596 -0.254171 0.131082 0.095550 0.063801 0.149070 0.268507 0.035206 0.108582 0.069886 -0.209133 -0.188695 -0.258373 -0.065123 -0.125031 -0.086598 0.195178 -0.108992 0.041440 -0.169709 -0.249186 0.062658 -0.024676 -0.066743 0.048531 -0.119927 0.082875 0.124003 -0.099606 0.157294 -0.109572 -0.049818 0.040719 -0.105162 -0.131696 0.060178 0.099173 -0.088505 0.051941 -0.080103 0.173155 0.150524 -0.070621 0.160607 -0.124238 -0.211844 -0.039283 0.064765 -0.001867 0.166640 -0.036663 0.130790 0.004912 -0.286987 0.141945 -0.016327 -0.142895 0.299097 -0.229144 -0.066769 -0.097680 0.024119 -0.091058 0.071561 -0.037783 -0.141679 0.038071 -0.087748 0.005873 -0.052485 0.165239 -0.039448 0.002812 0.094137 0.085714 0.025983 0.084486 0.005002 -0.208080 -0.018775 0.049328 -0.036539 -0.102229 -0.029175 0.039896 0.020646 0.025539 -0.041148 0.058774 0.048794 0.009344 0.027366 0.045480 -0.048382 0.026689 0.037996 0.125656 -0.029987 -0.087328 0.003403 0.066467 0.026507 -0.009849 -0.134318 0.043559 -0.046049 0.045990 0.062001 0.017009 0.078476 0.093940 -0.005158 -0.012977 0.193484 0.050184 0.152438 0.080739 0.053055 0.116111 0.037168 -0.008925 -0.098999 -0.128507 0.100524 -0.007091 0.020252 -0.007286 0.074736 -0.143924 -0.024743 0.020759 0.069646 0.066231 0.072250 0.280189 0.084051 -0.082217 -0.074725 -0.066195 0.030268 -0.006372 0.033529 -0.006932 -0.020108 -0.045346 -0.053669 0.012372 -0.018795 0.026997 0.056920 0.010988 0.033411 0.063617 -0.090336 -0.041407 0.088133 0.009184 0.025734 -0.015102 -0.070723 0.079987 0.068031 -0.034735 -0.033756 0.004732 -0.022705 0.114720 0.048163 -0.087541 0.010643 -0.023275 -0.063199 -0.004005 0.017257 -0.027577 0.136607 0.091186 0.030217 0.026057 0.140520 0.039662 0.044173 0.016681 0.061311 -0.014399 -0.122502 0.013581 -0.029626 -0.084309 0.027638 -0.014318 -0.070979 -0.126246
496 0.065213 -0.063718 -0.184221 0.285819 -0.144732 -0.032404 0.019200 -0.219454 0.112759 0.060279 0.114083 0.209177 -0.074994 -0.275248 -0.011642 -0.013729 -0.102253 0.047255 -0.268018 -0.109546 -0.026266 0.046706 -0.097896 -0.160800 0.171144 -0.127706 0.053921 -0.092663 0.078581 -0.119532 -0.139508 -0.186530 0.094400 -0.081102 0.254864 -0.023864 0.282374 -0.100215 -0.122481 0.088909 -0.011817 -0.065509 -0.090751 -0.031043 -0.230331 -0.090774 -0.000778 -0.146828 -0.165796 0.101200 -0.158714 -0.098509 0.196626 0.012205 0.095719 0.000323 -0.153113 0.090742 -0.048004 -0.034943 -0.050473 0.311251 -0.202052 -0.054273 -0.173955 0.009145 -0.147560 -0.046080 0.102956 0.012579 0.094322 -0.026840 0.092653 -0.066822 0.240444 0.243985 0.029472 -0.054783 0.145029 -0.004029 -0.263031 0.210365 -0.005338 0.068806 0.078367 0.131729 0.070288 0.103217 -0.114976 0.252078 0.125964 0.132775 -0.088642 0.047790 -0.162684 0.056103 0.270806 0.098042 0.275917 -0.027258 0.112759 0.255080 -0.013937 -0.072892 -0.118257 -0.031793 0.028073 0.070510 0.196666 -0.037381 0.049780 -0.010877 -0.132762 -0.011432 0.061411 -0.100644 0.158999 0.212151 0.083646 -0.045487 0.210437 -0.037989 -0.221978 0.083069 0.092245 -0.024984 0.038811 0.143427 -0.029225 0.021289 0.071091 0.003439 0.089371 0.033944 0.109774 -0.102606 -0.026138 -0.024200 -0.011130 0.076491 0.108560 0.023917 0.095538 0.042373 -0.045331 0.020821 -0.187480 0.052233 0.068069 0.142610 -0.074999 0.108235 -0.021560 -0.121162 0.011119 -0.050950 0.047535 -0.045231 -0.031890 -0.055258 -0.033873 -0.126341 -0.130690 -0.079872 -0.041827 0.043468 0.076404 0.066214 0.088971 0.107888 0.040736 0.075309 -0.021676 0.055432 -0.021615 0.054740 0.066273 -0.119185 -0.041672 0.104005 -0.025037 0.020963 -0.067124 0.016557 -0.018789 -0.084854 -0.001654 -0.010438 0.004705 0.034194 0.010989 -0.061212 0.027322 0.043682 -0.002786 0.001506 -0.024004 0.002274 -0.113708 -0.124588 -0.024377 -0.070353 -0.114448 0.044080 0.082940 0.081809 0.057420 -0.020539 0.013418 0.003662 0.033118 0.069316 0.112983 0.054752 -0.128120 0.060974 0.089829 -0.009646 0.073727 0.043962 0.034938 -0.058568 -0.066302 0.036115 0.056753 -0.004150 0.120539 0.065592 0.026530 -0.100498 -0.016993 -0.088019 -0.029968 0.060977 -0.084082 0.101528 -0.088362 0.115399 0.071218 -0.084310 -0.020548 -0.177327 0.186022 0.063246 0.061044 0.046119 0.082664 -0.065971 0.081532 -0.009676 0.011053 0.006270 -0.028199 0.054282 0.020328 0.022766
405 0.064868 -0.042812 0.220802 -0.012880 -0.063419 -0.092563 0.153802 -0.051247 0.035728 -0.093414 0.018687 -0.088280 0.096356 0.093370 0.184679 0.065219 0.052391 0.031937 -0.182652 0.082453 0.024639 -0.088011 0.251794 0.188830 0.173620 -0.108275 0.050397 -0.356063 -0.248776 0.021558 -0.048937 0.073126 -0.045821 -0.149451 0.067088 -0.192852 0.112496 0.065365 0.025956 0.000731 0.054227 -0.021094 0.260199 0.253343 -0.164999 0.043272 0.077927 0.090382 0.070816 -0.108447 -0.048340 -0.071215 0.032740 0.095410 0.212315 -0.201277 -0.017502 0.139856 -0.257080 -0.254375 0.125058 0.124093 -0.083709 0.039296 -0.009704 0.329417 0.062387 -0.092959 -0.022690 0.107584 -0.147812 0.061887 -0.046127 -0.144331 0.139246 0.171226 0.211568 0.039266 0.146637 -0.128940 -0.119973 0.039730 0.041559 0.128486 0.158380 0.085764 -0.026658 -0.011071 -0.070468 -0.040800 0.223279 -0.075870 -0.062139 -0.058669 -0.020593 0.116638 -0.117967 -0.094920 0.222098 -0.106538 -0.025280 -0.120257 0.110663 0.149808 0.046886 -0.134901 -0.133446 -0.010801 -0.170431 0.249877 -0.034827 -0.058852 -0.139349 -0.088490 0.049360 0.146707 0.018760 -0.054849 -0.007988 -0.164060 0.202865 0.112288 -0.009643 -0.211957 -0.025582 -0.209398 0.083046 0.081944 -0.026692 0.028990 -0.016349 -0.062424 -0.084074 -0.104230 0.075091 0.001390 -0.103361 0.123382 0.016884 0.037261 -0.036900 0.025289 0.075823 -0.053720 0.008792 0.037358 -0.015409 -0.000602 0.086515 -0.039781 0.014284 0.026520 0.000384 0.054964 0.088537 -0.028676 -0.047992 -0.011939 0.177317 -0.047203 0.000350 -0.047591 0.005774 0.089037 0.191869 -0.059304 0.036715 -0.036933 0.003352 0.085645 -0.025282 -0.092922 -0.026279 0.023991 0.054243 -0.036975 0.099900 0.035198 -0.022762 0.026661 0.009458 0.052534 -0.034993 0.017745 0.078859 -0.031297 0.100455 -0.000936 -0.078316 0.106729 -0.024692 -0.037851 0.000125 -0.232732 0.027713 -0.036856 0.042763 0.156023 -0.104968 -0.080417 -0.150974 -0.069337 -0.045163 0.011330 -0.061789 -0.013120 0.039148 -0.121464 -0.070066 -0.018982 0.039152 0.069060 -0.054769 -0.016983 -0.054649 -0.021594 -0.061124 0.032299 0.119283 -0.100793 0.082571 0.011494 -0.041489 -0.102996 -0.046086 -0.069383 0.034240 0.076073 -0.018244 -0.000913 -0.094221 0.040366 0.112986 0.084736 0.004504 0.049218 0.023228 0.023730 0.157898 -0.140889 0.104756 -0.144049 0.072898 0.011699 0.121156 0.079274 0.220022 0.159482 -0.023033 0.022914 -0.024467 0.055560 -0.024628 -0.144339 -0.053796 0.026462
27 0.181470 -0.063900 -0.194539 -0.157459 0.033977 0.133642 0.185881 -0.090248 0.007246 0.097056 0.128160 -0.013689 0.050383 -0.210358 0.124483 -0.064508 0.225662 -0.116695 -0.010770 0.043797 0.330544 -0.123165 0.150850 0.087018 0.141085 -0.048818 0.066505 0.112011 0.026230 0.050383 -0.127262 0.018306 -0.090295 0.017840 0.007770 0.140095 -0.007874 -0.114981 -0.021826 0.097606 -0.001189 0.127069 0.094718 0.001922 0.044807 0.167822 0.054508 0.037716 -0.161444 0.022078 -0.103982 -0.147533 0.112998 -0.115452 0.163906 -0.059875 0.169576 0.085920 -0.072750 -0.024866 0.156125 -0.029949 0.105371 0.004697 0.135198 0.146279 0.101403 -0.138276 -0.200192 0.293248 -0.031161 -0.113384 -0.121030 -0.110921 0.034194 0.126906 -0.014983 -0.075391 0.353784 0.068808 -0.173010 -0.049590 -0.131298 0.004050 -0.052692 -0.263087 0.114354 -0.112777 -0.204034 0.147863 0.087622 -0.014399 0.029883 -0.099855 -0.075624 -0.131922 -0.041931 0.107142 0.077025 0.061915 -0.269334 0.125462 0.064003 -0.053114 0.122812 0.221647 0.233973 -0.130013 0.135349 0.135175 -0.029293 0.067603 0.089090 0.240388 0.048348 0.126191 -0.066094 -0.039729 0.085029 -0.178753 -0.036380 -0.041874 0.005034 -0.099493 0.044695 0.055902 0.015590 -0.066456 -0.118312 0.009540 -0.075904 -0.042841 0.058588 0.011767 -0.006724 -0.015239 -0.005642 -0.042006 -0.105555 -0.001086 -0.056990 -0.045873 -0.123447 -0.135344 0.011289 0.073281 0.063201 -0.072379 0.092540 -0.037517 0.019576 0.068580 0.071692 0.019415 -0.144277 0.144206 0.006037 -0.072081 0.019388 -0.047737 -0.038533 -0.136427 0.156848 -0.029546 -0.056937 -0.027017 -0.050147 -0.100466 -0.076372 0.003496 0.060864 -0.019526 0.086843 0.087087 -0.001098 -0.020084 -0.077206 0.004542 0.084756 0.168889 -0.007345 0.038204 -0.001026 0.004869 -0.021847 0.035578 0.022735 -0.052596 0.002604 -0.022455 -0.091804 0.038203 0.021488 0.030744 0.123413 0.070273 -0.054264 0.061598 -0.015685 -0.133154 0.040864 0.094745 0.023102 0.181172 0.020734 -0.060896 0.093008 -0.239785 -0.015561 0.052858 0.033993 0.042667 -0.011411 0.068059 0.033321 0.068784 -0.007905 0.028840 0.103356 0.142206 0.058958 0.040066 -0.083657 0.016872 0.059354 0.015011 0.069351 -0.021428 -0.001752 -0.075959 0.077598 -0.004999 -0.055768 -0.051975 0.095403 0.007063 0.038909 0.018909 0.019170 -0.006430 0.104242 -0.028087 0.123720 -0.064963 -0.002959 0.024768 0.074485 -0.025490 -0.090759 -0.005066 0.124672 0.051640 0.056128 0.054580 0.150683 0.029912
76 -0.060426 0.003043 -0.075933 -0.214765 -0.075995 0.051933 0.083651 0.200063 0.082740 0.003398 -0.046982 0.139243 0.069825 0.043754 0.241429 0.033625 -0.054968 0.072579 -0.364257 0.056333 -0.180655 0.058749 0.131158 0.233396 0.137544 -0.048820 -0.036002 -0.002442 0.122692 -0.142941 0.020237 0.116469 0.145469 -0.093529 0.062489 -0.173237 -0.113944 -0.054482 -0.343281 0.157586 0.079462 0.084857 0.162935 0.052057 0.216579 0.155459 -0.163135 -0.148350 0.057888 0.204424 -0.056995 0.038919 0.147654 0.006164 0.375648 -0.053468 0.141608 -0.026479 -0.190638 0.012696 -0.149594 -0.135587 0.029243 0.090951 0.007420 -0.041370 0.128039 0.193172 0.260691 0.137277 0.195672 0.055913 0.025720 0.158512 0.196327 0.054043 0.252510 0.101242 0.009587 0.046317 0.046939 0.003850 -0.110476 -0.051834 0.201315 -0.034996 0.034197 -0.199839 -0.118223 0.053164 0.084094 0.074574 -0.093504 -0.074486 0.116103 0.071424 0.082934 -0.095828 -0.001113 -0.239692 -0.174116 0.177844 0.128868 -0.112346 0.220175 0.049138 -0.133100 -0.153830 0.113589 0.107497 0.217872 0.034041 -0.011326 -0.050146 0.158915 -0.125624 -0.152443 0.060439 -0.011702 -0.185496 -0.057866 0.059645 0.122457 -0.131248 0.183444 0.033009 -0.017817 0.178064 -0.082662 0.036991 -0.076770 0.016731 -0.024626 -0.022339 -0.186455 0.107093 0.070958 0.015917 -0.055614 -0.000856 0.055403 -0.029301 -0.064225 -0.000025 0.037974 0.036244 -0.105211 -0.069487 0.113228 0.012118 0.003094 0.042075 0.085220 -0.034913 -0.088049 0.037091 0.029336 0.053295 0.012891 -0.119133 0.140732 -0.045046 -0.125094 0.050062 0.066017 -0.053355 -0.108787 0.001949 -0.019836 0.098814 -0.042905 -0.049872 -0.027425 0.068367 -0.128752 -0.051629 0.093220 -0.035870 0.014626 -0.010306 0.056377 0.009099 -0.015995 0.066202 -0.085848 -0.096225 -0.057811 -0.068433 -0.087322 -0.023871 0.120896 -0.020064 -0.006344 -0.101610 0.129495 -0.065339 0.025595 0.006664 0.000441 0.018461 0.007732 -0.005830 -0.024162 0.126787 0.135074 -0.063566 0.086600 -0.072134 -0.013659 0.007672 -0.046035 -0.035625 -0.036103 0.104196 -0.079308 0.054601 0.116347 0.000084 0.038386 0.029226 0.046472 -0.071960 0.091237 0.092301 -0.062220 -0.097798 -0.075091 -0.088752 0.066093 -0.049684 -0.064933 -0.239845 -0.088037 0.109641 -0.066465 -0.062362 0.014473 -0.054982 -0.064695 -0.029649 0.121279 -0.020344 -0.023209 -0.012217 0.083507 -0.025049 0.022230 -0.003195 -0.026872 -0.057649 -0.028648 -0.032146 0.073546 0.017319 -0.002672 -0.019363
361 -0.144915 -0.186879 0.103490 0.101814 0.125909 -0.005526 -0.050392 -0.281830 -0.303889 -0.144345 -0.042723 0.138284 0.122877 -0.167034 0.011038 -0.098868 -0.078928 0.037659 0.111096 0.149617 0.039678 -0.053632 -0.158936 0.225117 0.093665 -0.026443 0.088659 -0.083711 -0.082603 -0.191889 0.124369 -0.035608 0.001871 0.042106 0.055956 -0.130200 0.046818 0.062844 -0.163705 -0.047783 0.138652 0.003484 0.289834 0.058048 0.022454 0.158747 0.096672 -0.132615 -0.093725 -0.063035 -0.103584 -0.016915 -0.116849 0.001726 -0.009306 0.011655 0.215849 0.198371 0.167576 0.052354 0.224625 -0.062100 -0.148166 -0.281096 0.121430 0.078201 -0.216035 -0.151977 -0.119385 -0.055972 0.217345 -0.059279 0.114072 0.155483 0.091061 0.245933 0.253920 0.038214 0.001350 -0.166141 -0.101444 0.125373 -0.204288 0.057275 0.157312 -0.065085 -0.011139 -0.029803 0.080295 0.031060 0.035906 -0.142325 -0.277764 -0.148184 0.224884 0.136781 0.039669 -0.007388 -0.217995 -0.045410 -0.071016 -0.008967 0.288572 -0.192674 -0.032414 0.046038 -0.008259 -0.116514 -0.004214 0.012243 0.293000 -0.101725 -0.030504 0.093374 0.091534 -0.006180 -0.205271 -0.112754 0.001485 -0.159165 0.109915 -0.175316 -0.070629 -0.061197 0.292588 0.019728 0.094625 0.095350 -0.118312 0.009540 -0.075904 -0.042841 0.058588 0.011767 -0.006724 -0.015239 -0.005642 -0.042006 -0.105555 -0.001086 -0.056990 -0.045873 -0.123447 -0.135344 0.011289 0.073281 0.063201 -0.072379 0.092540 -0.037517 0.019576 0.068580 0.071692 0.019415 -0.144277 0.144206 0.006037 -0.072081 0.019388 -0.047737 -0.038533 -0.136427 0.156848 -0.029546 -0.056937 -0.027017 -0.050147 -0.100466 -0.076372 0.003496 0.060864 -0.019526 0.086843 0.087087 -0.001098 -0.020084 -0.077206 0.004542 0.084756 0.168889 -0.007345 0.038204 -0.001026 0.004869 -0.021847 0.035578 0.022735 -0.052596 0.002604 -0.022455 -0.091804 0.038203 0.021488 0.030744 0.123413 0.070273 -0.054264 0.061598 -0.015685 -0.133154 0.040864 0.094745 0.023102 0.181172 0.020734 -0.060896 0.093008 -0.239785 -0.015561 0.052858 0.033993 0.042667 -0.011411 0.068059 0.033321 0.068784 -0.007905 0.028840 0.103356 0.142206 0.058958 0.040066 -0.083657 0.016872 0.059354 0.015011 0.069351 -0.021428 -0.001752 -0.075959 0.077598 -0.004999 -0.055768 -0.051975 0.095403 0.007063 0.038909 0.018909 0.019170 -0.006430 0.104242 -0.028087 0.123720 -0.064963 -0.002959 0.024768 0.074485 -0.025490 -0.090759 -0.005066 0.124672 0.051640 0.056128 0.054580 0.150683 0.029912
433 -0.308505 -0.034647 -0.020974 -0.188624 0.105257 -0.010780 0.093394 0.128865 -0.074252 0.047628 0.043931 -0.125132 0.124588 -0.098544 -0.027411 -0.030204 -0.030032 -0.070345 -0.021892 -0.151886 -0.104557 -0.231345 -0.007894 -0.032004 0.105908 -0.022656 -0.058138 0.021310 0.107175 0.122469 0.111754 -0.104769 0.015302 -0.079477 -0.131671 -0.146730 -0.046973 -0.171369 -0.019500 0.051950 0.188065 -0.096109 0.111934 -0.056341 -0.167170 0.222506 -0.004185 -0.143848 -0.112459 0.210100 -0.193722 -0.069194 0.182364 0.389186 0.096909 -0.247035 -0.054523 0.268444 -0.066597 -0.130929 -0.092823 -0.066017 0.132203 -0.067858 0.068232 0.176427 0.097807 -0.037591 0.026049 0.177820 0.075989 -0.121016 0.051910 -0.286966 0.077889 0.020200 0.108129 0.050214 0.079832 -0.002150 0.019778 0.044731 0.006964 0.278286 0.070311 -0.022437 -0.120671 0.017619 0.072601 -0.034031 0.096316 0.109463 0.350230 0.131281 0.206673 0.190549 -0.255319 -0.125019 0.021043 -0.045173 0.123909 -0.137546 -0.091326 -0.247084 0.072904 -0.135055 0.016714 0.070457 0.070216 0.058074 0.055018 0.014886 0.187785 0.015601 0.147525 0.237926 -0.052531 0.175247 -0.148696 -0.324769 0.216017 0.119832 -0.033780 -0.050871 0.123023 0.102202 -0.046188 -0.172602 -0.056226 -0.022543 0.020807 0.078387 0.006066 0.043344 0.070596 -0.095802 -0.011248 -0.218045 0.027790 -0.081388 -0.047505 0.002389 -0.054508 -0.092100 0.028882 -0.068028 -0.040213 -0.052364 0.040506 -0.001195 -0.089662 0.077657 -0.020197 -0.089292 -0.229780 -0.009094 -0.013455 0.124793 0.055705 -0.024760 -0.029191 0.034348 0.012398 0.016442 0.017809 0.003231 -0.003489 0.010322 0.035132 -0.008704 0.097095 -0.019136 0.016421 0.117880 0.127434 0.005946 0.063548 0.004560 -0.009088 -0.026326 0.048484 0.152600 -0.048137 -0.000394 0.063156 0.144209 -0.043764 0.006498 0.046794 -0.028637 -0.000735 -0.153760 -0.167192 -0.017155 0.029634 0.032250 -0.195852 0.024468 -0.029387 0.039740 -0.019320 -0.136497 -0.005645 0.153269 0.020226 -0.015954 0.024165 -0.100707 -0.085421 -0.014696 0.010453 0.026198 -0.079053 -0.052144 -0.107270 0.104256 0.036128 -0.090239 0.033467 -0.170185 0.137843 -0.054223 -0.075649 0.052056 0.059942 -0.001995 0.052093 0.030210 0.046238 0.010711 -0.031058 -0.110339 -0.049723 -0.026886 0.015380 -0.038698 0.052197 0.070506 0.037079 -0.017025 0.075521 -0.140440 -0.009269 0.006029 0.062360 -0.000099 0.063269 0.060506 0.003428 -0.021514 -0.103549 -0.011375 0.041433 -0.010908 0.016427 -0.027622
267 -0.011419 0.249821 -0.025573 0.103526 -0.003414 -0.285887 -0.117900 -0.179265 -0.086468 0.008900 -0.357265 0.193978 -0.121487 0.021010 0.062404 -0.121151 0.124673 -0.055718 0.069305 -0.074512 0.024579 -0.136448 0.002742 -0.063536 0.225080 0.168396 -0.128053 -0.006542 -0.195184 -0.081716 -0.206012 0.102256 -0.255767 -0.043154 0.041700 -0.151075 0.261468 0.061783 -0.014818 0.176383 -0.150875 0.401039 0.008212 0.108167 0.018056 0.076275 0.047021 -0.360570 0.001695 0.113156 -0.154694 -0.159888 0.124252 0.123505 0.122414 -0.045810 -0.105433 0.249317 0.115214 0.138181 0.114110 0.163830 -0.119602 0.173962 -0.068959 0.100920 0.049988 0.130340 -0.068431 0.068021 0.126356 -0.009155 0.028275 -0.147607 0.141305 -0.321569 0.006628 -0.228734 -0.127871 -0.230226 -0.342316 0.081671 0.051382 0.074645 0.005149 -0.023039 -0.118914 -0.049067 0.151885 0.095409 0.104024 0.011396 0.152461 0.088263 0.216655 0.089708 0.122172 -0.303823 0.005597 0.092374 -0.036553 0.011316 0.285190 0.138137 0.036285 -0.009093 0.054970 -0.192471 -0.023844 -0.181237 -0.049227 -0.105681 0.002284 -0.161118 0.091559 -0.093807 -0.417391 0.219873 0.091562 -0.208578 -0.042255 0.029542 0.100755 0.079917 -0.026886 -0.036776 0.118477 -0.015181 -0.003564 -0.071278 -0.037941 0.012352 -0.086648 -0.014553 -0.019013 0.043031 0.009344 -0.142304 0.011869 -0.012406 0.043215 0.138032 -0.048787 0.014419 0.013923 -0.019029 -0.063434 -0.001063 -0.017589 0.050205 -0.119766 0.057739 0.146469 -0.100906 -0.042181 -0.084624 0.026261 0.098778 -0.020009 0.036839 -0.005313 -0.075370 -0.023225 0.096213 0.003460 0.024543 -0.142965 0.106362 -0.156019 0.076982 0.031263 0.084068 -0.007782 0.132058 -0.001354 -0.042823 0.139786 0.113876 -0.093663 0.065646 -0.001625 0.004374 0.012323 0.011155 -0.083036 -0.037419 0.021022 -0.045092 -0.055507 -0.049477 -0.115771 -0.016281 0.189769 -0.075468 0.079222 -0.038393 -0.032844 -0.005923 -0.076270 -0.023124 -0.182843 -0.074197 0.026754 0.025750 0.017504 -0.054690 0.051272 -0.017842 0.008112 0.058543 -0.076465 -0.060456 0.010272 0.027444 -0.019043 0.143936 0.044381 0.083354 0.023618 -0.100104 -0.034119 -0.061983 0.005645 0.093217 0.073446 0.016863 0.013724 -0.061992 -0.015688 -0.011960 0.106271 0.027551 0.054673 -0.030574 0.057829 -0.195332 0.043017 0.111756 -0.065955 -0.007603 0.018175 -0.026042 0.006817 0.014613 0.010983 0.035850 0.071872 0.051370 -0.053893 0.059693 -0.032059 -0.040056 0.042285 0.048899 0.094846 0.089979
483 -0.090653 -0.104430 -0.150377 0.194545 0.002667 -0.124645 0.184684 0.014537 0.258647 0.020214 -0.088160 0.227926 -0.160960 -0.159149 0.039304 -0.012313 0.077876 -0.128796 -0.149960 0.102001 -0.035642 -0.123823 0.041250 0.071911 -0.012153 0.019683 -0.184362 0.042581 0.070291 0.255735 -0.311219 -0.041036 -0.172336 -0.210714 0.200106 0.013564 0.232633 -0.043720 -0.045795 0.005937 -0.018629 0.033331 0.046992 -0.204623 -0.000388 -0.019117 -0.171611 0.040504 0.166676 0.074655 -0.261639 0.055653 -0.031577 -0.172050 0.176134 0.141020 0.010704 -0.096333 -0.082685 0.230006 -0.161818 -0.083823 0.065074 0.021459 0.006934 -0.055770 0.048537 0.161508 0.040989 -0.073305 0.147250 -0.084177 0.072615 -0.178507 0.050835 0.107052 0.282546 0.134446 0.018043 -0.240272 -0.086895 0.146709 -0.039369 0.023967 0.000027 -0.058580 0.340584 -0.068461 -0.001376 0.010646 0.148362 0.210095 0.043597 -0.045972 -0.039881 -0.155846 0.024848 -0.213287 -0.042784 0.031400 -0.104633 0.052894 -0.092146 0.058745 0.321047 0.003450 0.337584 0.046494 -0.037504 0.106454 0.103128 0.240574 -0.077379 -0.167493 0.214937 0.074710 0.018338 0.160214 0.091137 -0.133328 0.186550 0.113682 -0.123232 0.196958 0.101233 -0.038837 0.245546 -0.126816 -0.059783 -0.046066 -0.102417 0.062585 -0.012282 0.084800 -0.030522 0.036933 0.061425 -0.024946 0.114166 0.004083 -0.033784 0.036200 -0.055488 -0.044253 -0.018962 -0.064270 -0.060396 -0.003306 0.062710 -0.157090 0.056904 -0.140548 0.067784 -0.095536 0.046599 0.032082 0.165639 -0.022051 -0.014049 0.017786 -0.061120 -0.085851 0.055853 -0.028016 0.118591 0.001916 -0.041576 -0.041357 0.063414 0.024521 0.056112 -0.074842 0.075884 0.183462 0.007075 -0.057443 -0.090214 -0.052218 -0.030145 0.074490 0.128848 -0.007597 0.004823 0.075972 -0.035967 0.014618 0.040470 0.011486 -0.103157 -0.047297 0.067973 -0.149411 0.043800 0.022088 0.021695 0.027583 -0.054942 -0.024522 -0.141205 0.040044 -0.128037 -0.088884 0.048033 0.047416 0.005828 -0.076048 0.100717 -0.079457 0.069151 0.127574 0.115202 0.044566 -0.048047 -0.009198 -0.017654 0.150172 -0.007686 0.106676 0.086897 -0.055606 -0.117498 -0.026585 -0.015493 -0.022524 0.010472 -0.076768 0.054350 0.021185 -0.091732 0.021626 -0.022079 -0.031698 0.064026 0.068439 0.045210 0.020519 -0.045579 -0.077400 -0.003348 0.076264 0.055668 -0.171686 0.016802 -0.072929 0.011057 -0.031979 0.102373 0.007526 0.011657 -0.044674 0.037182 -0.029074 -0.111538 -0.016532 -0.009054 0.041228
481 0.006802 -0.077560 -0.062950 -0.052160 0.056956 0.003283 0.047295 -0.211551 0.014995 0.178602 -0.151280 0.107462 -0.009561 -0.179505 0.071621 -0.178389 -0.086349 -0.117220 0.020020 -0.040598 0.064524 -0.069806 0.033612 -0.151524 -0.077323 -0.088671 0.072644 -0.029548 0.110288 -0.004100 0.313515 0.281294 0.055932 0.037672 0.006162 -0.192438 0.092514 -0.022041 0.160132 0.208618 0.056807 -0.057186 -0.006140 -0.209993 -0.015525 -0.077544 -0.073730 -0.079581 -0.223128 -0.204865 0.006173 -0.313428 -0.015022 0.148276 0.129238 -0.090449 -0.197246 0.272555 -0.094205 0.100327 -0.088592 -0.021907 -0.169877 -0.051589 0.095926 0.056505 -0.210391 -0.340668 -0.054241 -0.110642 0.125542 -0.076138 0.273791 -0.181158 -0.007081 0.074709 0.186655 -0.175448 0.011995 -0.136778 -0.101739 -0.300314 -0.020924 0.075207 -0.048517 0.088431 0.285798 0.050680 0.011064 0.076207 0.112038 0.022972 -0.047371 0.080043 0.273103 0.074651 -0.121344 -0.124432 0.041484 0.152182 -0.069840 0.074037 -0.049338 0.157213 0.298696 -0.104376 -0.026819 -0.172360 0.008490 0.247245 0.111930 0.103398 -0.042099 0.025907 0.107972 0.101317 0.014542 0.032281 0.163743 0.010315 0.270669 0.022500 0.210723 0.007566 0.145396 0.108261 -0.146961 -0.086051 -0.141679 0.038071 -0.087748 0.005873 -0.052485 0.165239 -0.039448 0.002812 0.094137 0.085714 0.025983 0.084486 0.005002 -0.208080 -0.018775 0.049328 -0.036539 -0.102229 -0.029175 0.039896 0.020646 0.025539 -0.041148 0.058774 0.048794 0.009344 0.027366 0.045480 -0.048382 0.026689 0.037996 0.125656 -0.029987 -0.087328 0.003403 0.066467 0.026507 -0.009849 -0.134318 0.043559 -0.046049 0.045990 0.062001 0.017009 0.078476 0.093940 -0.005158 -0.012977 0.193484 0.050184 0.152438 0.080739 0.053055 0.116111 0.037168 -0.008925 -0.098999 -0.128507 0.100524 -0.007091 0.020252 -0.007286 0.074736 -0.143924 -0.024743 0.020759 0.069646 0.066231 0.072250 0.280189 0.084051 -0.082217 -0.074725 -0.066195 0.030268 -0.006372 0.033529 -0.006932 -0.020108 -0.045346 -0.053669 0.012372 -0.018795 0.026997 0.056920 0.010988 0.033411 0.063617 -0.090336 -0.041407 0.088133 0.009184 0.025734 -0.015102 -0.070723 0.079987 0.068031 -0.034735 -0.033756 0.004732 -0.022705 0.114720 0.048163 -0.087541 0.010643 -0.023275 -0.063199 -0.004005 0.017257 -0.027577 0.136607 0.091186 0.030217 0.026057 0.140520 0.039662 0.044173 0.016681 0.061311 -0.014399 -0.122502 0.013581 -0.029626 -0.084309 0.027638 -0.014318 -0.070979 -0.126246
221 -0.034156 -0.001207 0.215822 -0.010531 -0.139132 -0.054800 0.067206 -0.029993 0.022834 0.115759 -0.023259 0.281705 0.393183 -0.347692 0.062530 -0.046139 -0.000892 -0.038211 0.027316 0.104773 -0.058669 0.092472 0.189793 -0.057490 -0.358726 -0.178282 -0.032867 -0.052170 -0.137372 0.152460 -0.229158 -0.054442 0.034009 0.137785 0.052324 -0.096488 -0.062537 -0.147957 -0.092636 0.094085 0.169877 0.156310 0.069289 0.052383 0.036857 0.286399 0.118284 0.019502 0.055910 0.081955 -0.188146 -0.235464 0.011093 0.223106 0.226465 -0.204213 0.111390 0.016618 -0.186175 0.066774 -0.025869 0.085529 0.037240 0.036225 0.213251 0.190320 -0.021588 0.059995 0.086461 -0.048786 -0.141275 0.099900 -0.027404 -0.011350 0.014970 0.010299 0.026678 0.028441 0.253302 -0.059033 0.037319 0.088901 0.007474 -0.167849 -0.035095 0.082785 -0.063999 0.140328 -0.364742 0.043811 -0.096674 0.153006 -0.048412 -0.152866 -0.123738 0.176724 0.156585 -0.009964 -0.093634 0.014467 -0.050346 -0.293131 -0.035145 -0.202354 0.084117 0.100356 0.144017 -0.095178 0.196215 0.019682 0.117536 -0.182291 -0.129371 -0.255201 0.086618 0.005560 -0.017353 0.176972 0.144701 -0.098444 0.325770 -0.086214 -0.121294 0.074453 0.063223 0.112079 -0.113828 -0.039981 -0.091041 -0.028788 0.008335 -0.035011 0.086325 0.091668 0.003494 -0.028596 0.075327 -0.054163 0.179239 -0.064001 -0.001238 0.070861 0.022192 -0.165294 0.029805 0.039730 -0.067729 -0.007507 -0.029625 0.071807 0.037765 -0.001879 0.012577 -0.050887 -0.139571 -0.051091 -0.071107 0.000104 0.078426 -0.091788 0.062053 0.017272 0.000622 -0.034732 0.005989 -0.127025 0.042354 -0.087586 -0.006449 0.179453 -0.062424 0.074737 0.016796 0.025920 -0.023595 -0.052238 0.138127 0.063569 0.114415 -0.030397 -0.024119 -0.019915 -0.012801 0.020536 -0.006506 0.006817 -0.024161 -0.136601 0.030162 -0.070657 -0.036583 -0.060542 0.082185 0.008600 0.087397 -0.060446 -0.037736 0.069467 0.036492 0.032674 -0.095811 -0.024916 -0.094917 -0.058387 -0.031103 -0.084253 0.001151 -0.025147 -0.005840 0.060739 0.009516 -0.051923 0.011824 -0.013104 -0.031610 0.039519 0.043119 0.000677 0.177745 -0.069256 0.101014 -0.010211 0.019056 -0.006208 0.099866 -0.058689 0.085790 -0.074028 0.031108 0.067639 0.058607 0.022949 -0.067838 0.165374 0.074492 -0.089379 0.026828 -0.019291 0.097646 -0.122082 0.013113 -0.065804 0.024738 -0.015071 0.009425 0.113405 0.071553 -0.012358 -0.046016 -0.155406 0.065035 -0.014469 0.024088 -0.035765 0.075850 0.032292
312 0.074441 -0.089162 -0.263696 -0.064596 0.109440 -0.038344 -0.042756 -0.055954 0.099385 -0.033035 0.011434 0.117520 0.017190 -0.093138 0.067323 -0.121108 -0.334581 0.068765 0.023071 -0.021773 -0.109252 0.017659 0.023892 -0.010864 0.102193 0.087800 0.095083 -0.081365 -0.058307 -0.146904 -0.112780 -0.323894 -0.033159 -0.049976 0.140183 0.015529 0.170924 -0.039252 -0.280238 0.206566 0.075151 0.014591 -0.059446 -0.213696 0.080909 -0.032977 -0.046295 0.026536 -0.066927 0.225314 -0.243712 -0.152428 0.210576 0.129913 0.183534 0.064048 0.089437 -0.100395 -0.064703 -0.241528 0.012159 -0.113535 -0.017279 -0.045028 0.027709 0.049466 -0.005376 0.025282 -0.127813 -0.176302 -0.060343 0.189238 0.003714 -0.202637 0.376437 0.117148 -0.013295 0.176850 0.054950 -0.039974 0.070901 0.076796 -0.045921 0.052338 0.132369 0.157329 0.035580 0.052304 0.006610 0.008214 0.000609 0.013906 0.209379 -0.089254 0.056581 0.268143 0.145128 0.113946 -0.112590 -0.057665 -0.290945 0.105702 0.138200 -0.186783 0.072045 -0.029248 0.219037 -0.236922 0.042458 -0.041619 0.132837 -0.190430 -0.060979 0.100982 0.056062 -0.055098 0.045776 -0.001280 0.142953 -0.106897 0.084017 0.196157 0.058733 -0.035214 -0.028207 0.046640 -0.126280 -0.007600 -0.026264 -0.061217 0.053557 0.095717 0.152575 0.021746 -0.090402 0.094923 0.034760 0.009642 -0.035174 0.009895 -0.100772 0.041215 0.007115 -0.025025 0.097515 0.014483 0.015477 -0.093561 0.019383 -0.004736 -0.028621 0.089973 -0.133278 0.082890 0.079791 -0.102416 0.184782 0.037949 -0.054674 -0.011155 -0.070776 0.029829 0.077537 0.087274 0.050960 0.036632 -0.052895 0.128822 -0.018721 0.008792 0.002446 0.040244 -0.066154 -0.100150 0.080514 -0.194271 0.158068 -0.132729 -0.047128 -0.037812 0.059571 0.114240 -0.075959 0.027434 -0.087281 -0.047519 -0.058562 -0.054999 0.021282 -0.023660 0.000710 -0.171826 -0.040695 0.007170 0.020780 -0.062448 -0.054695 -0.056543 0.044662 0.045866 -0.104010 0.073202 -0.024152 -0.051077 0.049364 0.043776 0.043549 -0.123218 -0.013925 0.089146 0.118474 0.075979 0.000887 0.082966 0.044028 0.041864 0.046871 -0.019028 -0.050458 -0.037944 0.090554 0.110153 0.016016 0.061774 0.082527 -0.045909 -0.061178 -0.098967 -0.022843 -0.043261 0.093488 -0.081340 -0.125549 -0.051798 0.002549 0.029152 0.114811 -0.061334 0.037212 -0.123270 0.099852 -0.150307 0.037753 0.009293 0.135661 0.082617 0.090474 -0.081703 0.072695 -0.007448 0.018829 -0.007934 0.023121 0.002926 0.037903 -0.094918
430 -0.094994 0.076122 -0.154500 0.190414 0.186548 -0.065362 -0.302382 -0.108700 -0.018554 0.105716 0.032974 -0.144037 0.017726 0.131977 -0.045998 -0.119139 -0.036608 0.010121 -0.038897 0.039890 -0.228721 0.047964 0.100840 0.055951 0.007370 -0.014495 0.248652 0.033003 0.068026 -0.115625 0.017075 -0.018623 -0.034482 -0.099480 -0.122306 -0.032275 0.103507 0.162172 0.002050 0.175523 -0.013496 0.063250 0.023042 0.117709 -0.234367 -0.030506 0.143342 -0.357447 -0.137958 0.017093 -0.081594 -0.040007 -0.150467 -0.042321 0.041666 -0.057060 0.085034 0.041716 -0.295524 -0.275155 0.115544 -0.053545 -0.028434 -0.170032 0.264941 0.046702 -0.131396 -0.089167 -0.068287 -0.108201 0.136387 -0.143970 0.021533 -0.082658 0.092626 0.069564 0.248690 0.063235 0.099687 -0.043007 0.250324 -0.014697 0.168998 0.088576 0.028526 -0.042813 0.166099 0.107261 -0.005768 -0.157715 0.147170 0.243754 0.209523 -0.065385 0.070236 -0.048356 0.252794 -0.196513 0.079067 0.159212 -0.052438 0.051419 0.114521 0.046000 0.066163 0.193291 0.088059 -0.047393 0.023322 0.092776 0.108887 0.182585 0.217554 -0.073191 0.056139 0.164369 -0.157967 0.190867 0.141387 -0.237781 0.054556 -0.148185 0.030793 0.174585 0.044020 -0.386351 0.003101 0.099406 -0.091041 -0.028788 0.008335 -0.035011 0.086325 0.091668 0.003494 -0.028596 0.075327 -0.054163 0.179239 -0.064001 -0.001238 0.070861 0.022192 -0.165294 0.029805 0.039730 -0.067729 -0.007507 -0.029625 0.071807 0.037765 -0.001879 0.012577 -0.050887 -0.139571 -0.051091 -0.071107 0.000104 0.078426 -0.091788 0.062053 0.017272 0.000622 -0.034732 0.005989 -0.127025 0.042354 -0.087586 -0.006449 0.179453 -0.062424 0.074737 0.016796 0.025920 -0.023595 -0.052238 0.138127 0.063569 0.114415 -0.030397 -0.024119 -0.019915 -0.012801 0.020536 -0.006506 0.006817 -0.024161 -0.136601 0.030162 -0.070657 -0.036583 -0.060542 0.082185 0.008600 0.087397 -0.060446 -0.037736 0.069467 0.036492 0.032674 -0.095811 -0.024916 -0.094917 -0.058387 -0.031103 -0.084253 0.001151 -0.025147 -0.005840 0.060739 0.009516 -0.051923 0.011824 -0.013104 -0.031610 0.039519 0.043119 0.000677 0.177745 -0.069256 0.101014 -0.010211 0.019056 -0.006208 0.099866 -0.058689 0.085790 -0.074028 0.031108 0.067639 0.058607 0.022949 -0.067838 0.165374 0.074492 -0.089379 0.026828 -0.019291 0.097646 -0.122082 0.013113 -0.065804 0.024738 -0.015071 0.009425 0.113405 0.071553 -0.012358 -0.046016 -0.155406 0.065035 -0.014469 0.024088 -0.035765 0.075850 0.032292
3 0.170278 -0.011460 -0.263029 -0.017676 0.000699 0.094717 0.006530 0.189094 -0.187446 -0.045920 -0.217126 0.043972 -0.009235 -0.047905 0.126062 0.060444 -0.091673 -0.242785 0.080416 0.048674 0.237094 -0.076910 0.025689 -0.160441 -0.134253 -0.003718 -0.012263 0.008065 -0.193462 0.057377 -0.116968 -0.119148 -0.023722 -0.208218 -0.136347 -0.077563 0.123428 0.113815 -0.004671 -0.049755 0.007400 0.196538 0.084349 -0.105540 -0.183359 0.097245 -0.001360 -0.219593 -0.070454 -0.329220 -0.151246 0.108061 0.105943 -0.007477 -0.009083 -0.032117 0.346741 0.117657 -0.178823 -0.039800 -0.213865 0.169769 0.117429 -0.204778 0.020659 0.015322 -0.261572 0.020798 -0.006848 0.194278 -0.235604 0.041184 -0.008514 -0.284913 -0.005773 0.216856 0.072088 0.024118 0.169272 0.057799 -0.225842 0.274114 -0.140944 -0.172561 0.144355 -0.160140 0.090443 0.028863 -0.273235 0.010581 0.174795 -0.052636 0.149802 -0.025988 -0.013909 -0.046248 -0.119740 -0.049977 -0.069204 -0.087477 -0.218201 0.147691 0.173411 -0.116013 0.131615 0.051963 0.196106 -0.040552 -0.083762 0.146987 0.108213 0.024649 -0.027603 -0.079140 -0.142599 -0.011674 -0.139552 -0.022890 -0.014161 -0.124202 0.016330 -0.100132 0.053924 -0.053515 0.035180 0.013412 -0.014012 0.035523 -0.020223 -0.043172 0.034479 0.064644 0.024059 0.107652 -0.026002 0.065559 0.080910 0.064924 0.018720 0.004201 0.034692 0.070367 0.108221 -0.070738 0.136415 0.011164 -0.025497 0.024529 0.087765 0.053735 -0.014553 0.010817 0.003040 0.008650 -0.048143 0.133522 0.050077 -0.054593 0.044144 0.034211 0.066459 -0.047871 -0.053512 0.069902 -0.028815 -0.055401 0.017107 0.014040 -0.058028 0.053570 -0.056127 -0.001222 0.019105 0.123881 0.014090 0.021180 0.060817 0.014029 -0.123052 -0.029545 0.080568 0.103118 0.090585 -0.090575 -0.022468 0.034727 0.035201 0.101574 -0.047780 -0.008112 -0.016926 -0.048606 0.023267 -0.071768 0.118620 0.046579 0.009565 0.115128 -0.105657 -0.105343 0.029677 -0.086840 0.087251 -0.073381 0.012577 -0.019192 0.053412 -0.004051 0.011747 -0.035224 -0.060495 0.048430 -0.131952 -0.001672 -0.035007 -0.094152 0.041154 0.005861 0.043493 -0.052359 0.148944 -0.070640 0.088133 -0.143332 -0.006102 -0.059170 -0.075023 -0.192008 0.036597 -0.024605 0.124747 0.005057 -0.047534 0.059680 -0.025775 0.092100 0.043109 0.024766 -0.080362 -0.079228 -0.103997 -0.177527 -0.000381 -0.011199 -0.095680 -0.050578 0.148464 -0.140014 -0.035441 -0.003615 0.093000 -0.142607 0.052295 0.149338 0.210866 0.073530
216 -0.126480 -0.007816 -0.020928 -0.090245 0.050818 0.044046 -0.047185 -0.012854 -0.031789 0.150294 0.096749 0.129885 -0.089688 0.141296 -0.041043 -0.188821 0.100806 -0.274825 -0.195704 0.024837 -0.041865 0.200192 -0.038974 0.022715 -0.012761 -0.017565 0.308225 -0.035416 0.155178 0.026365 -0.111874 0.119399 -0.096006 -0.091185 0.085762 0.157941 0.230131 0.167481 -0.229750 -0.005227 0.114120 0.181004 0.045530 0.022715 0.113849 0.238596 0.335385 0.013623 0.154252 -0.027395 -0.087031 0.029582 0.005094 -0.034324 -0.202374 -0.230552 0.033569 0.054813 0.314916 -0.024206 -0.137968 -0.229190 -0.050006 -0.177177 -0.061440 0.184801 -0.071114 -0.045973 -0.121422 0.095404 0.310971 -0.049213 0.025250 -0.127129 -0.049835 0.053701 0.096385 0.053515 0.054455 0.086281 0.023095 -0.069342 0.221582 -0.063729 -0.127230 0.151577 0.231251 -0.182176 -0.116859 0.142502 0.135502 -0.079816 0.014746 0.120336 0.021587 0.007951 -0.013838 -0.128453 0.157814 -0.154148 0.043244 0.065834 0.139692 0.141122 -0.048752 -0.086740 0.108284 -0.108258 0.066824 0.092425 -0.090532 -0.061196 -0.017663 0.069622 0.069819 0.007633 0.036715 0.217138 -0.087988 -0.113689 0.208159 0.024716 0.289330 0.099779 -0.056038 -0.028845 -0.229367 -0.059100 -0.005214 -0.054987 0.036317 0.027512 0.079175 0.066881 -0.042400 0.053919 -0.037206 -0.022301 0.035384 0.082998 0.073548 -0.072776 0.046063 -0.039097 0.099690 -0.008442 0.000806 0.012156 0.016450 0.033112 -0.077701 0.041514 0.142284 -0.088585 -0.077106 -0.036262 -0.056082 -0.052649 0.065731 -0.121228 -0.020901 -0.040457 0.001036 0.048787 0.115625 -0.010101 0.036569 -0.015915 0.121203 0.057762 0.049050 0.035998 0.033774 0.062464 -0.100852 -0.174580 0.034082 -0.083578 -0.032365 0.050831 0.076378 -0.015350 -0.066334 0.094579 -0.058422 -0.099545 -0.001226 -0.062866 -0.005359 -0.028638 0.021271 0.083647 0.018820 0.005171 0.095050 -0.140880 0.007048 0.067986 -0.058327 0.155578 0.006626 -0.095069 0.073957 0.159449 -0.016162 0.029953 0.187242 -0.043671 0.028841 -0.055664 0.100495 0.056303 -0.103510 0.081088 -0.014054 0.103329 -0.072162 -0.043879 0.000850 -0.147183 0.109357 -0.021607 0.030161 0.056949 -0.037492 0.106606 -0.014691 0.010697 0.045415 -0.063705 0.099360 0.037393 0.072701 -0.008186 0.028903 0.100980 -0.010562 0.118395 0.115096 -0.042554 -0.019011 0.014284 0.075456 -0.005531 0.023520 -0.077649 0.082356 0.046834 0.076989 -0.030930 -0.043816 -0.140552 -0.053735 0.014586 -0.001257 0.035602
445 -0.051623 -0.100623 0.192145 -0.033712 -0.262216 -0.017736 0.013872 -0.243315 0.192198 0.155241 -0.287474 0.006994 0.147851 -0.072508 -0.032491 -0.146464 0.187698 -0.122591 -0.054189 0.139721 -0.000587 0.109655 -0.052879 -0.072347 0.334342 0.159248 0.130832 0.083431 -0.230867 -0.201795 -0.264844 0.077126 0.111100 0.223654 0.318044 -0.040240 0.183783 0.030755 0.180589 -0.054100 0.043498 -0.035333 0.205108 -0.038103 -0.044131 -0.033784 -0.035714 -0.121937 0.084948 -0.015388 -0.005487 0.144393 0.142981 0.164434 0.108013 -0.057892 0.010672 0.051040 0.078205 -0.150782 0.172676 -0.036650 0.009058 -0.118293 -0.047723 -0.168349 -0.077654 -0.127114 0.026346 -0.092706 -0.093273 0.120565 0.079081 0.172244 0.125599 -0.028061 0.041704 0.097891 0.196352 -0.239192 0.118735 -0.103592 -0.118591 0.041005 -0.058656 -0.018577 0.122657 0.071801 -0.118259 0.055582 0.021612 -0.116866 0.144569 0.211861 0.060872 0.032735 0.043546 -0.256971 0.164691 -0.046056 0.160785 0.028186 0.161723 -0.005557 -0.016554 -0.032366 0.103713 -0.044909 0.153890 0.081374 0.018801 0.020186 0.039162 -0.140927 0.143648 0.153192 -0.142570 0.145432 -0.005040 -0.387670 0.162072 -0.035006 -0.078741 0.046632 0.062713 -0.143397 0.174013 0.105611 -0.132271 0.060682 0.010389 -0.146225 -0.029862 0.010614 -0.018481 0.033751 0.040481 0.000030 -0.084185 -0.043081 0.041243 -0.062469 -0.004395 -0.074537 0.107468 -0.076919 -0.166120 -0.031474 0.035200 0.090385 0.045597 -0.090689 -0.052705 -0.047224 0.022451 -0.112965 -0.042182 0.059332 0.065115 -0.037540 0.038430 -0.040520 0.051318 -0.033469 0.077976 -0.103161 -0.114840 -0.081519 -0.069742 0.124706 0.114078 -0.020483 -0.097780 0.050854 0.085735 -0.059812 0.090030 -0.043321 0.056296 0.048786 -0.079883 -0.002380 0.039321 0.059224 -0.034003 0.073128 0.111158 0.051399 0.072689 -0.135420 -0.153652 0.014538 -0.031821 -0.067675 0.058859 0.069148 -0.005177 0.035482 0.007486 -0.006984 0.041023 0.058544 -0.039082 0.186091 0.029445 -0.145353 0.157270 -0.025907 -0.154031 0.139766 0.084807 -0.059234 0.055056 -0.028196 0.041034 -0.014921 0.063477 0.010715 0.047903 -0.166476 0.019954 -0.015611 -0.001962 -0.068017 -0.022383 0.036258 0.062492 0.020510 -0.011215 -0.121868 -0.008527 0.053308 0.048536 0.053205 -0.129334 0.015624 -0.126692 -0.017256 -0.006661 -0.008669 0.009259 -0.114025 0.148731 0.109036 -0.034021 -0.060601 -0.028648 0.009154 -0.017085 0.016630 0.018006 0.020698 -0.041039 -0.070738 0.058325 0.054147
209 -0.121695 0.024729 0.156323 -0.241837 0.044914 0.004647 0.043962 0.200854 -0.102535 0.059275 0.166653 -0.135620 0.032398 -0.075999 -0.075920 -0.014545 0.171170 -0.147430 -0.263762 0.191613 -0.075753 -0.012770 -0.148234 -0.106616 0.156141 -0.159469 -0.114551 -0.192659 -0.071050 -0.028391 -0.035282 -0.246152 -0.001245 -0.032908 0.190975 0.072002 0.339568 -0.063797 -0.067447 -0.123758 -0.149536 -0.043650 0.180079 -0.111087 0.040499 -0.095823 0.115505 0.090177 -0.002930 -0.103228 0.106731 -0.090645 0.069340 0.159428 0.216043 -0.147366 -0.144316 -0.005666 0.024439 -0.046850 -0.143981 -0.026954 0.049000 -0.045207 -0.065024 0.112436 -0.093000 -0.122714 -0.015206 -0.116860 0.034348 -0.097829 -0.038975 -0.284192 -0.061847 0.124761 -0.011796 -0.222384 0.187621 -0.198776 -0.091190 0.031134 -0.151135 0.198205 0.054167 0.180390 0.133899 0.370170 -0.080150 0.071165 0.152183 0.055156 -0.033973 -0.083554 -0.066887 0.200107 -0.143479 -0.135034 0.183201 -0.081472 0.264187 -0.086286 0.136079 0.167242 0.001232 0.239568 -0.048547 -0.051520 -0.012022 0.159610 0.001472 -0.068100 -0.215739 -0.085057 0.162744 0.023379 0.033492 0.225926 0.046059 -0.235415 0.381356 0.006356 0.086710 -0.015587 0.088547 0.080481 0.127522 -0.220813 -0.132271 0.060682 0.010389 -0.146225 -0.029862 0.010614 -0.018481 0.033751 0.040481 0.000030 -0.084185 -0.043081 0.041243 -0.062469 -0.004395 -0.074537 0.107468 -0.076919 -0.166120 -0.031474 0.035200 0.090385 0.045597 -0.090689 -0.052705 -0.047224 0.022451 -0.112965 -0.042182 0.059332 0.065115 -0.037540 0.038430 -0.040520 0.051318 -0.033469 0.077976 -0.103161 -0.114840 -0.081519 -0.069742 0.124706 0.114078 -0.020483 -0.097780 0.050854 0.085735 -0.059812 0.090030 -0.043321 0.056296 0.048786 -0.079883 -0.002380 0.039321 0.059224 -0.034003 0.073128 0.111158 0.051399 0.072689 -0.135420 -0.153652 0.014538 -0.031821 -0.067675 0.058859 0.069148 -0.005177 0.035482 0.007486 -0.006984 0.041023 0.058544 -0.039082 0.186091 0.029445 -0.145353 0.157270 -0.025907 -0.154031 0.139766 0.084807 -0.059234 0.055056 -0.028196 0.041034 -0.014921 0.063477 0.010715 0.047903 -0.166476 0.019954 -0.015611 -0.001962 -0.068017 -0.022383 0.036258 0.062492 0.020510 -0.011215 -0.121868 -0.008527 0.053308 0.048536 0.053205 -0.129334 0.015624 -0.126692 -0.017256 -0.006661 -0.008669 0.009259 -0.114025 0.148731 0.109036 -0.034021 -0.060601 -0.028648 0.009154 -0.017085 0.016630 0.018006 0.020698 -0.041039 -0.070738 0.058325 0.054147
